solver_type L2R_L2LOSS_SVC_DUAL
nr_class 3
label 1 2 0
nr_feature 43454
bias -1
w
0.17163390537862375 -0.028354767483013694 -0.10584431123048875 
-0.060707273538357795 -0.030863407304881334 0.0076468880940463594 
0.13125292034730601 -0.043493925071360032 -0.15236310409811768 
0.13250417209577425 -0.14170491074270883 0.056576825004498628 
0.047130672629517839 0.13449066546314825 -0.12457205119877324 
0.17726219282416777 -0.0038294853288137884 -0.12285083003024719 
-0.06349731963397913 0.085326902820492198 -0.063475674193376672 
-0.099674461423682623 -0.096818361471736863 0.021748108132642503 
0.0015721863435230257 -0.098002030962887399 0.018607351999050979 
-0.11095607765061126 -0.091710681486746132 0.10000482792344066 
-0.18128198605108661 -0.12368036685306402 0.28711192177031075 
-0.047842296183376064 -0.11847491691073395 0.055457408083293643 
0.062200813083034018 -0.024155363300833874 -0.21220633759146115 
0.81757967657825292 -0.4190293815936787 -0.75084389539727803 
0.50513417211403411 -0.20028608143951349 -0.36924902798283138 
-0.11561353064527867 0.12064920334763125 0.020587755131229814 
-0.032255429819273346 0.074409583860024303 -0.096371353011805105 
-0.14653953007808715 0.021291986999760492 0.049044136958842535 
0.021152266520026296 0.1236884248878509 -0.10808781711865491 
0.011445109221349605 -0.092466633654852262 -0.018637649638553366 
0.064760004676948327 0.24682929697074196 -0.3578043590493738 
-0.036148429684138214 -0.043414759835735159 0.028468551072766919 
-0.29316588932849447 0.49041813439600523 -0.30156544950553904 
-0.3740834825255438 0.27854295727823353 0.093784720915044098 
-0.099090195575278137 -0.16014858390760123 0.051495143365052537 
0.11587810468761645 0.24684392496231408 -0.33736099851821161 
-0.57291596461737682 -0.0038493737010486667 0.29683214981216605 
0.30974306917155925 -0.25146008263689201 -0.19949689997520761 
-0.30068079401342701 0.55437229211896755 -0.23965915538619634 
0.040423537057595112 0.10768971282205256 -0.15289530655088177 
-0.03123229567784689 0.069128003910647329 -0.042391032754319082 
-0.21188632768941126 0.21385694420823106 -0.11168072568358178 
-0.14242131886916601 0 0 
0.037595751889550555 0.16713762606750054 -0.27194004698517071 
-0.09118040521817572 -0.080795152432838704 -0.01354570629144739 
-0.88026288096704342 1.1378317474954929 -0.53591080621249421 
-0.1518295158324599 -0.1952313380573463 0.18284522707910786 
-0.14242131886916601 0 0 
0.099390863828977785 0.37867189093363302 -0.67398383876069135 
0.71257378133384153 -0.45190547829795141 -0.45405631231933385 
-0.022038428452366032 -0.081673284094288201 0.016984525911823756 
-0.14242131886916601 0 0 
-0.021795964561290338 -0.19646473261875966 0.17772325005919792 
-0.21270561640687646 0.22948825471064177 -0.086193291839966935 
0.00058672919108194305 -0.14553613785668384 0.053735908955831954 
-0.13683953589427433 0.24808823729864543 -0.07510617584649254 
-0.10978920691973983 -0.16872637174132318 0.2253647350047108 
0.0084427889215215532 0.15302340602507591 -0.17282074844037687 
-0.11785061555395426 0.043242776991744739 0.032746153776778371 
-0.021795964561290338 0.15302340602507591 -0.11619401662065157 
-0.021795964561290338 0.15302340602507591 -0.11619401662065157 
0.076556037332505378 0.19606777881516402 -0.21171411859446893 
0.092893093363402124 -0.035137050809920682 -0.058530413761387845 
0.091985772174282693 -0.076952388097596358 -0.040351788889146582 
-0.20477525474485561 -0.30180048836307666 0.20592985985639434 
0.072860070011525432 -0.052821838706152473 0.0026909046703677145 
-0.016514353596405532 -0.034083195701500396 0.0095011609141689834 
-0.086763187349283066 0.099320103253669009 -0.049589664603754857 
-0.021795964561290338 0.15302340602507591 -0.11619401662065157 
-0.13806951054430355 -8.6736173798840355e-19 0.12477391527112586 
-0.056113641767704586 -0.1360388120457805 0.10168505337287571 
-0.05715361628164816 0 0.06344249022165202 
-0.25433319619715511 -0.046938292409532061 0.15276736625268317 
-0.05715361628164816 0 0.06344249022165202 
-0.05715361628164816 0 0.06344249022165202 
-0.05715361628164816 0 0.06344249022165202 
-0.051653584011041226 -0.10010114469871095 0.0020119102091262497 
-0.05715361628164816 0 0.06344249022165202 
-0.05715361628164816 0 0.06344249022165202 
-0.070452465861264094 -0.35018764659676105 0.12099245657248307 
-0.05715361628164816 0 0.06344249022165202 
-0.031340105194698598 0.23662356524487249 -0.18962756175666837 
-0.24951164600431039 0.11302778858091266 0.23373184925422191 
-0.046601728466875159 -0.26140784225581132 0.098012238410820893 
-0.0042695775606654759 -0.065521044942718029 0.063046982806746629 
0.48077295878667015 -0.16285598042494892 -0.33499135252604462 
0.17861831805678791 -0.11023674518728588 -0.047396279849645236 
-0.0019793761584653963 0.020651130455564326 -0.028633919302945163 
-0.257936941646635 -0.032968136154003333 0.14367513851377206 
-0.18385150750260099 -0.18714113347552408 0.19947083475328267 
-0.075968639741478841 -0.093556569666264966 0.054224140159981574 
0.091874107372876254 0.066946035004818202 -0.099864583084608133 
-0.10508090621729532 -0.14079926808594678 0.16118890664581775 
-0.35085639267317931 -0.30041605849714093 0.49233122193162748 
0.25668322842970825 -0.243212337052645 -0.13368804437715268 
-0.070170555599497253 -0.21492923674935108 0.12153720072354339 
-0.072706721436038943 0 0.026280461472170325 
-0.072706721436038943 0 0.026280461472170325 
0.34505916519082763 -0.12797051884349092 -0.17164617258378703 
0 0 0 
-0.0098867201023551642 -0.13509571798939868 -5.1700813906547879e-18 
-0.032735753497069281 0.23826914356750076 -0.15884158523561695 
0 0 0 
-0.10162560224731206 -0.0735236522536655 0.074729536528628751 
0.045249102855688103 -0.072765828298932883 -0.10816770421698624 
0 0 0 
1.0805172213125702 -0.47906608989105431 -0.7959941756959803 
0.13664013604648662 -0.0476282345513395 -0.11871471551596563 
0.10174685828064153 -0.10884951036719617 -0.10085498943448953 
0.076848791735128569 -0.063858809431020833 -0.11571844005071542 
0.38858192972034389 -0.21294820779754559 -0.25074397449166685 
-0.14730236292464099 0.082278353399622944 -0.027679139691568447 
0.0081287606958060799 -0.036927507489079955 0.0044312503501537561 
-0.056503519585304751 -0.0609051234036702 0.035502272326349296 
-0.30123541390899733 -0.1248938737111312 0.31245570059063349 
-0.43445126140696716 -0.39794422981940236 0.38477508897953738 
-0.13145758040243771 0.064777929514089672 -0.02879089169957464 
-0.12644164660981921 -0.058738586170065124 0.022771464610439537 
-0.27114563421005233 0.411222546353608 -0.19019545004938773 
0.2001326028239129 0.14170847931548677 -0.22767436947959208 
-0.061517950400510946 0.14159595611070919 -0.08608617233131037 
-0.083303958734989011 0.14159595611070919 0.05934413325753464 
-0.11660668324787271 0.2054171885116628 -0.055116849758134676 
-0.14609763674060028 -0.069210500632788233 0.11200578975722073 
-0.10035540604238147 0.095184777244259722 -0.023619412995741499 
-0.061517950400510946 0.14159595611070919 -0.08608617233131037 
-0.12256444165836247 -0.1089011796341105 0.15096459741306006 
-0.061517950400510946 0.14159595611070919 -0.08608617233131037 
-0.034837510761068523 -0.13958269025997583 0.097901436015240234 
0.24497430241209228 -0.19349924407926192 -0.1734493279990495 
-0.061517950400510946 0.14159595611070919 -0.08608617233131037 
0.087769816561856437 0.054451948936746833 -0.15859985434934551 
0.012453700577298211 0.24404611677095656 -0.31027077682099036 
-0.29067737401552529 -0.0444035462317399 0.3243177585721701 
0.33250540013385194 -0.26334058617166733 -0.078945596213742655 
0.25951999584294416 -0.14150894892537952 -0.23136195755735695 
-0.036337221916276613 -0.5831474393015017 0.44758016731697903 
-0.30631658666876399 0.17069789028033194 -0.073538737206245944 
0.17466876719975891 0.10563821904221972 -0.25488035327651082 
-0.14028035245412146 0.044971047955150709 0.19242238483572457 
0.0010176252092069567 -0.46520170401441013 0.10084186865693416 
-0.040182132199054886 -0.051020409173120507 0.014896195787790544 
-0.2304642831246598 -0.37845481477020859 0.39745129490376579 
-0.16066814616813233 0 0.3291393759778769 
0.09093158757052669 0.05271091990147328 -0.14964088508137743 
-0.11437662622690037 0.084564054991083965 0.018493467108838625 
-0.10624156937495836 0.025770208066783769 0.11414298132546048 
-0.059981460520545843 -0.13934445517406763 0.07026788070174883 
-0.074957903452341393 0.089631091727917986 -0.021237940037748218 
0.043189771716602335 -0.04815755420335277 0.022101992129172982 
-0.082008292449253437 0.24781422541862064 -0.13114481821865101 
-0.28078194702934617 0.60352077283730909 -0.46044062055383228 
0.5813578799255209 -0.15269850138241056 -0.49772161042913327 
-0.074957903452341393 0.089631091727917986 -0.021237940037748218 
0.016507978799914228 0.040706656201732416 -0.14875012673690235 
-0.33830817288589454 0.089631091727917986 0.22482064547934061 
-0.074957903452341393 0.089631091727917986 -0.021237940037748218 
-0.074957903452341393 0.089631091727917986 -0.021237940037748218 
-0.074957903452341393 0.089631091727917986 -0.021237940037748218 
-0.10159894775438433 -0.057162974112736381 0.15772980989138199 
-0.036409776268175813 -0.26711766312142299 0.26046450397026916 
-0.41617415526980073 -0.058101622096563735 0.53428958547153638 
-0.34555150092193671 -0.26832550651498932 0.7528629310398387 
0.15651155484321125 -0.10801265173775008 -0.18089499598175623 
-0.21629343253689659 -0.15520439812300732 0.20842351928678285 
0.47129742388048457 -0.045930798211806477 -0.43991438072504913 
-0.019838834208133083 0.28990902816170516 -0.53907061514554611 
-0.14254992708802139 -0.031607050607239187 0.16339150672384833 
0.062063858639288982 0.049807106126554659 -0.11215633293888609 
-0.25430113774351076 -0.056235847791659618 0.27834699232747917 
-0.086114681301170726 0.13866948004244289 -0.073417707708558377 
-0.036694186723712746 -0.073840747257085684 0.086804310860216408 
-0.036694186723712746 -0.073840747257085684 0.086804310860216408 
-0.036694186723712746 -0.073840747257085684 0.086804310860216408 
-0.11380193148322013 -0.01475910313788455 0.079146115984566681 
-0.036694186723712746 -0.073840747257085657 0.086804310860216366 
-0.16144002847287309 -0.088589885864684595 0.19074533169625829 
-0.16144002847287314 -0.073840747257085657 0.1696475132920334 
-0.036694186723712746 -0.073840747257085657 0.086804310860216408 
0.0039518784590946597 -0.018699898282209727 -0.050015785459508029 
-0.1051907775251406 0.29081234729391048 -0.17427804291779675 
0.16412062290777224 -0.22641476776653907 0.027090588997549861 
-0.10100585874884919 -0.18537442694437015 0.073321213501323326 
-0.036694186723712732 -0.073840747257085657 0.086804310860216408 
0 -0.073840747257085657 0.086804310860216394 
0 -0.073840747257085657 0.086804310860216394 
0.065124478194210134 0 -0.088816853578096655 
0.065124478194210134 0 -0.088816853578096655 
0.065124478194210134 0 -0.088816853578096655 
-0.37247890841489451 -0.10216954577886551 0.27533891157384316 
0.65680227260572688 -0.14073934919856934 -0.69462441318537071 
0.065124478194210134 0 -0.088816853578096655 
0.065124478194210134 0 -0.088816853578096655 
-0.018524841500136058 -0.01744823922022308 0.010728162404163412 
0.2988509198504733 -0.48386206061935955 -0.03709669172572036 
0.048690953536405623 0.040622106960784402 -0.11847838325919743 
-0.09884161076497705 -0.17124181611989431 0.13672646539393085 
0.065124478194210134 0 -0.088816853578096655 
0.0020463204144714805 -0.060431509927339887 -0.063724524578027769 
0.065124478194210134 0 -0.088816853578096655 
-0.077628378514692814 -0.25955768684207237 0.28365472320557061 
0.28921247619364876 -0.41644655506101991 -0.1746275515486736 
0.304523969848284 -0.345055012597837 -0.20094795799394183 
1.1487932305772808 -0.38372011130361072 -1.0787153546303052 
-0.49833943436874956 -0.17170149928199718 0.43285063156692427 
0 0 0 
0 0 0 
-0.13853742407257305 0.05787144871103736 0.05340129117375083 
1.1912230151782515 -0.78012702920887 -0.90248543691583238 
-0.00017993369176917901 -0.0052464322813834943 -0.088734844745241168 
0.056179551645691127 0.13024954440930953 -0.14094465033010251 
-0.035356856931489287 0 0.018561753199164671 
-0.017388371109590219 -0.10489394344217721 0.07718487528245685 
0.069674024659363537 0.10145254370621591 -0.083752896844575264 
-0.20084079493848725 -0.020939372184226208 0.13836931900642377 
-0.083055600463367213 0.026347986327533074 -0.19766743172858961 
0 0 0 
0 0 0 
0 0 0 
-0.074542018406585656 -0.27967358276991616 0.1760181078504886 
-0.34465540888026447 -0.18001746784028211 0.39051330166079656 
-0.043323940018791127 -0.15861117246741416 0.20649250186616855 
-0.24363488221877805 -0.16878625107347417 0.31720769775561874 
-0.0055994274352875895 0 4.3084011588789899e-19 
0.1081339807786572 0 -0.12214067861156538 
-0.4834131350680152 -0.050645519786853763 0.40920249255193364 
-0.074055835338021153 -0.22135425569366449 0.13343148772501068 
-0.1379667847181657 -0.071122315862994168 0.17376503207785557 
0 0 0 
0 0 0 
0.1782868941151689 0 -0.19975990534580587 
0.06150672392902843 -0.10492029630037696 -0.10052044245953455 
-0.082526602285728501 0.017439486040348232 0.21410970724516956 
0.032097707550981708 0.14674883855637941 -0.29577466249387907 
0.062839324255206969 1.7347234759768071e-18 -0.091835793340345293 
0.02154060102053823 -0.1998277815435977 0.19369978120017453 
0.35030475253282317 0.19019710930810108 -0.4672385836273481 
-0.091291797615867157 -0.13432311315236362 0.088170117718755131 
-0.016328701387183037 -0.0045466344455524638 0.02319084359590964 
-0.028188658378789633 -0.147291241139964 0.020500313404986825 
-0.30276847321052736 -0.014805207443741124 0.19250897812155013 
0.1782868941151689 0 -0.19975990534580587 
0.035381310238826187 0.045587255051264305 -0.10069939057557142 
1.1088192256018385 -0.48278104741379979 -0.99205172663421481 
-0.24049907979856605 -0.22291864078558046 0.59456804568138033 
-0.059702909871893493 -0.14849346196048194 0.13102648498831809 
-0.18019681537106894 0 0.10684266534099741 
-0.18019681537106894 0 0.10684266534099741 
-0.18019681537106894 0 0.10684266534099741 
0.020282681160213749 -0.049043903830166928 -0.021448211973713865 
-0.16261703235791608 -0.42623577955047187 0.34785800238261944 
-0.192322675317352 0.12801608416183918 0.11381274683730669 
-0.29029112933750645 -0.1326356267796277 0.36208567636296196 
0.02408083959251834 -0.23295521052342652 0.022183150029491755 
-0.21977417302097649 -0.0080788793045459256 0.21585510441675307 
0.1912978566627008 -0.26025412344740662 0.096964739018211163 
0.036462209491718744 0.10575852412045983 -0.094809896629419188 
0.41483198988813286 -0.21159885763295705 -0.26052787710770647 
0.23167326049072298 0.14855209951395981 -0.42521650157959551 
0.086596897106065857 0.0092504381689892095 -0.21296597808262654 
-0.22608230604534235 0.12862868009477657 0.081037123323942473 
-0.013522788254376366 -0.37040798871648056 0.16981712608945812 
-0.17166698462550317 -0.13102729921180753 0.25335319106668047 
-0.18019681537106894 0 0.10684266534099741 
-0.080915894262654831 0.08917698130996847 -0.061813874466644339 
0.0099548160557707058 -0.090762227232253523 0.18595973182123979 
-0.080915894262654831 0 0.061313023376225462 
-0.080915894262654831 0 0.061313023376225462 
0.029093981364728804 0.053177690066982308 -0.060004153108601889 
-0.080915894262654831 0 0.061313023376225462 
0.22759090150124611 -0.23466435761420307 -0.13444784350136638 
-0.025788031267476974 -0.099862275303883918 -0.10158767105696431 
-0.12668525652080559 -0.071184287264107013 0.059362837699875992 
-0.080915894262654831 -0.13152478986598157 0.097685972415084421 
-0.022188796086294392 -0.29588314630305101 0.082999775815398177 
-0.16692808352768951 0 0.10620486580361196 
-0.080915894262654831 0 0.061313023376225462 
0.12513297325836581 -0.3297047920769437 0.066608779267273752 
-0.080915894262654831 0 0.061313023376225462 
-0.080915894262654831 0 0.061313023376225462 
0.075404624217370514 -0.011256293099991642 -0.069890122910793814 
0.075404624217370514 -0.011256293099991642 -0.069890122910793814 
0.075404624217370514 -0.011256293099991642 -0.069890122910793814 
0.225961252078238 -0.014105587541232539 -0.3170509880779615 
0.19685584932022704 -0.021571308801174201 -0.1736267014384956 
0.21349976703323137 -0.14500992264997029 -0.031797113260918573 
0.075404624217370514 -0.011256293099991642 -0.069890122910793814 
0.015304801069968552 0.16500457735663637 -0.15415231496061868 
0.075404624217370514 -0.011256293099991642 -0.069890122910793814 
-0.20177296995745109 -0.17820968231573597 0.24407790931250767 
-0.032279811894838639 -0.037198987869913144 0.13081394254000431 
0.077808356707696161 -0.19186413044329481 -0.069890122910793814 
-0.23809381555060566 -0.033994626804842783 0.23249119225696932 
0.10225696759219076 -0.25751007728084596 0.09966837480836066 
0.39899978799917957 -0.2136517242373798 -0.17198038608022609 
0 -0.15087025061564052 0.073439481305460769 
0 -0.15087025061564052 0.073439481305460769 
0 -0.15087025061564052 0.073439481305460769 
0.069039951421667939 -0.24143917720689603 0.11764360535011105 
-0.090981119780710468 -0.15234928212658533 0.24747082520700717 
-0.26570003713692975 -0.10483985141894486 0.29797802805832896 
-0.17103502445594138 -0.1513423788404839 0.11340272751369884 
-0.057458591723445501 -0.15087025061564052 0.15860995397775998 
-0.0090942130090946385 -0.051082143207865728 -0.038794075742632328 
-0.031550600178785818 -0.15087025061564049 0.11052474086652909 
-0.24399298425977128 -0.12823018144994935 0.31875609253181847 
-0.085408012726933547 0.20156404843987138 -0.27937827240430824 
0 -0.15087025061564052 0.073439481305460769 
0.77017183274467427 -0.70052198198371607 -0.58973136235102752 
-0.29552346366528753 0.13615253239985348 0.18411987582421316 
-0.3374777035146147 -0.24379249558500013 0.46348798633004307 
0.42529594567460116 -0.026743608764501912 -0.42127041757760036 
-0.21357146625555579 -0.34749539664284679 0.24902044563293027 
0.053082362063938446 0.079310812461965793 -0.12417643142806344 
0.46144308861225836 -0.072161961058876761 -0.29658077458074 
0 0 0 
0 0 0 
0 0 0 
0 0 0 
0 0 0 
0 0 0 
0 0 0 
0 0 0 
-0.25305842221377262 -0.083417458678463119 0.32070923926016581 
-0.038613279963698226 -0.041708729339231559 0.0635738055305584 
-0.13102502819758818 0.0065493827479367658 0.089297784653855794 
-0.091044680190511873 -0.065894266571448951 0.059740205496451405 
-0.035738195090225119 -0.041708729339231559 -0.012721254331496346 
-0.038613279963698226 -0.041708729339231559 0.0635738055305584 
-0.056159490880816926 -0.041708729339231559 0.0635738055305584 
-0.038613279963698226 -0.041708729339231559 0.0635738055305584 
-0.038613279963698226 -0.041708729339231559 0.0635738055305584 
-0.01756469988511156 0.016319976160657314 -0.019528515316866054 
-0.038613279963698226 -0.041708729339231559 0.0635738055305584 
-0.038613279963698226 -0.041708729339231559 0.0635738055305584 
0.15879257213892384 0.078601286324593039 -0.16013912218394946 
0.18261019388949218 -0.32196937224198796 -0.25311702116787838 
0.049192180557758702 -0.20353174847765387 0.14594682035141301 
0.023994461036547669 0.0080094947310597377 -0.15024847083313683 
-0.038613279963698226 -0.041708729339231559 0.0635738055305584 
0.14734301373007816 -0.20601813432266655 -0.082271134915893551 
0.098153781243812424 -0.091373287072345363 -0.04694443740640248 
0.16580036131247838 0 -0.20087891829976923 
0.066280476130645916 -0.30309130263754819 0.037270465293064166 
0.29158133407319042 -0.44155880076895571 -0.22619983307875582 
0.22577484249038079 0.2440270627458678 -0.4399120620306316 
0.19706054837295645 0.24789287877387239 -0.51397817346593233 
-0.071510251088789389 0.0044027876333550403 0.084808998520377002 
-0.075270714162638586 -0.029567523785799053 0.18262483172625432 
-0.23095433802761287 0.0927863749731416 0.033623235523693423 
-0.22648708234222617 0.074487137443295048 0.1170631843276677 
0.027033131411103251 -0.081350776727771787 0.11927878292103672 
0.16580036131247838 0 -0.20087891829976923 
-0.065398677472087205 -0.22616966142029879 0.24344758066587097 
0.048415479852398552 -0.22616966142029879 0.21939926853754266 
-0.18400872729816639 -0.17232154161194685 0.47536205309646579 
-0.18475412082144829 0.59386333016828696 -0.28720932317993181 
0.30480369818587177 -0.055799628706560585 -0.26805549618760233 
-0.068223455789654885 -0.18442691391828564 0.18288591999933188 
0.092252815424366794 -0.0388254222124138 -0.1764199657643517 
-0.058407714387155391 -0.14362852173034571 0.1140096835249283 
-0.056739524703313345 0.21601027308894336 -0.12608572387986314 
-0.30035798337484432 0.074949535639008497 0.24061395838408428 
-0.056739524703313345 0.21601027308894336 -0.12608572387986314 
-0.056739524703313345 0.21601027308894336 -0.12608572387986314 
-0.056739524703313345 0.21601027308894336 -0.12608572387986314 
-0.081165782793645641 0.18904433187080108 -0.038714912826110039 
0.058426277569075563 -0.038836324482433529 -0.13924183320184988 
-0.18578397158725862 -0.020973194999753815 0.18061370404647828 
-0.056739524703313345 0.21601027308894336 -0.12608572387986314 
0.05709482768562131 0.30937211208008097 -0.30290359190246074 
0.08200670433321687 -0.062091236075783277 -0.058776580354740392 
0.12305609709228653 -0.13315856961903438 -0.058903516220419082 
-0.042297987734387317 0.13781214376282708 -0.14262843074012221 
0.14104966744664302 -0.11315762698225174 -0.034557019730116517 
-0.36078620876793754 -0.2610206687492479 0.30949311954897052 
0.021593067483005504 -0.059264854255853823 -0.056212400089133537 
-0.037067094062614742 0.26689902965483392 -0.20089318983512311 
-0.086702988033194789 -0.11845933067916677 0.10862693090582359 
-0.12514717833629985 -0.041258515951561756 0.085106995977429448 
0.25507071221804439 0.19280709806546456 -0.43090866327801741 
-0.057601936770498061 0.40686344805267649 -0.34357555779466664 
-0.12587241597666673 -0.074231800622129654 0.15443994920783474 
0.036915521827952665 0.0074235930519000685 0.045974949545105136 
-0.5209510149949298 0.17071823691815435 0.22796905210235813 
-0.037067094062614742 0.26689902965483392 -0.20089318983512311 
-0.037067094062614742 0.26689902965483392 -0.20089318983512311 
-0.037067094062614742 0.26689902965483392 -0.20089318983512311 
-0.51888946539086778 0.45106328320633821 -0.14894777496188308 
0.21939184318345401 -0.075483372651306099 -0.19292500457227488 
0.35728943873930563 0.23408339447671556 -0.40416765853233211 
-0.027649653331603276 0.12883377603131324 -0.096852471346468169 
0 0.042372821335486137 -0.051618287167225857 
-0.012699079301081767 0.34779481463372824 -0.26134165677402871 
0 0.042372821335486137 -0.051618287167225857 
-0.14850490766736951 0.072244715326229017 0.12330446209142952 
-0.18833989790230188 -0.042183626380283737 0.23403297401497014 
0.062007554860267759 -0.15781665069370204 0.054920265231908356 
-0.032595714259055081 0.14958706301503139 -0.11145986656048901 
-0.20608162497705881 -0.33595443562999633 0.37584055884304451 
-0.096530824646563623 0.033732544209790889 0.020126301606977415 
0 0.042372821335486137 -0.051618287167225857 
0.13014944123599381 -0.046762751053569009 -0.16995472681662896 
-0.24160336819826375 0.37522888090080103 -0.001683472269501201 
0.020022026206597925 0.15956901174166749 -0.12453115616897791 
-0.32151255879682761 0.042508148671758922 0.019389286589227683 
0.051353031412359529 -0.14578490026494464 0.032028398372282163 
-0.055171041607525825 0.0056466513386440745 0.0094720876875986348 
-0.11869207848451561 -0.034565803090848578 0.18996191159065323 
-0.098906825877339455 -0.14211503918220905 -0.0014011876890499802 
-0.11869207848451561 -0.16264500076765873 0.32126394970653671 
0.01220222159941408 -0.029585971069822695 -0.042055555053492823 
-0.11869207848451561 -0.034565803090848578 0.18996191159065323 
-0.40119854314283865 -0.048067893354037113 0.34256780584773761 
-0.24897197818737082 -0.21456452536456608 0.45381651247101035 
0.23749749659664188 -0.24151603543674582 -0.13969192056883206 
0.057201559202823396 -0.10920474865930556 0.030507376450442811 
-0.068867720016130757 -0.024759597273121343 0.053633008745677842 
-0.068867720016130757 -0.024759597273121343 0.053633008745677842 
0.055765406134120635 -0.14731607675520852 0.063027525910009999 
-0.068867720016130757 -0.024759597273121343 0.053633008745677842 
-0.068867720016130757 -0.024759597273121343 0.053633008745677842 
-0.068867720016130757 -0.024759597273121343 0.053633008745677842 
-0.068867720016130757 -0.024759597273121343 0.053633008745677842 
-0.059951293867488056 0.15752777590511052 -0.18723870181920582 
-0.068867720016130757 -0.024759597273121343 0.053633008745677842 
-0.16437939471690416 -0.23931475969149701 0.340245541885905 
-0.16144807594857566 0.55398494706378731 -0.39140856998428891 
-0.33554588427835103 -0.021704834399204426 0.32673004576161452 
0.20794422198452805 -0.27644499440054038 -0.043419129213714387 
-0.16437939471690416 -0.23931475969149701 0.340245541885905 
0.14136039161189823 -0.22683588633830754 0.029758592333305283 
0.15184927630395484 -0.1294889518414252 -0.092943686649102672 
-0.073894327319279571 0.47218392131891979 -0.057516896016324627 
0.063192731713116942 -0.02372348978646319 -0.1518272839751876 
-0.11954204384019888 -0.07733101060693616 0.073348641868923592 
-0.17402316112256133 0.15902892570211649 0.027749265408509596 
-0.16437939471690416 -0.23931475969149701 0.340245541885905 
0.31527138849197717 -0.13620871896920406 -0.16764951002557119 
0.035587816212189163 -0.020201282693501195 -0.075305386514460601 
0.15316566334688225 -0.11960544617281783 -0.081858484403534285 
0.19489988226238408 -0.09451645564457295 -0.077222300286147266 
0.030885449426336864 -0.22338952076387558 0.11229851931453845 
0.085639425060915181 -0.09451645564457295 0 
-0.2445025225605518 0.48682271642941094 -0.26597615922825707 
0.085639425060915181 -0.09451645564457295 0 
-0.041244394365788327 0.20325082012323184 -0.15261759823461379 
0.16684469685305725 -0.098734654527835253 0.010888737018437587 
0.085639425060915181 -0.09451645564457295 0 
-0.24032168252383293 -0.029449308329536232 -0.101070785298556 
0.20209916324432012 -0.19655610170662308 -0.17276782979874425 
0.085639425060915181 -0.09451645564457295 0 
0.058975486926455538 -0.0077196275412211206 -0.053726564934827005 
-0.06347772733548171 -0.088277268024479036 0.11489755960723101 
0.22009229678276007 -0.015439255082442241 -0.21609908961428309 
0.058975486926455538 -0.0077196275412211206 -0.053726564934827005 
0.23244087553934159 0.0072518270085655144 -0.13000262888533434 
0.058975486926455538 -0.0077196275412211206 -0.053726564934827005 
0.058975486926455538 -0.0077196275412211206 -0.053726564934827005 
0.03636191167214313 -0.09216094531523876 -0.0033264930906655318 
0.095931448472203126 -0.058474357612746407 -0.14279308127524934 
-0.23457952459847492 -0.087178246734565784 0.22631680298861376 
0.47559808196390418 -0.092562631453132288 -0.41823967217657204 
0.019500874695162596 -0.13766030148754008 0.10931238053208471 
0.057841987418341956 -0.054077140347837359 -0.0084580489291566658 
0.057841987418341956 -0.054077140347837359 -0.0084580489291566658 
0.057841987418341956 -0.054077140347837359 -0.0084580489291566658 
0.057841987418341956 -0.054077140347837359 -0.0084580489291566658 
0.70624530265964602 -0.14096974276056431 -0.56911210051128069 
-0.15818986375557664 -0.26516146576277116 0.19780653907929932 
0.2033631364230751 0.12291420420584359 -0.22008120516639379 
-0.093561495445287635 -0.054077140347837359 0.085659762924631594 
0.057841987418341956 -0.054077140347837359 -0.0084580489291566658 
-0.3860900704172478 -0.1503352906120467 0.37694490054412533 
-0.12027872033872428 -0.054077140347837359 0.25432122186116235 
0.64847526691814172 -0.59222809354866235 -0.50149388818739382 
0.21326067626056749 -0.012824709406874961 -0.28576231871176438 
0.057841987418341956 -0.054077140347837359 -0.0084580489291566658 
0.057841987418341956 -0.054077140347837359 -0.0084580489291566658 
-0.17935493077224349 -0.35670101980603192 0.38726077981892459 
-0.22663637625722333 -0.072450262608985544 0.25695891110729163 
0.039689281857242589 -0.022763781786457861 0.0023599714113839774 
0.14892365739889696 -0.23513576353975441 -0.026156272233496231 
0.19066549281162248 0.17830754025584675 -0.37615878005173653 
0.56907527409506453 0.07389668947900703 -0.71502994011137266 
1.0883127141829301 -0.43915024634028882 -0.91722164165036923 
-0.37165558598127174 0.29332063933265362 -0.10167789965141588 
0.099706886367181544 -0.041979596331167962 0 
0.047058145958229172 0 -0.087946963235923659 
0.047058145958229172 0 -0.087946963235923659 
1.0145563073996424 -0.52700068674909173 -0.64005981533763778 
0.044336652216248842 0.1089664611938948 -0.012906503009349453 
0.047058145958229172 0 -0.087946963235923659 
0.047058145958229172 0 -0.087946963235923659 
-0.092952710165690317 8.6736173798840355e-18 0.020731963683056433 
0.25168156303627587 -0.35374803107516151 -0.043887294836210976 
-0.0888137382001363 -0.029300143235224271 0.030883881748994473 
0.047058145958229172 0 -0.087946963235923659 
-0.13746044761780035 0.094256272468097702 0.045727342652268625 
0.048909105398401341 -0.19636628917979188 0.14080074299454701 
-0.35740800575900145 -0.11239979689206239 0.36802624400913064 
0.35606358709923125 -0.14934985399870587 -0.31269169744733777 
0.0046974192788014832 -0.074839344592888241 0.0032791021362774753 
0.073868037359483441 -0.023837033833307458 -0.12486391987303211 
-0.1149148394140537 -0.023837033833307458 0.10674941601643841 
-0.2756907660917568 -0.14131738466592503 0.28044248203988614 
-0.091419083011285748 -0.023837033833307458 0.081632889597587938 
0.09914412307181722 -0.21005560963708853 0.13651158672205699 
-0.025578782221825809 0.030583776315355068 -0.013202428968080937 
-0.1149148394140537 -0.023837033833307458 0.10674941601643841 
-0.0040244777429407465 -0.13988709329474236 0.067163421248638916 
-0.1149148394140537 -0.023837033833307458 0.10674941601643841 
-0.1149148394140537 -0.023837033833307458 0.10674941601643841 
-0.1149148394140537 -0.023837033833307458 0.10674941601643841 
0.38315016517478551 -0.088627790523365571 -0.3321646127695731 
-0.17013606157347605 -0.22897334957913035 0.32067107150640772 
0.20412167076340013 -0.088627790523365585 -0.14948414248811892 
-0.1283636806222542 -0.10023838821986603 0.12509844097703213 
0.20412167076340013 -0.088627790523365585 -0.14948414248811892 
-0.18088527130338611 -0.30613387515016788 0.17614598579257049 
0.20412167076340013 -0.088627790523365585 -0.14948414248811892 
0.20412167076340013 -0.088627790523365585 -0.14948414248811892 
-0.021110454860741208 0.2299174866152125 -0.27646443369719037 
0.20412167076340013 -0.088627790523365585 -0.14948414248811892 
0 0.018949005283187801 -0.17505606614677882 
0 0.018949005283187801 -0.17505606614677882 
0 0.018949005283187801 -0.17505606614677882 
-0.047411173616979829 0.17888405114919004 -0.13869404077522127 
0 0.018949005283187801 -0.17505606614677882 
-0.065212774789655092 0.44207472126703007 -0.48077373784200117 
0 0.018949005283187801 -0.17505606614677882 
0 0.018949005283187801 -0.17505606614677882 
0.22867228006117668 -0.20399542468997731 -0.060518176369178792 
0.17588503967678937 0.055440980031720349 -0.14011453649842737 
-0.040197845129432058 0.15332285454556763 -0.026187747026136604 
-0.59602157466729255 -0.068999601671449945 0.6812896459039729 
0 0.018949005283187801 -0.17505606614677882 
-0.15346371360825511 0.62503547902114465 -0.4041225687807134 
-0.25255947823597058 0.20863751075238401 0.049705417492349316 
-0.03825613362413037 0.40633923211985634 -0.53229739784616137 
-0.15346371360825511 0.62503547902114465 -0.4041225687807134 
-0.18794764094074773 -0.0020068608046995944 0.22952573266864679 
-0.47859083889615328 -0.32305197598443403 0.38931350597171649 
0.47575211260152672 -0.038059193884346455 -0.3667933050594514 
-0.15435118228748393 -0.19316118898389695 0.32375128813795911 
-0.12172496592824032 -0.11085018306098755 0.14390738804153483 
-0.038510630726138112 -0.17087643439636471 0.14168902897668215 
0.020547669870727252 0.098252368831274486 -0.11289662990024041 
0.47575211260152672 -0.038059193884346455 -0.3667933050594514 
-0.24854871931402428 -0.39523038995244558 0.30941767546580651 
0.33683955910945385 -0.023908112226296151 -0.25219891891460117 
0.038341187386456067 0.17075299524516924 -0.17305162031164856 
0.47575211260152672 -0.038059193884346455 -0.3667933050594514 
1.1681593695490589 -0.34147374832413258 -1.2002463099030252 
-0.087342912539764048 -0.20163478224638909 0.1347844917987828 
0.42870611017286331 -0.28095754062351996 -0.30255108725409308 
0 0 0 
0.34401459837819992 -0.015836515215355583 -0.35067327513465735 
0.090093681829960331 -0.093612726805063023 -0.045965922055796908 
-0.050031445512424555 -0.080262694490492309 0.082385190925562971 
0.1867736115695407 0.087933353502410785 -0.35541548483825602 
0.13239532789318312 0.041038290528164031 -0.24167690988770418 
-0.030685297483982934 -0.11489027340864205 0.12097557129532671 
-0.39451045115211258 0.54801634384025277 -0.22556061498920196 
-0.47326353721090536 0.48896354641948736 -0.18589400954312965 
-0.19152703683886219 -0.12537041293579892 0.11647217693020954 
-0.12787246059200066 0.20794969124994078 -0.21965383496260915 
-0.11074869914311521 -0.1915727194241203 0.19701525230085315 
-0.096835465113071839 -0.091216005862237312 0.13258940845354361 
-0.0064084896408818509 -0.098965389854597657 0.04172514092733761 
-0.081283155959240017 -0.018836346725361837 0.059754498420281507 
-0.081283155959240017 -0.018836346725361837 0.059754498420281507 
-0.096835465113071839 -0.091216005862237312 0.13258940845354361 
-0.081283155959240017 -0.018836346725361837 0.059754498420281507 
-0.081283155959240017 -0.046677664549808692 0.12234927477789988 
-0.1058974173064447 -0.034512009253351794 0.08530686945288446 
-0.081283155959240017 -0.018836346725361837 0.059754498420281507 
-0.081283155959240017 -0.018836346725361837 0.059754498420281507 
0.15632477561156075 -0.070258969334441784 -0.11797000521785382 
-0.081283155959240017 -0.018836346725361837 0.059754498420281507 
-0.1968814398096207 0.15668519913633652 -0.091302851204637034 
-0.015831678811325595 -0.084085146025379642 0.16119415591194211 
0.24274729140849871 -0.22764927166103621 -0.070595313272884944 
0.12342356501239891 -0.13715130906850115 -0.068064804592689904 
-0.015831678811325595 -0.084085146025379642 0.16119415591194211 
-0.29967177392213734 0.0096706398611682599 0.20478711663981766 
-0.3630436274039901 0.079828250423198674 0.20626896749753096 
0.22988751097427318 0.30005201347381327 -0.56047807526482163 
0.14833777154368022 -0.07902842656979589 0.0011495207060733463 
-0.19731356293660321 -0.17960407148977423 0.28956087682558446 
0.019902561427238438 0.055735627578172714 -0.025160585785386741 
-0.015831678811325595 -0.084085146025379642 0.16119415591194211 
-0.04810417993890409 -0.23216022924609017 0.10564507401807509 
-0.015831678811325595 -0.084085146025379642 0.16119415591194211 
-0.015831678811325595 -0.084085146025379642 0.16119415591194211 
-0.23984181974689692 0.12868306284000849 0 
-0.096535622678044497 -0.087376507622896726 0.14209028607695917 
0.15174591792671913 0.30794510563921462 -0.58414782400587961 
-0.078217941583126283 -0.15760325501462172 0.1264236763352897 
0.44886626889608 3.5177056079451798e-05 -0.41495719612852378 
-0.23984181974689692 0.12868306284000849 0 
-0.23984181974689692 0.12868306284000849 0 
-0.23984181974689692 0.12868306284000849 0 
-0.031230430695937467 -0.036974874698353928 0.11972769609196762 
-0.23984181974689692 0.12868306284000849 0 
-0.16783574669776907 -0.17945971403498384 0.2575535170131612 
-0.03810894047330713 -0.058278808026397268 0.043285079187026211 
0.12864120928511119 -0.24023280041964673 -0.18410553617361361 
-0.24801212937106715 0.04627370486146367 0.10909998875245626 
0.19241010268479047 0.1088028342389753 -0.28617237231067594 
0.16997009938569468 -0.13148796959638953 -0.15505251088855501 
0.002421853753368767 -0.33319673140392325 0.075679218205274248 
-0.13425516519755959 0 0.16974906689352443 
-0.13425516519755959 0 0.16974906689352443 
-0.13425516519755959 0 0.16974906689352443 
-0.040179231198280284 -0.075428603223636953 0.060129192854180322 
-0.13425516519755959 0 0.16974906689352443 
-0.13425516519755959 0 0.16974906689352443 
0.034766986434321537 0.032818342334618313 -0.10994002402356551 
-0.094103283470804044 -0.062599977289850423 0.17074869285567229 
-0.13425516519755959 0 0.16974906689352443 
-0.13425516519755959 0 0.16974906689352443 
0.20660381001754557 -0.37428082524170536 -0.16691702418229765 
-0.064220251027601871 -2.6020852139652106e-18 0.019143172032692161 
0.15638734513760028 -0.32760586775949513 0.036001100340172322 
-0.21524040524216537 -0.055957918328446252 0.065679988465844927 
0 0 0 
0.026153490566644517 -0.020454729016414517 0 
0.026153490566644517 -0.020454729016414517 0 
0.059131913368827865 -0.2074418403463805 -0.0065949502216054263 
0.026153490566644517 -0.020454729016414517 0 
1.0534099176203939 -0.3878056604409939 -0.99931919052191498 
-0.49032521232610315 0.515977214707381 -0.12028021566506822 
0.3599050685387406 -0.13797986867103404 -0.22292152236490945 
0.026153490566644517 -0.020454729016414517 0 
-0.05984732226901128 -0.026541522560954729 0.079170875438838315 
0.58730953316922951 -0.34032279486180378 -0.47812292978919507 
0.22985742271446952 -0.11002503327875227 -0.084402888819602007 
0.051404006974374639 0.082136783317882142 -0.17630732869713173 
0.04087476235523433 -0.19852240378360014 0.0091438586437492322 
0.10075642299473822 -0.086947482442082433 0 
0.10075642299473822 -0.086947482442082433 0 
0.19219096263170721 -0.0020159402010500472 -0.18063022454264208 
-0.030699579433137031 0.18506674049493338 -0.10776146071899294 
-0.12949826380984131 -0.13724965640214318 0.20219062893651407 
0.35107716866116628 -0.14048554228040661 -0.26764658461470264 
0.10075642299473822 -0.086947482442082433 0 
0.10075642299473822 -0.086947482442082433 0 
0.10075642299473822 -0.086947482442082433 0 
0.15198327232979908 -0.060240180555326907 -0.16311487780317857 
0.15198327232979908 -0.060240180555326907 -0.16311487780317857 
0.091748318012589133 -0.1126338278882205 0.011617239462599589 
-0.090052641293449559 0.038961272085137874 0.0417398993961835 
0.15198327232979908 -0.060240180555326907 -0.16311487780317857 
0.0654924847613121 0.11124857627042109 -0.25765104890068541 
0.15198327232979908 -0.060240180555326907 -0.16311487780317857 
0.15198327232979908 -0.060240180555326907 -0.16311487780317857 
0 -0.013930921696047165 0 
-0.03263105639284429 0.083478006459436135 -0.074989938796030553 
0 -0.013930921696047165 0 
0 0.31137973846366973 -0.47268504781781984 
-0.082040070493337169 -0.013930921696047165 0.095834133085291956 
0 -0.013930921696047165 0 
0 -0.013930921696047165 0 
0 -0.013930921696047165 0 
0.016515672416404219 -0.066607793448728608 -0.05120448490492624 
-0.21663769825786672 -0.12151341665373824 0.23929664624668118 
0 -0.013930921696047165 0 
0.21162971219352356 -0.25118140436032915 -0.15519629166556975 
0.91918328787635861 -0.20744216813887351 -0.84683337927752289 
-0.037867597522643834 -0.023128978724793504 0.036128310280520493 
-0.19782251518537738 0.18417744655717411 -0.022450000783913852 
-0.23184173707370781 0.13348774549486042 0.076258921092243998 
-0.075124202552115993 0.18417744655717408 -0.041713881612843277 
-0.19782251518537738 0.18417744655717411 -0.022450000783913852 
0.2132291961731318 -0.21145603927186601 -0.088240607888817366 
-0.19782251518537738 0.18417744655717411 -0.022450000783913852 
0.076788773102124577 0.25933384327373454 -0.36086986334179866 
0.46098509648608776 -0.06018481642133898 -0.5079554495686186 
-0.364707589290936 0.1397813178874904 0.17693293601703328 
-0.22246640436397314 -0.019286932252766429 0.18910043946814969 
0.12536857309568336 0.18417744655717411 -0.38285700890510144 
0.084334096370557637 -0.044158803940650623 -0.21799219230994515 
-0.19782251518537738 0.18417744655717411 -0.022450000783913852 
-0.095478114808068074 -0.029886923565553475 0.083404056875320765 
0.00064839770069733782 -0.12241279513201823 0.11377621937938677 
-0.072262446208724351 -0.093509902624875824 0.21690545042909706 
-0.14037043939720134 0.13528398790913668 -0.0018344039972179294 
-0.095478114808068074 -0.029886923565553475 0.083404056875320765 
-0.28678746620579398 -0.14747436816877132 0.33175938831782675 
-0.095478114808068087 -0.17871341522333101 0.21807642909267835 
-0.11152290416857177 -0.060502398983077806 -0.048631291884589395 
0.19852959468901565 0.10386217101522539 -0.33638813623384667 
-0.095478114808068074 -0.029886923565553475 0.083404056875320765 
0.10731642917999348 -0.069273616371398797 -0.028558435535392661 
0.12740111228849876 -0.15656320563612061 -0.090606349800910591 
-0.095478114808068074 -0.029886923565553475 0.083404056875320765 
-0.13765781588491088 -0.029886923565553475 0.12783892019286755 
-0.023487345462476765 -0.089650410139779299 0.013209543241208392 
-0.018661897298955437 0.056128450760107376 -0.077362315377512869 
-0.095478114808068074 -0.029886923565553475 0.083404056875320765 
-0.020072714883154742 0 0.070601815663727557 
-0.032503173049739979 0.096342280778185171 -0.1809768478468422 
-0.12828874670663684 -0.28784326354711165 0.26315570947117634 
-0.1633146588040954 -0.23988704205021744 0.12527708682222152 
-0.020072714883154742 0 0.070601815663727557 
0.45643393624410367 -0.1445922271780779 -0.3984796522201311 
-0.098721860818065679 0.090486770296736768 0.016902882992807119 
-0.78267045885916753 -0.10452284371125693 0.80139202585287572 
0.28709087255136767 -0.11261317463291436 -0.19065565694129383 
-0.050366643145484301 0.31163242156853971 -0.15601847605335301 
0.1636402043676311 -0.22493524693785427 0.049561257762447491 
-0.090661111207550979 -0.022422453358222721 0.10243037795644355 
-0.18132222241510196 -0.044844906716445442 0.22452154903477342 
-0.036962102270075979 0 0 
-0.036962102270075979 0 0 
-0.1088770386498817 0 0.0023483733187095509 
-0.036962102270075979 0 0 
-0.0027279878619755372 -0.0078851437395724144 -0.10619323247827528 
-0.090661111207550979 -0.022422453358222721 0.10243037795644355 
0.19447804443072819 -0.45440245748558511 0.086671586406896997 
-0.097016172888445384 -0.11930049737497143 0.098142923313289818 
0.1275841375303628 -0.047341963387506771 -0.0067769579823109931 
-0.036962102270075979 0 0 
-0.036962102270075979 0 0 
0.080174245603488625 -0.040795346363652549 -0.062560192067289508 
0.080174245603488625 -0.040795346363652549 -0.062560192067289508 
0.57003271169185021 -0.31343533128488438 -0.53055840324981263 
0.080174245603488625 -0.040795346363652549 -0.062560192067289508 
0.0029037450512368604 -0.088048589224409501 -0.013337331167166663 
0.080174245603488625 -0.040795346363652549 -0.062560192067289508 
-0.20244281083692284 -0.21939487718677012 0.25268656045652926 
-0.052593687119589727 0.079236019329546534 0.025472380878016815 
0.096619540263453679 -0.027977974407355409 0 
0.11591344591653274 -0.12820907647317917 -0.054429198021977654 
-0.082065383900780331 0.46215318053222387 -0.40781231151648728 
0.096619540263453679 -0.027977974407355409 0 
-0.06742644328049055 -0.049895204604780807 -0.10871856943389517 
0.096619540263453665 -0.027977974407355409 -0.017319085856246662 
0.0082984698484798725 -0.20005246021829637 0.15873967909305972 
0.20674606211707397 -0.36339533242105732 -0.010835855604550379 
0.096619540263453679 -0.027977974407355409 0 
-0.056363864199297994 0.10493749439435493 -0.068968266251971874 
0.096619540263453679 -0.027977974407355409 0 
-0.048126372484589452 0.19338189919351662 -0.18931447559012132 
1.0709276985357794 -0.74417586853743156 -0.77223819009056272 
0.15423103834609073 -0.019837727473813755 -0.11089795354866586 
0.096619540263453679 -0.027977974407355409 0 
0.16570060981463677 0 -0.22662590480037059 
0.16570060981463677 0 -0.22662590480037059 
-0.16109743842479618 -0.15113701016903458 0.18758456668293885 
0.071166811701441554 -0.062785246301393927 -0.11672959304769745 
0.24829583444631406 -0.051561164816353922 -0.14093156742590646 
-0.13886871437367837 -0.01115291751614195 0.14950577258186909 
0.16570060981463677 0 -0.22662590480037059 
0.10823220798206611 -0.070947986242423086 -0.070060652070105506 
-0.10846716283552235 -0.1564337200325534 0.16458400407853505 
0.014559142780788743 -0.28467240739667166 0.12566132838300978 
0.43998560067987497 -0.25988808969109689 -0.33067936520497992 
0.16570060981463677 0 -0.22662590480037059 
-0.27096329179189688 0 0.26567869411725076 
0.091600518056084379 0 -0.16034634774944331 
-0.27096329179189688 0 0.26567869411725076 
-0.063805977162822561 -0.033754185412405095 0.045053751525249965 
-0.014541483393380687 -0.27524412413950106 0.33307847491920634 
0.014318927839883137 -0.048780082720924385 -0.0087807246967981385 
0.13442659183626549 -0.12216928017894267 -0.08933668897673662 
-0.27096329179189688 0 0.26567869411725076 
-0.45452065451253099 -0.064635106787736901 0.53677640759646128 
-0.10254612657479624 -0.097082532365960095 0.25709885902743068 
0.17863674821712094 -0.11607934536735308 -0.13987666262504128 
-0.34937852185732071 7.8062556418956319e-18 0.36784185114779611 
0.18583701052491672 0.18865368025736245 -0.45665159232903257 
-0.20993102576465189 -0.21306317859737028 0.37791540128189982 
-0.1686737294113782 -0.0033438876033108915 0.2648929423487964 
0.046061142234689489 0.17203679761396334 -0.11978919132465096 
-0.31987436323263668 0 0.35613940438237524 
-0.1642807607786777 0.091268861891240199 -0.11267993195440193 
-0.059257684956429468 -0.13678818705806761 0.093346909809652434 
-0.19917323182377977 -0.039348837232241848 0.19329977932691364 
-0.1271571633919383 -0.021349560735252168 0.087715872198613098 
-0.20422658474850419 -0.11542970835278242 0.20804788100893501 
-0.20422658474850422 0 0.20804788100893501 
0.15058119836283368 -0.45202983860932389 0.22737753809670042 
0.61146022321893523 -0.46577738856154977 -0.33235848241341648 
-0.11502396903260186 -0.026850612743716005 0.13406620634268887 
0.045367959158796642 0.13181971843283793 -0.26621404413581323 
-0.20422658474850422 0 0.20804788100893501 
0 0.20394277493078738 -0.24712007129832306 
-0.13467961476266355 0.094093664390390741 -0.032521920879959629 
-0.52361469709851072 0.42953140136489593 0.042659410186726497 
-0.064035690515555993 -0.18031353222594462 0.35506695657631754 
-0.1927009265499019 0.099154798286095192 -0.028699262459190845 
0 0.20394277493078738 -0.24712007129832306 
0.12974261573945728 0.077403546087877043 -0.15096934221705818 
-0.11374403435785319 -0.0095289929410547185 0.04007551819226738 
-0.035930729370827606 0.17790989957851119 -0.13448740070675441 
0 0.20394277493078738 -0.24712007129832306 
0 0.20394277493078738 -0.24712007129832306 
0 0.20394277493078738 -0.24712007129832306 
0.10750309546593749 0.17051786265732405 -0.25010539546311539 
0.1285563547357291 -0.010344348317293403 -0.27891855604796351 
0.12406403688350336 -0.33876733812384374 -0.0031295918808789125 
0.24605903436694601 -0.11337056272913761 -0.19776655220605496 
3.6964141845255194e-05 -0.11337056272913761 0 
3.6964141845255194e-05 -0.11337056272913761 0 
3.6964141845255194e-05 -0.11337056272913761 0 
3.6964141845255194e-05 -0.11337056272913761 0 
-0.17758522114763675 -0.075122399058437594 0.12223709806773279 
0.29428132212169272 -0.27205810023035643 -0.026515287742934098 
0.072792717579730604 -0.1783923370561207 0.12471272503991333 
0.14402459329358475 0.24416198306762354 -0.49339163538160552 
0.11651962760276574 -0.19273322922232627 -0.022090979572577579 
-0.16763220727684489 -0.12967441182425843 0.23057138419860762 
0.011022705518103953 0 0 
0.022045411036207906 0 0 
0.05776770373480225 -0.077788672573272252 -0.11831463760927932 
-0.17038059810780232 0.16278375721826333 -0.025862357286298713 
-0.040931166503171523 0.056841337480188936 0.040762462702703131 
0.27536958892275071 -0.079443977291871734 -0.11545038625855379 
0.011022705518103953 0 -1.723360463551596e-18 
0.41784007181871818 -0.22981615426147706 -0.16608769872893339 
-0.14421783881595718 0.43043313522882354 -0.32158147315463748 
-0.028862772622095589 -0.12426453298997761 0.034547951508242268 
0.33274603487287718 0.047483106303587805 -0.36524904136490155 
0.34578263109735702 0 -0.26988615493107054 
-0.14974326969925805 -0.20379326219123126 0.20622366378504972 
-0.017726864610217358 -0.17268180109201911 0.10447922239482912 
0.34578263109735702 0 -0.26988615493107054 
-0.29570508582955812 0.12159220453577958 0.21511376274153357 
-0.093246366826870958 0 0.11939973612305026 
-0.011429786676772616 -0.17017576187048589 0.040100825084849148 
0.43571910057866936 -0.047447683363984652 -0.28658752156888534 
-0.093246366826870958 0 0.11939973612305026 
-0.30734489982937341 -0.12706739273846038 0.48099305308963425 
-0.093246366826870958 0 0.11939973612305026 
-0.38891262727063025 0.019846058105812296 0.28619124570102933 
-0.28033282094426953 0.120943974760681 0.20084448227886312 
-0.093246366826870958 0 0.11939973612305026 
0.1691565805960219 -0.095217352235456992 -0.10030195343766186 
-0.093246366826870958 0 0.11939973612305026 
-0.011218267694049676 0 0 
-0.01121826769404966 0.27484451661738607 -0.086427063311317331 
0.12867611401742421 -0.061127360681208859 -0.090792984717577199 
0.029465951029980456 0.062497183650291513 -0.14245789094088535 
0.0086211866640934758 0.56962625545932832 -0.58388050387955093 
0.31004087938387181 -0.030238725726090026 -0.22863830839704058 
-0.13150802062316816 -0.22175202050937173 0.13537141575232861 
-0.12736400955867991 -0.32147155752536594 0.15274996626205428 
-0.1411951857563146 -0.01145050842059861 0.063059088216998543 
-0.095221524446646166 0.13883586475172321 -0.076799822876910118 
-0.17070866280156252 -0.086083739632381792 0.1253754586172007 
-0.25681703809188877 -0.05169192851099904 0.18669255527527703 
0.60299648292557029 -0.14020179941298774 -0.46488585588297549 
-0.19778686126145115 -0.048497136398802938 0.15977508361112047 
0.014527146029314529 -0.052887610740933476 0.054693430198041758 
0.020703596534403734 -0.25859836807434522 0.18600820632964191 
0.57283908294619168 -0.29930090511612734 -0.31230886371445404 
-0.057308585232182199 0.12481903171032896 0.039124116330050251 
-0.12414255057522433 -0.11334346468964507 0.14672421279488446 
0 0 0 
-0.049369794169095087 0.078576404011702919 -0.078215138956952548 
-0.14755110042667782 0.06516884474657432 0.04869317164694572 
-0.037567714615802189 -0.076546497848047887 0.083021937340790095 
-0.21330142269597396 -0.07935475037670206 0.30729826657825488 
-0.083951426040360155 -0.076546497848047887 0.17134317797753065 
-0.10956499801884029 -0.28328853848016577 0.26257571794349621 
-0.083951426040360155 -0.076546497848047887 0.17134317797753065 
-0.083951426040360155 -0.076546497848047887 0.17134317797753065 
-0.3770297691408061 0.82531154862215617 -0.53144149114012185 
0.65630932289531496 -0.50386420097708406 -0.28944794163630178 
-0.083951426040360155 -0.076546497848047887 0.17134317797753065 
-0.083951426040360155 -0.076546497848047887 0.17134317797753065 
-0.083951426040360155 -0.076546497848047887 0.17134317797753065 
-0.0042552199420665925 -0.076755432154120895 0.091694937955747513 
0.027964163922157205 0 -0.012332180509669399 
0.027964163922157205 0 -0.012332180509669399 
0.15756252466790893 -0.10764298481800147 -0.32501378706958711 
0.062250289606479547 0.17421983150124012 -0.20156608526942082 
0.027964163922157205 0 -0.012332180509669399 
-0.055126976916240432 -0.13255611485785501 0.057839622591457029 
-0.015951870364032172 -0.096782243662413336 0.07414198208195559 
0.027964163922157205 0 -0.012332180509669399 
0.027964163922157205 0 -0.012332180509669399 
0.027964163922157205 0 -0.012332180509669399 
0.027964163922157205 0 -0.012332180509669399 
-0.16900809778106346 -8.6736173798840355e-18 0.21164377276200197 
0.027964163922157205 0 -0.012332180509669399 
-0.12159705823288132 0 0 
-0.26824509437865651 0 0.081309117780662132 
-0.12159705823288132 0 0 
-0.12159705823288132 0 0 
-0.12159705823288132 0 0 
-0.12159705823288132 0 0 
-0.033192645593184605 0.60588228337981465 -0.4925972349746589 
0.058478952585023128 0 -0.12833259056412696 
-0.13674503514762254 -0.032928796671872727 0.2032530966648472 
0.070754956572767258 0.064428547924999469 -0.22071165368227702 
-0.24169274188463191 0.024857540312572715 0.33110563924979453 
-0.032595674006485498 0.14595710818189314 -0.1773822688414331 
-0.2277343696230951 -0.50526973938306829 0.42760572243304484 
-0.15096820807675998 -0.032928796671872727 0.29208653702942949 
-0.13765134885549249 0.47694123073853301 -0.46658185853362322 
0.41282633977404193 -0.16597234424588758 -0.25136529705828087 
-0.027743466216977365 -0.0053954301938222218 0.1467681104150993 
-0.020346016396530539 -0.30476056163952747 0.14654684314497504 
-0.30761622196806354 0.061354496406575441 0.17427375326855873 
0.50900266087556578 -0.42190644426657459 -0.1165308007313087 
-0.15096820807675998 -0.032928796671872727 0.29208653702942949 
-0.15096820807675998 -0.032928796671872727 0.29208653702942949 
0.057354123976036828 -0.0041433684427820807 -0.055320075333222918 
-0.23308738254902533 -0.1126216451392074 0.2199354593229238 
-0.034716889049066932 0.07886941201217873 -0.00030584969315368069 
-0.088886152566501161 0.34940821096122876 -0.12757968840273307 
0.094671455437677743 -0.1009657461522564 -0.055320075333222918 
0.089869122723588629 -0.083689145073543664 -0.13334873206714101 
-0.043481383754482031 -0.038994981587154032 0.091579101646285771 
-0.32085757005321858 -0.13203030340586261 0.37821237967496973 
0.41345142501574644 0.051461941209129787 -0.36871705858362991 
1.2629155340856597 -0.24779230075262051 -1.2611729142647452 
0.070785822156949202 -0.14437309205204044 0.26320188959931318 
-0.16067533897022457 0 0.083264087579168769 
0.064369444239865681 -0.24659053073164056 0.023421920906238416 
-0.30597936277016191 -0.00057379933692814429 0.23442433612899741 
-0.21479047865880263 -0.11162239780867636 0.29772779161253471 
0.19261021017263641 0.042818978802532742 -0.33139984080761442 
-0.147603869512347 -0.25466880950392179 0.11740005450569398 
0.033274826262185045 -0.49453841849934094 0.47285389665541255 
0.10775981474978542 0.071431462088686851 -0.31284586037924322 
0.47636072908066934 -0.15384447621549868 -0.40535712878869523 
0.23303160257495187 -0.080514105813536005 -0.18998327408214044 
0.078076579038312208 0 -0.1607255048703421 
-0.044291545945546684 0.19850843973601315 -0.17998917709079726 
-0.19622031716666474 -0.19677834733006794 0.32205644527845112 
0.21119637808774486 -0.058669442639098672 -0.21338482010982637 
0.23497180676792959 0 -0.31284586037924322 
-0.13884699420751948 -0.19147127481968071 0.36170300139503248 
0.17511064397855955 0.17850759963687368 -0.38681941674642917 
-0.095257147745152954 0.10403823004214882 0.03124151835813983 
-0.3506415268755671 0.092956403051097494 0.080212094401262424 
-0.14384535044557278 -0.26614365787269201 0.16907419410012406 
-0.1870545129277732 0.22952606019952126 0.083766616506710842 
-0.15131784708076237 -0.19147127481968071 0.36170300139503248 
0.019386470841372773 -0.19147127481968071 0.24878945527038535 
-0.17689259255022782 -0.32088566203767011 0.23419493845178799 
-0.082040070493337169 0 0.095834133085291956 
-0.082040070493337169 0 0.095834133085291956 
-0.082040070493337169 0 0.095834133085291956 
0.092793704994194814 -0.23036870593608519 -0.13279743481080869 
-0.015473270958461231 -0.077915570785179855 -0.0080521100426488076 
-0.069837818579538774 -0.075884276750763563 0.11238813803494634 
0.091261079785753554 0.07656684023889529 -0.13238540243115929 
-0.082536556474779699 0.11927017525793675 -0.0072994811535919326 
-0.090034163887955779 0.21675861582435479 -0.011662995416392784 
-0.17241975941220478 -0.034008021993419291 0.1389632031595964 
-0.082040070493337169 0 0.095834133085291956 
-0.043650614758811546 0.11491041258213752 -0.11439777561829019 
-0.082040070493337169 0 0.095834133085291956 
-0.082040070493337169 0 0.095834133085291956 
0.08432589760985186 -0.096518951223671975 0 
0.11824532380278319 -0.28820995833745289 0.1846636769688203 
-0.12092649388628843 0.46607062227991863 -0.37106009900241821 
-0.27517379837761125 0.076972507170828014 0.31191920897185138 
0.22339523002454229 -0.049279267379023439 -0.25384386064465325 
0.08432589760985186 -0.096518951223671975 0 
0.08432589760985186 -0.096518951223671975 0 
0.08432589760985186 -0.096518951223671975 0 
0.08432589760985186 -0.096518951223671975 0 
-0.13328033161709713 0.1382975197656052 -0.040304786586726517 
0.97569184129306175 -0.30022626715012346 -1.0123199968774934 
0.18395624379033793 0.02570586628903045 -0.24023520683772445 
0.08432589760985186 -0.096518951223671975 0 
0.08432589760985186 -0.096518951223671975 0 
-0.084887950880471019 -0.12116909439293883 0.061863732993717467 
0 0 0.11845613792420129 
-0.18705039667905088 0.11535478418568415 0.069578540891305093 
-0.24804881858591066 0.12109725478237811 0.10385798834051987 
-0.23545930550252459 -0.034198293626506553 0.16879149828398121 
-0.096706937517861635 0 -0.00089448026621153395 
-0.20053100288040837 -0.24947790498016814 0.25806473622145898 
-0.084761298425692813 0.45528072914105078 -0.34520181531249816 
0.20066498723312384 0.081269763139881268 -0.17281272720062646 
-0.061822124663361323 -0.23341152350877054 0.15478806564750605 
-0.15058261087097455 -0.19076240752666668 0.27086646278140603 
-0.16762060034931495 0 0.13097821231143392 
0.25609643370414314 0.11852831372600216 -0.3618038231259238 
0.37069584394540622 -0.1458376315277507 -0.20260167753009981 
0.066719560164360245 -0.074479896902050854 -0.1418864619210283 
0.16046882651511596 0 -0.13309274483908809 
0.16046882651511596 0 -0.13309274483908809 
0.076835795918677174 -0.1210154062580369 -0.082469774890784858 
0.16046882651511596 0 -0.13309274483908809 
0.16046882651511596 0 -0.13309274483908809 
0.099069718871390711 -0.44830280615299123 0.047554490116657563 
0.16046882651511596 0 -0.13309274483908809 
0.063433274148771313 -0.10970029359482185 -0.0179737746564834 
0.087790307518577332 -0.042881567590670064 -0.084534964992140957 
-0.13315254624913736 -0.1144195145800507 0.3275168904097302 
-0.08625071863693777 -0.070120557629306662 0.010800707305643654 
-0.0034945305259051216 -0.19380559504156356 0.099810017883435548 
0.041943779592011364 -0.041463859854278508 -0.18998428702572431 
-0.076676443228682112 -0.060856630994860189 0.16265680893129203 
-0.1154233060816751 0.18213870962325951 -0.051801061726542752 
-0.10813606993869529 0 0.0950076735656602 
-0.10813606993869529 0 0.0950076735656602 
-0.10813606993869529 0 0.0950076735656602 
0.57886185902143761 -0.058535152013161965 -0.5216328008214165 
-0.14435238973084191 -0.12437835347477999 0.067991983446858237 
0.13732774309151036 -0.034485047479634663 -0.11776961359262356 
-0.067750236347336415 -0.23651933223123495 0.21736368971391182 
0.23135984347016159 0 -0.14537659974466993 
0.23135984347016159 0 -0.14537659974466993 
-0.081879826722626517 0.061694038845062291 0.0048042429511484944 
0.23135984347016159 0 -0.14537659974466993 
-0.069819722796010231 -0.10829461001788236 0.14254462685461275 
-0.090023739153580987 0.015444097396602621 -0.029562378546761081 
-0.069819722796010231 -0.10829461001788236 0.14254462685461275 
-0.16239256470615415 -0.1406236952442016 0.22830772174393957 
-0.15857226967041535 0.19281854348537661 -5.4038513536220018e-05 
-0.069819722796010231 -0.10829461001788236 0.14254462685461275 
-0.069819722796010231 -0.10829461001788236 0.14254462685461275 
0.31989201379590415 0.012672099963330942 -0.19265852962759125 
-0.069819722796010231 -0.10829461001788236 0.14254462685461275 
-0.069819722796010231 -0.10829461001788236 0.14254462685461275 
-0.096209155743300051 -0.093946501760539619 0.027041372281029104 
0.0058908777153913044 -0.10829461001788236 0.099771851705752937 
0.11935438622396728 -0.11111525007431557 -0.035847662801471017 
-0.069819722796010231 -0.10829461001788236 0.14254462685461275 
0.058184566128503513 -0.53785703734514423 0.39165870462015784 
0.49677978539719059 0.017158904431734172 -0.41901831310779802 
0.12147574541311858 -0.12867271070781006 -0.12855815437502879 
0.057612606776839895 -0.0033372831233543544 -0.018356898475297208 
0.027090157812006285 -0.10622030801523194 0.09238986732071941 
0.057612606776839895 -0.0033372831233543544 -0.018356898475297208 
-0.28070431936871809 0.64663788432716007 -0.16739987461173994 
0.057612606776839895 -0.0033372831233543544 -0.018356898475297208 
0.057612606776839895 -0.0033372831233543544 -0.018356898475297208 
0.057612606776839895 -0.0033372831233543544 -0.018356898475297208 
-0.08536357821373633 0 0 
-0.092702353924169381 -0.17029890953752913 0.2936165662833175 
-0.18273434056363541 -0.11077061776116599 0.18567339757290424 
-0.55060276171392286 -0.28891528681015805 0.69955206458464081 
-0.23987159962894522 -0.21281926752034291 0.37691736601383435 
-0.017833242162697854 -1.7347234759768071e-18 -0.10589721309305768 
-0.08536357821373633 0 0 
0.34985021933938176 -0.25682435592978681 -0.15169618700919796 
-0.11645424403149239 0.21288090042510993 -0.12544179765337851 
-0.08536357821373633 0 0 
-0.17745287657976697 0.15691575893633877 0.046486235724369551 
-0.25166496544876993 0.16093886186478862 0.044655673151235774 
0.13352059484172152 -0.055103947800614651 -0.025501799589089436 
0.16526665239284383 -0.25065984982234868 0.065403985795153094 
-0.28717189841929125 0.092789750755801009 -0.040299452109106237 
-0.080372286616055139 -0.13453313098638503 0.32342950467712239 
0.29836241976802347 -0.38657755394851046 -0.032157774538068506 
0.13352059484172152 -0.055103947800614651 -0.025501799589089436 
-0.094274710938003561 -0.015275045702466431 0.1121885354264273 
-0.094274710938003561 -0.015275045702466431 0.1121885354264273 
-0.09609302551837616 -0.21482115805561808 0.25405925704962556 
-0.19068679198161995 0.27337612452293508 -0.13808442529118697 
-0.094274710938003561 -0.015275045702466431 0.1121885354264273 
-0.026744374886965086 -0.015275045702466431 0.0062819247274045788 
0.086413192196840155 -0.19675156227029023 0.12463477509401351 
-0.094274710938003561 -0.015275045702466431 0.1121885354264273 
-0.094274710938003561 -0.015275045702466431 0.1121885354264273 
0.10838748846883761 -0.026322848405717202 -0.065289210036493447 
-0.17185504703696167 -0.067888653945426369 0.19763024038470328 
-0.094274710938003561 -0.015275045702466431 0.1121885354264273 
0.27476376731289831 0.083234398523558684 -0.27611104233692813 
-0.094274710938003561 -0.015275045702466431 0.1121885354264273 
-0.13836997919064703 -0.27565977076601605 0.12384404095026934 
0.08437722176249017 -0.015275045702466431 -0.14929205684641977 
0 0 -0.073000433593130007 
0.074403143810412672 -0.45923159266854657 0.27149431772727989 
0 0 -0.073000433593130007 
0 0 -0.073000433593130007 
-0.046036850915321816 0 0.023967661823355104 
-0.44913738938997566 -0.26760931538290444 0.54671366163651869 
0.31716827550598592 -0.0055599313191833635 -0.39320703551992919 
0.056597961453160178 -0.20390490010996265 0.062833635048535397 
-0.17195589759030694 -0.29803338077830127 0.1734290193678745 
0 0 -0.073000433593130007 
0.60571643609360681 -0.2373522325852892 -0.6380266884683824 
-0.10184666207292492 -0.28898700394962101 0.19008270299427382 
0 0 0 
0.4831143252806368 0.12623363796688988 -0.52116111735160331 
0.39640191738377129 -0.086840890016124203 -0.35537605794853483 
0.49415097447498846 -0.19600220653708195 -0.33906085229735694 
0.1787040904453796 -0.072465606326939769 -0.063696589928696437 
-0.26143647013839377 0.38814830374336201 -0.11401866120779006 
0 0 0 
-0.052009749711133306 0.023111583416319772 -0.01488649398833141 
0.13534859100695606 -0.04599055826078071 -0.04521898205541159 
-0.15057067664988497 0.41792881565554274 -0.16170284835615722 
0.077015754886533963 0.014482691471979239 0.078548398299773128 
0 0 0 
-0.61650649814553926 0.49198124672144006 -0.15808504192668191 
-0.02130735382187594 -0.21415321114293476 0.060001359075198303 
-0.19209178371886218 0.23697532401017307 -0.050587046781610377 
-0.19209178371886218 0.30135844969856068 -0.13408399459503068 
0.045440428808067049 0.024809402815494146 -0.10388474854462348 
0.045300052163034482 -0.062280463568159632 -0.072097038868090241 
-0.10234489333623539 0.22917837121217688 -0.1340839945950307 
-0.10364781589425195 0.32665666206593763 -0.17134763787553062 
-0.056016855862564913 -0.1141694268000331 0.17705543691887643 
-0.13367484020889908 -0.0073617179292163951 0.11621641352148558 
-0.056016855862564913 -0.1141694268000331 0.17705543691887643 
-0.17124628272570305 0.037053187513774385 0.17705543691887643 
-0.20360841330200635 -0.21732222880225255 0.21952416851338247 
0.018324420752693787 0.10919632573104671 -0.15670121862563574 
-0.15780416832686955 0.11393514269114301 0.14736153530405613 
0.084327015835258534 -0.083802897457606079 -0.035023404734111356 
0.1158236221400538 -0.32158120562008974 0.012570779409158369 
-0.056016855862564913 -0.1141694268000331 0.17705543691887643 
-0.056016855862564913 -0.1141694268000331 0.17705543691887643 
-0.0096767380396498882 0.0077010740688536784 -0.10797357691476754 
-0.044543280742282559 0 0.072138158294506913 
-0.045116606407968128 -0.11682562092837205 0.027712379073971886 
-0.044543280742282559 0 0.072138158294506913 
-0.14630579948382341 -0.38794766549497361 0.507778157015633 
-0.044543280742282559 0 0.072138158294506913 
-0.044543280742282559 0 0.072138158294506913 
-0.043677839400723562 0.015424428094560558 0.020134524468841605 
-0.044543280742282559 0 0.072138158294506913 
0 0 0 
-0.018303617366104051 -0.090537953689255379 0.059424708664480089 
-0.120029925805872 -0.15820963337347743 0.32793616518832075 
-0.19804909982419341 -0.066791954252033506 0.17888382327042468 
-0.036087445559655436 -0.34236101833476784 0.22706639126789277 
0.10449642857058675 0.14193822992024543 -0.30635230347295483 
0.19468819639568244 -0.13992872456589647 -0.011861112743818901 
-0.093331203491263073 -6.5052130349130266e-19 0.031980340710905115 
-0.073074047884308435 3.4694469519536142e-18 0.11305450390501225 
0.11932250053669831 0 -0.21934511137434975 
0.22287860266737719 0.0034930519303450324 -0.24372933776554115 
0.19579688765003539 -0.0080020481183074449 -0.21416353060701895 
0.11932250053669831 0 -0.21934511137434975 
0.10856649101920959 -0.053803086964958516 -0.20916628002476764 
0.11932250053669831 0 -0.21934511137434975 
0 0 -0.10401173057122866 
-0.68457847259891214 0.74721312553631947 -0.41924270614956499 
0 0 -0.10401173057122866 
-0.44561329136776689 0.72740078028043853 -0.48613581353803881 
-0.051770469328177748 0 0.033856159133792599 
-0.3484180225698833 0.74922544491407439 -0.52944977930213721 
0 0 -0.10401173057122866 
-0.21435306976532673 -0.13541113272227823 0.22526764678630909 
-0.21435306976532673 -0.13541113272227823 0.22526764678630909 
-0.31302096662413864 -0.24152492476162915 0.65064040119460176 
-0.31879305435755995 -0.2415249247616291 0.56338656989760416 
-0.25057985210262906 -0.24152492476162912 0.40200925812755761 
-0.05158267551501302 -0.44900662483963938 0.35421158409539166 
-0.25057985210262906 -0.24152492476162915 0.52983402887261422 
-0.091172388458623466 -0.053266102275590657 0.098096183214725657 
-0.091172388458623466 -0.053266102275590657 0.098096183214725657 
-0.063089256112065284 -0.053266102275590657 0.065154051770896823 
-0.063089256112065284 -0.053266102275590657 0.065154051770896823 
0.066594856893977192 0.14586611183271164 -0.10023866941478243 
-0.16392476384258448 -0.088117715419962467 0.21204651981429656 
-0.063089256112065284 -0.053266102275590657 0.065154051770896823 
0.072544511182903684 -0.053266102275590657 -0.077205961789739805 
-0.063089256112065298 -0.063114114329192256 0.065154051770896837 
-0.085272700805584953 0.10454818204779401 0.074947923650378973 
-0.063089256112065284 -0.053266102275590657 0.065154051770896823 
-0.063089256112065284 -0.053266102275590657 0.065154051770896823 
-0.063089256112065284 -0.053266102275590657 0.065154051770896823 
-0.063089256112065284 -0.053266102275590657 0.065154051770896823 
-0.063089256112065284 -0.053266102275590657 0.065154051770896823 
-0.063089256112065284 -0.053266102275590657 0.065154051770896823 
-0.2984254011076003 -0.210263022234952 0.46545872529560234 
-0.13057394459073346 0 0.091679543871644134 
0.41499995634907283 -0.33578148860804929 -0.14867951557324979 
0.16440282304816078 -0.13389044648597614 -0.015761799719916415 
-0.13057394459073346 0 0.091679543871644134 
-0.12113236377974228 -0.19636374718984834 0.10754767969910438 
-0.19282390910627592 0.38116328673403099 -0.1734121671057002 
-0.031922866859365386 -0.25094578156975805 0.22900010955938285 
-0.22992171722258833 -0.33465217781083123 0.26113770047585044 
-0.13057394459073346 0 0.091679543871644134 
-0.13057394459073346 0 0.091679543871644134 
0 0 0 
-0.34923080325541855 -0.10820779051481974 0.41749741316753602 
0 0 0 
0 0 0 
-0.1309981240394027 -0.069669634197630004 0.1716359788723929 
0 0 0 
-0.22147764485380728 0.17363745255879692 0.052395395250167495 
0.17840512060240915 -0.17782131626917741 0.009247243109606602 
0 0 0 
0.040692807085755164 0.26650487178197718 -0.33108338258176179 
0.55713873262590907 -0.19162842262073085 -0.51004279177329181 
-0.0059283289404065435 -0.079815024291957679 0.013845120662835945 
0 0 0 
0 0 0 
0.19847343524068978 -0.059846802913338298 -0.23740074141207188 
-0.036988250735136299 0.076149167281812744 -0.040665498578839138 
0.45002031850685864 -0.049250369116908617 -0.47382588584498614 
0.18036743887919332 -0.13152959821571053 -0.074113839304670012 
-0.01565988326250017 0.034748511672880608 0.0083092143540901345 
0.45002031850685864 -0.049250369116908617 -0.47382588584498614 
-0.20124491577802589 -0.25727678830232265 0.40772251347648952 
-0.20944819959023123 -0.29225870383726038 0.4645488663084732 
-0.063561221457138842 0.15270037092334499 -0.13156589612537559 
-0.43147138577854977 -0.00045454223947632988 0.46789735265079485 
0.19790635556862302 -0.16738730885799563 -0.23608688992632842 
-0.05355868855398653 0.11867802283050347 -0.068439194821709889 
-0.0018611607685354546 0.19663107092660964 -0.22396545009263874 
-0.05355868855398653 0.11867802283050347 -0.068439194821709889 
-0.05355868855398653 0.11867802283050347 -0.068439194821709889 
0.0066823144546765412 0.061325499096287192 -0.078958774656470693 
-0.05355868855398653 0.11867802283050347 -0.068439194821709889 
-0.05355868855398653 0.11867802283050347 -0.068439194821709889 
-0.05355868855398653 0.11867802283050347 -0.068439194821709889 
-0.05355868855398653 0.11867802283050347 -0.068439194821709889 
-0.05355868855398653 0.11867802283050347 -0.068439194821709889 
-0.18401329915287012 0.023750969789624772 0.10364228835369288 
-0.15639419707040769 -0.14414401902713131 0.13230431083484909 
-0.05355868855398653 0.11867802283050347 -0.068439194821709889 
-0.05355868855398653 0.11867802283050347 -0.068439194821709889 
-0.24991906891078217 0.0036191413932237862 0.15317683024346562 
-0.05355868855398653 0.11867802283050347 -0.068439194821709889 
-0.15061522920152598 -0.3066357186469163 0.2826024011938657 
0.0085953702903038103 -0.039837045886258304 -0.0065681289241857274 
0.33052676005557841 0.035474453229501803 -0.39448434257073417 
6.2009870497896011e-05 -0.049716836094109318 -0.061985190059535705 
0.22968812543460132 -2.6020852139652106e-18 -0.24576964104566582 
0.019444804546597361 0 -0.041642470098284458 
0.21761447790265756 -0.072920013553219032 -0.36645655059116206 
-0.23265813908033423 -0.26221848611202281 0.51619198502558161 
0.059932707207239838 -0.18827084896368154 -0.017964148462651382 
0.019444804546597361 0 -0.041642470098284458 
0.019444804546597361 0 -0.041642470098284458 
-0.26191812136143749 0 0.30197321408321326 
-0.13795049475415211 0 0.19920662159388242 
-0.52871664448058664 0.0072941565519103885 0.40198046968924345 
-0.13795049475415211 0 0.19920662159388242 
0.1102403135254825 -0.23570493115944724 0.058714312001353658 
-0.15885898763214154 -0.054220802704082915 0.20096419452059788 
0.23317899633786934 -4.3368086899420177e-19 -0.19662392642478271 
0.21070261682021113 -0.10685757624858828 -0.18022634841125498 
-0.063248338964532552 -0.28915012250958627 0.25502277850617777 
0.069895606167994478 -0.033584360641607698 0.027538950535924811 
-0.031683798585540428 0 0.056123247875781219 
-0.33124524970432834 -0.12260199483288033 0.40264886681759493 
0.30662196465783792 -0.063503248735849713 -0.2742063731656767 
-0.031683798585540428 0 0.056123247875781219 
-0.017206071746993075 0.13073467260894353 -0.11427053337856871 
-0.031683798585540428 0 0.056123247875781219 
-0.031683798585540428 0 0.056123247875781219 
-0.38013301469529293 -0.031907857087208842 0.4328016976323899 
-0.014541612889173331 -0.023290977676964014 0.011352735230237906 
-0.048946832591586241 0.051495469947504355 -0.016418537829097087 
-0.39522356657166707 -0.2103152119205989 0.41974850763440053 
-0.14256630183832297 0.22981433926129677 -0.04708983929324409 
0 0 0 
-0.21552006492177023 -0.081601824497590916 0.25948751127732267 
0.1762676623651977 0.068385261969829997 -0.31061970603044026 
-0.18300223662434714 -0.69643852260333938 0.74286313285445671 
0.0084106243456979844 -0.22713866920849601 0.17190705532014555 
0.056172058495504884 -0.10885078709945802 0.071784582245816173 
0.44572898437637298 -0.047584961164811888 -0.30806669976803791 
-0.20786207308532306 0.44781938580576264 -0.29317892308324062 
0.15255400959379645 -0.05515323548564962 -0.080959194225425662 
0.073059491492595177 -0.50974841041990926 0.17890967955397771 
0.087725968179064015 0.054226792993675096 -0.2091174382613542 
0.44572898437637298 -0.047584961164811888 -0.30806669976803791 
0.44572898437637298 -0.047584961164811888 -0.30806669976803791 
-0.068242321309045353 0 0.1620415917551806 
-0.13067843515665015 0.025283578074341416 0.086207379790069136 
0.041509583433652533 0.039291326185640359 -0.14990243018951882 
0.054812210065998269 -0.081904961998806661 0.013499703968011346 
-0.27444331205147826 -0.031546970061438605 0.23549640269766439 
0.14647876362183976 2.0816681711721685e-17 0.0092015829626461623 
-0.068242321309045353 0 0.1620415917551806 
-0.12796511163523311 -0.050594302647468316 0.24704979892909076 
0.47132087267012951 -0.46952959166698988 -0.27496557672110961 
-0.14478221017067991 0.025766999671641339 0.05082334291892928 
-0.068242321309045353 -0.25251689547255607 0.43690664797679113 
-0.068242321309045353 0 0.1620415917551806 
-0.077864393801644144 -0.17080796117655361 0.13630469838760842 
-0.67823075083272677 0.83518013150002823 -0.46047867543598414 
-0.033531544883331224 0.31495822400087237 -0.17127524156605345 
-0.16340858179834622 0.065357198267090078 0.044826626654243057 
-0.14554463972506121 0.4666129902088515 -0.39281254652589914 
0.19771627729088453 -0.15648384392279327 -0.10303025965647926 
0.23563740847031109 0 -0.20614812529904772 
-0.075420062537121468 -0.25188501968888627 0.19192231431732101 
0.046952626589216284 -0.19500399515909647 0.030668645431813007 
0.23563740847031109 0 -0.20614812529904772 
-0.021461185968377677 -0.047699331280648676 0.028215024773652241 
0.10329163757652929 -0.037272301269612784 -0.12388778191595548 
0.23563740847031109 0 -0.20614812529904772 
-0.081915186865034947 -0.14760107704792713 0.024754764681218185 
0.36632621862329567 0.058266450703274894 -0.41490490633476951 
0.23563740847031109 0 -0.20614812529904772 
0.33848692918448947 -0.12156918397698259 -0.24705532024003599 
-0.19874021329285355 0.31785977242594521 -0.15937251342745684 
0.19006452667913848 0.17486959333942242 -0.32393344971815519 
-0.28386531354322742 0.36680531413870715 -0.12643930289210115 
-0.28386531354322742 0.080443519114609979 0.10450492082338686 
-0.28386531354322742 0.36680531413870715 -0.12643930289210115 
-0.11129790386676872 -0.071669980335685723 0.16678537436498084 
0.032579380902782028 0.057167114308448501 -0.055407502596627821 
-0.1112979038667687 -0.10709675315670948 0.17135324928620765 
-0.1112979038667687 -0.38532523695840981 0.38282558635155611 
-0.1112979038667687 -0.056920841728086688 0.14569808064861736 
0.16868836270767279 -0.20890789224612516 -0.056866256750423665 
-0.12327768302660262 -0.092476284402325526 0.15573315051522915 
-0.23196575108576151 0.15962062188148202 0.11693963299059512 
0.0065136751334163717 -0.089489355696888429 0.10911092464191095 
0.33763087073273124 -0.23688912959062391 -0.077579824229988423 
-0.1112979038667687 -0.056920841728086688 0.14569808064861736 
-0.04716824836344026 0 0.024859767191836225 
-0.018299808387019396 1.7347234759768071e-18 0.024859767191836225 
-0.04716824836344026 0 0.024859767191836225 
-0.10927403933874819 -0.020528145337982084 0.14803935238733648 
-0.04716824836344026 0 0.024859767191836225 
-0.04716824836344026 0 0.024859767191836225 
-0.04716824836344026 0 0.024859767191836225 
-0.04716824836344026 0 0.024859767191836225 
-0.04716824836344026 0 0.024859767191836225 
-0.04716824836344026 0 0.024859767191836225 
-0.04716824836344026 0 0.024859767191836225 
-0.24313635231944092 0 0.22453746059012206 
-0.24313635231944092 0 0.22453746059012206 
-0.24313635231944092 0 0.22453746059012206 
-0.3107014225628868 -0.20645319365488579 0.60964488356507873 
-0.36811202790146624 -0.14786541050918736 0.41358196373279549 
-0.29756299986092727 0.16142837810260935 0.065873249610413021 
-0.28868814103064144 -0.0105170149552578 0.31983936136474517 
-0.24313635231944092 0 0.22453746059012206 
-0.02038025922886785 -0.02945890470968994 0.036310514153563941 
-0.15318915845170997 -0.050826140925842346 0.13620116598828641 
-0.31928236046744252 -0.045412543182882951 0.30645159981554648 
0.12772272292440265 -0.014729452354844959 -0.2058896140444042 
-0.010190129614433925 -0.01472945235484497 0.01814668799598378 
-0.035370422851222522 -0.18913182946016849 0.069787674063020042 
-0.27323846217921205 0.30578012456897757 -0.12287845513104008 
-0.010190129614433925 -0.01472945235484497 0.01814668799598378 
-0.010190129614433925 -0.01472945235484497 0.01814668799598378 
-0.17962156251083272 -0.40861845567374705 0.46545798927824517 
-0.010190129614433925 -0.01472945235484497 0.01814668799598378 
-0.010190129614433925 -0.01472945235484497 0.01814668799598378 
0.016308706839281577 0 -0.052745140585203069 
0.016308706839281577 0 -0.052745140585203069 
0.016308706839281577 0 -0.052745140585203069 
-0.099467293110076571 -0.093107997080302152 0.22792538153974659 
0.016308706839281577 0 -0.052745140585203069 
0.016308706839281577 0 -0.052745140585203069 
1.1447451940267643 -0.36186911784396358 -0.93635224567153708 
-0.017290516877804512 -0.36399807868753087 0.15331091381440146 
0.455065859201851 -0.24603688735664481 -0.41934465132558935 
-0.047654605330494058 -0.076697462759912766 0.11574624799532987 
0.016308706839281577 0 -0.052745140585203069 
0.016308706839281577 0 -0.052745140585203069 
-0.22207100841383876 -0.017991683105315681 0.23067850735243417 
-0.22207100841383876 -0.017991683105315681 0.23067850735243417 
-0.22207100841383876 -0.017991683105315681 0.23067850735243417 
-0.22207100841383876 -0.017991683105315681 0.23067850735243417 
-0.22207100841383876 -0.017991683105315681 0.23067850735243417 
-0.2614765249194802 0.23122313072432213 -0.14283308362663186 
0.25523320570542607 -0.32551702239931835 0.010864214635084295 
0.10123054437938758 -0.27096055665108199 0.024558395284696999 
-0.22207100841383876 -0.017991683105315681 0.23067850735243417 
0.10333618971682033 -0.048634319728262855 -0.1085423421838826 
-0.081831279942880086 -0.053498515064430159 0.18268564597042095 
-0.011717540029650277 -0.17634941538105497 0.10228439224634631 
0.017078605829597304 -0.24440391037210291 0.11702874950915028 
-0.036780223388080124 -0.26942798387819378 0.11508581582597011 
-0.035989624651781627 0 0.049389695987772715 
-0.20097390347723204 -0.12347070005825359 0.22386671187454912 
-0.053377995761371901 -0.10489394344217723 0.12659867523034374 
-0.035989624651781627 0 0.049389695987772715 
-0.035989624651781627 0 0.049389695987772715 
-0.035989624651781627 0 0.049389695987772715 
-0.072460543709050418 0.30757940478290324 -0.21287314480679284 
-0.035989624651781627 0 0.049389695987772715 
0 -0.01474913860759903 0.021086006671213894 
0 -0.01474913860759903 0.021086006671213894 
0 -0.01474913860759903 0.021086006671213894 
0 -0.20078221730471854 0.12888677206768212 
0 -0.01474913860759903 0.021086006671213894 
0 -0.01474913860759903 0.021086006671213894 
-0.27740141263641138 0.25682459514740896 0.14048429045865912 
0.11264822384908439 -0.068426047354216618 -0.070877009881547381 
0 -0.01474913860759903 0.021086006671213894 
0 -0.01474913860759903 0.021086006671213894 
-0.17780005379485703 -0.080262694490492295 0.26244609859941292 
-0.12776860828243233 0 0.18006091309293593 
0.0063939864656635537 -0.095218575561767674 0.10945552821389136 
-0.31789268304463014 -0.049771312295566333 0.34002900711103384 
-0.12776860828243233 0 0.18006091309293593 
-0.25429413814983426 0.13446901512402562 0.08470329986057884 
0.39196754682906121 -0.33955342227356383 -0.28235679675051073 
0.26328503031565381 0.19986037622256883 -0.35898553809725409 
-0.51886100199478058 -0.21249241077937914 0.47209764853226549 
0.15213121617602612 -0.0060591757907091431 -0.12149169279525343 
-0.022451390860369246 -0.15269358140216385 0.087600251948774271 
0.15213121617602612 -0.0060591757907091431 -0.12149169279525343 
-0.18922477508779842 0.012917824347431491 0.11196402410613021 
0.15213121617602612 -0.0060591757907091431 -0.12149169279525343 
0.13082550807643203 0.016491075466696769 -0.063848801579027295 
-0.19103378859319445 -0.065574809231939826 0.22457465417098613 
-0.053980167241265239 -0.51421940480229555 0.1572340753381159 
0.26268785043653442 0.074809964380282423 -0.31562337455163048 
0.13898890150618928 0.21156138895497037 -0.36059883530276382 
0.15213121617602612 -0.0060591757907091431 -0.12149169279525343 
0.0057077472582272304 -0.13720267422733168 -0.019840932623230306 
0.26320982235707846 -0.40678795176604099 0.0013416058383825299 
0.60458612066424955 -0.13846391256023916 -0.35362519014082561 
0.13898076319281044 -0.13720267422733168 -0.019840932623230306 
0.0053937546637056796 0 -0.033737284482957361 
0.2389562209156473 -0.051032743172049852 -0.30869010967745059 
0.24459477807655641 0.030485383413757741 -0.1508647199638779 
0.0053937546637056796 0 -0.033737284482957361 
0.21059720868363407 0.11955395194335602 -0.31740591768497017 
0.25240644516951311 -0.16873832148410067 -0.27795208873081706 
0.0053937546637056796 0 -0.033737284482957361 
0.19667857269655087 -0.31517930998294064 0.040666967371480768 
-0.11822915789154045 -0.12189503287211198 0.16650928205549617 
0.0053937546637056796 0 -0.033737284482957361 
-0.14330108593561236 -0.057696072509043038 0.094430804414038783 
0.53787092989125629 -0.44505876021108398 -0.43699010293508173 
0.28745061780830905 -0.19218924906228113 -0.19244116586221457 
-0.0079278828449467816 -0.10060905988180795 -0.063970661905729656 
0.14321386151197238 -0.063140156767003783 -0.14427866185733432 
0.37118097743151279 -0.16146863646737375 -0.38529559377736666 
0 0 0 
0.14321386151197238 -0.052238368466714417 -0.12737017134910331 
0.10864827786696495 -0.030749798410070771 0.059027345204562154 
0.033970421170191702 0.0053199934457855442 -0.15021027808810206 
0.14321386151197238 -0.052238368466714417 -0.12737017134910331 
0.34825051235459548 -0.24229539498763256 -0.23387855203050759 
0.1049753139630366 -0.10841082560040499 0.0012109058721608925 
0.10735518472925748 -0.088841069105769818 -0.012371277769121806 
0.17886088065120656 -0.18426718160633057 -0.082841074590212033 
-0.25353543951012092 -0.18634030753145864 0.36010712163444325 
-0.23318399706287554 0.4540985485501749 -0.17010927855892383 
-0.015689797220927396 -0.010419632098717633 0.018516980947090034 
-0.31809588786791754 -0.17915339899443342 0.38679563846519166 
-0.16442142545596536 0.015285103597279259 0.090983404341423171 
-0.083476839874936398 -0.054970046909842807 0.16452203887600378 
-0.015689797220927396 -0.010419632098717633 0.018516980947090034 
-0.015689797220927396 -0.010419632098717633 0.018516980947090034 
-0.015689797220927396 -0.010419632098717633 0.018516980947090034 
-0.015689797220927396 -0.010419632098717633 0.018516980947090034 
-0.015689797220927396 -0.010419632098717633 0.018516980947090034 
-0.015689797220927396 -0.010419632098717633 0.018516980947090034 
-0.015689797220927396 -0.010419632098717633 0.018516980947090034 
-0.015689797220927396 -0.010419632098717633 0.018516980947090034 
-0.017464786183681656 0.13631045188782689 -0.079725891118791858 
-0.017464786183681656 0.13631045188782689 -0.079725891118791858 
-0.017464786183681656 0.13631045188782689 -0.079725891118791858 
-0.14885510756879872 0.70473602629182808 -0.51143000664729821 
-0.017464786183681656 0.13631045188782689 -0.079725891118791858 
-0.25143027629476206 0.27268173858437061 -0.076822786088852332 
-0.22014315778622023 -0.034699763712348626 0.25351937939753921 
0.056536536152576922 -0.045030988250096368 -0.12436676288853145 
-0.017464786183681656 0.13631045188782689 -0.079725891118791858 
-0.12743181728443059 0.24538929600342624 -0.079725891118791872 
-0.069441860394283419 0.075988887288291423 0.064016819557931218 
-0.017464786183681656 0.13631045188782689 -0.079725891118791858 
0.23333557257142951 -0.29908781064128354 -0.11113360375277562 
-0.49727337742984434 -0.076760197751547438 0.4185551383556404 
-0.070842643830121621 0 0.062541859782490411 
0.13507572434442278 -0.11235887209346215 -0.0502960985759935 
-0.070842643830121621 0.16787148251621392 -0.099016789401567898 
0.096293572796200932 -0.28990452160606889 0.083615229131567673 
-0.070842643830121621 0 0.062541859782490411 
-0.070842643830121621 0 0.062541859782490411 
-0.070842643830121635 0 0.062541859782490411 
0.023137440713279309 -0.034179459598252158 0 
0.023137440713279337 -0.034179459598252158 -0.040733008126565294 
-0.19201587923041041 -0.093126641337838031 0.32291394293988407 
0.023137440713279309 -0.034179459598252158 0 
0.037980229247576824 0.10881972203281193 -0.15760134409277907 
-0.1961559619748926 0.02084214368061995 0.026063840663345775 
0.17874521161664203 -0.22542790096449186 -0.27028774876321271 
0.28791081846000066 -0.093976931936023342 -0.27516003871135597 
0.19668633625707665 0.13769265101941344 -0.2614451819697457 
-0.067555028916124582 -0.014637507123547564 0.10233588872860991 
-0.2803571239682528 0.088541277147612285 0.19168309274814976 
-0.19590981624596698 -0.012085798305408223 0.15049946993627067 
-0.13511005783224916 -0.029275014247095128 0.20459390516680154 
-0.067555028916124582 -0.014637507123547564 0.10233588872860991 
0.24082734090194224 -0.13379156788314314 -0.051660650114758296 
-0.067555028916124582 -0.014637507123547564 0.10233588872860991 
-0.067555028916124582 -0.014637507123547564 0.10233588872860991 
-0.020172433567295575 0 0.057154740568516847 
-0.077195204770054274 -0.11563993677004725 0.23922602465457593 
-0.23810773699851262 0.12064675722883038 0.083798191433967342 
-0.027554012371748919 0 0.057154740568516847 
0.11374804971067512 -0.087482233393876896 -0.097967258747678712 
-0.020172433567295575 0 0.057154740568516847 
0.14514277397869124 0 -0.24727706610810599 
-0.34436621694401337 0.081944459724556773 0.1287428178351602 
-0.19947465620547175 -0.14887244347394771 0.16938320605043566 
0.05712954343547489 -0.091792793442989462 -0.0018135781235211514 
-0.044548284551262633 -0.063180105673543513 -0.0061180349489917745 
0.18574447052415521 0.026519956570147177 -0.18520901085866703 
0.048476234365930085 0 -0.12467571526604525 
0.048476234365930085 0 -0.12467571526604525 
-0.15554926559139989 -0.35863982171813136 0.32520486819034528 
0.57682190595863325 -0.25870905328573052 -0.20898958836118547 
0.048476234365930085 0 -0.12467571526604525 
0.048476234365930085 0 -0.12467571526604525 
0.048476234365930085 0 -0.12467571526604525 
-0.035488992334736444 0.16390206704863733 -0.043682071542277448 
-0.035488992334736444 0.16390206704863736 -0.043682071542277434 
0.31884483071552305 -0.059720454496036864 -0.13051695203349148 
0.11709728332247746 0.046255387853255898 -0.26872592915551702 
0.094852154941437283 0.45011980294861009 -0.62532066505777806 
-0.11924440831461669 -0.28982462049476765 0.32488287958405127 
-0.035488992334736444 0.16390206704863736 -0.043682071542277434 
-0.076918954820754032 -0.15629572137488534 0.13861878798503685 
-0.035488992334736458 0.12914978885704759 -0.017205595822635877 
-0.035488992334736444 0.16390206704863736 -0.043682071542277434 
0.2204741132079516 -0.1097456736591734 -0.11651572649802952 
0.2204741132079516 -0.1097456736591734 -0.11651572649802952 
-0.048592423676626924 -0.10541777164530182 0.096491896353484471 
0.2204741132079516 -0.1097456736591734 -0.11651572649802952 
0.3051496341677532 -0.3527885300225968 -0.11651572649802952 
0.2204741132079516 -0.1097456736591734 -0.11651572649802952 
0.1943439450449701 -0.19323286511114551 -0.055488492392970767 
-0.25413354267860161 0.14429667482383102 0.1159746262962297 
0.2204741132079516 -0.1097456736591734 -0.11651572649802952 
0.16931119052372454 -0.034994928781469356 -0.11306801669691226 
0.2204741132079516 -0.1097456736591734 -0.11651572649802952 
-0.18400469581280005 0.12483492258247378 0.19012521946247302 
0.14432219301202351 -0.047511436485758334 -0.11954716280747991 
0.14432219301202351 -0.047511436485758334 -0.11954716280747991 
0.48537020401045211 -0.16128166700652347 -0.27150218301022022 
0.14432219301202351 -0.047511436485758334 -0.11954716280747991 
0.14432219301202351 -0.047511436485758334 -0.11954716280747991 
0.14432219301202351 -0.047511436485758334 -0.11954716280747991 
-0.069386793636101812 0.28831228658005076 -0.26524166144055444 
-0.17106384515162848 0.027623950261466745 -0.022562278940609495 
0.14432219301202351 -0.047511436485758334 -0.11954716280747991 
0.097495572713081693 0.36750760078709527 -0.38588866951664447 
0.14432219301202351 -0.047511436485758334 -0.11954716280747991 
-0.24198415732985049 -0.014450487782719451 0.22905041386553698 
-0.24198415732985049 -0.014450487782719451 0.22905041386553698 
0.12199319804986447 -0.034411524301739327 -0.06393268956835621 
-0.56029316019043252 -0.014450487782719451 0.51965499899524259 
0.32410056031694667 -0.33657476387178836 -0.021606235393267229 
0.32808451421559598 -0.15716783882200916 -0.060825184210999861 
0.41250808095937086 -0.15716783882200916 -0.2344399923865923 
0.2502295819905197 -0.19638521667267372 0.075091719825908065 
-0.040593047063574902 -0.38893365898442955 0.26669955158782177 
0.061648209908160577 -0.19691307979486011 0.16320803368750411 
0.32808451421559598 -0.15716783882200916 -0.060825184210999861 
-0.24698116562914624 0.59459887763397412 -0.47053788093220172 
-0.097385923541729674 -0.13883254138461912 0.2270129601037168 
0.32070917758443229 -0.0626879918170547 -0.20432707650784665 
0.031419049352030201 0.16892449234358681 -0.08047256720267873 
-0.045877664687749675 0 0.0084787569626340632 
-0.21243286436492842 -0.085333831479561154 0.29751309269747606 
-0.084744320693540195 0 0.091593801853961584 
-0.084744320693540195 0 0.091593801853961584 
0.012838216807482539 0.039624946523831112 -0.044035512274704321 
-0.084744320693540195 0 0.091593801853961584 
-0.084744320693540195 0 0.091593801853961584 
0.077935459058295492 0.10659561493502764 -0.15119787777267085 
-0.26164853926029946 0.059716280839246183 0.12505162861857155 
-0.084744320693540195 0.18644233389194742 -0.012701045144143006 
-0.084744320693540195 0 0.091593801853961584 
0.017020616466965979 0 -0.13103042418768329 
0.017020616466965979 0 -0.13103042418768329 
0.017020616466965979 -0.27718909908933992 0.172321212016328 
0.017020616466965979 0 -0.13103042418768329 
0.017020616466965979 0 -0.13103042418768329 
-0.056807743536660335 0.22570958766394966 -0.24934399093263335 
-0.1822651213376488 -0.17931668976807161 0.063705696972545411 
-0.14422409005949047 0.10500321747801991 0.0054220418799285439 
-0.29253323249269492 -0.12413896713909843 0.332383113404843 
-0.03250126980072858 -0.1241389671390984 -0.009299116501465924 
0.10275381425963863 -0.12413896713909843 0.11265415235481206 
-0.29253323249269492 -0.12413896713909843 0.332383113404843 
0.028737871047313197 0.050335732327935971 -0.20285884888144459 
0.045977726408731434 0.018453473697630302 -0.018849574259384109 
-0.17466450581700119 -0.144507758060339 0.13622094809961208 
0 -0.08923603953096905 0 
0.43350272176053667 0.079185475028279245 -0.28683464587482849 
-0.1283108758581471 0.072225165550664633 -0.069174199057527058 
0.38377593219937151 -0.084115338784032267 -0.25399796708076028 
0.14419020010595662 -0.15667629495716032 -0.16912575364251445 
-0.12058595226712213 0.33102364712263199 -0.18040474280479671 
0 -0.08923603953096905 0 
0 -0.08923603953096905 0 
0.1462409511727486 0 -0.098498367628822858 
0.17179686304516206 0 -0.15058983664197442 
0.17179686304516206 0 -0.15058983664197442 
0.17179686304516206 0 -0.15058983664197442 
0.043060470372071086 -0.083877784631465807 0.14901251981599464 
0.17179686304516206 0 -0.15058983664197442 
0.17179686304516206 0 -0.15058983664197442 
0.17179686304516206 0 -0.15058983664197442 
0.17179686304516206 0 -0.15058983664197442 
-0.10982129804890639 -0.36589343205197411 0.22788611968926242 
0.17179686304516206 0 -0.15058983664197442 
0.17179686304516206 0 -0.15058983664197442 
-0.028638955375486767 0 0 
-0.028638955375486767 0 0 
-0.05793744836341564 -0.25460841487663488 0.32160873621875058 
-0.028638955375486767 0 0 
-0.11047647814904554 -0.0001971643042625984 0.084251313930572988 
0.2518406513191625 -0.31587698891483207 0.13188541241164706 
-0.12099515021074453 -0.017645613715635413 0.1109579118464963 
0.0022464196098713994 -0.13501223458004744 0.03848734180879447 
-0.028638955375486767 0 0 
0.027904592847921406 -0.018517032745194926 -0.087839233409953782 
0.21277169103703961 -0.0026210834297921903 -0.21369501229428292 
-0.028638955375486767 0 0 
-0.028638955375486767 0 0 
-0.18022729627734174 -0.00024190002682171968 0.17858601290516463 
-0.073190336295008235 -0.16163927314663393 0.14925498624696981 
0.27881226164920025 -0.0039155634181212108 -0.19647074422759261 
-0.29038318975955918 -0.077468982984456994 0.23761093590503898 
0.092779447904999507 0 -0.07865860171790065 
0.17641757782507961 -0.066675322293872366 -0.2634996373319477 
0.35696441588380456 -0.21989738124144376 -0.28216718437430138 
0.092779447904999507 -0.09030898917324133 -0.085158528014866286 
0.092779447904999493 -0.090308989173241316 -0.07865860171790065 
0.092779447904999507 0 -0.07865860171790065 
0.092779447904999507 0 -0.07865860171790065 
0.23325487077912541 0.016908104515782174 -0.23946237599842277 
0.045359915236425616 0.33911962212132291 -0.38488663265691891 
0.12233167573034284 -0.062328564793141819 -0.090279265434504236 
-0.44485901594830107 -0.04118977509008466 0.43988258131428709 
0.17683799519513416 -0.062328564793141833 -0.10534353845576745 
-0.2443118311266908 0.24297484829661628 -0.011595833943298915 
-0.090361120862515548 0.18790718924970118 -0.11604216525008966 
-0.18789495554269978 0.3222115176055404 -0.14562369187438626 
-0.2093319501879734 0.013005147924779555 0.1650892869104523 
-0.14176016929619067 -0.1560888069512536 0.24605127691454903 
0.22928848146169117 -0.027230613158009082 -0.19932077412345237 
0 -0.041762641134028881 0.02298467654965803 
-0.28929043829595208 0.12702144753571198 0.019825210217099536 
0 -0.041762641134028881 0.02298467654965803 
0.088303731391861762 -0.16111641556660902 0.0076769854589391583 
0 -0.041762641134028881 0.02298467654965803 
0 -0.041762641134028881 0.02298467654965803 
0 -0.041762641134028881 0.02298467654965803 
-0.073233815880881889 0 0.081711047314785429 
-0.4062063478761303 0.056972108464259263 0.32050681325188518 
0.18456610656174774 -0.00094898889295636055 -0.11814035052680491 
-0.29266828068849199 0.1037091083251757 0.14050334084730728 
-0.073233815880881889 0 0.081711047314785429 
-0.033039594462331338 0.064087540154335709 -0.057196341441766815 
-0.23506121718411799 -0.044447869650165818 0.1983368587452142 
0.47714699739645516 -0.1134831698127695 -0.39127864786506344 
-0.073233815880881889 0 0.081711047314785429 
-0.020662435349260627 0.11174768657543278 -0.061123738879359013 
-0.0089527534325401243 -0.085031277100939467 0.058446397237517003 
0.23587084253928775 -0.39224196484092128 -0.095175813290159783 
-0.0032091453394714657 -0.10737836283399999 0.069844423468824579 
-0.0068874784497535398 -0.031089684003283772 0.058446397237517017 
-0.19016370474491598 0.16526297586422209 0.0031542751675610456 
-0.18062464955867355 -0.098153746461192848 0.23625258949654415 
-0.13005315509224322 0.1101767943571076 0.028699711964728449 
-0.19526158634180485 -0.097940703791599998 0.22687602177945754 
-0.0068874784497535398 -0.031089684003283772 0.058446397237517017 
-0.077938122049725611 -0.10248600631928145 0.18923974451965717 
-0.0068874784497535398 -0.031089684003283772 0.058446397237517017 
0.12998252088138573 -0.0019463025682663984 -0.049045179853997839 
0.10687832503086422 -0.14057422192732533 -0.063042762654062584 
0.019948604581243416 -0.17562738688735946 -0.027437841224343455 
0.12998252088138573 -0.0019463025682663984 -0.049045179853997839 
0.12998252088138573 -0.0019463025682663984 -0.049045179853997839 
0.21565896717862348 -0.062611699790326172 -0.14452011766430936 
0.18025209301097217 0.16564958315544415 -0.35244114882000005 
0.12998252088138573 -0.0019463025682663984 -0.049045179853997839 
-0.11828375177029422 -0.079165929810384422 0.11902152414426632 
-0.26082837350410643 -0.11125734294831313 0.2306973181906225 
-0.11828375177029422 -0.079165929810384422 0.11902152414426632 
-0.11828375177029422 -0.079165929810384422 0.11902152414426632 
-0.11828375177029422 -0.079165929810384422 0.11902152414426632 
0.1163808102132598 0.062533663927141964 -0.29883290577826982 
-0.11828375177029422 -0.079165929810384422 0.11902152414426632 
0 -0.25251689547255607 0.27489288065872575 
-0.36359413302369908 -0.14820761813295819 0.42654105995169195 
-0.61501077737563092 0.50395218847114065 0.0036044978263165255 
0 -0.25251689547255607 0.27489288065872575 
0 -0.25251689547255607 0.27489288065872575 
-0.085143341790133262 -0.1113943532235652 0.15828751801892199 
-0.085143341790133262 -0.1113943532235652 0.15828751801892199 
-0.085143341790133262 -0.1113943532235652 0.15828751801892199 
-0.085143341790133262 -0.1113943532235652 0.15828751801892199 
-0.085143341790133262 -0.1113943532235652 0.15828751801892199 
-0.085143341790133262 -0.1113943532235652 0.15828751801892199 
-0.085143341790133262 -0.1113943532235652 0.15828751801892199 
-0.085143341790133262 -0.11139435322356521 0.15828751801892199 
0.88355988721250245 -0.39513025629425541 -0.73241243921743582 
0.40236518577825336 -0.033007080890758371 -0.29229165634473236 
-0.11652100798941083 0.05986088868033497 0.034058094411007794 
0.14274084776828305 -0.17860479498635068 0.10771695904388175 
0.26177386347907144 -0.033007080890758371 -0.11966929656404757 
0.20942713258418408 0.32461926914685924 -0.43404278363953397 
0.26177386347907144 -0.033007080890758371 -0.11966929656404757 
0.26177386347907144 -0.033007080890758371 -0.11966929656404757 
-0.32240683255489894 0.20691208303454475 0.2002987507917163 
-0.033955448540271764 0.83825030852146964 -0.75379213150544333 
0.36173366809281021 -0.69681866221447197 0.024676552298209066 
-0.056010944437641652 -0.20798124326552989 0.10733299036804515 
-0.028147616010301104 0.13334572061015876 -0.094680122479529089 
-0.028147616010301104 0.13334572061015876 -0.094680122479529089 
-0.080089336379325943 0.13851140974208903 -0.31244607909631877 
-0.17469543058146755 0.0020771919354161815 0.13587982796155892 
-0.44086512392587124 -0.0037997344537786188 0.35204450181227454 
-0.23740879488744249 0.3130829679179144 -0.075899184735989542 
-0.028147616010301104 0.13334572061015876 -0.094680122479529089 
