solver_type L2R_L2LOSS_SVC_DUAL
nr_class 3
label 1 2 0
nr_feature 41961
bias -1
w
0.13573400915204786 -0.027703016880898511 -0.11310379360365609 
-0.06296241743007612 -0.028827529930169678 -0.0035049792555587166 
0.13123623895302311 -0.043256899650386552 -0.14003286166836434 
0.12821791801061805 -0.094857307544451597 0.045638459853178721 
0.042885156156819912 0.13153830008232695 -0.097902465662432381 
0.13584215718691339 0 -0.12459636485543163 
-0.058030225335297336 0.084678333667651734 -0.054313357290372823 
-0.082771490502827227 -0.083470214939090542 0.0063346741873007237 
0.010147292222240846 -0.091213767574582008 0.0064515783693033183 
-0.029509438509109261 -0.086983808340649504 0.02653624300738746 
-0.15115237908565055 -0.10510040108939608 0.25871639443291744 
-0.055933190863810045 -0.10718140023590789 0.058410067959202436 
0.00033924183131112291 -0.11609710022967686 -0.088032655903240456 
0.84588756486540384 -0.55751932109523827 -0.76294491550876975 
0.47113217198276092 -0.1790215004296013 -0.38466763297734574 
-0.22759454770178683 0.19357484625173574 -0.0049748818300977765 
-0.017599031966493088 0.076127836996965501 -0.11570923663972066 
-0.16302747842875312 0.011548713574809043 0.075081630715328862 
-0.11655835029139121 0.19357484625173571 -0.081633651270077781 
0.01504505241347593 -0.069854457595200828 -0.01597787896234867 
-0.042522868513971461 0.17202399604604346 -0.16441719187324644 
-0.025386436781205293 -0.045601828721794128 0.022510923235630302 
-0.31245175277494008 0.54678375200253604 -0.39332279298095413 
-0.41214662990382672 0.28007119298615923 0.13851434389569237 
-0.085852886073319784 -0.15207204848168018 0.035099722052304341 
0.17724658984998923 0.22192419644426503 -0.37461089465521352 
-0.18822208027529458 -0.16625806243329957 0.21415901196255396 
0.34333135752868832 -0.27536718969414908 -0.22268091421574074 
-0.30839721508588475 0.58538113585725748 -0.25805712921012391 
0.059159425189229065 0.086599935582503035 -0.15835899673693005 
-0.032456931889981597 0.067306495192062457 -0.038510845779184212 
-0.20681470794933593 0.22981043182775007 -0.12167438025751889 
-0.13962611729521043 0 0 
0.027701779379585081 0.1616767484785924 -0.28194560074452163 
-0.080400275387401091 -0.076089149852765103 -0.034363584951435468 
-0.96423353800427924 1.08648224580479 -0.47160543550221484 
-0.16506351271014766 -0.20301358918289955 0.23235710879613164 
-0.13962611729521043 0 0 
0.044798727824546622 0.43201602657744065 -0.67286782603481021 
0.79077322740255518 -0.43941797137704047 -0.54651353844004591 
-0.0060028135094917535 -0.073490406226720234 -0.004663005901005669 
-0.13962611729521043 0 0 
-0.013356091067645114 -0.19399522151294632 0.17567655057376177 
-0.27148811121983468 0.18559383429857237 0.034069069903526594 
0.040093279856169978 -0.10388760553456312 0.0012842569386597848 
-0.14089800457846552 0.25246940250605387 -0.076694403882777915 
-0.082880373823926989 -0.15356276129827073 0.18101075062173538 
0.017902819728556368 0.15518049161242267 -0.18572428032494423 
-0.063173240988048177 0.0050633341028273309 0.0029504938932923223 
-0.013356091067645114 0.15518049161242267 -0.13299531403241827 
-0.013356091067645114 0.15518049161242267 -0.13299531403241827 
0.06405153565999952 0.23151075141336816 -0.20039713926911445 
0.089420338033846178 -0.046367464854788515 -0.064020281104276197 
0.11622270797918519 -0.10316554516827162 -0.046817439133899796 
-0.25366774801842951 -0.29704026986296472 0.23994086522229843 
0.040871304873305321 -0.086831323047251732 0.027663181685666123 
-0.0041513948437255383 -0.022075867488629105 0.0067324320522542226 
-0.089144886341005897 0.088170517126028358 -0.044361362385248536 
-0.013356091067645114 0.15518049161242267 -0.13299531403241827 
-0.10519188833477353 0 0.13017003867163027 
-0.017933887367482505 -0.12428153902798676 0.097653345921517656 
-0.011104004135618165 0 0.05014805647083314 
-0.18820702231904896 -0.063199743319774779 0.13441542437373402 
-0.011104004135618165 0 0.05014805647083314 
-0.011104004135618165 0 0.05014805647083314 
-0.011104004135618165 0 0.05014805647083314 
-0.051848916360224484 -0.098741856379012727 0.006459396770342532 
-0.011104004135618165 0 0.05014805647083314 
-0.011104004135618165 0 0.05014805647083314 
-0.05581300988266482 -0.25883193796961257 0.076524274522949243 
-0.011104004135618165 0 0.05014805647083314 
-0.023141464718042869 0.20149512477895259 -0.15579464146482169 
-0.25429503498684997 0.16299541679289739 0.26118230631077782 
-0.018849772545245669 -0.26002572783083278 0.074198303674462021 
-0.13901673516332386 -0.25430370952177772 0.25199920167510825 
0.38120872922470045 -0.20211583754695106 -0.30329837665923398 
-0.18197675276204961 0.19160194587577378 -0.10772577712087057 
0.0051342837986451118 0.027072675958850708 -0.031986706234606983 
-0.28476318245024995 -0.018726273805763669 0.17609663739141757 
-0.19711632747383831 -0.16423959352118861 0.19759128749714844 
-0.06576466367839609 -0.11971216023748564 0.08860798845863245 
0.12801334928154071 0.0029318315025975558 -0.028741401310412015 
-0.15436342515314164 -0.016838468942725487 0.13463982910149785 
-0.37584519348964202 -0.2543733345869133 0.51157295812495496 
0.31930735232997581 -0.21501023613482095 -0.21139242888258794 
-0.08708695709554172 -0.21375252260824323 0.13144318502167013 
-0.082663752501313192 0 0.022681541036939895 
-0.082663752501313192 0 0.022681541036939895 
0.37014297970469456 -0.11205314912055225 -0.21708725929098768 
0 0 0 
-0.054682364914361889 -0.18274286251876035 0.11634271776275024 
0.017478127682122643 0.23764739234869833 -0.1882573822092716 
0 0 0 
-0.11873953887613151 -0.054551727141385696 0.061479926831151548 
0.011118226453660359 -0.063095671706126025 -0.029575227679243154 
0 0 0 
1.0212302265923154 -0.5138468362414772 -0.72659649283654659 
0.12028939532702647 -0.043802589429415333 -0.10300727862674719 
0.064366327455970221 -0.10403601275062432 -0.089882984682174108 
0.053152608350093722 -0.078711805162000076 -0.080735319144674453 
0.41993083759227284 -0.24022999629389105 -0.26616279548988819 
-0.12286259530586195 0.091255678415590596 -0.057089937045383281 
0.047286558791984609 -0.014032319137074135 -0.032473880431584022 
-0.056638133359639312 -0.056536907923940796 0.032415023206119747 
-0.33677336554925341 -0.082452046500048143 0.3057579417252646 
-0.29608411977624249 -0.2604259202482736 0.21455503866497558 
-0.13623234151217387 0.063631904243875728 -0.056479927501115343 
-0.1181579590225247 -0.049896298945763716 0.019899146973428268 
-0.2628877193314515 0.34226774524284381 -0.13853394898705521 
0.16497215232829987 0.12319988026625917 -0.21328076219456102 
-0.10493542974581967 0.14626434744515066 -0.083350735708431073 
-0.10687687237868503 0.14626434744515063 0.063962485178564857 
-0.11357114533215432 0.21862636056653842 -0.08278836998965082 
-0.14159984053408231 -0.055906730226636822 0.10814918834095916 
-0.095305735939469713 0.063176997778722307 -0.013057833957501819 
-0.10493542974581967 0.14626434744515066 -0.083350735708431073 
-0.11810964547145547 -0.072834653354355905 0.092316617149999364 
-0.10493542974581967 0.14626434744515066 -0.083350735708431073 
-0.0233443309030117 -0.12966978929218032 0.11151567239408441 
0.23452603351223283 -0.11980525574105123 -0.19257505687915979 
-0.10493542974581967 0.14626434744515066 -0.083350735708431073 
0.08182498655983525 0.051115887268406761 -0.16817592703983253 
0.17608255324525937 0.15672761454380132 -0.21747016019268514 
-0.272894665513291 -0.039477727333547263 0.27637377956608505 
0.31640264642892502 -0.26173271905868656 -0.085197483841971344 
0.1583633372124354 -0.051037279355604863 -0.18719915192338304 
-0.0038836605679225256 -0.5922282831754756 0.40514691163461525 
-0.19766908431748537 0.089857767674325406 -0.11603003788035336 
0.19203828557251013 0.13769282747469891 -0.25110708082708766 
-0.14191223073043452 0.084051687209386217 0.17064818651323629 
-0.019972163492027736 -0.46866931775585313 0.11833266541485747 
-0.054886150122014934 -0.10509612477466396 0.08496091945373932 
-0.24876190676620741 -0.32385930306032179 0.45164780517748732 
-0.15894462116130098 0 0.33494191420352804 
0.05800552996812678 0.030631329827134627 -0.11066177438384005 
-0.10876664602187283 0.073712008919977964 0.014291572596780369 
-0.11677393328982283 0.020572503515154078 0.14473537253895402 
-0.056801377389703742 -0.13680573343733737 0.069153684303873336 
-0.051883035012244859 0.078528355120971255 -0.014758101943319937 
0.038251772640209153 -0.057547399093053377 0.014794629574398624 
-0.060333659490368077 0.28512317241599605 -0.12544152558133115 
-0.32968461336861715 0.64509518189583304 -0.56747635664320339 
0.58325108430072381 -0.16236971654074175 -0.49312353268904446 
-0.051883035012244859 0.078528355120971255 -0.014758101943319937 
-0.025150262279040117 0.09541788771441459 -0.22880222269513395 
-0.3484902735414187 0.078528355120971255 0.29583424173412137 
-0.051883035012244859 0.078528355120971255 -0.014758101943319937 
-0.051883035012244859 0.078528355120971255 -0.014758101943319937 
-0.051883035012244859 0.078528355120971255 -0.014758101943319937 
-0.011009630927809837 -0.052383929482379979 0.10348477749148388 
-0.016712131044724878 -0.24545519557562828 0.19352729005394964 
-0.41191510680792459 -0.043702989901918302 0.52996922781132405 
-0.46473248019932017 -0.28808570255882027 0.85793655112495115 
0.23538722867011122 -0.12254254513732726 -0.17631580495868865 
-0.27131644845792058 -0.22278430884745304 0.28582605620460677 
0.49374123874058951 -0.049485338989277983 -0.48416349535818953 
-0.0047487821151276505 0.31925724729764937 -0.5402439229276309 
-0.15971139062781012 -0.018801444652873776 0.15403596827391416 
0.076484711293368535 0.030824131366095995 -0.12741751450047295 
-0.29583482048008009 -0.017486109031278008 0.2782720907916108 
-0.12149799455099433 0.097512291314190327 -0.015108684418867141 
-0.035020449593314809 -0.06852092667079214 0.076996347261217249 
-0.035020449593314809 -0.06852092667079214 0.076996347261217249 
-0.035020449593314809 -0.06852092667079214 0.076996347261217249 
-0.12736262080027938 0.013218538711280134 0.059511986006810846 
-0.035020449593314809 -0.06852092667079214 0.076996347261217332 
-0.11540543627812459 -0.08355854299432984 0.16791100307446929 
-0.1078877883600651 -0.06852092667079214 0.14278187177800125 
-0.035020449593314781 -0.06852092667079214 0.076996347261217304 
0.026692329768667162 -0.017062461033192193 -0.068147369160363347 
-0.09451824883336736 0.3013833268937865 -0.16036806040951485 
0.20108550461756508 -0.19713118993062806 -0.03935585286352096 
-0.15412228057247859 -0.24270244946837641 0.16913208893982662 
-0.035020449593314795 -0.06852092667079214 0.076996347261217221 
-0.0051433506340756111 -0.068520926670792126 0.076996347261217332 
-0.0051433506340756111 -0.068520926670792126 0.076996347261217332 
0.082012449434432325 0 -0.13581993479337073 
0.082012449434432325 0 -0.13581993479337073 
0.082012449434432325 0 -0.13581993479337073 
-0.37658430877272919 -0.16615007222415268 0.33553597227601517 
0.40719036168354272 -0.14037163860607862 -0.41257097780737845 
0.082012449434432325 0 -0.13581993479337073 
0.082012449434432325 0 -0.13581993479337073 
-0.024163547518946362 -0.044683952271266675 0.043353019583739653 
0.18955025043890655 -0.50809946427118557 0.062310351451017723 
0.066936252359648118 0.0045621853672370479 -0.067361925753320076 
-0.073929095581272739 -0.17079251385754468 0.10202132592918155 
0.082012449434432325 0 -0.13581993479337073 
-0.061254735553217227 -0.10153705821319381 -0.017353880456443833 
0.082012449434432325 0 -0.13581993479337073 
-0.087084712418266749 -0.27631212219943319 0.24712738196186679 
0.55345132817272213 -0.58991992154230877 -0.32508306664701309 
0.30673014149804922 -0.36790147169201115 -0.18806272851995404 
1.1875060373366297 -0.36282133834293784 -1.1174363217323711 
-0.48307484260481492 -0.14518900478031307 0.4645365956068343 
0 0 0 
0 0 0 
-0.11340617034000358 0.057115233170115152 0.052330283777708757 
1.2040295867393069 -0.78166217748168454 -0.95129598076135236 
0.028562993008165657 -4.6928453306701971e-06 -0.10579204756292084 
0.064299317633498554 0.14344979759094145 -0.16211450994232052 
-0.045014706233946954 0 0.043793722119373227 
0 -0.11394381648026067 0.042368284260170322 
0.084862368488008044 0.10105352949025517 -0.12005569114668226 
-0.22744252017315883 -0.0017433700047105208 0.16237623442230928 
-0.094046149607212678 0.0081961920036157931 -0.1508025989307579 
0 0 0 
0 0 0 
0 0 0 
-0.07604549199081391 -0.27929807514038074 0.17470923090001123 
-0.35200587666782113 -0.11570273545197075 0.3147410821349157 
-0.071495408826323312 -0.19143080702876628 0.21337637217596972 
-0.21533579969818784 -0.1628543292759729 0.29240392094909712 
-0.014089115130833284 0 -8.561217718751957e-19 
0.10127465793278417 0 -0.12601299336686328 
-0.48693859586768629 -0.066597525913723088 0.42029325183386967 
-0.14491170995330782 -0.25776621085787799 0.2000583922925338 
-0.15594583350047422 -0.0099692213416186157 0.15741087962208758 
0 0 0 
0 0 0 
0.30579841919206641 0 -0.33834470219520341 
0.03465940483126824 -0.12631440784796497 -0.17870257984309784 
-0.06174503006799107 0.0547642721395145 0.17139930014768234 
-0.29156546104741998 -0.16603935327286387 0.36451923925163598 
0.1522043029006778 -0.016323535509119618 -0.17654460621777113 
0.13615132119819331 -0.19711213096805097 0.05602033261708609 
0.44307941120845135 0.21178226782927509 -0.59950835417580273 
-0.075302680165910255 -0.20221010935697367 0.12869694643900378 
-0.012824370841280242 0.037382262831109334 -0.0175132163792803 
-0.011950436441691217 -0.1582200332481109 0.010197299353673936 
-0.30646529037894765 0.0068235342955163172 0.17420333416852607 
0.30579841919206641 0 -0.33834470219520341 
0.15758626747279741 0.055353849548427564 -0.17108726725703713 
1.0948964882379646 -0.43945909903981994 -0.97044383299018844 
-0.29233951959855453 -0.18010884236649466 0.46879617543103702 
-0.084817524035523756 -0.17485374280728669 0.1893610722160472 
-0.39925622670982408 0.092456114492467587 0.27280503644203391 
-0.16623729147508795 0 0.071757142338831653 
-0.16623729147508795 0 0.071757142338831653 
-0.2092869761281525 0 0.14221969596011516 
0.020428148946782396 -0.047342266599021465 -0.018066733016842928 
-0.13933522224010586 -0.42079881608964947 0.32349634292223645 
-0.16623729147508792 0.12666043859905565 0.028921780749082155 
-0.26918655313566031 -0.15717690278417779 0.36107752536096954 
0.039273109070912471 -0.16968988859919437 -0.062550142200785391 
-0.20773139864255619 0.014308960858173651 0.1925669694651983 
0.21420076373110536 -0.25736335235074415 0.09560114345191055 
0.043269156629842112 0.10242483300186657 -0.14401175627665758 
0.43348839760490399 -0.19843299056904318 -0.2636474440343603 
0.25766752146658356 0.16160278854157425 -0.49094875110551733 
0.051233537001373536 -0.011553526323704173 -0.22613330067685852 
-0.23022596605187073 0.13687881739855104 0.10297757822450432 
0.020409222753360504 -0.3857930329867541 0.098707708420577259 
-0.24062010786193794 -0.18195270117703238 0.40671490229128199 
-0.22616915636685853 -0.28950535543291722 0.3446256533101853 
-0.094087884199155494 0.1040482288903402 -0.058068740009221319 
0.024804999983767662 -0.088931885685525014 0.1760543016170617 
-0.094087884199155494 0 0.08001686972658105 
-0.094087884199155494 0 0.08001686972658105 
0.026900239310583496 0.036135676246505606 -0.053876064317776591 
-0.094087884199155494 0 0.08001686972658105 
0.27564301246885692 -0.1961895735264475 -0.18623671401160766 
-0.038408157514778801 -0.093222515409790083 -0.095498420002989859 
-0.13251229325561975 -0.062617122577477383 0.055502441100063984 
-0.094087884199155494 -0.12616547006198722 0.12037065284094001 
-0.013145297789117393 -0.26664019646103509 0.049711957998792362 
-0.16261284308662155 0 0.12181056043747257 
-0.094087884199155494 0 0.08001686972658105 
0.104069532186179 -0.34341532642644007 0.043793061791744033 
-0.094087884199155494 0 0.08001686972658105 
-0.094087884199155494 0 0.08001686972658105 
0.052693394662650821 0 -0.062013653905770461 
0.052693394662650821 0 -0.062013653905770461 
0.052693394662650821 0 -0.062013653905770461 
0.19896955882510983 -0.0019080936848692442 -0.30033397314083332 
0.18151289083717803 -0.063496296024799559 -0.1595938900552169 
0.19813507681181236 -0.088991786519266022 -0.04464528603195439 
0.052693394662650821 0 -0.062013653905770461 
-0.007493399283855607 0.22028804952868891 -0.14392470443436778 
0.052693394662650821 0 -0.062013653905770461 
-0.22618890338880704 -0.19709432812204633 0.2545589101204716 
-0.10320045023231053 -6.9388939039072284e-18 0.21437852934988144 
0.09493428393632497 -0.25741951674495062 -0.062013653905770433 
-0.35853017036619972 -0.0041509240929537561 0.24412671436797065 
0.10060422874628372 -0.28335779773569936 0.11314956534296798 
0.77729290698027742 -0.39635795433210075 -0.36750253677529993 
0 -0.13730760124510658 0.060915427350083859 
0 -0.13730760124510658 0.060915427350083859 
0 -0.13730760124510658 0.060915427350083859 
0.059286926400812505 -0.23446148110164039 0.069678835512017062 
-0.12508769947816967 -0.32583158536969992 0.43280183527212546 
-0.25168666510345 -0.12331590103314279 0.32629918397724211 
-0.16013915624711128 -0.14149902330463962 0.12508378837891948 
-0.068421883698373792 -0.13730760124510655 0.16623222354777017 
-0.020892428369599363 -0.017458668330050352 -0.074520963284555319 
-0.013431609913564378 -0.13730760124510658 0.079675083282299664 
-0.24295787692487772 -0.11971339532568301 0.33711104260219615 
-0.088900326010098632 0.21861667252245787 -0.30458739707593935 
0 -0.13730760124510658 0.060915427350083859 
0.79237644185462996 -0.7301448118615238 -0.57929270361999285 
-0.29390239487449388 0.13071747462702171 0.17321421670044582 
-0.41778080255338185 -0.16671706182345047 0.50463877021783221 
0.36664376008856026 -0.15801216740736457 -0.33848037035678724 
-0.23922986970524024 -0.28026562282002476 0.22509506176709887 
0.032215945859178523 0.072766000626659347 -0.097043032143210667 
0.55049014143182173 -0.058612806280393302 -0.39565956978199568 
0 0 -0.0063016018766807805 
0 0 -0.0063016018766807805 
0 0 -0.0063016018766807805 
0 0 -0.0063016018766807805 
0 0 -0.0063016018766807805 
0 0 -0.0063016018766807805 
0 0 -0.0063016018766807805 
0 0 -0.0063016018766807805 
-0.26087011779011737 -0.057135569988620447 0.33651770834962036 
-0.041031835321118107 -0.028567784994310223 0.047854307755339158 
-0.12554975704442364 0.036143862818519723 0.052558010289322402 
-0.089730702227928505 -0.058948173618921143 0.047707180527729071 
-0.020472255713498505 -0.028567784994310223 -0.026794963475506483 
-0.041031835321118107 -0.028567784994310223 0.047854307755339158 
-0.048429394264732223 -0.028567784994310223 0.047854307755339158 
-0.041031835321118107 -0.028567784994310223 0.047854307755339158 
-0.041031835321118107 -0.028567784994310223 0.047854307755339158 
-0.0084039306692077834 0.019237273831734302 -0.015977817928956702 
-0.041031835321118107 -0.028567784994310223 0.047854307755339158 
-0.041031835321118107 -0.028567784994310223 0.047854307755339158 
0.17908377854656704 0.088852599350268541 -0.15155187429044312 
0.091676346776892653 -0.39300576317359559 -0.080022186533571002 
0.091743007332337978 -0.25384353300956425 0.068849595728393803 
0.03344991744658974 -0.11526232909212386 -0.054807448480371238 
-0.041031835321118107 -0.028567784994310223 0.047854307755339158 
0.15763247230655389 -0.20147575904257545 -0.069142113958728851 
0.11484952335245804 -0.078980231018354122 -0.054600297868139067 
0.16624573566941062 0 -0.15795443316398131 
0.07486196271177796 -0.31716694421135905 0.042781999815814389 
0.28237402183908206 -0.35343530398918765 -0.33831657279167721 
0.22475634573662492 0.21103254185331283 -0.4542559889166905 
0.10751402689794831 0.29025735569478339 -0.44943021698386543 
-0.028006449879384266 0.0034667608154624451 0.060223228246749694 
-0.11259328987750661 0.017167548077809118 0.19250653407165 
-0.21994256927265068 0.15120921274028618 -0.020942659168636978 
-0.22786387871723363 0.087279127020709307 0.11120559275595353 
0.026791786706220476 -0.1186647122720691 0.14248864279750267 
0.16624573566941062 0 -0.15795443316398131 
0.0057644733828135231 -0.25796837654923277 0.2051494924836382 
0.0014974805713700622 -0.33594098387234145 0.26306583120110483 
-0.17445820698027237 -0.14305449773916423 0.44869252999162901 
-0.17288756609256964 0.5848601401425112 -0.29393194310775034 
0.29869601954134978 -0.079344828931016978 -0.23218508025683496 
0.094502079355583496 0.012531598442234414 -0.19211555392367377 
-0.1595138679383678 -0.12935556514898663 0.14828998353658995 
-0.088945394039722042 0.21010700626797146 -0.10541877271507796 
-0.25398138544320437 0.034421783193882047 0.22093699330463251 
-0.088945394039722042 0.21010700626797146 -0.10541877271507796 
-0.088945394039722042 0.21010700626797146 -0.10541877271507796 
-0.088945394039722042 0.21010700626797146 -0.10541877271507796 
-0.09034522912041873 0.19725088114255915 -0.014490849166907349 
0.048054217358614079 -0.05266298258499285 -0.12625147386038085 
-0.20020374098377042 -0.0028210095534835721 0.16522628580480922 
-0.088945394039722042 0.21010700626797146 -0.10541877271507796 
0.15386345717512234 0.33208622537543137 -0.37881898315952001 
0.0578652473335768 -0.081234378611591176 -0.040837754235640664 
0.10448871210351397 -0.10259084939215091 -0.043575868799676426 
0.21206404007545396 0.045326530328305879 -0.28739112458763466 
0.13701927553869961 -0.11081515140642756 0.002950622365271566 
-0.43472304965714997 -0.29709834760471132 0.35319148672293554 
-0.017988579466602317 -0.058018422709000303 -0.036752453737767261 
-0.010824768082622994 0.27467467336710977 -0.23408086044540277 
-0.087343825868183678 -0.12784837504852067 0.13809658494352209 
-0.11733428241707097 -0.038301245002896771 0.08971662931134744 
0.40417198999844717 0.1794510068238486 -0.5621399773036565 
-0.071077608378594809 0.41652976843838763 -0.36281007729425596 
-0.1866059476992763 -0.14445422048868295 0.28307657017509763 
-0.027262674921621623 0.0016144907016557818 0.1437118051973362 
-0.53020576325020075 0.22437208409848514 0.17055603958174387 
-0.010824768082622994 0.27467467336710977 -0.23408086044540277 
-0.010824768082622994 0.27467467336710977 -0.23408086044540277 
-0.010824768082622994 0.27467467336710977 -0.23408086044540277 
-0.48549576318159376 0.48066563732991108 -0.15489774389727576 
0.20771420148108197 -0.083014165661268374 -0.15330362194380542 
0.39288583839411295 0.21036406037117478 -0.49943592692897026 
-0.017553417276590644 0.14878133251170997 -0.076168225032871573 
-0.035053001491056918 0.054480434039308315 0 
-0.04954342009233996 0.30536478412992835 -0.14415295705001555 
-0.035053001491056918 0.054480434039308315 0 
-0.11892915885229213 0.089934787932167443 0.071282308379549575 
-0.1389403188324882 -0.054293974440292027 0.20347440699257591 
0.027468631773429227 -0.15466116257756488 0.076976211069920919 
-0.043235762289520599 0.12729232363394272 -0.10312445932003983 
-0.22198951371357747 -0.35738476080163167 0.40730134706097626 
-0.14569653303424523 0.031315770257635621 0.066648007410318497 
-0.035053001491056918 0.054480434039308315 0 
0.19422252722610553 -0.01443321271709104 -0.22349053694983315 
-0.26030275575798389 0.38121824294402373 -0.021207045356242678 
-0.0069292199997896273 0.16474445294493476 -0.19207618822675174 
-0.1732531268382162 0.0041909338623464026 -0.10305754530386441 
0.062234693812718303 -0.18308513894698614 0.07780764751882914 
-0.061625916230993089 0.030965886434645425 -0.013332680893166905 
-0.060111924038326249 -0.0082554322837393272 0.11610291329249212 
-0.060111924038326235 -0.16237313203633563 0.28033091675021177 
0.0092980892504162527 -0.044066134211370643 -0.043392946386965336 
-0.060111924038326249 -0.0082554322837393272 0.11610291329249212 
-0.42205844992072006 -0.015919545922591663 0.31301023770475306 
-0.25166859583687606 -0.12748804329551097 0.40790299728183455 
0.28611980313647167 -0.26506426039454345 -0.15748500717363112 
0.041827208711621523 -0.14174818184207191 0.035140746665306075 
-0.061946479149507509 -0.032538577096101071 0.069310597422839168 
-0.061946479149507509 -0.032538577096101071 0.069310597422839168 
-0.0020089082350905271 -0.14052393411855923 0.070271176075786285 
-0.061946479149507509 -0.032538577096101071 0.069310597422839168 
-0.061946479149507509 -0.032538577096101071 0.069310597422839168 
-0.061946479149507509 -0.032538577096101071 0.069310597422839168 
-0.061946479149507509 -0.032538577096101071 0.069310597422839168 
-0.067789951693229336 0.13386364581305327 -0.19629113073565585 
-0.061946479149507509 -0.032538577096101071 0.069310597422839168 
-0.10479777587648542 -0.23410305154928371 0.30526730051484657 
-0.17120391624165179 0.49885021734687346 -0.30590000303202242 
-0.29139402290291544 -0.00960185088562188 0.23931036804980488 
0.23369756759751006 -0.26305704583567729 -0.085874671785481374 
-0.10479777587648542 -0.23410305154928371 0.30526730051484657 
0.20582763121785644 -0.24484433684143408 -0.01510512953008244 
0.15770323040816323 -0.11789009448178077 -0.078031432527017719 
-0.15371476901226666 0.53424465245657748 -0.024491279716864697 
0.043575673361114509 -0.013408065360546607 -0.1139540320058762 
-0.11437600569310176 -0.151208052639725 0.18155583879001624 
-0.32173078973829206 0.20945919421889672 0.09672766269357265 
0.45187210920056348 -0.17013462335564111 -0.23644605242061464 
-0.0020182812799302324 -0.023911333358476308 -0.042707877159970556 
0.24658824745154112 -0.19253123859385654 -0.13567512748842883 
0.229366906024947 -0.080036096928647077 -0.10308385971216386 
-0.022673318109100532 -0.13718992550680814 0.15287184822148511 
0.12053287314466886 -0.080036096928647077 0 
-0.20827193633485769 0.48808530043372972 -0.26832329476113315 
0.12053287314466886 -0.080036096928647077 0 
-0.068329055604719427 0.19288892769337956 -0.08498135714200801 
0.23361548447197819 -0.1095930937869278 -0.037414322346661748 
0.12053287314466886 -0.080036096928647077 0 
-0.63619514933213117 -0.046206859914743451 0.10770911061458503 
0.24347564086773424 -0.18977406340265091 -0.33559020983622345 
0.12053287314466886 -0.080036096928647077 0 
0.024469071020911868 -0.066094734502006883 0 
-0.064928691590880522 -0.10784523062854412 0.12990473902040103 
0.19282912247488063 -0.13218946900401377 -0.15006652143674512 
0.024469071020911868 -0.066094734502006883 0 
0.25469490573134085 0.11680750589118438 -0.21927056777422912 
0.024469071020911868 -0.066094734502006883 0 
0.024469071020911868 -0.066094734502006883 0 
0.0037834370068915019 -0.1366956646123868 0.070627912809832577 
0.033301481058825202 0.064932818208888771 -0.13433882426924193 
-0.23046813839710006 -0.11773959319879124 0.1671194410767935 
0.50597487530530361 -0.087312049506008627 -0.42282239952588613 
0.32810720650251407 0.12372562929701816 -0.42266770474407095 
0.052901318839728352 -0.062827650352420189 0 
0.052901318839728352 -0.062827650352420189 0 
0.052901318839728352 -0.062827650352420189 0 
0.052901318839728352 -0.062827650352420189 0 
0.6233429996165758 -0.1423023921766334 -0.5153423685855868 
-0.19242999179544887 -0.26766646579567366 0.2059562845772781 
0.16236332235724224 0.16526827923995183 -0.21042665115233958 
-0.067985680345341998 -0.062827650352420203 0.068636578783593805 
0.052901318839728352 -0.062827650352420189 0 
-0.36910318543480369 -0.14616739820755409 0.36900355756541392 
-0.16380279217270796 -0.063955136411505797 0.29459148563977772 
0.19690696823906845 0.010820645396012693 -0.33435819557912139 
0.052901318839728352 -0.062827650352420189 0 
0.052901318839728352 -0.062827650352420189 0 
-0.16886901762699918 -0.47077865991873774 0.46704295275025021 
-0.20079196220449311 -0.10549531845277156 0.24261516001279912 
0.085867464703918317 0.039494661804481079 -0.050515300114503316 
0.182402765216853 -0.25478894099495192 0.014605602569067089 
0.15191832155146578 0.1472546713292385 -0.31450184359491118 
0.42971419398773847 0.10148910381953818 -0.60858008659196305 
1.056760783381236 -0.44388696235550296 -0.9160278057891772 
-0.29744626751266279 0.25357725372362616 -0.098311862607952397 
0.16190574698861715 0 -0.019656592062666196 
0.037114712002106698 0 -0.069160893788788869 
0.037114712002106698 0 -0.069160893788788869 
1.0392380154425231 -0.47183946329837162 -0.65208630401583678 
0.11711433060031333 0.051313047125287323 -0.066129569456152962 
0.037114712002106698 0 -0.069160893788788869 
0.037114712002106698 0 -0.069160893788788869 
-0.17730146509424172 0 0.11276752688391795 
0.20524807684160407 -0.39385833873806758 0.0085490835128713243 
-0.11402929030219083 -0.019348685038790982 0.077321987689914912 
0.037114712002106698 0 -0.069160893788788869 
-0.11910761790734122 0.11820875016285604 0.0073347545566388971 
-0.33209682370174837 -0.1200828333567112 0.33903964571025386 
0.36321626349553504 -0.15988120364983932 -0.31637153885832148 
-0.024167098692293939 -0.037951264380543137 -0.01075093532924094 
0.060585140354351225 -0.01740109541677191 -0.11922778435381769 
-0.12419441434823493 -0.01740109541677191 0.11268220867259091 
-0.26744768243427197 -0.15613647372106962 0.28740814830046224 
-0.10379407990221781 -0.01740109541677191 0.097501483278751438 
0.072211029014822792 -0.21344491923714334 0.17001153204236669 
-0.0005720896182281332 0.011936171570391939 -0.030926596929905376 
-0.12419441434823493 -0.01740109541677191 0.11268220867259091 
0.0028607120784924396 -0.13546665810508479 0.068227872593104685 
-0.12419441434823493 -0.01740109541677191 0.11268220867259091 
-0.12419441434823493 -0.01740109541677191 0.11268220867259091 
-0.12419441434823493 -0.01740109541677191 0.11268220867259091 
0.40942951379777953 -0.087840376753192159 -0.37000572999857551 
-0.19232517826492285 -0.19313880076569606 0.32875699152461552 
0.19504848901770069 -0.087840376753192173 -0.14141049776032064 
0.0082488738615333311 -0.099212796838505382 -0.017302347902835812 
0.19504848901770069 -0.087840376753192173 -0.14141049776032064 
-0.300967205989775 -0.3391313566147604 0.29873274203105454 
0.19504848901770069 -0.087840376753192173 -0.14141049776032064 
0.19504848901770069 -0.087840376753192173 -0.14141049776032064 
-0.046055291462645143 0.26423511223219176 -0.23360612851633247 
0.19504848901770069 -0.087840376753192173 -0.14141049776032064 
0 0.02047507843581375 -0.17186471308682988 
0 0.02047507843581375 -0.17186471308682988 
0 0.02047507843581375 -0.17186471308682988 
-0.022628743623788861 0.20742235452246996 -0.14328547020445337 
0 0.02047507843581375 -0.17186471308682988 
-0.01435527855457111 0.41965483792031405 -0.50974372842129889 
0 0.02047507843581375 -0.17186471308682988 
0 0.02047507843581375 -0.17186471308682988 
0.14899395625171091 -0.20905509124348723 -0.034291130496075815 
0.2046608205105698 0.020918273199692618 -0.15092232634459785 
0.0029806761987672399 0.15190834536431966 -0.060804964678994607 
-0.57851749539104802 -0.012644162671603735 0.67718598903532434 
0 0.02047507843581375 -0.17186471308682988 
-0.34100178770166462 0.66626621493991856 -0.31207526909780425 
0.017798771534095668 0.098996697720847737 -0.081538929249730788 
-0.016264688440667772 0.54126404454565313 -0.61624162804616112 
-0.34100178770166462 0.66626621493991856 -0.31207526909780425 
-0.208105266214969 -0.023387915912829453 0.26551360634552129 
-0.38537048828583437 -0.47563596514322937 0.42658079388156545 
0.59652347510180692 -0.049272716797402014 -0.43175048366733493 
-0.074085827340613059 -0.18323715549495667 0.26872155038764611 
-0.050036132412137349 -0.080211575479955097 0.079953797839866947 
-0.0048176090998651409 -0.1406834942416918 0.066908313017351603 
0.04259107137822362 0.090770502419048146 -0.1241819719507942 
0.59652347510180692 -0.049272716797402014 -0.43175048366733493 
-0.31477386053935208 -0.41740819209804253 0.36312714075643637 
0.44829721941937084 -0.048579411682366312 -0.33702774216060399 
-0.024506091264854753 0.15038426723725068 -0.10741903944232703 
-0.03431435137810273 -0.061467140304243058 -0.026145095010466506 
1.2067960333445902 -0.35224845414294209 -1.1864861203469403 
-0.094778734117391683 -0.21270058427018171 0.15323517317054233 
0.38684320730906419 -0.36624437922683462 -0.33479624743036268 
0 0 0 
0.35742878549372242 -0.19240545296943834 -0.063361185508650122 
0.073261417580130425 -0.12718489096033028 0.0056616594833213225 
-0.047676337538396417 -0.074035266279951675 0.072359256403801198 
0.20414368197035154 0.064663597092649558 -0.37080839878227073 
0.094693476934615092 0.11918468592166422 -0.24533708668411242 
-0.043128851124963244 -0.13100140024485923 0.12769395363015115 
-0.4851043587204964 0.61132119121496487 -0.19282147678899381 
-0.53833403291747839 0.38539628256344527 -0.065679435699212169 
-0.23765186386589326 -0.12724444777346211 0.14956884525929445 
0.1116502731234752 0.20072576309291029 -0.40314704688945596 
-0.10916751326461129 -0.20129991115182636 0.19099740654410644 
-0.089916867082904917 -0.095410391722220961 0.13125537530732309 
-0.030206769233766643 -0.095631770958074541 0.050875115567340305 
-0.073898481427707136 -0.024519493720776525 0.065364716644905591 
-0.073898481427707136 -0.024519493720776525 0.065364716644905591 
-0.089916867082904917 -0.095410391722220961 0.13125537530732309 
-0.073898481427707136 -0.024519493720776525 0.065364716644905591 
-0.073898481427707136 -0.040826408395106505 0.12406260982837346 
-0.12905956736897684 -0.040767493802484636 0.10009210533740504 
-0.073898481427707136 -0.024519493720776525 0.065364716644905591 
-0.073898481427707136 -0.024519493720776525 0.065364716644905591 
0.13446589769450801 -0.024519493720776539 -0.17401174556434268 
-0.073898481427707136 -0.024519493720776525 0.065364716644905591 
-0.25126039508864761 0.16101647276091516 -0.051976526813586631 
0 -0.085114151685275044 0.14234124758844049 
0.22267477316530504 -0.28633004304595255 -0.046916765315179271 
0.12391215243785753 -0.13377992684144549 -0.078186480314915097 
0 -0.085114151685275044 0.14234124758844049 
-0.32491784066645235 0.025467684977668579 0.20087091459237197 
-0.37029950217680807 0.089690087108868999 0.23921748231629827 
0.19063892270045207 0.33331810350594826 -0.52843738026573706 
0.099924963951239149 -0.13098453715607725 0.093494526846041925 
-0.16093999596792313 -0.18386268645123677 0.27116368910252031 
0.03839612291597972 0.066603476695898639 -0.068275663750243187 
0 -0.085114151685275044 0.14234124758844049 
-0.042402560612585516 -0.21539034872096646 0.10298389199357737 
0 -0.085114151685275044 0.14234124758844049 
0 -0.085114151685275044 0.14234124758844049 
-0.24657886208998875 0.089172251400862823 0 
-0.070298962563007231 -0.12283851278268641 0.14793987554985577 
0.14129002564304896 0.32493860853720158 -0.56844211049010118 
-0.040009411914574737 -0.14255418653007723 0.0963337035964794 
0.45282042934258743 0.017497711537960918 -0.42278661583089605 
-0.24657886208998875 0.089172251400862823 0 
-0.24657886208998875 0.089172251400862823 0 
-0.24657886208998875 0.089172251400862823 0 
-0.095057408407205612 -0.032450838792823497 0.18062304575665503 
-0.24657886208998872 0.28396820786064814 -0.24875386046972148 
-0.14345872715517 -0.18969163999291708 0.23119088434642648 
-0.064365054106335057 -0.0072631824838190751 0.047239682523813692 
0.11020364450690853 -0.26359113774724463 -0.15007487175847303 
-0.2660961163144816 0.062908596955542115 0.096970788975457772 
0.16083544123357843 0.096377138818893898 -0.22774011997455312 
0.18052054306309312 -0.21417587908092039 -0.14782838707900592 
-0.0023909998231455452 -0.31800104255703027 0.099192560849704459 
-0.12316513377807427 0 0.14485589288991199 
-0.12316513377807427 0 0.14485589288991199 
-0.12316513377807427 0 0.14485589288991199 
-0.042953774458522838 -0.068298985930319731 0.046257643969290385 
-0.12316513377807427 0 0.14485589288991199 
-0.12316513377807427 0 0.14485589288991199 
0.066633016956254718 -0.01210737481943399 -0.12415570086611882 
-0.10558380203747038 -0.060230804620695522 0.14948639742483766 
-0.12316513377807427 0 0.14485589288991199 
-0.16711892558688635 -0.024353033124817437 0.32569755812877654 
0.15397289123280122 -0.31654590992049497 -0.17170845953287453 
-0.041329730752379265 6.8440262138147467e-18 0.0045818861200790347 
0.13526527666247898 -0.35068322136233226 0.084985543522890949 
-0.20259860511899885 -0.065896536709177958 0.082139180752934873 
0 0 0 
0.041720313193746833 -0.00079454579279900192 0 
0.041720313193746833 -0.00079454579279900192 0 
0.054690611032692835 -0.20279497416375317 -0.0087173108536367262 
0.041720313193746833 -0.00079454579279900192 0 
0.9011677243650259 -0.3489819580824699 -0.83949511572280955 
-0.41671623085417642 0.51817034602777767 -0.12635568399511007 
0.45342333194911588 -0.17675153705794433 -0.24187136898067446 
0.041720313193746833 -0.00079454579279900192 0 
-0.05161857613635866 -0.01784778110612226 0.082197864190282244 
0.57744405472190696 -0.40522975846954656 -0.52250814507584364 
0.22372667812516445 -0.096638251833127478 -0.1008281329830033 
0.048694285016386112 0.085077466391660209 -0.16259756789886706 
-0.11190769561116727 -0.19237398160295219 0.17380929362706812 
0.1257719100202592 -0.0702379324016041 -0.036285000491725602 
0.1257719100202592 -0.0702379324016041 -0.036285000491725602 
0.20659765588149487 -0.015605165816935978 -0.20429191024791082 
-0.022052088181917222 -0.004868938341492976 0.13286139295575095 
-0.10284146029178497 -0.076701124430958389 0.14188332233178336 
0.38870694919142279 -0.13001556330240277 -0.34782091049821268 
0.1257719100202592 -0.0702379324016041 -0.036285000491725602 
0.1257719100202592 -0.0702379324016041 -0.036285000491725602 
0.1257719100202592 -0.0702379324016041 -0.036285000491725602 
0.14664241866844654 -0.074666373454989957 -0.16204309015363061 
0.14664241866844654 -0.074666373454989957 -0.16204309015363061 
0.064476183577105758 -0.073039997239501386 0.013400098059133619 
-0.086861582866412712 0.040175547296399321 0.035675060414632698 
0.14664241866844654 -0.074666373454989957 -0.16204309015363061 
0.090953204271553262 0.10126916056923514 -0.24896654801035531 
0.14664241866844654 -0.074666373454989957 -0.16204309015363061 
0.14664241866844654 -0.074666373454989957 -0.16204309015363061 
0 -0.00029639857794828701 0 
-0.005337962903163988 0.052074970683874018 -0.036825942386347725 
0 -0.00029639857794828701 0 
0 0.33391082473161632 -0.50400230787869305 
-0.078698375827005423 -0.011840285801196643 0.080955890210875972 
0 -0.00029639857794828701 0 
0 -0.00029639857794828701 0 
0 -0.00029639857794828701 0 
-0.0012034464846449365 -0.031598953118280822 0.022490476346558659 
-0.19544032590529875 -0.11192809881281622 0.28749028748788219 
0 -0.00029639857794828701 0 
0.25899973527323061 -0.27190446549252534 -0.11067030490250138 
0.99474501401276094 -0.21126316428266539 -0.81915605699992478 
-0.015499802650727437 0.0085749803281205076 0.020857045076639016 
-0.22700361746969183 0.15938087839845144 -0.0044378415097706568 
-0.25266947316899202 0.16452770329621649 0.11986982632654332 
-0.078781397054970032 0.15938087839845147 -0.04804846225978808 
-0.22700361746969183 0.15938087839845144 -0.0044378415097706568 
0.22901481596267809 -0.17328104891047966 -0.06823291893510483 
-0.22700361746969183 0.15938087839845144 -0.0044378415097706568 
0.053580039738459366 0.29478025799799201 -0.3511007954648227 
0.41830770288221208 -0.0040534926182966211 -0.54942971503864169 
-0.20081594787280774 0.11440927017967234 0.10443497191832142 
-0.25757821450698948 -0.022895584125800665 0.20387372807363408 
0.17514240872972409 0.15938087839845144 -0.46432814347873003 
0.087817465391388766 -0.02292861215740135 -0.23557450056589554 
-0.22700361746969183 0.15938087839845144 -0.0044378415097706568 
-0.085678050253152394 -0.0091858935297159973 0.049672618083207623 
0.02144597956487037 -0.1110835921584398 0.083986412495756529 
-0.098607605797645728 -0.11173969251766189 0.2461746388915462 
-0.11821391372762978 0.14112052190786892 -0.021063883904927146 
-0.085678050253152394 -0.0091858935297159973 0.049672618083207623 
-0.26206607959430572 -0.14449010580001276 0.29554600584758395 
-0.28845395238219196 -0.32654691317027634 0.51862844967504929 
-0.16755670249547422 -0.058984129466103277 -0.0048152334954983216 
0.25458077226947051 0.088684807275174651 -0.37903077452894574 
-0.085678050253152394 -0.0091858935297159973 0.049672618083207623 
0.084584061852075842 -0.14548327081112442 0.0033580362470167543 
0.145609184289125 -0.14524024871094837 -0.10672460033244058 
-0.085678050253152394 -0.0091858935297159973 0.049672618083207623 
-0.14287129395250844 -0.0091858935297159956 0.10599402133888991 
0.042229450830591167 -0.041336815730014353 -0.016399820565199136 
-0.015387446631050992 0.020191722013472736 -0.060519690285338351 
-0.085678050253152394 -0.0091858935297159973 0.049672618083207623 
-0.06862864133652119 0 0.091009657286344692 
-0.058527152056447276 0.072554379688576476 -0.12722796154770066 
-0.20595677647932104 -0.29637270287405781 0.3255446032099979 
-0.26613928513144997 -0.27690005186251865 0.22131753243537469 
-0.06862864133652119 0 0.091009657286344692 
0.52919191495731988 -0.15808704645135963 -0.4620154537788872 
-0.10029258905710443 -0.03246107768268415 0.091921865214358855 
-0.53952125800044526 -0.14943378110907235 0.62207309444880299 
0.3226758045159574 -0.04837494998925658 -0.31412997344259203 
0.0072675143658463698 0.23094454224336561 -0.15872462211517877 
0.050842529392236324 -0.20187682515822863 0.24470864560759337 
-0.092935967267250202 -0.014218800379293552 0.093932711809499234 
-0.1858719345345004 -0.02843760075858711 0.20451549444278802 
-0.042406314774969173 0 0 
-0.042406314774969173 0 6.8489741750015656e-18 
-0.13451471645677923 3.4694469519536142e-18 0.031279015207818749 
-0.042406314774969173 0 0 
-0.0042153383455883027 0.069483879740772234 -0.19744001212325027 
-0.092935967267250202 -0.014218800379293552 0.093932711809499234 
0.24000111627736703 -0.52194734641463758 0.1243127077231813 
-0.10142598389752122 -0.084934249718161853 0.088746944302862549 
0.16042342365000478 -0.06304981650963247 0.011403342340772366 
-0.042406314774969173 0 0 
-0.042406314774969173 0 0 
0.055764036781999093 -0.044174116608046217 -0.063808595253304401 
0.055764036781999093 -0.044174116608046217 -0.063808595253304401 
0.62837800523813148 -0.1911074173199335 -0.63593201948817157 
0.055764036781999093 -0.044174116608046217 -0.063808595253304401 
0.041415360503387615 -0.10903016947330277 -0.026109127243493124 
0.12288855525445122 -0.044622037576332971 -0.09814494139898898 
-0.16581050557873572 -0.20357017285171847 0.21416548147863967 
-0.051401857509078268 0.092360833433162523 0.014785551414762659 
0.050134582014431765 -0.029882673280498311 0 
0.094640043103156352 -0.13330668763137599 -0.048065113360306486 
-0.017041400040445191 0.50392564532242057 -0.48977599422485785 
0.050134582014431765 -0.029882673280498311 0 
-0.042741586094553946 -0.032692983729510003 -0.14842034474975754 
0.050134582014431765 -0.029882673280498311 0 
-0.085198154330346429 -0.22871559513902731 0.20130395752740429 
0.19358835432201638 -0.36890939507850518 -0.041505335084218331 
0.050134582014431765 -0.029882673280498311 0 
-0.078071384051832254 0.11759213836591899 -0.06263036632385692 
0.050134582014431765 -0.029882673280498311 0 
-0.050177534164717486 0.19971150627810075 -0.18469954280905312 
1.1313469623882524 -0.76862922741803341 -0.78855920809410029 
0.19216828482415954 -0.055495360988819305 -0.13234910974544678 
0.17792220260670105 0.052019239007545917 -0.29565390361093596 
0.16028795235958054 0 -0.22540089400363328 
0.16028795235958054 0 -0.22540089400363328 
-0.099265893107493577 -0.15534916595793091 0.13059088272966882 
0.079027729815749487 -0.034623827679509431 -0.049217386870338234 
0.20210025533021342 -0.12272331548405634 -0.049610031542831994 
-0.16500383180019462 -0.035485239143704952 0.21016325496103605 
0.16028795235958054 0.22954422415974168 -0.51203080960850689 
0.13251420118946802 -0.10738299807977859 -0.085611146514524283 
-0.090439784232704282 -0.19894365188204668 0.15172820497178527 
-0.014401764036893782 -0.30239648829895899 0.18196408484034002 
0.54114201375045656 -0.3035068122150219 -0.40265440652027951 
0.16028795235958054 0 -0.22540089400363328 
-0.26461388970616595 -0.012845774877964362 0.29385685663331201 
0.15348020955907238 -0.012845774877964362 -0.22010117636085438 
-0.26461388970616595 -0.012845774877964362 0.29385685663331201 
-0.14946584281476966 -0.017213928518789268 0.070883751042516652 
0.023070827643899922 -0.27529290821288566 0.35597373202274285 
0.058579623644108084 -0.068013481730243866 -0.064597839181334354 
0.16953931493395547 0.039174134900510971 -0.25381790064126009 
-0.26461388970616595 -0.012845774877964362 0.29385685663331201 
-0.46639809004176491 -0.062203835884946018 0.53621087241376841 
-0.048578997288259165 -0.11196606261963819 0.25853365300514203 
0.25222501892386801 -0.14929567950275385 -0.16307334969246592 
-0.3874286627942724 -8.6736173798840355e-19 0.38035812945566355 
0.17735224951048356 0.16853461469649131 -0.45858704805518069 
-0.279559163795149 -0.24500204870706957 0.48480732443261559 
-0.16152396464776442 -0.0021391996118521506 0.25276685310000579 
0.039600607563801619 0.24877393734401632 -0.21230336893914378 
-0.32795108026247921 0 0.35618461215121461 
-0.17817736438718895 0.13485148142952838 -0.13674888321981099 
-0.010270407932610953 -0.13798113908677034 0.059318890412273055 
-0.24536970423637205 3.4694469519536142e-18 0.23653575073912836 
-0.1148403361167897 0.0085342872603653593 0.054631677987162508 
-0.18507636606215827 -0.092784699616654684 0.24174004206601843 
-0.18507636606215827 0 0.24174004206601843 
0.17381151111485943 -0.4223646210969586 0.24006887314030029 
0.71512532031964415 -0.42372098819681692 -0.4764355615018589 
-0.12712388565228885 -0.017647798126970544 0.21037708519441622 
0.039051347142577041 0.13164754825415312 -0.2172937767302042 
-0.28100672451953096 0.17997526419956159 0.15548061123210138 
0 0.21840868706245289 -0.22836182076004688 
-0.14944169609224883 0.039814309358360042 -0.082236765553721711 
-0.53200487807402019 0.40702503992908162 0.030637352593453092 
-0.037657838378630987 -0.2372247461934732 0.36388053081735766 
-0.17514562043588269 0.11667040390160266 -0.016758399198245285 
0 0.21840868706245289 -0.22836182076004688 
0.1789368165649648 0.11303484860338865 -0.23366727170618543 
-0.08692836264491044 -0.060050756931822796 0.02526907409926573 
-0.065871480382533071 0.19353488461248494 -0.14820896028614916 
0 0.21840868706245289 -0.22836182076004688 
0 0.21840868706245289 -0.22836182076004688 
0 0.21840868706245289 -0.22836182076004688 
0.12128212104676094 0.25219167519506414 -0.31681656969128569 
0.11581180286821773 0.011870074382780579 -0.31331768691439454 
0.065093672301481678 -0.30190244532681804 0.019034537136608885 
0.31570392300203326 -0.10003940265306897 -0.26552012777041861 
0 -0.10003940265306897 0 
0 -0.10003940265306897 0 
0 -0.10003940265306897 0 
0 -0.10003940265306897 0 
-0.16824247616122626 -0.092898960690292715 0.13075919821795551 
0.2924171081502035 -0.24738952790232679 -0.034302683492741126 
0.15528019934349421 -0.21662173613893232 0.11688616009653012 
0.063627107297543686 -0.24552092422095745 0.026599506585157664 
-0.32314483750240847 -0.17843308408065831 0.38485948704770689 
0.038105365410002562 0 -0.019084572616127719 
0.076210730820005124 0 -0.038143311350532769 
0.03946634878393699 -0.12986021571703593 -0.091824825359696452 
-0.18340714723971274 0.132163383454248 -0.032900368901108167 
-0.13005655095904298 0.077424983477671114 0.10732256916625647 
0.28807429829345699 -0.096999258497603547 -0.094363322003656894 
0.038105365410002583 0 -0.032566569043570665 
0.42290462839360943 -0.23266297930445612 -0.18643560177567634 
-0.03401199390276826 0.37366955240330246 -0.43287474047316871 
0.021847241639482647 -0.12350936643014303 -0.027093179182371353 
0.23471384937092143 0.032898607980189822 -0.2983393644324604 
0.29526703038074176 0 -0.13346405372391912 
-0.13486916086075992 -0.17379687110443925 0.1733607066062467 
0.030824751532140614 -0.13953264120260944 0.089175324162137026 
0.29526703038074176 0 -0.13346405372391912 
-0.39536772032151513 0.19101074983293553 0.23385944193309918 
-0.095876767112340569 0 0.11511981378582148 
0.0026206025997879932 -0.13744535800721439 0.061564576735630691 
0.32101636918244386 -0.10413366160498858 -0.21254816761025838 
-0.095876767112340569 0 0.11511981378582148 
-0.24390612969854758 -0.13553048102631721 0.41878380460999276 
-0.095876767112340569 0 0.11511981378582148 
-0.43720428415883472 -0.022835780044333842 0.38851036248372184 
-0.3059882443368101 0.099560867882077839 0.28122996841009268 
-0.095876767112340569 0 0.11511981378582148 
0.1982888668197415 -0.10175263314037802 -0.17922391887614678 
-0.046157528038871756 -0.10441116909423137 0.11113906843232503 
-0.012420658593930919 0 0 
-0.012420658593930912 0.25373719033345177 -0.14691088293061524 
0.11748170371853144 -0.042942160201941304 -0.096368706706425333 
0.0656875961629515 0.056861313544795032 -0.1532639744823166 
0.03212904361265554 0.57999160237854763 -0.5516705357861057 
0.26402913200434114 0 -0.21256919133976182 
-0.20624571817387391 -0.25691077757877073 0.19225677524380147 
0.12760932647267409 -0.18314367185698821 0.14187737016342972 
-0.17189271128319381 -0.32880954019626557 0.1830783728465594 
-0.15257942565292365 -0.014869626208453108 0.07142410114100442 
-0.08209299890324484 0.085792804914406842 -0.065045682556755746 
-0.14880571310699833 -0.11891053983752449 0.13660426251941199 
-0.26994647335353827 -0.074267838153863036 0.25188937868811745 
0.59543300470621519 -0.18051519483776313 -0.45853837938342379 
-0.083117077148838786 -1.7347234759768071e-18 0.13516106035964739 
0.0078149575199466213 -0.12176378056703276 0.097431687356757446 
0.043049258492374176 -0.28119795586736396 0.19497267322624331 
0.52901357483024058 -0.31585611697479171 -0.27620965344958825 
-0.016716443222099114 0.12677160448943423 -0.00027680555808031371 
-0.13730486902681643 -0.11763195274406803 0.17442735184594976 
-0.0057654260120074477 0.085752507219329505 -0.10644250207479579 
-0.1147796805711936 0.06333764390465256 0.026630547935704969 
-0.085541519143538705 -0.071726480995995837 0.12152959751422315 
-0.20226401590244825 -0.071726480995995837 0.32506549337031188 
-0.073973136099651809 -0.071726480995995837 0.17926580903513314 
-0.20498945794460299 -0.30383376957347424 0.29865783314414485 
-0.073973136099651809 -0.071726480995995837 0.17926580903513314 
-0.073973136099651809 -0.071726480995995837 0.17926580903513314 
-0.49636947494092343 0.86475194110904252 -0.53406315260262793 
0.77192988036666632 -0.59415899059817623 -0.37701099274871841 
-0.073973136099651809 -0.071726480995995837 0.17926580903513314 
-0.073973136099651809 -0.071726480995995837 0.17926580903513314 
-0.073973136099651809 -0.071726480995995837 0.17926580903513314 
-0.093075988676219065 -0.11053329111388734 0.17241425230947224 
0.045500047572240174 0 -0.040559624985788821 
-0.14409016237822705 -0.02851731125492793 0.15938043324375406 
0.19235656007559571 -0.1725457708093274 -0.33380167099089525 
-0.0018764503349184905 0.20729200882769266 -0.12940490678029593 
0.045500047572240174 0 -0.040559624985788807 
-0.012174319978137262 -0.087984423622023467 -0.052695686056991368 
0.0071093049283281681 -0.096434243889965188 0.082383923270668305 
0.045500047572240174 0 -0.040559624985788821 
0.045500047572240174 0 -0.040559624985788821 
0.045500047572240174 0 -0.040559624985788821 
0.045500047572240174 0 -0.040559624985788821 
-0.18346900559387591 -0.048718301868991704 0.27255053012573899 
0.045500047572240174 0 -0.040559624985788821 
-0.080043393482739714 0 0 
-0.22391158936555747 -6.9388939039072284e-18 0.10885160478996742 
-0.080043393482739714 0 0 
-0.080043393482739714 0 0 
-0.080043393482739714 0 0 
-0.080043393482739714 0 0 
-0.07938124545113906 0.6228156818064654 -0.57384571232874826 
0.059502279499738145 0.047583557733187308 -0.247932455872863 
-0.12814586733193414 -0.020419120398514162 0.16102374805165454 
0.045607528664480521 0.047834241275661528 -0.22721342949756423 
-0.23628550645499197 0.035190781924405362 0.31727506502800545 
-0.083379233399580532 0.14941166455475899 -0.12598174251386629 
-0.21348828923947011 -0.51497646797774355 0.46674797413534896 
-0.1221626034008466 -0.020419120398514196 0.2675113153929502 
-0.16037514179692058 0.45088311922032465 -0.48447942895385387 
0.39497880281436215 -0.12908692858080634 -0.29614282034144346 
-0.037818861255852362 0.0070520392854970769 0.16990106317614134 
0.00082761414864734699 -0.21319798989138161 0.15739558481929539 
-0.27019812988482211 0.062173097795287867 0.11385616761272971 
0.62163147715239619 -0.45774480977313453 -0.20670449036896307 
-0.1221626034008466 -0.020419120398514196 0.2675113153929502 
-0.1221626034008466 -0.020419120398514196 0.2675113153929502 
0.042487831970763515 -0.010271724137704661 -0.056177965937221165 
-0.26024147717626878 -0.095505727891465303 0.28766057678917117 
-0.066190124887205146 0.008147337910193491 0.050717955817903421 
-0.13085552945047063 0.3124081010137289 -0.11745873963302805 
0.084231469380171231 -0.084898500917376565 -0.056177965937221165 
0.061950651616523252 -0.089610063431235315 -0.058476541745847328 
-0.043021133907070006 -0.038510110354017704 0.069852238517774667 
-0.44069992218460241 -0.12582236920061277 0.46980603539803373 
0.49045902744462039 0.043132486303338345 -0.46160889297703039 
1.4527642406570846 -0.18219610163274147 -1.4269265102212771 
0.1176182304091524 -0.13271366105377141 0.17255466459388161 
-0.20688246011244799 0 0.14289423202343957 
0.027848222155248986 -0.18589392010008415 0.021355944454184924 
-0.35634571942968241 0 0.28009412015881813 
-0.21043228541956799 -0.16009572707548853 0.27794949810339264 
0.24040525472932489 0.098755624100375652 -0.3686371746476752 
-0.27472545859913111 -0.23751315868976089 0.19840188204902381 
0.13223831623795312 -0.48041400019003455 0.32000966086660443 
0.15322764552574855 0.079276180152390324 -0.33362449944290778 
0.37479410502258043 -0.12849072977270845 -0.29690903934209145 
0.26077960281540402 -0.078572748928034009 -0.21462252353232411 
0.08411116811994522 0 -0.17217325756041535 
-0.032586786809737284 0.19000105966551292 -0.17890052629592371 
-0.26910592822223289 -0.20999388232973298 0.36929178125539269 
0.20463217719481588 -0.061949893625434148 -0.18152497921244568 
0.2646087232049194 0 -0.33362449944290778 
-0.11542959062977999 -0.157407366788962 0.33523742749376817 
0.20349828500033934 0.22869936343796538 -0.49030770922105449 
-0.097624133409042357 0.21323324091760096 -0.067726393494852502 
-0.28306111893660379 0.061063382109035669 0.047950027947794634 
-0.21339124000270659 -0.2872542627806553 0.22243146863542837 
-0.21844221489852761 0.22570732331000362 0.077397669162889884 
-0.12877973825978398 -0.157407366788962 0.33523742749376817 
0.048107785090144135 -0.157407366788962 0.21513258117483086 
-0.24114707904236887 -0.31459056671017177 0.28669978382435146 
-0.078698375827005423 -0.011543887223248358 0.080955890210875972 
-0.078698375827005423 -0.011543887223248358 0.080955890210875972 
-0.078698375827005423 -0.011543887223248358 0.080955890210875972 
0.10778760048352434 -0.21444154221280159 -0.12943715830577229 
-0.058029475545324477 -0.037016542446142921 0.042366179448457421 
-0.031116908674659327 -0.1070661496863288 0.055017946017308063 
-0.033463717138138761 0.11970109933462657 -0.027206453304383014 
-0.078698375827005423 0.12435822533110105 -0.038806164103279729 
-0.042811907008137223 0.23157268755225258 -0.045638422350903395 
-0.19365549353350012 0.027688957329134355 0.11405078985035909 
-0.078698375827005423 -0.011543887223248358 0.080955890210875972 
-0.033439129821204755 0.12542980519645122 -0.12926035970719194 
-0.078698375827005423 -0.011543887223248358 0.080955890210875972 
-0.078698375827005423 -0.011543887223248358 0.080955890210875972 
0.04973701815248821 -0.12391644426474259 0 
0.10087632978660663 -0.29987380885649928 0.23763536652756492 
-0.2045010293889909 0.60624125556053232 -0.45750011873038482 
-0.2606280263862728 0.055200959218782632 0.25760498593622844 
0.17479976685694054 0.0091115034378028217 -0.24610018611062345 
0.04973701815248821 -0.12391644426474259 0 
0.04973701815248821 -0.12391644426474259 0 
0.30141520846729125 -0.12391644426474262 -0.19992199452660248 
0.04973701815248821 -0.12391644426474259 0 
-0.095390914150448272 0.13537137135138197 -0.089023420734642145 
1.026845137593992 -0.31175476944430108 -1.1176108319410085 
0.18268364219025135 0.0040467669816354399 -0.22867541842790809 
0.04973701815248821 -0.12391644426474259 0 
0.04973701815248821 -0.12391644426474259 0 
-0.041499994852646757 -0.16489500604121271 -0.017500499744307597 
0 -0.0012438963602598326 0.095976048182743579 
-0.26233117081311119 0.063674276898532958 0.15187873659496418 
-0.16278665965344219 0.13067238055908026 0.068414281815153313 
-0.17273389749678061 -0.011227438471596133 0.085273161571254918 
-0.015648512416670916 -0.0012438963602598343 -0.034187052326678902 
-0.17641287392893173 -0.20744323828236166 0.25170593909543637 
-0.040132746044608113 0.38057282523400432 -0.23511374487674425 
0.17993338095530992 0.075353332442419596 -0.11070650677181543 
-0.061449606560838692 -0.16989972535852746 0.13719078720583688 
-0.14995970773798983 -0.17318024679012711 0.28709826841048386 
-0.15216549646349695 0.075185458725878701 0.095976048182743579 
0.240307124926948 0.088381833372313756 -0.33379051979800856 
0.34106834821458498 -0.16323863759978796 -0.19610565340768657 
0.017545939979409286 -0.094948667304396925 -0.13430034688555095 
0.17024243467535838 0 -0.13939677312513818 
0.17024243467535838 0 -0.13939677312513818 
0.072272238137434011 -0.098186813902338743 -0.065437487673181138 
0.17024243467535838 0 -0.13939677312513818 
0.17024243467535838 0 -0.13939677312513818 
0.12359098785047794 -0.45513280035318027 0.037348545245133438 
0.17024243467535838 0 -0.13939677312513818 
0.087457025147488918 -0.08028206852087566 -0.069513590985513074 
0.040749104946052578 -0.032178202356544353 -0.042998185595225502 
-0.16412269612762859 -0.13740730213189623 0.38065809646638188 
-0.010470882938111674 -0.12152013065990151 0.04362089832456946 
0.038357102611916917 -0.022726648692385654 -0.20408942711990685 
0.016075102306007873 -0.025281090367347998 0.1045410232131109 
-0.12759439025685698 0.19358273280472324 -0.043681744182651701 
-0.15286912575931955 0 0.14715510242795529 
-0.15286912575931955 0 0.14715510242795529 
-0.15286912575931955 0 0.14715510242795529 
0.62168577510772693 -0.064545189038991049 -0.54294162423429948 
-0.079486699913942846 -0.18774985022879517 0.0069941643303089935 
0.15359567423172224 -0.036737908466771121 -0.1489527893384652 
-0.095286213275414949 -0.31075119468740392 0.25529918956596681 
0.22948675608371749 0 -0.15639067192393771 
0.22948675608371749 0 -0.15639067192393771 
-0.067576507534080399 0.0041154108568649227 0.021764766849979241 
0.22948675608371749 0 -0.15639067192393771 
-0.075245968052293166 -0.097507704071141885 0.12432027405353328 
-0.13372423479246126 0.029095710397051906 0.015909921011929725 
-0.075245968052293166 -0.097507704071141885 0.12432027405353328 
-0.18351713553036786 -0.13906197515510252 0.27646861428469732 
-0.054673036263035046 0.18725229510572972 -0.023112816397081303 
-0.075245968052293166 -0.097507704071141885 0.12432027405353328 
-0.075245968052293166 -0.097507704071141885 0.12432027405353328 
0.2122379589041222 0.015883058997866857 -0.033307340750806796 
-0.075245968052293166 -0.097507704071141885 0.12432027405353328 
-0.075245968052293166 -0.097507704071141885 0.12432027405353328 
-0.077719453065505456 -0.18784293043763345 0.077908976412773848 
0.034626261504399826 -0.097507704071141885 0.035991940545434094 
0.085262430796968949 -0.10174078333383593 -0.030197152080361014 
-0.075245968052293166 -0.097507704071141885 0.12432027405353328 
0.00039441319903943395 -0.56094536028471653 0.46966333707010338 
0.56954994840298967 0.030631816938249061 -0.47663097323626641 
0.15770719184122392 -0.12959726871574695 -0.15250638245331402 
0.045508085261082402 -0.0092064217669277516 -0.021805590590893015 
0.024359387515462953 -0.1575259006708743 0.0962819262512674 
0.045508085261082402 -0.0092064217669277516 -0.021805590590893015 
-0.25012693996667335 0.69483508477866862 -0.19303861565474942 
0.045508085261082402 -0.0092064217669277516 -0.021805590590893015 
0.045508085261082402 -0.0092064217669277516 -0.021805590590893015 
0.045508085261082402 -0.0092064217669277516 -0.021805590590893015 
-0.08549115062144659 0 0 
-0.12090007165438652 -0.1557787335347165 0.28911365939868411 
-0.16386714780828032 -0.078981140172897563 0.14531512912073472 
-0.56143162361630339 -0.20454251800274542 0.66251548479258648 
-0.22842698565103203 -0.20795928181476303 0.38048979923459259 
-0.039150250892139353 -1.7347234759768071e-18 -0.073386852886012072 
-0.08549115062144659 0 0 
0.37757120035853803 -0.31919222877795267 -0.15218212817869836 
-0.076228809865621139 0.25817092458653462 -0.15379316260980919 
-0.08549115062144659 0 0 
-0.18394036564139121 0.17212124911574594 -0.0072006185629714635 
-0.24665496106554313 0.12884930314566184 0.039496153743051404 
0.18139994154611561 -0.05939082940037247 -0.09623948186032541 
0.15672540237772312 -0.29205095960849514 0.053606013061945443 
-0.3236397073395576 0.12744340233707868 -0.036803139226747369 
-0.087296852890760598 -0.14020261296539982 0.2925901613159666 
0.092437747401119402 -0.39403303706045373 0.42432037563158553 
0.18139994154611561 -0.05939082940037247 -0.09623948186032541 
-0.067928477318840927 -0.037018987115952154 0.11408290739339184 
-0.067928477318840927 -0.037018987115952154 0.11408290739339184 
-0.044984107715354472 -0.21655927166955663 0.18903325605309912 
-0.21152896220757469 0.23163152291149311 -0.10869064359540107 
-0.067928477318840927 -0.037018987115952154 0.11408290739339184 
-0.021587577589533689 -0.037018987115952154 0.040675753480911646 
0.087629469907425969 -0.16831059645659124 0.14380122409572524 
-0.067928477318840927 -0.037018987115952154 0.11408290739339184 
-0.067928477318840927 -0.037018987115952154 0.11408290739339184 
0.019280792660644246 -0.052715425103189759 -0.018329678397032284 
-0.17710958002309013 -0.103941914105253 0.24174750553635294 
-0.067928477318840927 -0.037018987115952154 0.11408290739339184 
0.222577503057443 0.088019733407306566 -0.22318280311790109 
-0.067928477318840927 -0.037018987115952154 0.11408290739339184 
-0.19428221613691998 -0.29077638509336173 0.17716602060698394 
-0.015951691545088416 0.15093860163577796 -0.29761475093530754 
0 0 -0.068301239570038294 
0.11320222470970732 -0.41519807415778093 0.17980143010246932 
0 0 -0.068301239570038294 
0 0 -0.068301239570038294 
-0.087440094308126201 0 0.073842585451359022 
-0.49592541098634724 -0.23508386574773243 0.58721472626281812 
0.31497819687907141 0 -0.40001762597204271 
0.00096765887172481704 -0.21171440168781985 0.07718170565273233 
-0.12562822040581736 -0.31748882513364912 0.12262483252720134 
0 0 -0.068301239570038294 
0.60001531992384516 -0.17589979338614764 -0.59483846369300253 
-0.10305788254179953 -0.32421909054036208 0.23404294324198285 
0 0 0 
0.64327914774535833 0.077259494976844173 -0.69831726871347855 
0.4155005065346411 -0.13748780309860267 -0.34864323408036246 
0.15716759135569947 -0.33208160265885811 0.093177932974873326 
0.08076754594949398 -0.16351162372045702 0.083145109964632799 
-0.36481832774401729 0.45049821787004307 -0.10557889085975196 
0 0 0 
-0.072613841121633299 0.010282689607018305 0.0066562669376715091 
0.014227389841222189 -0.00033516634481938964 0.017901955712607571 
-0.026910805278701828 0.19306796029188539 -0.13829915204318094 
0.051581688999044098 0.045727561150583726 0.11081518502709573 
0.019257367704660338 0.050704409270801054 -0.14551240578707331 
-0.68631286270290981 0.55899527550649131 -0.10779889486071259 
-0.060844171692101878 -0.16188761762895956 0.071087436452758224 
-0.24561071690809677 0.2843947490312318 -0.045737757637416616 
-0.24561071690809677 0.36049920869133378 -0.13657781275500172 
0.0558613867460937 0.010908053883106674 -0.15315274724441125 
-0.036695770039652999 -0.028044552762987521 -0.03742834154548319 
-0.11803988257102131 0.28006114779353558 -0.15511686771891958 
0.14728737001086573 -0.0055241575270433899 -0.10698242799662572 
-0.063653639290496097 -0.12197843357409141 0.19527353499928546 
-0.1541956597718469 -0.020961389218733781 0.16733743967947629 
-0.063653639290496097 -0.12197843357409141 0.19527353499928546 
-0.1522520424012806 0.0046565986568659901 0.19527353499928546 
-0.21416525704172865 -0.22995442267991539 0.21289050903497453 
0.043218632939780559 0.161786802817144 -0.19481551258452318 
-0.22746740581664995 0.078248994870269373 0.19691371270969435 
0.067543018258797757 -0.085867701201408159 0.001776746911652262 
0.15676561257328117 -0.30708077285318691 -0.054044530190950173 
-0.063653639290496097 -0.12197843357409141 0.19527353499928546 
-0.063653639290496097 -0.12197843357409141 0.19527353499928546 
0.13570617900105139 0.01317041089686213 -0.30536946285456035 
-0.052779912974876504 0 0.091568952754286281 
-0.041961722438038002 -0.17548228399349677 0.014696684378586582 
-0.052779912974876504 0 0.091568952754286281 
-0.18705409606992524 -0.40463523133991658 0.5339668846206842 
-0.052779912974876504 0 0.091568952754286281 
-0.052779912974876504 0 0.091568952754286281 
-0.047774169339457745 0.034159525343624882 0.027574865979834596 
-0.052779912974876504 0 0.091568952754286281 
0 0 0 
-0.043929646583482439 -0.13069326867292685 0.11611795685177699 
-0.15775913839483086 -0.1753236967372947 0.30240555457073987 
-0.029027522220355154 -0.38683218508176576 0.23134028461586587 
0.15561152325869543 0.15078104109218585 -0.34033635473117574 
0.19260097170748081 -0.11669374437882718 -0.036044254395369082 
-0.055338061284700646 -0.015868063050899973 0.026173124692586355 
-0.10404105580203957 -0.0067456743487764453 0.13074456721909347 
0.11582152146619358 0 -0.20980269069459725 
0.26932476956835655 0.029658468847434182 -0.30916074560970697 
0.1807543404711755 -0.0068387930766984429 -0.17736490274623315 
0.11582152146619358 0 -0.20980269069459725 
0.10994605936361181 -0.055639024675871784 -0.19631150229091784 
0.11582152146619358 0 -0.20980269069459725 
0 0 -0.03915317079195936 
-0.83166176280119142 0.89237067578982421 -0.57694213836258423 
0 0 -0.03915317079195936 
-0.31315717839631496 0.6557784258125865 -0.52091950736349979 
-0.034523690824949445 0 0.081554486584600891 
-0.28351551176770129 0.72613572666612458 -0.63284006346101274 
0 0 -0.03915317079195936 
-0.2114532669346835 -0.16912559927211601 0.22819366628437465 
-0.2114532669346835 -0.16912559927211601 0.22819366628437465 
-0.27414727017384322 -0.25983461728745844 0.65389995052963468 
-0.22841760655139975 -0.27850097153623171 0.53111543490312518 
-0.16488294404298073 -0.25983461728745844 0.36592126782992063 
-0.037257446532803329 -0.38941417027270597 0.27496296610912446 
-0.16488294404298073 -0.25983461728745844 0.48332996035145148 
-0.10405855682479431 -0.058417885099648147 0.11809993807147974 
-0.10405855682479431 -0.058417885099648147 0.11809993807147974 
-0.057261351246014745 -0.05841788509964814 0.061101411800044955 
-0.057261351246014745 -0.05841788509964814 0.061101411800044955 
-0.010581118377556015 0.16265966373351201 -0.036147296854787264 
-0.14277031712384824 -0.086656271315960903 0.18714315691354136 
-0.057261351246014745 -0.05841788509964814 0.061101411800044955 
0.076073468997729765 -0.05841788509964814 -0.072400514665960647 
-0.068312668161188944 -0.070415529965188822 0.065048606582884375 
-0.070344379692130365 0.12328962405129298 0.053842953447378279 
-0.057261351246014745 -0.05841788509964814 0.061101411800044955 
-0.057261351246014745 -0.05841788509964814 0.061101411800044955 
-0.057261351246014745 -0.05841788509964814 0.061101411800044955 
-0.057261351246014745 -0.05841788509964814 0.061101411800044955 
-0.057261351246014745 -0.05841788509964814 0.061101411800044955 
-0.057261351246014745 -0.05841788509964814 0.061101411800044955 
-0.28103237990481966 -0.22063091939586138 0.44280765763954616 
-0.13251067633580421 0 0.084596604168224107 
0.35980358573991322 -0.30201075186554766 -0.11242108935511079 
0.16338115531332431 -0.11019282922156404 -0.052140851781243232 
-0.13251067633580421 0 0.084596604168224107 
-0.10335861558918245 -0.19965323096976534 0.15486381856857409 
-0.24034496457055254 0.37275428846724024 -0.10962244902294967 
-0.008978405064302173 -0.27068089644523041 0.2048366950646697 
-0.22308435221645109 -0.31158235168533122 0.26494030917688188 
-0.13251067633580421 0 0.084596604168224107 
-0.13251067633580421 0 0.084596604168224107 
0 0 0 
-0.35722335283468865 -0.1394483378253516 0.39592916505723108 
0 0 0 
0 0 0 
-0.093220377937382512 -0.06669350375689212 0.17337636066805984 
0 0 0 
-0.22188455520324402 0.1798157239179638 0.05089392452135362 
-0.37316886771912677 -0.33001591202979813 0.4777950877977391 
0 0 0 
0.027371504668830225 0.25129981894708547 -0.35518362373824452 
0.49870353873350726 -0.15999834904738916 -0.49220667337038304 
-0.043694163285788137 -0.083983152347090223 0.031435112710445731 
0 0 0 
0.11976152268587262 1.7347234759768071e-18 -0.10022742392608382 
0.26824975135925661 -0.064008753702389024 -0.2909646464748249 
-0.032017259857522296 0.081212473938311963 -0.028442033090462997 
0.47281187987751006 -0.064008753702389037 -0.47826528071070257 
0.15234270938634617 -0.12736339894120613 -0.060536709842866056 
0.0128235649289267 0.0063788673570951623 -0.020291099210393453 
0.47281187987751006 -0.064008753702389037 -0.47826528071070257 
-0.21802162368576603 -0.18754957439116762 0.3477929747143681 
-0.26403988865751277 -0.21473497668907779 0.43719642674972248 
-0.030277843036618474 0.19123306885959701 -0.10056796549886413 
-0.46133859892300699 0.079247469945556717 0.43197571575789118 
0.35871961006974079 -0.43084177632301657 -0.1411713521483611 
-0.0601987578777076 0.1162569483499428 -0.060203659105134207 
0.032032293445658271 0.18772736022223413 -0.21634505226370729 
-0.0601987578777076 0.1162569483499428 -0.060203659105134207 
-0.0601987578777076 0.1162569483499428 -0.060203659105134207 
-0.060198757877707586 0.11146102115710468 -0.0602036591051342 
-0.0601987578777076 0.1162569483499428 -0.060203659105134207 
-0.0601987578777076 0.1162569483499428 -0.060203659105134207 
-0.0601987578777076 0.1162569483499428 -0.060203659105134207 
-0.0601987578777076 0.1162569483499428 -0.060203659105134207 
-0.0601987578777076 0.1162569483499428 -0.060203659105134207 
-0.076021594376680129 0.0036902483208721658 -0.04714806604069631 
-0.15959134439207087 -0.15323575108948354 0.13708731387561385 
-0.0601987578777076 0.1162569483499428 -0.060203659105134207 
-0.0601987578777076 0.1162569483499428 -0.060203659105134207 
-0.22226241054201878 0.0098884542007114523 0.1373011228863481 
-0.0601987578777076 0.1162569483499428 -0.060203659105134207 
-0.031339182656367551 0.0061787398224503048 0.05836692176300351 
0.29485279291805117 0.043855687601199879 -0.39010255074068373 
-0.016158712864880655 -0.058539405643532424 -0.045516814470333559 
0.2398625565461473 0 -0.26775643275299382 
0.023410544377330922 0 -0.025967367571892074 
0.32771576330320262 -0.086802156796135205 -0.45919643386808473 
-0.16517674404868135 -0.27655281454690062 0.52765603708190534 
0.048874100921806503 -0.16120008828860372 -0.024802758853852101 
0.023410544377330922 0 -0.025967367571892074 
0.023410544377330922 0 -0.025967367571892074 
-0.26146728462830743 3.4694469519536142e-18 0.29872468374658739 
-0.1336682695731258 0 0.18921024094479488 
-0.47430227223730148 -0.084970561707993053 0.42181010998371266 
-0.1336682695731258 0 0.18921024094479488 
0.097122700493370975 -0.25213479389804405 0.023966672410182424 
-0.16379976239522812 0.060358450069986469 0.14970203181347796 
0.2405689796828214 1.7347234759768071e-18 -0.21799971263061174 
0.13674128093089161 -0.13429136523484686 -0.10521885891157313 
-0.017117025269656784 -0.25488634120312059 0.17405867667484687 
-0.0072936505799140669 -0.15268771362116396 0.22749515734758938 
0 0 4.2246359839470539e-06 
-0.3216513029734947 -0.13626115852715825 0.40119839635025345 
0.31694820712083305 -0.074684114933160906 -0.23184815288309446 
0 0 4.2246359839470539e-06 
-0.073305745318591575 0.12688052413311615 -0.066347566334981165 
0 0 4.2246359839470539e-06 
-0.15460536589916868 -0.062773769196543761 0.227630038957402 
-0.36841486253232242 -0.064607228942672776 0.50306307652113902 
-0.010433749938280511 -0.030894884991481051 0.025956516512489709 
-0.044285216761950769 0.06500451672731461 -0.025218462713181442 
-0.36876242802408582 -0.18173936492359696 0.3794595610862399 
-0.19815284912687489 0.25929744419072098 -0.0047881725123012295 
0 0 0.025956516512489709 
-0.18795038939911818 -0.08008046848617438 0.27797690857283625 
0.044310914645278143 -0.16701078605460087 0.064396332356724831 
0.032310558782110435 -0.14193730132087276 0.11648879049116449 
0.47697012105144643 -0.047279527059944357 -0.34465592102207721 
-0.21956160051467893 0.44179516726509066 -0.31553835410914077 
0.14370084633634289 -0.096501327564510464 0.043057158610986371 
0.093694587993128825 -0.53192133930123919 0.13319108111390038 
0.1183001691772306 0.035981060264708986 -0.20132011840180569 
0.47697012105144643 -0.047279527059944357 -0.34465592102207721 
0.47697012105144643 -0.047279527059944357 -0.34465592102207721 
-0.016911515168102402 -0.0011017529831521037 0.12080416532967883 
-0.11625091885280532 0.029911817779598188 0.089075398105214726 
0.099307275713173299 -0.017090476049267129 -0.15789359662533484 
0.14060335363824905 -0.12580871328684842 -0.039745299394522961 
-0.24700142194583335 0.009291459458484249 0.20682937507549004 
0.039176128250777188 -0.0011017529831521002 0.098735651574800312 
-0.016911515168102402 -0.0011017529831521037 0.12080416532967883 
-0.06937509165893524 -0.038030723790442825 0.1921350536304697 
0.4726801453527838 -0.45347514670996941 -0.32267238218462013 
-0.17908964094758512 0.057465376712594565 0.047236412249555187 
-0.016911515168102402 -0.27239342253775312 0.4070268847090342 
-0.20494160679926945 -0.0011017529831521071 0.22685367798348263 
-0.058870088216865887 -0.17488675704857762 0.10148813538212889 
-0.72276000006680019 0.95087641330891293 -0.536054468247257 
0 0.29881358089768367 -0.19215664399314122 
-0.19032751853828422 0.098271224757966361 0.025395698727791335 
-0.11757891463356651 0.46042901511688816 -0.41365222697492288 
0.25748902374885302 0 -0.22973606281808198 
-0.076305557193766152 -0.28939689927286538 0.26582652096617082 
-0.010987117373821456 -0.19100607798674035 0.06219958359669997 
0.25748902374885302 0 -0.22973606281808198 
0.032909399408026931 -0.051639290369833307 -0.02856204526391188 
0.13511844374263859 -0.025549957588375111 -0.15972333247343135 
0.25748902374885302 0 -0.22973606281808198 
-0.11673823607421176 -0.12011801909789627 0.042362292114303479 
0.40596690963814408 0.05423592444991826 -0.44235062179649987 
0.25748902374885302 0 -0.22973606281808198 
0.32429545450996 -0.18006016645112652 -0.22583341193789572 
-0.12052982566011822 0.30168885873629603 -0.21464854938927055 
0.12870007092888863 0.20338653040645116 -0.30990967418623289 
-0.30060805675691665 0.38223034835371583 -0.094555176333739138 
-0.357675853904103 0.12012945946860257 0.089300972072575424 
-0.30060805675691665 0.38223034835371583 -0.094555176333739138 
-0.11373501261110282 -0.056702880839687844 0.15216592530269837 
0.014606109795931445 0.091158509191160586 -0.10199581966773376 
-0.10621736469304328 -0.08537150652385303 0.1454128727120719 
-0.10621736469304324 -0.36254228204971728 0.35822271353265622 
-0.10621736469304327 -0.041665264516150192 0.12705707575766148 
0.20107763652618688 -0.20009570435919605 -0.020085144566057693 
-0.12657789595334087 -0.080477594895544111 0.15330544013049638 
-0.17411613363985884 0.12134680092547363 0.11061883199787037 
0.035209611902909249 -0.11764674016403329 0.10256450654196385 
0.33518865105919637 -0.22314667585452685 -0.085988917689186831 
-0.10621736469304327 -0.041665264516150192 0.12705707575766148 
-0.032241780459837714 -0.0059013422183757267 0.019154666762006004 
-0.032241780459837735 -0.0059013422183757267 0.019154666762006004 
-0.032241780459837714 -0.0059013422183757267 0.019154666762006004 
-0.11198765008996059 -0.030930445018171993 0.15616392086483183 
-0.032241780459837714 -0.0059013422183757267 0.019154666762006004 
-0.032241780459837714 -0.0059013422183757267 0.019154666762006004 
-0.032241780459837714 -0.0059013422183757267 0.019154666762006004 
-0.032241780459837714 -0.0059013422183757267 0.019154666762006004 
-0.032241780459837714 -0.0059013422183757267 0.019154666762006004 
-0.032241780459837714 -0.0059013422183757267 0.019154666762006004 
-0.032241780459837714 -0.0059013422183757267 0.019154666762006004 
-0.27399722357336326 0 0.28425038544467074 
-0.27399722357336326 0 0.28425038544467074 
-0.27399722357336326 0 0.28425038544467074 
-0.075235223176537747 -0.38024696082132703 0.38220791569714868 
-0.37968520801948408 -0.093096402973480818 0.43212089453291341 
-0.27399722357336337 0.20986847616253052 0.0068812735326654112 
-0.30516483518563325 -0.0050432490199770388 0.34611230288747241 
-0.27399722357336326 0 0.28425038544467074 
-0.054882673762142349 -0.012546563316772518 0.039493915502328773 
-0.15185705507308001 -0.041593326780701038 0.11412912442420456 
-0.31049082270491346 -0.062412278042889402 0.27206870306362185 
0.12981700479055763 -0.0062732816583862625 -0.25619832229801981 
-0.027441336881071175 -0.006273281658386259 0.019748551326861787 
-0.03121397600547729 -0.19547680764999556 0.066081497446863827 
-0.24040525251763625 0.18006039822438286 -0.021688021624391107 
-0.027441336881071175 -0.006273281658386259 0.019748551326861787 
-0.027441336881071175 -0.006273281658386259 0.019748551326861787 
-0.17691728114758221 -0.44296845350195385 0.560473673087032 
-0.027441336881071175 -0.006273281658386259 0.019748551326861787 
-0.027441336881071175 -0.006273281658386259 0.019748551326861787 
0 0 -0.038076233264335346 
0 0 -0.038076233264335346 
0 0 -0.038076233264335346 
-0.10235780461340695 -0.088533544541999659 0.23532667268092555 
0 0 -0.038076233264335346 
0 0 -0.038076233264335346 
1.2078251576439878 -0.3719830247412193 -1.0193272807273275 
0.091172446287690306 -0.41105546052971464 0.080778696422457441 
0.50628108397487592 -0.25812173525769772 -0.4381512117023722 
-0.095738681687257882 -0.061526488225138856 0.16634572507382767 
0.099015357890546205 -0.088379468325040872 -0.038076233264335339 
0 0 -0.038076233264335346 
-0.187559902942249 0 0.20330248731339357 
-0.187559902942249 0 0.20330248731339357 
-0.187559902942249 0 0.20330248731339357 
-0.187559902942249 0 0.20330248731339357 
-0.187559902942249 0 0.20330248731339357 
-0.24328870093661428 0.20402954856154509 -0.07515517483312259 
0.29767198812230289 -0.2897672367496652 -0.06244989676524907 
0.093334490254159116 -0.25602590673094061 0.055933690096824397 
-0.187559902942249 0 0.20330248731339357 
0.038104591765331791 -0.059311691472169047 -0.025442532068036545 
-0.31800957776474392 -0.14782906195116566 0.27666940317137811 
0.022324159477539404 -0.17060052086685054 0.066026846163686037 
0.070654078451379582 -0.21211254914386818 0.034956301533755237 
0.010472632534394521 -0.25138467980948398 0.017664406266614349 
-0.074766252779436618 0 0.093334917840619119 
-0.19591022443909001 -0.097465128679790097 0.21464277708413088 
-0.074766252779436632 -0.11394381648026065 0.13569424104513053 
-0.074766252779436618 0 0.093334917840619119 
-0.074766252779436618 0 0.093334917840619119 
-0.16584547902669497 -0.081515362531418945 0.22868774392717631 
-0.10881022396077164 0.30716987950135327 -0.18587114936200758 
-0.074766252779436618 0 0.093334917840619119 
-0.007517647918059543 -0.015037616323537664 0.025098763759016474 
-0.007517647918059543 -0.015037616323537664 0.025098763759016474 
-0.007517647918059543 -0.015037616323537664 0.025098763759016474 
-0.0075176479180595395 -0.21559956378255929 0.16606342849884206 
-0.007517647918059543 -0.015037616323537664 0.025098763759016474 
-0.007517647918059543 -0.015037616323537664 0.025098763759016474 
-0.26306377726971836 0.26282000145725959 0.091188709626804726 
0.1029982100043155 -0.07174369948015874 -0.066770072205918546 
-0.007517647918059543 -0.015037616323537664 0.025098763759016474 
-0.007517647918059543 -0.015037616323537664 0.025098763759016474 
-0.23728589795843397 -0.074035266279951675 0.32650695796031604 
-0.18960956042003788 0 0.25419431146903632 
-0.025461030060653256 -0.10471453082164464 0.14910915703514027 
-0.33811910043033233 -0.025511030576966291 0.38127616738680703 
-0.18960956042003788 0 0.25419431146903632 
-0.20651762780186345 0.12396003319414216 0.042602394459964506 
0.43608842054327696 -0.38716590450811361 -0.2861921221496127 
0.27875859369716022 0.25487066464147873 -0.36919009267619962 
-0.40681617382087748 -0.040610142571596598 0.25986113937861705 
0.17015498828366274 0 -0.12462181908297472 
-0.022410906875363533 -0.18576590223003989 0.091180617180437393 
0.17015498828366274 0 -0.12462181908297472 
-0.14427063645951937 0.018511243902924218 0.04100551773678817 
0.17015498828366274 0 -0.12462181908297472 
0.07018835284645937 0.038200162123529752 -0.026532200738045193 
-0.1826759896060744 -0.12118788893880036 0.25797023282158826 
-0.10278951305279596 -0.54369204205292132 0.19016671756118675 
0.24133983207092674 0.091373103425069852 -0.29049537505642403 
0.19643109165858699 0.14458126584472578 -0.4013312382219088 
0.17015498828366274 0 -0.12462181908297472 
0.06924824368203214 -0.19816117088562682 -0.0061462014631581035 
0.28742240072852776 -0.42833218148217439 -0.031398638195347439 
0.68323725053177631 -0.038177364734810273 -0.49619339002028534 
0.042524337662179806 -0.20647007438213258 0.16812059331029489 
0.0057588473481390446 0 -0.033196824600441509 
0.26722287107893483 -0.083329821109518365 -0.31852967751656663 
0.24367209196824846 0.061405789200151488 -0.15959481026859421 
0.0057588473481390446 0 -0.033196824600441509 
0.17136473473647412 0.19783269219126962 -0.23657370018592105 
0.25023151921254061 -0.15354375600647108 -0.25659268078138442 
0.0057588473481390446 0 -0.033196824600441509 
0.1317744038650584 -0.35636945246547413 0.17327359623285019 
-0.15772778011811708 -0.11494406180249817 0.150350484723448 
0.0057588473481390446 0 -0.033196824600441509 
-0.14425616906972749 -0.077499459221462619 0.1145657163786741 
0.55628699966341677 -0.42862354906162148 -0.46701132337354967 
0.29814899538537465 -0.23979617261639219 -0.19145087926306117 
-0.043151532257882617 -0.075262429604390252 -0.062730703209139066 
0.18890241985997058 -0.044867457727586241 -0.20015724108238109 
0.3733619862795261 -0.26552265444242168 -0.26255702710759837 
0 0 0 
0.18890241985997061 -0.036960764756032959 -0.20015724108238109 
0.1720296720750184 0.048984988802580072 -0.045268058038925529 
0.04362630010132576 0.043190066995383108 -0.21393534369717065 
0.18890241985997061 -0.036960764756032959 -0.20015724108238109 
0.33449099515403896 -0.22553686847337481 -0.2443731510215624 
0.11399590695200688 -0.11580862437083179 0.0010885010792634085 
0.13869446101291738 -0.062110504476364729 -0.07633923418030078 
-0.27283914841357371 -0.17724278753511868 0.38600619014845206 
-0.2710273944568411 0.42169863602499402 -0.14199358973192389 
-0.010810144430814463 0 8.6446386061085717e-06 
-0.36480451676954917 -0.23667218534722045 0.44578505989903733 
-0.1864416530875366 0.015014153574126252 0.16028038150499826 
-0.080442651886836802 -0.024583481693724017 0.12458599032017097 
-0.010810144430814463 0 8.6446386061085717e-06 
-0.010810144430814463 0 8.6446386061085717e-06 
-0.010810144430814463 0 8.6446386061085717e-06 
-0.010810144430814463 0 8.6446386061085717e-06 
-0.010810144430814463 0 8.6446386061085717e-06 
-0.010810144430814463 0 8.6446386061085717e-06 
-0.010810144430814463 0 8.6446386061085717e-06 
-0.010810144430814463 0 8.6446386061085717e-06 
-0.01788067055458083 0.13898396526925094 -0.079636156368592587 
-0.01788067055458083 0.13898396526925094 -0.079636156368592587 
-0.01788067055458083 0.13898396526925094 -0.079636156368592587 
-0.077788713649104252 0.70603119753413901 -0.56348471601812566 
-0.01788067055458083 0.13898396526925094 -0.079636156368592587 
-0.19723072437445094 0.36666799170690872 -0.26815030248006338 
-0.20949907533199294 -0.07751446435266876 0.26309402698553497 
0.02658065191395503 -0.056839801120219281 -0.10023142220168488 
-0.01788067055458083 0.13898396526925094 -0.079636156368592587 
-0.14154004237955087 0.29173379130323729 -0.079636156368592587 
-0.13910373861451308 -0.077904493833788488 0.21094460633500986 
-0.01788067055458083 0.13898396526925094 -0.079636156368592587 
0.051872423507137569 -0.43584514909609473 0.14854723519548177 
-0.42564801932317664 -0.12487258055929729 0.37904365013730607 
-0.028277647652531906 0 0.030404207427662765 
0.11261709543911787 -0.10973917613553492 -0.04431986106282812 
-0.028277647652531893 0.14376329762643514 -0.097202791093639579 
0.13936707467684736 -0.27671848861897086 0.012225120223271144 
-0.028277647652531906 0 0.030404207427662765 
-0.028277647652531906 0 0.030404207427662765 
-0.028277647652531927 0 0.025840194207991208 
0.10585542973276289 -0.028789704906125015 0 
0.10585542973276293 -0.028789704906125022 -0.028941297024153736 
-0.44521671212103642 -0.093019772857828004 0.54361790311463087 
0.10585542973276289 -0.028789704906125015 0 
0.089417185551348505 0.11134677722902213 -0.19765122900957774 
-0.15166970540101055 0.031989821768800858 -0.032573665051602758 
0.00093363584910163486 -0.28484632971411472 -0.057512776260128282 
0.2844048592854872 -0.096339775042277503 -0.26744041457841283 
0.25322228903383109 0.19220919695493013 -0.3678085538489041 
-0.051028876189001406 -0.01250206254331732 0.074607915514104992 
-0.45205171335637717 -0.017593173893332315 0.59814953489671163 
-0.2228942946494904 -0.029804666898283042 0.15830091204314684 
-0.10205775237800283 -0.025004125086634639 0.14927332594067116 
-0.051028876189001406 -0.01250206254331732 0.074607915514104992 
0.2125595914380245 -0.10222306364899823 -0.045747600031579932 
-0.051028876189001406 -0.01250206254331732 0.074607915514104992 
-0.051028876189001406 -0.01250206254331732 0.074607915514104992 
0 -0.011265119716460185 0.050026945938280575 
-0.10409491996462476 -0.070018709408128474 0.16782854758813884 
-0.22339750454502572 0.1115944516904972 0.093674326756359894 
-0.022059976385529211 -0.011265119716460185 0.050026945938280575 
0.043147224622082626 -0.103338581678386 -0.0047492653466474945 
0 -0.011265119716460185 0.050026945938280575 
0.19582011739922878 0 -0.27426005869452091 
-0.35678173285831505 0.09759115493693471 0.1484796170754881 
-0.22052482296982423 -0.17051369764494315 0.24443981236442772 
0.035902661274220225 -0.040371928521800916 -0.066954190193936391 
0.0012508143869317404 -0.088528889148307116 -0.047610401654984189 
0.19462077856663046 0.05718317159459093 -0.23469068636378937 
0.096088456877359202 0 -0.17222609147523177 
0.096088456877359202 0 -0.17222609147523177 
-0.23926928344272572 -0.35639247891605458 0.3953519835132831 
0.57108873948453254 -0.25703931021956844 -0.20979850588111315 
0.096088456877359202 0 -0.17222609147523177 
0.096088456877359202 0 -0.17222609147523177 
0.096088456877359202 0 -0.17222609147523177 
-0.043127950576884858 0.13725997321751326 -0.081984505190030199 
-0.043127950576884858 0.13725997321751326 -0.07279990442134944 
0.41221793603913948 -0.085862861200936405 -0.19240180380011798 
0.049759009362421946 0.11105490192155046 -0.24153058428934171 
0.049736893641982818 0.55600571902270701 -0.62354089859369366 
-0.10367045969119594 -0.30238005603286494 0.2879282337173501 
-0.043127950576884858 0.13725997321751326 -0.07279990442134944 
-0.093571626444601666 -0.11469125307806285 0.13131714041314069 
-0.043127950576884858 0.096954670681946228 -0.036917574643049553 
-0.02290220402853084 0.09289101553268693 0.0024185442399202953 
0.22018195970918722 -0.10269738356177033 -0.10348138057364921 
0.22018195970918722 -0.10269738356177033 -0.10348138057364921 
-0.031113505057385235 -0.11754859233983533 0.11485254520774486 
0.22018195970918722 -0.10269738356177033 -0.10348138057364921 
0.33930940412634619 -0.35386298048957643 -0.10348138057364921 
0.22018195970918722 -0.10269738356177033 -0.10348138057364921 
0.096430637802486868 -0.16380935626278903 0.097972178801077739 
0.19552021832588504 0.16421198827774697 -0.40941847068232212 
0.22018195970918722 -0.10269738356177033 -0.10348138057364921 
0.17748839317335355 -0.03583210678867467 -0.11011857084115013 
0.22018195970918722 -0.10269738356177033 -0.10348138057364921 
-0.17523125816275154 0.074682065518568735 0.18602269221515996 
0.13139724219254076 -0.039052511413139347 -0.11025030444306169 
0.13139724219254076 -0.039052511413139347 -0.11025030444306169 
0.48422339046909035 -0.15868159085635522 -0.24527123383665522 
0.13139724219254076 -0.039052511413139347 -0.11025030444306169 
0.13139724219254076 -0.039052511413139347 -0.11025030444306169 
0.13139724219254076 -0.039052511413139347 -0.11025030444306169 
0.02353446534428829 0.2551778770603314 -0.28246181602346576 
-0.1264052453854001 -0.053165745721247971 -0.060026029319989627 
0.13139724219254076 -0.039052511413139347 -0.11025030444306169 
0.071667469968722822 0.40056069848659692 -0.42407243300637826 
0.13139724219254076 -0.039052511413139347 -0.11025030444306169 
-0.21810379832611915 -0.032062273893016462 0.2169693697418264 
-0.21810379832611915 -0.032062273893016462 0.2169693697418264 
0.152405303146851 -0.019245889253019524 -0.086491571140383708 
-0.52829748023129475 -0.032062273893016462 0.49008128339129065 
0.32215505290521862 -0.3236673391354502 -0.023529615114696568 
0.32541039575310182 -0.17599609548273229 -0.059841723656094664 
0.40279675658134684 -0.17599609548273229 -0.22971461131447532 
0.25539000730766342 -0.20147833293427 0.067950040889605795 
-0.023870830201280873 -0.39771241866370677 0.24308382562233255 
0.043269482707791289 -0.18274471468691672 0.14747851624137817 
0.32541039575310182 -0.17599609548273229 -0.059841723656094664 
-0.2083887944953742 0.56518922994644016 -0.51216123911365452 
-0.098986361749297105 -0.16220982659839292 0.26789892558736089 
0.21985340363520114 -0.10773037115308798 -0.074299112535868794 
0.010695648317800475 0.17492891691984641 -0.082223790325028315 
-0.050166507841092015 0 0.006580178814502664 
-0.18482057187705164 -0.073184891689455328 0.27716533967847523 
-0.061142041973863942 0 0.069408125230827025 
-0.061142041973863942 0 0.069408125230827025 
-0.01430618077927188 0.011340309282650387 -0.027972726745467122 
-0.061142041973863942 0 0.069408125230827025 
-0.061142041973863942 0 0.069408125230827025 
0.091964819765906661 0.10582638467430967 -0.1379361689285967 
-0.342901688390364 0.041810990919146342 0.12625169551750845 
-0.061142041973863928 0.13372722548927721 -0.062410040556275512 
-0.061142041973863942 0 0.069408125230827025 
0.010932967367313653 0 -0.12193366383746408 
0.010932967367313653 0 -0.12193366383746408 
0.01093296736731366 -0.32116166655502887 0.21320810648838665 
0.010932967367313653 0 -0.12193366383746408 
0.010932967367313653 0 -0.12193366383746408 
-0.041226920197017541 0.22024317541472957 -0.25436568865915665 
-0.12880603957123574 -0.20032022754562825 0.060918025064469368 
-0.25850538116661909 -0.0017837081468256334 0.16594809087141368 
-0.28018410028362584 -0.1302761970356914 0.33508568406656652 
-0.026429193874334692 -0.13027619703569143 0.0057061239198577763 
0.2990267937362423 -0.1302761970356914 -0.071741415043983167 
-0.46745409691999107 -0.0039167305765402307 0.35673778207600237 
0.090919542067993117 0.11225066310012811 -0.20986002915289059 
0.045547432686851054 0.0065957263123848963 0.0054382596519764303 
-0.10617967787793767 -0.16823165606283946 0.11145141460871705 
0 -0.062079943955132229 0 
0.29672939571075269 0.05581738599781317 -0.27800289076913726 
-0.072134465449189167 0.097402903032748359 -0.1315079665148968 
0.24630796430942475 -0.072177385174026873 -0.1575141456621956 
0.2066707673517138 -0.084098829553035492 -0.23921627662928791 
-0.20781883194584005 0.16808262506126895 0.13191580647274243 
0 -0.062079943955132229 0 
0 -0.062079943955132229 0 
0.14621818449099422 -0.0056892474952987028 -0.10476193910786145 
0.18543626113761782 0 -0.15981128253154192 
0.18543626113761782 0 -0.15981128253154192 
0.18543626113761782 0 -0.15981128253154192 
0.0020000856943132791 -0.078059166878990061 0.17232537806099535 
0.18543626113761782 0 -0.15981128253154192 
0.18543626113761782 0 -0.15981128253154192 
0.18543626113761782 0 -0.15981128253154192 
0.18543626113761782 0 -0.15981128253154192 
-0.12287161367589314 -0.38111956761344551 0.28425242175296345 
0.18543626113761782 0 -0.15981128253154192 
0.18543626113761782 0 -0.15981128253154192 
-0.00048438340749835631 0 0 
-0.00048438340749835631 0 0 
-0.034125929107898377 -0.26234767268290354 0.32083059444573558 
-0.00048438340749835631 0 0 
-0.099849064417326869 0.00018324658322223415 0.066874148100825676 
0.1300849965352408 -0.33100482267771503 0.21780651162459025 
-0.1337003762634201 -0.016873444903515097 0.16037304180775028 
0.053364602183660341 -0.15532371999922176 0.082624796517902666 
-0.00048438340749835631 0 0 
0.047290722524900491 -0.035666046961618292 -0.073371228012288819 
0.21493360673421463 0 -0.2043099714873523 
-0.00048438340749835631 0 0 
-0.00048438340749835631 0 0 
-0.25705414052356756 -0.0026455408086948351 0.22153875319602165 
-0.22967210207594985 -0.32140637504369868 0.37360233609504379 
0.3239659555240566 -0.02782300634048716 -0.10766970884048596 
-0.25107340812020701 -0.045327277676784614 0.18535852678530637 
0.11914416962601938 0 -0.14142368755040682 
0.16530368143892729 -0.039892255680385499 -0.21882117259689382 
0.36987488831761473 -0.20257665712850598 -0.35185485007059869 
0.11914416962601938 -0.053589862142871904 -0.17761344384668634 
0.11914416962601938 -0.053589862142871918 -0.14142368755040688 
0.11914416962601938 0 -0.14142368755040685 
0.11914416962601938 0 -0.14142368755040685 
0.23732709443377867 0.015948549805035683 -0.24042236094670935 
0.041013413843967311 0.32861823596211381 -0.37987518747207633 
0.092288203727246054 -0.062805995500729878 -0.046298892661571542 
-0.41954899801902978 -0.048586546074665532 0.41934981902840979 
0.19134175733537293 -0.062805995500729878 -0.11425844519469709 
-0.24229901768821735 0.23391514085131213 -0.013171602737452964 
-0.10246152067583304 0.19500718583399512 -0.11726050535426281 
-0.19631368058981136 0.3126696861570778 -0.13934840726444722 
-0.21194143090847642 -0.0045338361448888798 0.1806066913614861 
-0.11724604897580657 -0.17095497653991232 0.24513350699200712 
0.20609934200694036 -0.027870755162915265 -0.10178599106969506 
-0.0033918794952950532 -0.043138582386019447 0.023822907818658652 
-0.29124210213147717 0.09879453563444561 -0.0090289763822786334 
-0.0033918794952950532 -0.043138582386019447 0.023822907818658652 
0.092178234063379369 -0.16980698354896165 0.00011789180284777184 
-0.0033918794952950532 -0.043138582386019447 0.023822907818658652 
-0.0033918794952950532 -0.043138582386019447 0.023822907818658645 
-0.0033918794952950532 -0.043138582386019447 0.023822907818658652 
-0.060029419787261791 0 0.090115133191110031 
-0.45743234767226959 0.031615194280726094 0.318098849533763 
0.19164877052754103 -8.6736173798840355e-19 -0.10978048228649524 
-0.28636933596846559 0.11471133964370239 0.056722067506031384 
-0.060029419787261791 0 0.090115133191110031 
-0.039899594115097435 0.12009159676668354 -0.11012192634773212 
-0.27335966156958069 -0.056204615811328379 0.20727977280095514 
0.46792000036647552 -0.0089796002187462042 -0.38441720027394172 
-0.060029419787261791 0 0.090115133191110031 
-0.0015988020583413681 0.092934661367390176 -0.071390393931571511 
-0.0022508926893199301 -0.10594094834068188 0.056923310752053612 
0.20709308641320193 -0.40302516245330017 -0.054377572396071591 
-0.034300334184744229 -0.11418410030715385 0.099418319685308704 
-0.00053293401944711763 -0.037781228357897975 0.056923310752053612 
-0.20162055884733418 0.14107574521491711 -0.019872505424933032 
-0.19937916873768827 -0.082865881656483509 0.2719992813097582 
-0.09413129336789712 0.10841358255430747 0.0081869302173536839 
-0.23685980608905299 -0.16049656740443424 0.26398554821546311 
-0.00053293401944711763 -0.037781228357897975 0.056923310752053612 
-0.09624598232459658 -0.073764479165630031 0.22388628872440053 
-0.00053293401944711763 -0.037781228357897975 0.056923310752053612 
0.12297360156619426 0 -0.054648498882212085 
0.15295815731641282 -0.1755765896082726 -0.088326387986954247 
0.027098372433014328 -0.1952211507133067 -0.018749051722107658 
0.12297360156619426 0 -0.054648498882212085 
0.12297360156619426 0 -0.054648498882212085 
0.23294564058297804 -0.04946540572694276 -0.18276866476124864 
0.23704989527575832 0.17069579616715494 -0.41383835722579343 
0.11737376863275072 0.086184615152354996 0.0055304014389044058 
-0.14374265344837669 -0.059662975270723638 0.1353732168086017 
-0.20938125926283022 -0.11806160307673194 0.16303476554053062 
-0.14374265344837669 -0.059662975270723638 0.1353732168086017 
-0.14374265344837669 -0.059662975270723638 0.1353732168086017 
-0.14374265344837669 -0.059662975270723638 0.1353732168086017 
-0.14374265344837669 -0.059662975270723638 0.1353732168086017 
0 -0.27129166955460143 0.28624882921829653 
-0.40919044301050866 -0.14808949179705017 0.44892786712760296 
-0.61086918448518723 0.50791607971943153 0.027229994508993299 
0 -0.27129166955460143 0.28624882921829653 
-3.4694469519536142e-18 -0.27129166955460143 0.22579038840910248 
-0.10063914836812687 -0.082797238057997394 0.1694239927055512 
-0.10063914836812687 -0.082797238057997394 0.1694239927055512 
-0.10063914836812687 -0.082797238057997394 0.1694239927055512 
-0.10063914836812687 -0.082797238057997394 0.1694239927055512 
-0.10063914836812687 -0.082797238057997394 0.1694239927055512 
-0.10063914836812687 -0.082797238057997394 0.1694239927055512 
-0.10063914836812687 -0.082797238057997394 0.1694239927055512 
-0.053438646648405586 -0.28605585583852505 0.15633829120455742 
0.79823526835571224 -0.36339974166433558 -0.71532240737701069 
0.33506652127539527 -0.04036720848863732 -0.21479165104334952 
-0.057590027945038924 0.050904304845729387 0.035816891624025196 
0.10026465335157356 -0.18103881608264116 0.15928067976220192 
0.25339994460819354 -0.04036720848863732 -0.083798688642572172 
0.19992280750480135 0.26199021711914428 -0.3820932752051156 
0.25339994460819354 -0.04036720848863732 -0.083798688642572172 
0.25339994460819354 -0.04036720848863732 -0.083798688642572172 
-0.29357258630716954 0.13449649796019578 0.20319248289747888 
-0.19226101175190163 0.84827022503982352 -0.68443110092313897 
0.40832319822295682 -0.78759571168887965 -0.035535286244092461 
-0.045458030292429875 -0.16919587633938782 0.052009136083533275 
-0.050978063295738771 0.15817791130385248 -0.065343683620928752 
-0.050978063295738771 0.15817791130385248 -0.065343683620928752 
-0.060244667595855672 0.079358293771054467 -0.29642071269749642 
-0.14484991976985151 0.0062569509851810859 0.11219734325706476 
-0.43888215259666674 0.0085012256661987987 0.33617376000584354 
-0.2091575852832788 0.302357018723034 -0.085468451878905255 
-0.050978063295738771 0.15817791130385248 -0.065343683620928752 
0.39596192171678091 -0.10762823431018048 -0.34913339524702408 
-0.050978063295738771 0.18492449655595372 -0.1138225015551789 
-0.11927734679047866 0.26294359809909434 -0.085643701025280905 
3.4694469519536142e-18 -0.085986037686551581 0.072259647540657987 
1.3877787807814457e-17 -0.093413352470092026 0.072259647540657959 
-0.10901621994750847 -0.11945839299677424 0.19575670001302597 
-0.4065015995395509 -0.11823017202780844 0.37405900142748832 
