solver_type L2R_L2LOSS_SVC_DUAL
nr_class 3
label 1 2 0
nr_feature 30505
bias -1
w
0.63340989892209576 -0.094513482400589835 -0.59097719974931207 
-0.013092604317399094 -0.074859966614969617 -0.025832585181203141 
0.12619271069784985 0.0020162178061937921 -0.19970950914482488 
0.27118236131336559 -0.18594904541743618 -0.15310283362021196 
0.077381349647828668 0.13273502216906957 -0.11916728826530092 
0.69330696521134316 -0.094513482400589821 -0.63421808384204881 
-0.035063641066889993 0.072694908076334303 -0.10260690691051755 
-0.082165283257859656 -0.052735471655257084 0.018592239619514277 
-0.017810709473044764 -0.099552397640963339 0.044126630154866196 
-0.17632772857707835 0.014421718992298259 0.11769822816082333 
-0.2191011552349188 -0.16770020860260049 0.33300954997154159 
-0.039042504005072892 -0.11840035953647608 0.088053644668471376 
-0.31843926784034726 -0.30577331011500086 0.35004450538622012 
0.021261318458022722 -0.01614367473801841 -0.044340134026691402 
0.76827013811499001 -0.27985434975157747 -0.53756554706619342 
-0.24202566663815284 0.1333009287900695 0.11805588392311374 
-0.0096568069308099191 0.074772853236747414 -0.11634849476231585 
-0.09787156433561188 0.025488125962407234 0.10236961958569965 
-0.1233066195503742 0.22428678208890165 -0.065701392402572528 
-0.055541257407669402 -0.057766263823860381 0.0097187157429158046 
-0.22231721708100308 0.37581772814852649 -0.2661025155904494 
-0.026142519206099647 -0.055202227389246163 0.029898923303436877 
-0.36630719693172142 0.58821355769885009 -0.34196108095926653 
-0.46702794506800371 0.34805088921768923 0.065002411051833381 
-0.071403118325216994 -0.16027513209740099 0.052882232446746481 
0.29158745356187926 0.18097682046355357 -0.42293083064671283 
-0.32186638708500293 -0.30724032338984636 0.29210998019573431 
0.30631603538100138 -0.3100419289809303 -0.14163626158341402 
-0.44313998790754122 0.62490708405819673 -0.21536056005479656 
0.084585077669351111 0.086150899848783283 -0.17105036806438229 
-0.031537846823395457 0.033488391644680267 -0.044260283286364388 
-0.3057682090984285 0.39801336403127169 -0.17664708220156378 
-0.25949895349405144 0 0 
0.062359830992736093 0.18117844008032891 -0.2911192765952364 
-0.12128310309676794 -0.0618605679694735 0.00031813510001449646 
-0.94733167591655398 1.289753228094151 -0.40413580141686534 
-0.17991283418196913 -0.14456457798571845 0.214623066975895 
0.20608817413542529 0.086368406699440292 -0.24494007331262546 
0.13271697978294414 0.44044996427582128 -0.77747083633051761 
1.0557034480086545 -0.47715552329369826 -0.71428342170678094 
0.01600675494461358 -0.078109146593282525 -0.0055177496745179412 
-0.51357026024174857 0.70337002515523617 -0.64960949770325427 
0 -0.27978125733055947 0.22487258644958225 
-0.31976418040435572 0.18510101840990703 0.15589378312982721 
-0.006526619672587582 -0.11496200596727643 0.062237724153257443 
-0.23326131478668716 0.38869023839001388 -0.14659120594104735 
-0.31015191098072747 -0.14827094466802043 0.36031059162143703 
-3.4694469519536142e-18 0.18440738191013639 -0.1869664431998217 
-0.15938338226515081 -0.055088374289596904 0.03248856395102212 
0 0.18440738191013639 -0.18696644319982172 
0.26351622302589095 0.17156223344241384 -0.27704546443593597 
0.057247882108562125 0.30365847494449094 -0.30524213459118343 
0.13725939905940637 -0.074940850967256778 -0.088639883422333407 
0.093533838434748093 -0.1831490102231427 -0.050506384857219824 
-0.25862680220095868 -0.35065928644400973 0.25323209949215147 
0.13101926719012036 -0.18932381819824304 0.0010233997950029904 
-0.052633093767230271 0.089646327307816062 -0.0012158556196715368 
-0.15580452117186383 0.18440738191013639 -0.082316607519164475 
-0.1144770998885791 0.028034365433466841 0.058901582110794846 
-0.098943916794350023 -0.0912957696967268 0.24688758923495122 
0.10327352366755815 -0.18004557540668589 0.0028069053978151608 
0 -0.055011414925213407 0.095697236981088327 
-0.28889743346111374 0.28008185045661638 -0.028484918057072511 
0 -0.055011414925213407 0.095697236981088327 
0 -0.055011414925213407 0.095697236981088327 
0 -0.055011414925213407 0.095697236981088327 
-0.057847959964069745 -0.10198163973428878 0.0019087563258773812 
0 -0.055011414925213407 0.095697236981088327 
0.014414547959922246 -0.31011190811753786 -0.0018422675950237751 
0 -0.055011414925213407 0.095697236981088327 
-0.074700052241678777 0.29692255888450297 -0.22428513362346536 
-0.2850895230607628 -0.0063887798653517085 0.28796933221641535 
-0.23415763084859917 -0.29205154907946546 0.36712590071233664 
0.77098746810463459 -0.26879034562408916 -0.7752939226096196 
-0.6185741829889424 0.0078496634371860285 0.50951954103738173 
0.045195945131935901 0.063344636848886249 -0.067858757531332164 
-0.33527497388438166 -0.029867432484022332 0.18453891046820514 
-0.28992255024649843 -0.074241305128062804 0.27966203265663125 
-0.04260265719043474 -0.052533352942488599 0.048909480796511501 
0.077335036298982265 0.17392586210947217 -0.092598436445714818 
0.13100474324213246 -0.10002826464481954 -0.043259707525304232 
-0.48147518567117487 -0.063862218637196488 0.39076928226166474 
0.21803354515410756 -0.29661849039582916 0.0039292810145901986 
-0.11617322736090337 -0.21629610577287864 0.15158529126781467 
0.17589460327980053 -0.13278658233702964 -0.15042201913137249 
-0.22366174345580944 -0.069572894857875087 0.23763938660311107 
0.30145330836628603 -0.19702563093103859 -0.27173803447906109 
0.0073181337945123605 0 -0.035398720241095777 
-0.18833745148327669 -0.130462545573374 0.12301471954527843 
0.0044548856177882394 0.31023239159168414 -0.32425253940583648 
0.0040817587575982268 0.13755407528522198 -0.14677871852469093 
-0.12837547668760591 -0.020302491564732038 0.06329403831596063 
-0.070232108679293526 -0.139977874846861 0.076934174602857092 
0.034495706824156668 -0.3857112053984017 0.19002697676570868 
1.0675929501228218 -0.32910510459568554 -0.85553767250222423 
0.099963160747469471 -0.10597184701150006 -0.12415478385609884 
-0.15359936503259042 -0.10311536860733773 0.10218899040113642 
0.20360470204196207 -0.086139945965965706 -0.20414987397236226 
0.51033315748599362 -0.32294633548739665 -0.34285587859121891 
-0.14010123018384066 0.015413062405078655 0.13829747307017831 
0.2123577493100301 -0.11069865613580715 -0.16487699526448032 
-0.061291127513669164 -0.064863384061199222 0.059239059884178463 
-0.50464814597465979 -0.25663620487709343 0.53436804480144751 
-0.27171590649002325 -0.38805201023193853 0.23641682947133139 
-0.057680710924967439 -0.076710685664839934 -0.037158283636041352 
-0.076386826141789724 -0.081452961248463393 0.013074053611219752 
-0.046747808018394954 0.2953887972967516 -0.27490221755604699 
-0.011342174268584939 0.13459917405221361 -0.18486908380492931 
-0.011342174268584939 0.13459917405221361 -0.12404014073630124 
-0.31079728944109597 0.46031540026800949 -0.12464640615955991 
-0.12657153336553967 0.046322061955448669 0.11979966909642212 
0.039068682037486403 0.051548429285486412 -0.10084246707579557 
-0.011342174268584939 0.13459917405221361 -0.18486908380492931 
-0.060327642251714997 -0.16047069232405331 0.084504304951070947 
-0.011342174268584939 0.13459917405221361 -0.18486908380492931 
-0.52402896818841327 0.18469742638021103 0.49885210768499744 
0.3372857704000547 -0.11468839883553317 -0.30624550186236499 
-0.011342174268584939 0.13459917405221361 -0.18486908380492931 
0.087006180962448693 0.064816308851461016 -0.10776595728799082 
-0.56218532319195125 0.34917205933222617 -0.0019732476363193592 
1.3847543189402827 -0.47316669289476909 -1.2822645319341899 
-0.062386486147824244 -0.20922768356223104 0.026339593706050348 
0.047508637179548792 -0.24212001003043687 -0.042376957951492801 
-0.68069287846771398 0.40972163653144822 0.3915135952929808 
0.30890193484629591 0.037288153048362735 -0.27533393540458106 
0.0032618572542642797 -0.12892737836229962 0.19336310510332189 
-0.46378236205869516 -0.32203815292485183 0.57669177122938087 
-0.096676799057924132 -0.49063875020983422 0.48193126425398469 
-0.2136323581839264 -0.63013246972091375 0.6105553674446933 
-0.28515680092829121 0.44535808588176923 0.22752496960679644 
0.32603016923688644 -0.00041617436277197777 -0.2375619025852144 
-0.087775410964122905 0.098473680277701162 -0.013657345799841729 
-0.13465357173731635 0.031967192910730809 -0.0020277020865259619 
-0.092262197803471765 -0.093678860999112962 0.08529213442745244 
0 0.015983596455365404 -0.029078336572083661 
0.022803978354460987 -0.042763286951877685 0.067492029949233645 
-0.19412544620290983 0.16834042513661271 0.036635662566774946 
-0.41129926574924125 0.82506919245910959 -0.69552950285085602 
0.47640807182106659 0.073765515973814699 -0.49470933935630429 
-0.011255940626039455 0.1822872918872091 -0.30161014966513544 
-0.34412748722758008 0.015983596455365404 0.2712608867142533 
-0.43299642081632195 0.07508592861646568 0.29847204589304371 
0 0.015983596455365404 -0.029078336572083661 
0 0.015983596455365404 -0.029078336572083661 
0.027969952488426125 0.058632268219679581 -0.067944822716943881 
-0.084557768184554419 -0.51077004911824042 0.37263431844341249 
-0.39927037271899596 0 0.47418310942719788 
-0.52419643745898314 -0.22471551429774009 1.0290570519962212 
0.23045945269615895 -0.14886066870857767 -0.26923304742450488 
-0.25023429079744391 -0.24925161271652371 0.23990876983814605 
0.51935488971237287 0.02414725605342103 -0.49218721171664681 
-0.0064046062498368181 0.30696803589338578 -0.54441758497171966 
-0.16823799512105531 -0.038825487355581161 0.16967546001236961 
0.07886126186571997 0.017468589002207411 -0.11812998065036676 
-0.37677004051841007 0 0.37061729280922562 
-0.037381737454285975 0.17191812512240262 -0.13883590534318488 
-0.0044318152355717734 -0.081307529716180368 0.072105538582503931 
-0.0044318152355717734 -0.081307529716180368 0.072105538582503931 
-0.0044318152355717734 -0.081307529716180368 0.072105538582503931 
-0.21959608664106439 -0.081307529716180368 0.24810403856937885 
-0.070029178912537959 -0.098967635039633198 0.19647535481015138 
-0.0044318152355717561 -0.046226635573851434 0.076751959073527096 
-0.13211798871901981 -0.12018029702351966 0.18434098323065953 
0.13744507131808309 -0.21107781732795092 -0.03593202701775406 
-0.091836606631743117 0.41234057878684816 -0.21127588849179144 
0.18687561843043282 -0.13290216221823981 -0.071383221082185422 
-0.29596243533206812 -0.25991616555275332 0.1835061584408508 
-0.0044318152355717526 -0.080961849587927404 0.072105538582503917 
-0.11375343674537315 -0.18840530538568268 0.30083791024729584 
0.15904917608895799 0 -0.16238634510162428 
0.15904917608895799 0 -0.16238634510162428 
0.15904917608895799 0 -0.16238634510162428 
-0.31927946700899867 -0.22659492919879645 0.24242975945803674 
0.15904917608895799 0 -0.16238634510162428 
0.42072138063619702 -0.19601389546109368 -0.41637502195812115 
0.037428668387085355 -0.11647905269416411 0.097660072858549204 
0.017865363352064401 -0.59155511674699734 0.26314083909360475 
0.1132778891733448 0.061724496635028922 -0.16864185062729875 
-0.068711999025621681 -0.14629981753357998 0.094815452433056974 
-0.26513779596420317 0.18520385091123934 -0.14567778596134001 
0.031793738090601549 -0.24809708949904466 -0.038826148100506108 
0.29519916200761209 -0.013201510334110524 -0.27903964640609236 
0.035317267981745976 -0.47209305584818112 0.24811933219414917 
0.49504937469693894 -0.31295676982960491 -0.48406486663642284 
1.3510927382977105 -0.49146845187115623 -1.3123363007141156 
-0.62842016497378872 -0.12679868932230681 0.63991051558710166 
0 0 0 
0 0 0 
-0.23912817324786972 0.13277734405379499 0.079062291306116667 
1.4701685199479204 -0.50318729396255635 -1.2898820465898282 
-0.010951352707713148 -0.028723587764171343 -0.068219746753816424 
0.12044057807765209 0.1238484396616043 -0.19817277862515784 
-0.24726789376463471 3.4277307349778472e-18 0.26027810647329797 
-0.16745666089131334 -0.065699016600545487 0.062517602340316406 
0.10398808249430294 0.2186209424407049 -0.22755252639626422 
-0.17121477944114821 0.015305175304511169 0.14517578539070677 
-0.14047033487959165 0.020526893653408079 -0.26659737997283989 
0 0 0 
0 0 0 
0.098548405077229298 -0.33149363031944556 -0.12011648814647891 
-0.33800251764813594 -0.33925711890875104 0.51557549567970706 
-0.17385930795580304 -0.1282384266545126 0.24471355869939707 
-0.25220210488929506 -0.083235949443237617 0.19155587397100685 
0.14746664610598903 0 -0.14991119449104623 
-0.52569438714651029 -0.062939548870593803 0.48090209854693095 
-0.1909744552546695 -0.096923395202067053 0.13434308781358645 
-0.082690405515261883 -0.38013851737024207 0.19206530089220933 
0 0 0 
0.48404710505234949 0 -0.48949588246737508 
-0.37776233810277043 0.61727178376586178 -0.48123880644809425 
0.014510004497730322 -0.11260419706298712 0.19398814936203709 
-0.25626849341892277 -0.025927213125829886 0.12080946880029883 
0.12014735235249427 -0.18767965672918024 0.056635265850926035 
0.45353879780458317 0.13737708487064054 -0.57819715327127885 
-0.055508981465990342 -0.24747688154231681 0.18383124071965426 
-0.14486588472877018 -0.33932755744983284 0.33032865876035988 
0.0054756565303599189 -0.19989652659971621 0.030250272767873392 
-0.21816313028839707 0.044256890705918407 0.1694421903020481 
0.16326132606540544 -0.093351618297493597 -0.060428797911470558 
0.38939056247848619 0.24661626420899643 -0.6487947850915895 
1.255425401835885 -0.43468282604746689 -1.1596276849279783 
-0.19621110232914432 -0.7425077032653099 0.77693445079892542 
-0.065086280046505823 -0.29976492450078618 0.25888241747779173 
-0.48216770262206793 -0.023656183166836663 0.36968173475698851 
-0.20514818881387095 0 0.12057972395579547 
-0.20514818881387095 0 0.12057972395579547 
-0.2051481888138709 0 0.18284135432572773 
-0.26794314736650737 -0.47673426001038877 0.42344039697400221 
-0.24059550278020223 0.12776786580153196 0.18202740674398882 
-0.15876908914589591 0.004489252116140807 0.12874970613744796 
0.22634689667046706 -0.14984482175003244 -0.077383650861056627 
-0.26196636838663379 0.024150328110425088 0.22732755810211749 
0.20854442007180407 -0.33006933230152669 -0.056938904691596515 
-0.020245557396694848 0.041209802426111677 -0.017127266368471117 
0.48868090801974562 -0.30471814039750839 -0.31244366693513465 
0.077811585615093576 0.44749372406205129 -0.59146564371288179 
-0.10252360477301917 0.056779427189017719 -0.027958748383592538 
-0.14933218475352592 -0.068361376343207533 0.16038830680690855 
0.11020218229969743 -0.36188328981657647 0.085409985157678142 
-0.18790147912074012 -0.18258980545999925 0.41538401854721446 
-0.24676637025271014 -0.36727665372490609 0.26695268025604979 
-0.098943916794350009 0.096066703423575719 -0.0276982602763917 
0.071593105050831427 -0.11952367369934824 0.034033226832233344 
-0.098943916794350009 -0.036267952512145235 0.15122398082063929 
-0.098943916794350009 -0.036267952512145235 0.15122398082063929 
-0.083854159539359763 0.10117091897917116 0.034803204338061257 
-0.098943916794350009 -0.036267952512145235 0.15122398082063929 
0.19241641359164566 -0.28707232287031031 -0.0095644679002411474 
0.13921933859480212 -0.047549176228594218 -0.25913935763921031 
-0.016504318978750529 -0.1781569155897624 -0.043196254904565572 
0.13942948900067062 -0.11591370281091073 -0.0484489413546033 
-0.33886886533186172 0.01816871044245014 0.17477805531853061 
-0.17209175479513833 0.22606246679485156 -0.063705616724996375 
-0.098943916794350009 -0.036267952512145235 0.15122398082063929 
-0.11498694977574533 -0.036267952512145242 0.15122398082063931 
0 0 0 
0 0 0 
1.3617114622062112 -0.5746188057490802 -1.3060419336544014 
0.12168952086663137 -0.22137238590493741 -0.040332894436784443 
0.15519420414617807 -0.047757651532874736 -0.13939556801721328 
0.063526100765785354 -0.088736450349750029 -0.00042265384267393654 
0 0 0 
-0.12460521947998474 0.31791308400856172 -0.12072608484730867 
-0.2778339629695043 -0.064027167987907252 0.26535515011841859 
-0.026070916972906848 0 0.11508477453867187 
0.17510186881843634 -0.45737889756348171 1.0257308453754582e-17 
0.075600951040178097 -0.15006448800832417 -0.035500126009360401 
-0.31256686616004198 -0.71223937359887923 0.72999852100828599 
0 -0.16071194475518741 0 
0 -0.16071194475518741 0 
0 -0.16071194475518741 0 
0.10221764380691484 -0.16368046256376664 -0.089325169740395519 
-0.10981346040467818 -0.25978007926314456 0.41570132874125693 
-0.51196134252576042 -0.059670944523520654 0.48889747612831308 
-0.13564806338433533 -0.1536449461653191 0.099867032681992318 
-0.13389619212648007 -0.16071194475518741 0.056125422301399865 
0.055426212344127451 -0.24335763615064368 0.23477844373125545 
-0.011178818540280668 -0.18119097936849118 0.085356532219755379 
-0.30946727807583713 -0.091797841312812878 0.43914829145910228 
-0.13921579715418608 0.3392333035953759 -0.4659643268345991 
-0.4068437018602627 -0.16071194475518744 0.54784750586120012 
0.81257223810579515 -0.7093775950201926 -0.61842812483672038 
-0.20194356612736014 -0.054115402693060442 0.24968792477214849 
-0.19698028981410337 -0.26501403595536138 0.39563348784138586 
-0.19161848938316439 -0.32776346866462436 0.13792223981932963 
0.025992094490024067 0.10463639996472124 -0.095782456738033595 
0.92241733832641981 -0.13006803881378087 -0.73155642887827066 
0 0 -0.02373404719634839 
0 0 -0.02373404719634839 
0 0 -0.02373404719634839 
0 0 -0.02373404719634839 
0 0 -0.02373404719634839 
0 0 -0.02373404719634839 
0 0 -0.02373404719634839 
0 0 -0.02373404719634839 
-0.25040935960033872 -0.0229817938912588 0.21344996318269685 
-0.013974199087008541 -0.011503258038904698 0.024578640123414135 
-0.086567881548387238 0.12929923967710463 -0.013918199393723119 
-0.074344277741829001 -0.035956191695598362 0.015494647169439739 
0.059543949462343086 -0.22884572223322108 0.15724284085172036 
-0.013974199087008541 -0.011503258038904698 0.024578640123414135 
-0.0232374729807318 -0.011503258038904698 0.024578640123414135 
-0.013974199087008541 -0.011503258038904698 0.024578640123414135 
-0.013974199087008541 -0.011503258038904698 0.024578640123414135 
-0.013974199087008541 -0.011503258038904698 0.024578640123414135 
-0.013974199087008541 -0.011503258038904698 0.024578640123414135 
0.13162027815889676 0.054283396871183241 0.060557150871219073 
-0.17474154214520449 -0.20546120662151282 0.057020413713766253 
0.19289132264066189 -0.19635762497470702 -0.17666807099608833 
0.046328655096590697 -0.14691617993627387 0.073756281725397971 
0.31633279453587015 -0.11941452680758502 -0.16893654522140678 
0.12985204003648282 -0.063464431730178378 0.10074965700566607 
0.4156693808977488 -0.01663861023286661 -0.088649157875178422 
0.024167720931267712 -0.27427226286422562 0.079709574923777796 
0.21136569612571512 0.26496317244199341 -0.39596417011055124 
0.10777297820098479 0.31101052045746991 -0.53437704369865868 
0.078638670366609417 0.058909607660525762 0.041403897479268224 
0.13731093015456702 -0.091052269488963389 0.05222575725642184 
-0.3103594608493373 0.0054126092458475217 0.05912575086628756 
-0.2979011408916078 0.12513706786676998 0.15459723110770787 
-0.019978842796451159 -0.14337954935037603 0.24093624456143953 
0.14998705144051669 0.44222937354517694 -0.4032151881136814 
-0.038804288011719618 -0.092198559247652051 0.18025783332110018 
-0.29036665721994165 -0.23295679309944084 0.7871296473925663 
-0.29299990611585858 0.58740625703438154 -0.20964464061527036 
0.084270008130625323 0.09810984044770002 -0.15881807952325958 
0.20541377629827329 -0.071712659623446987 -0.074352081450899471 
-0.28296826466810043 0.091378262856080694 0.21644285165433402 
0 0.15983557223125663 -0.26488549087124857 
-0.38124592256762924 0.12234558253075825 0.29952260317946544 
0 0.025005005902645722 -0.076899147768312123 
0 0.15983557223125663 -0.26488549087124857 
0 0.15983557223125663 -0.26488549087124857 
-0.24057899807231847 0.26545320302706699 0.1505731551747726 
0.10448321254742328 -0.1324838179686563 -0.15825874454429698 
-0.15955579293626557 0.048596522503922705 0.096992590593233799 
0 0.15983557223125663 -0.26488549087124857 
0.065737059291980121 0.47095654827466332 -0.44765592726715098 
0.077555835109984914 -0.069993273729384423 -0.091517744995609787 
0.19552434405160329 -0.13473866333579779 -0.076807157153976596 
0.19692605168763294 -0.10027773295916795 -0.053229048241858035 
0.0087966999889078513 -0.12472346584608439 0.0037582475773219118 
-0.010702097778291451 0.28880744515570761 -0.20357673870479476 
-0.10321410631136045 -0.035907460240580419 0.16722213829682489 
-0.094590584842109499 -0.070903858695281638 0.12080431785873924 
0.6332875850542381 -0.12555894444830404 -0.61867510940980586 
-0.2873718404561047 0.31438950802825794 -0.32993352211321197 
-0.17967223614869487 -0.042507757505691961 0.19767746445237486 
-0.077847667182692024 0.062315739873356361 0.04128387024315204 
-0.74758086257093814 0.31246772941748918 0.36098171744842178 
-0.010702097778291451 0.28880744515570761 -0.20357673870479476 
-0.010702097778291451 0.28880744515570761 -0.20357673870479476 
-0.010702097778291451 0.28880744515570761 -0.20357673870479476 
0.20255188207324926 -0.13702060599944757 -0.13339691441380938 
0.45910983274230605 0.34213901505492733 -0.71728872663489984 
-0.094087860238743937 0.16746383975805129 -0.084965742880571654 
-0.15941522872512895 0.21969509201864623 0 
-0.01051188435739013 0.31119065553526221 -0.15373371980536712 
-0.034248239714941391 0.018477392728720433 0.038730184920084385 
0.18439650692614248 0.19274335395074374 -0.16452954432475736 
0.0084181957226393198 -0.20688681413355103 0.10688302527903006 
-0.13244224699006729 -0.16611348002714971 0.28971473590334579 
-0.13234863085041432 0.18076519673546682 -0.11439099600319991 
-0.085251705396406252 -0.31668541181417642 0.175711746019241 
-0.27869990433371106 0.30348650108320407 -0.061067519031928058 
-0.15941522872512895 0.21969509201864623 0 
0.1369791527923867 0.03311588989210567 -0.19147440487002329 
-0.20338699060006504 0.30385356759745108 0.12571055948220822 
0.083406851147119057 0.043274095866677756 -0.23548431017031846 
0.02792488236496599 -0.2599977808570198 0.074552599138607983 
0.054707084285839855 -0.24153413398734461 0.040688042351851493 
-0.13381307398142722 0 0.059602723840205749 
-0.13381307398142725 -0.14785833860788011 0.31571293959371127 
-0.053304009100398078 0.037538687990487977 -0.039930444870704684 
-0.13381307398142722 0 0.059602723840205749 
-0.55641301625918305 0.0069557930109047971 0.25642003574760347 
-0.4244719413988744 -0.15731409062170035 0.52657397771605707 
0.26650266346390072 0.072691306558718055 -0.39066126185397132 
0.21109280513398954 -0.29648284195749475 0.12190640258582963 
-0.069221794212287982 -0.062489044897020306 0.12665296251308861 
-0.069221794212287982 -0.062489044897020306 0.12665296251308861 
-0.06922179421228794 -0.14194635994947918 0.12665296251308861 
-0.069221794212287982 -0.062489044897020306 0.12665296251308861 
-0.069221794212287982 -0.062489044897020306 0.12665296251308861 
-0.069221794212287982 -0.062489044897020306 0.12665296251308861 
-0.069221794212287982 -0.062489044897020306 0.12665296251308861 
0.061730956904088197 0.11717811504630275 -0.3675288802040943 
0.14991672448964038 -0.062489044897020306 -0.13518954442595355 
-0.075431541211807146 -0.16786538946306875 0.24982768817488898 
-0.035962605688548754 0.37563284249144624 -0.24725284581686868 
-0.68556808897902244 -0.071464265967027638 0.64546159469230646 
0.16043523749432156 -0.2301719774188847 -0.073725597562643422 
-0.075431541211807146 -0.16786538946306875 0.24982768817488898 
0.46135796481061775 -0.33864004449730989 -0.1781240554275246 
0.16064003131747859 -0.15430768418102897 -0.076960834979621237 
-0.19198342904468788 0.49447948202587605 -0.0044597975495293245 
0.11170797110912901 -0.020333728356389066 -0.12629464544401955 
-0.16263978097464143 -0.067739212600075593 0.034139369212083111 
-0.21296971534533246 0.12737285567158896 0.093677049306933116 
0.49984138564561048 -0.23660740751247922 -0.24612142849593555 
0.11387929615846042 -0.018012310872801959 -0.22188501240388486 
0.18621141645849623 -0.10458843211325917 -0.05903560546274874 
0.072561617749684365 -0.17010108040355454 0.078014553279275617 
-0.088762828321414591 -0.17010108040355451 0.13889520585726167 
0.13164896625566555 -0.17010108040355451 0 
-0.20622341966657362 0.55348132146283224 -0.33535732229164977 
0.13164896625566555 -0.17010108040355451 0 
0.0018476264917743944 0.22245932120204676 -0.13985151991277339 
0.42870979957894595 -0.17229864609446641 -0.21682605470456007 
0.13164896625566555 -0.17010108040355451 0 
-0.91714854068371432 0.1946751941466994 -0.34860694294751315 
0.17010616227469774 0.031755538279890076 -0.41905244914419021 
0.13164896625566555 -0.17010108040355451 0 
0.11292416180070014 -0.092474056104926081 0 
-0.071801732980587757 -0.11965910815522315 0.14787684784648503 
-0.1256487901739034 0.0011612572310762239 -0.042760505919723621 
0.11292416180070014 -0.092474056104926081 0 
0.1533705934043279 0.17830222683823319 -0.09573393398461226 
0.39034408941467591 0.066021136734892835 -0.35807654353476265 
0.11292416180070014 -0.092474056104926081 0 
0.096557082262296826 -0.099499931008837195 -0.014896197705370188 
0.058682349672631681 -0.1630976159550438 0.047554318191288948 
-0.28146377772697323 -0.046878847227917443 0.16046367182463903 
0.56727879868997344 -0.18623874498029241 -0.41390009392004423 
0.084078947703355653 -0.13952828597835518 0 
0.084078947703355653 -0.13952828597835518 0 
0.084078947703355653 -0.13952828597835518 0 
0.13205102079069519 0.021639229547613641 -0.30101224647284491 
1.0239818761047679 -0.29159290054020459 -0.98072934420749458 
-0.17163882062349703 -0.24470557526237049 0.27538563802951488 
0.24195692390332041 0.20016926767734072 -0.38497328533779557 
-0.056961856973846939 -0.13952828597835518 0.088040132928460565 
0.084078947703355653 -0.13952828597835518 0 
-0.3253881542181038 -0.23133987592218794 0.3938332999151668 
-0.076121988275981184 -0.1395282859783552 0.26978834076527503 
0.27568597621973323 0.14045752839663045 -0.38984259989139525 
0.084078947703355653 -0.13952828597835518 0 
0.084078947703355653 -0.13952828597835518 0 
-0.2855101590887415 -0.42524610577670219 0.48719019727218155 
-0.067090610070990209 -0.10790853320641407 0.098256650684518554 
0.45736007534683432 -0.030127378004854863 -0.41566445668695828 
0.22780384766041548 -0.15291034736272566 -0.027946789389832038 
-0.12167924571328001 0.099414026519215104 -0.033384276342261286 
0.37067318178168934 0.11726040539084735 -0.67349279010169216 
1.4900192074971357 -0.71455935061802989 -1.2174400385651223 
-0.19568939491514645 -0.091124058964531823 0.09964004244928247 
0.12840660468427303 0 -0.17654870295203084 
0.12840660468427303 0 -0.17654870295203084 
1.1622755565506648 -0.36717477069445192 -0.90029934543025714 
0.12840660468427303 0 -0.17654870295203084 
0.12840660468427303 0 -0.17654870295203084 
-0.090886962762202025 4.284663418722309e-18 0.097686047061168388 
0.14108898141652049 -0.36212634104718078 0.076421331222252448 
-0.55027245295474136 -0.097071120814458872 0.73139620324697896 
-0.1143161986766113 0.17966515977561132 0.089781690594168226 
-0.40898048798272046 -0.084625575806944769 0.40811384980445586 
0.41057643641530622 -0.41279613131472137 -0.22191768411504872 
0.036618554300907546 -6.8554614699556945e-18 -0.1262514574409955 
0.22701783874170431 -6.8554614699556945e-18 -0.20360709111464614 
-0.10359902338928291 0 0.083204854500828387 
-0.28054138763737224 -0.22933824208365461 0.41577294663142295 
-0.10359902338928291 0 0.083204854500828387 
0.14109735870431292 -0.61804923336544615 0.23937844718201787 
-0.10422750676195702 0.13264469732750347 -0.022786386839542136 
-0.20719804677856582 0 0.16622774146357366 
0.0764013711858859 -0.086554344989596507 -0.049429730430083314 
-0.10359902338928291 0 0.083204854500828387 
0.63857067648429222 -0.12621600384715609 -0.43132728592836023 
-0.29672597105430959 -0.2082051161786686 0.3875714692940862 
0.2517282063330531 -0.12621600384715609 -0.11035499724182314 
0.049643541673528691 -0.058540069232820249 -0.10824829134543543 
0.2517282063330531 -0.12621600384715609 -0.11035499724182314 
0.2517282063330531 -0.12621600384715609 -0.11035499724182314 
-0.31172235443985918 -0.12621600384715603 0.41878344892965497 
0.22199700051547083 0.049561676000691633 -0.2834993425029208 
0 0.030880478978459469 -0.17889799459684405 
0 0.030880478978459469 -0.17889799459684405 
0 0.030880478978459469 -0.17889799459684405 
0.023011845288944455 0.27978981616719223 -0.3619833929862884 
0 0.030880478978459469 -0.17889799459684405 
-0.22926412820917269 0.37418388636382338 -0.43068279124417924 
0 0.030880478978459469 -0.17889799459684405 
0.18836929665387608 -0.16789408017165111 -0.07334413856109924 
0.11023949634123625 -0.064094634531498981 0.0082801285475958188 
-0.064793632042223881 0.13511236263858969 -0.0053289539695975646 
-0.81137308836761513 0.27122121400417099 0.38773284704965599 
0 0.030880478978459469 -0.17889799459684405 
-0.47723620674992306 0.66047559247934895 -0.3048691198354605 
-0.014401368314862141 0.11782098273999848 0.027934161921850824 
-0.17939794337400655 0.70704709892071926 -0.61373401228535818 
-0.47723620674992306 0.66047559247934895 -0.3048691198354605 
0.038217363109858724 -0.15378796204700448 0.35467520770700672 
0.83538308687974794 -0.027139725174553802 -0.70661002998450106 
-0.16198239709486356 -0.056420592188699409 0.20438287950692161 
-0.13355034633825458 -0.056420592188699437 0.20438287950692177 
-0.005046093500054423 -0.2911426647588844 0.16170833680073324 
0.058159217849467086 0.05466239339523761 -0.080005725248992729 
0.83538308687974794 -0.027139725174553802 -0.70661002998450106 
-0.27794645485832037 -0.30014137948073816 0.19818417960282772 
-0.1708590655377501 -0.25261763269097476 0.20295567653647428 
0.00073337386583788473 0.074951342505387888 -0.074370096924823909 
0.026433592836269035 -0.012643416875349521 -0.074315202199383146 
-0.17636593640495707 -0.26227511610921483 0.17872774783558906 
0.081530173198230763 -0.19628458353508851 -0.13105677742410904 
0.35624790563315917 0.064627738802033777 -0.433954903119397 
0.094910286912472885 0.37701015140371918 -0.52247582937505788 
-0.044341242228537879 0.015976938875266057 0.038939434164160916 
-0.079789917331887977 -0.073333412638042036 0.073403475809284441 
0.23651519611762323 -0.056658669198397717 -0.2847719519835476 
0.21622565515262804 -0.015745091519663561 -0.37968129576614212 
0.015078579401155274 -0.057644637819780714 0.0065568493123102835 
-0.53641609332735962 1.1140239655494628 -0.3263919076275259 
-0.59367037623450669 0.40341076324971858 -0.18396527726852827 
-0.28116082187644142 -0.11781090998158081 0.12469103054609013 
0.085426929881810679 -0.10949287496521147 0.016091765489301055 
-0.51981761551745331 -0.1860523397134729 0.59880783927467462 
-0.034728228886399121 -0.074193500890018999 0.061430819942338913 
0.064273750516835079 -0.18466289212619189 0.01996878161755767 
-0.0068098699725674906 0 0 
-0.0068098699725674906 0 0 
-0.034728228886399121 -0.074193500890018999 0.061430819942338913 
-0.0068098699725674906 0 0 
-0.0068098699725674906 -0.017348195292146498 0 
-0.062370687756129924 -0.042677896793370126 0.10724823548480053 
-0.0068098699725674906 0 0 
-0.0068098699725674906 0 0 
-0.029978748765604645 0.30243439732755872 -0.6238064158706389 
0 -0.11718738703589035 0.14779277408215291 
0.21942721741726717 -0.15388505714814321 -0.076710800588567579 
0.16702915674740054 -0.13040395493612791 -0.1026062801611534 
0 -0.11718738703589035 0.14779277408215291 
-0.53136480564984845 -0.0081562009564896537 0.42016724138225531 
-0.58684169205965309 0.037358770719943674 0.43346611854111106 
0.21454486310168491 0.30476682746695649 -0.4679177637279166 
0.32656823314937444 -0.19095737096967486 0.016456206443109966 
-0.3253704655053537 -0.226969530918674 0.4310322926211298 
0.17435899020255807 0.15468815960339605 -0.13450109856463832 
0 -0.11718738703589035 0.14779277408215291 
-0.10640597871735039 -0.20353641424230659 0.16105175201493338 
0 -0.11718738703589035 0.14779277408215291 
0 -0.11718738703589035 0.14779277408215291 
-0.28056887012987991 0.0683899490017911 0 
-0.023961525603142443 -0.048367363318334786 0.10208140047034245 
0.34323137587636088 0.47518633083203038 -0.91894633669675851 
-0.035899198990630973 -0.094089261849540362 0.043872974154186652 
0.44367673067033619 0.069860338931481872 -0.54620014205492173 
-0.2737234777712495 0.0683899490017911 0 
-0.34678395992267247 0.13528389847256531 6.838205635836389e-18 
-0.28056887012987991 0.0683899490017911 0 
0.013931623536026689 -0.11218843221879314 0.10338033289276652 
-0.28056887012987991 0.21250521542395553 -0.22077239910660892 
-0.037452932906967412 -0.26085465134761449 0.24930243482954731 
-0.061079524353072734 0.0097411470047561993 0.066930156019076009 
0.186405915789812 -0.12092437556161828 -0.3950628438773468 
-0.26242142975339844 0.043287580832371497 0.16523367241460371 
0.13709029377565679 0.057655830566390051 -0.2115588920155809 
0.23438785757854691 -0.21658296382893513 -0.21455501906713059 
-0.0055744075454858769 -0.2914374306078647 0.01866453570241047 
-0.1489880519810883 0 0.16538867460888751 
-0.1489880519810883 0 0.16538867460888751 
-0.1489880519810883 0 0.16538867460888751 
0.054798039918385812 -0.24568191281437449 0.18791279496341481 
-0.1489880519810883 0 0.16538867460888751 
-0.1489880519810883 0 0.16538867460888751 
-0.26980447779364392 0.18881539556502999 0.028606607267377206 
-0.09728150623579801 -0.059499606970000604 0.15996781923274259 
-0.1489880519810883 0 0.16538867460888751 
-0.010953533987629736 -0.062845915755452633 0.23880728268402204 
0.22407613065096108 -0.39433047088824519 -0.20200863160831117 
-0.015054210679318763 -0.10428922301020371 0 
-0.24018055374373909 -0.085620320805730371 0.093041771035835191 
-0.31431712093698871 0.18736245615813144 0.12165799094084563 
0.27683629958388728 -0.039945803889763327 -0.015170468184630984 
0.27683629958388728 -0.039945803889763327 -0.015170468184630984 
0.083119550735936548 -0.15721052672244207 -0.06822701983096828 
-0.0010231485039081678 -0.21784154692222316 0.16780100690605579 
0.61098058190679838 -0.059629664094936669 -0.68914200090321953 
-0.26462656281223673 0.12899742503560016 -0.26367645183476607 
0.86601509490925443 -0.19032436369747391 -0.47681455443795534 
-0.11313197221572796 0.026810416721286503 0.12134724601561989 
0.18147984374395598 -0.19784485704126778 -0.10098875519511717 
0.36569306474375018 0.10196954788158233 -0.43979716898836724 
0.099437523495024424 -0.12011467432266561 0 
0.0082160004759437664 0.10932698202130293 -0.095235582173144803 
-0.071902640458347641 -0.094072179022859817 0.27179357600189163 
-0.15707392733344577 -0.13159953762005341 0.12166622105854427 
0.52805137947736314 -0.18999384348073303 -0.59367460280327 
-0.26508937388566628 0.14564014523472707 0.10562656831019449 
0.037994547587114298 0.15543253892468717 0.10788574636493498 
0.078276689612071376 -0.07099029574661414 -0.14699662203758965 
0.078276689612071376 -0.07099029574661414 -0.14699662203758965 
0.11655818791222983 -0.0092404753487219764 -0.10115888641413402 
0.078276689612071376 -0.07099029574661414 -0.14699662203758965 
0.078276689612071376 0.10224718822964605 -0.33337052732671302 
0.078276689612071376 -0.07099029574661414 -0.14699662203758965 
0 -0.044871107634822396 0 
0 -0.044871107634822396 0 
-3.4694469519536142e-18 0.40564198977137172 -0.63553730838234712 
-0.078987307866014128 -0.044871107634822396 0.062128099675262623 
0 -0.044871107634822396 0 
0 -0.044871107634822396 0 
0.2810145880673765 -0.044871107634822403 -0.373843200743677 
-0.0513418379339294 -0.05273435096873634 -0.022140141514795982 
-0.4523594135214985 -0.10257228969995764 0.23568333518605072 
0 -0.044871107634822396 0 
0.26709472267516127 -0.35693532301719721 -0.12898806630158141 
1.2976800950149825 -0.36239502188824863 -1.092338111186602 
-0.019244542003331703 -0.033039374766464763 -0.00464947912770362 
-0.22738210601214032 0.22831673807486247 -0.040629159404574199 
-0.4025502292455162 0.34161518532674312 0.010412670324013234 
-0.011479790425558356 0.11211223386005668 -0.085872116824266168 
-0.22738210601214032 0.22831673807486247 -0.040629159404574199 
0.28089057525293665 -0.17319185343628934 -0.1266007892261104 
-0.22738210601214032 0.22831673807486247 -0.040629159404574199 
0.069737043051466135 0.26835128474001724 -0.38955283391146511 
0.38427138639884023 -0.013479560459883487 -0.52170993070022298 
-0.30987388653318282 0.03679511929916604 0.24874386010327693 
0.38601659809380162 0.21375625545725319 -0.56172231486969981 
-0.030434998825638021 0.074687056874975316 -0.1573690469426488 
-0.083921680058621523 -0.049423167015895442 0.13449501924581078 
-0.24151665002277631 -0.14891750008407523 0.18126902808583545 
-0.20918656978953493 0.20498090994107365 -0.018543000338569048 
-0.14536027786432365 0.3062578305411961 -0.10657675510707083 
-0.083921680058621523 -0.049423167015895442 0.13449501924581078 
-0.20119246111326961 -0.19898613756938729 0.3219427679182289 
0.019220861710085857 -0.29030976222540128 0.12502723824516582 
-0.24573453106146714 -0.095899145502801833 0.084885500008265113 
0.42291806536774323 0.17108053057959857 -0.71414301133013747 
-0.083921680058621523 -0.049423167015895442 0.13449501924581078 
0.11154703178403358 -0.18595809072858518 0.020347750568026419 
0.14915851483747614 -0.26320115819890155 -0.043784980728136878 
-0.083921680058621523 -0.049423167015895442 0.13449501924581078 
-0.17654043637165903 -0.049423167015895421 0.19145935144919829 
0.062812809871543154 -0.10906487681905244 0.0071581384184202859 
-0.056838027851211413 0.092051642352963245 -0.065327994629745978 
-0.1424400215721921 0.10924374868727131 0.04513236199370288 
-0.32508864871357945 0 0.11690394788086261 
0.085537427122139409 0.12482182942701467 -0.46262204973626103 
-0.41126741905030045 -0.42938638755573549 0.71884128380836898 
-0.30366435682596737 -0.402444454017235 0.34151627453479577 
-0.18205542527157689 -0.47533658087918962 0.34562874027419749 
0.55342296810343006 -0.29117689878229414 -0.49255126950009942 
-0.093111753769107061 -0.092427900550398068 0.037879499889834113 
-0.028973259700368577 -0.13134957933147898 0.094345440015110082 
0.86804186500555014 -0.51919206704688736 -0.41301013398735503 
-0.13364710996005058 0.33780307160040479 -0.30504515200349974 
-0.16682015396187755 -0.078690767171424342 0.21495238739099665 
-0.09703080919444175 -0.041564904486351917 0.11529269985849669 
-0.1940616183888835 -0.082952714112486864 0.23055308071729139 
-0.09703080919444175 -0.041564904486351917 0.11529269985849669 
-0.047798056834842111 -4.284663418722309e-18 0.047095022783503783 
-0.0070350269552781446 3.4277307349778472e-18 -0.1316857760130633 
-0.047798056834842111 0 0.047095022783503783 
0.01532446119636785 0.23108536381360392 -0.50659332385188194 
-0.09703080919444175 -0.041564904486351917 0.11529269985849669 
0.34519623762465557 -0.55217373287792115 0.07727770051759883 
0.0098994192319489718 -0.03607031229242974 -0.030739890010795599 
-0.045014789052455373 -0.15134477282407172 0.27884476936468272 
-0.09703080919444175 -0.041564904486351917 0.11529269985849669 
0.11189045567322468 -0.12956723149968552 -0.058789088758854788 
0.11189045567322468 -0.12956723149968552 -0.058789088758854788 
0.71640502771708692 -0.14205956087147636 -0.72020645468802258 
0.11189045567322468 -0.12956723149968552 -0.058789088758854788 
0.22837750589861577 -0.20005353473061407 -0.16462815128360367 
-0.18349618162326825 -0.15960730291342332 0.19139839298900396 
-0.082991861393330313 0.10440638442983056 0.046805199050122988 
0 -0.098715217774549419 0 
0.18663902445390415 -0.23605590951703606 -0.15295883566648599 
-0.31312219867035485 0.70406438858307274 -0.47941537524224409 
0.6782987910098115 -0.12133816736268489 -0.47487660299453344 
0.0093096461460656314 -0.25283831275540025 -0.0013825820854179113 
0.24411217692108897 -0.33048310239706019 0.11528164164770062 
0.10022403206333468 -0.32777579095637366 0.07281002807393544 
0.24171365087518412 0.085706966062535458 -0.28719705369810905 
-0.063233659790800312 0.14707669628357142 -0.076934336485568605 
-0.25260329300239809 0.21736926322861128 -0.077639869137303322 
-0.13872490895494882 0.090877187087801556 -0.014677422417449003 
1.2150868566764883 -0.90915158301714805 -0.88462490083179779 
0.14528596105907715 -0.12901223298456183 -0.21427052478235856 
-0.014637661866781065 0.29572194444998684 -0.31802929956476961 
0.092539348724012246 0 -0.16961371888650351 
0.092539348724012246 0 -0.16961371888650351 
-0.055520567369833781 -0.19085467155220656 0.12902726826654357 
-0.055520567369833781 -0.19085467155220656 0.12902726826654357 
0.095642111822887038 -0.018305855592954862 -0.054569507919601377 
0.092539348724012246 0.19467841870317382 -0.44558040427528872 
0.31009170342089576 -0.17407600436597861 -0.14888119054877633 
-0.11607481919936027 -0.10433356360036261 0.27210319243459175 
-0.2768156529582671 -0.26301456845780008 0.41047269263753522 
0.62772342260595937 -0.25167550268987859 -0.61595136948486984 
0.092539348724012246 0 -0.16961371888650351 
-0.20359112858107842 0 0.23438526905158405 
0.25717744633560613 0 -0.23178687262755732 
-0.20359112858107842 0 0.23438526905158405 
-0.30669552515404486 0.13147274134408002 0.021688746446666636 
-0.034772669775417805 -0.30358159623845377 0.33682486081966506 
0.083841878936372793 -0.16989271967551822 0.026182165484685826 
-0.20359112858107842 0 0.23438526905158405 
-0.037824287558190867 -0.048449897077300651 0.076728567275760648 
0.21835266856682228 -0.45360341286349937 0.10465042474556596 
0.074062808352945861 0.11378468902278241 -0.24766041936126118 
-0.22506552022534751 -0.27562598334087018 0.601210652098913 
-0.27975402388996201 -0.013620958694187224 0.33353096226835627 
-0.096260320138128547 0.37337328198761732 -0.15521798684298921 
-0.34938439285966699 0.19717229433627384 0.062969612330377067 
0.039305656704414133 -0.17552223855655782 0.049960468026135005 
-0.42798862957727818 -0.089924721596746679 0.56391824934919421 
-0.075964202872979919 0.036230021661499065 0.026756357578117809 
-0.065003039286162023 -0.095615853595765216 0.26047660729928335 
-0.065003039286162051 -0.019581643195066816 0.26047660729928329 
0.734278756400221 -0.53806105054455833 -0.46253149191810461 
-0.033949599737219303 -0.020165808675906883 0.26047660729928329 
0.082145112590083474 0.15369697231458543 -0.20102517175346499 
-0.46978547744974014 0.13725785488008951 0.21241118136923118 
0 0.28469198547722829 -0.24683866421341355 
-0.26998449109292866 0.11491173990980845 0.022377059063331282 
-0.62064223550939257 0.35758507978960219 0.099963460129265838 
-0.22993610145490589 -0.16473557804540256 0.46957926189387111 
0 0.28469198547722829 -0.24683866421341355 
0.13944931098497884 0.19035452869622693 -0.2047445274030793 
-0.096858489552112431 -0.1389075273083798 0.095482198008745731 
0.2088205639550125 0.011128701875608358 -0.30896207581325941 
-0.056113908741863554 0.65968479403224767 -0.48598568908587941 
0 0.28469198547722829 -0.24683866421341355 
0.2510039878158567 0.38920834639603974 -0.49108006449454283 
0.19456071088879648 0.12686456321216716 -0.39732793924384557 
-0.084228726929926889 -0.32084663566390237 0.21164842363282807 
0.30484138115684484 -0.024431401476521897 -0.097601029608975043 
0 -0.024431401476521897 0 
0 -0.024431401476521897 0 
0.11081854065727008 -0.66242473715822703 0.18483011576392505 
0 -0.024431401476521897 0 
-0.22608410501573833 -0.044584229054597836 0.22050506646172449 
0.74476098649224509 -0.21683414228061432 -0.44562331634129781 
0.044279279393921067 -0.17039804170809195 0.11008428219511195 
-0.079875868392209726 -0.027402468785315316 0.070965258039016321 
-0.19268881935733542 0.032610276476494227 0.19462460862703021 
0.48346664333205802 -0.47883799924870257 -0.2048283329435967 
0.017379026846741134 0 -0.09482741483312436 
0.24436607021957149 -0.28742217366657413 -0.10189328136758077 
-0.27753802817061279 0.088353555726012722 0.10086535764720218 
-0.21389101614229644 0.11026172257046346 0.16378917012995609 
0.33008431962953949 -0.79324247025299077 0.34725653080939289 
-0.061967238011302148 0.045131581785425895 0.17615107194640556 
-0.048352841421007882 0.44775605780333388 -0.52619365180062483 
0.00081203005896048411 -0.21371647780264133 -0.23500865577698674 
0.22870402266893197 -0.03107269744700809 -0.21529881327010808 
0.14214840007895754 0 -0.085398664097296573 
-0.15023419208161795 -0.25317531236226143 0.27853691175631123 
-0.031108875436962433 -0.26851985024836572 0.13813854669871636 
0.14214840007895754 0 -0.085398664097296573 
-0.37932636757290861 0.20187308703554244 0.15254392140552522 
-0.22530129706398191 0 0.13521779488406491 
0.25751977835870887 -0.25094507807486277 -0.24456209030364615 
0.57609900685040949 -0.1292874310199158 -0.29902748919067601 
-0.22530129706398191 0 0.13521779488406491 
-0.34105619412120053 -0.11991926824324337 0.368144997349096 
-0.22530129706398191 0 0.13521779488406491 
-0.12655023031747964 -0.14933009432428607 0.16810689157234679 
-0.35522769756051253 0.29519612180365046 0.29298257416649209 
-0.22530129706398191 0 0.13521779488406491 
0.16430209035020027 -0.24950908970592789 0.075265715734118166 
-0.23039386966432707 -0.15778245614252803 0.33036999274349838 
-0.13534596975633795 0 0 
-0.13534596975633797 0.23748722029631386 -0.49833939859492227 
0.23536662040597439 0 -0.22296502474078547 
0.025905050440586826 -0.043413047696400101 -0.13935383800021381 
0.2585952513276194 0.41083213266020097 -0.65775443570373815 
0.24412674402459036 -8.5693268374446181e-19 -0.35367924217768115 
-0.29731774756937063 -0.13149712172016073 0.098169999253601092 
0.055266923676623031 -0.11608748893410897 0.011592103953146837 
-0.2124816434164721 -0.30503470461339571 0.1789247382285577 
-0.22692000758623715 0.1928565311335812 -0.025305367365583423 
-0.20930192530507374 0.17494805874833286 -0.066932698902376672 
-0.12129665650256984 -0.15787975965086135 0.11796257204967187 
-0.21102707422552097 0.022293492098394201 0.21023059378126574 
0.95094413458593774 -0.10613074107632407 -0.81993718096593149 
0.41406776870224643 -0.14487503932873033 -0.31147737178411328 
0.027929546185344864 -0.32393241727597316 0.20956447830223482 
0.55206344808168739 -0.39168856850183409 -0.40082629546858378 
0.085586660985298699 0.2780758099417594 -0.15705076206181548 
-0.16979621782162918 -0.18413825169240483 0.20342940182656138 
0.062571153939280533 0.053570854789233166 -0.16764688381810502 
-0.22652113038467664 -0.0083711381803048702 0.1021120036133832 
-0.28900482491406637 -0.085817415297383071 0.28030858522988328 
-0.10518812566494712 -0.11489599802520981 0.28780283806492785 
-0.10493436020466804 -0.042610333230164207 -0.0005134773211633865 
-0.16701862676153284 -0.28887629568066819 0.24625179264169886 
0 -0.085817415297383098 0.1288834775553874 
0 -0.085817415297383098 0.1288834775553874 
-0.56852979173417806 0.9254106657053085 -0.44203635780093559 
0.42372248750628105 -0.48241428567112032 -0.18842346083091802 
0 -0.085817415297383098 0.1288834775553874 
0 -0.085817415297383098 0.1288834775553874 
0 -0.085817415297383098 0.1288834775553874 
-0.0090902502245288966 -0.16074378575291814 0.13504543183189852 
0.099745551066460464 0 -0.10812570240871983 
-0.26975024006591797 0.35347612256351207 -0.24879095838235063 
0.2084496899952886 -0.1980078678402897 -0.14262819800535834 
0.21479500702551491 0.17245892619594794 -0.20459637409739323 
0.099745551066460464 0 -0.10812570240871984 
0.11040675086869563 -0.14261866371857684 -0.13486077716887873 
-0.01704038363323844 -0.12409470735045741 0.13855029642995173 
0.099745551066460464 0 -0.10812570240871983 
-0.39658210470135363 -0.48412289123616536 0.68449684261380239 
0.099745551066460464 0 -0.10812570240871983 
0.099745551066460464 0 -0.10812570240871983 
-0.16706060241303231 0.0159064215011805 0 
-0.40098032208443013 0.015906421501180504 0.23692563962675131 
-0.16706060241303231 0.0159064215011805 0 
-0.16706060241303231 0.0159064215011805 0 
-0.16706060241303231 0.0159064215011805 0 
-0.16706060241303231 0.0159064215011805 0 
-0.41265677358493624 0.70471274701103237 -0.45147217170406967 
0.84811760257675539 -0.26819720197778207 -0.97064643153362928 
-0.28197913336230929 -0.1115308140634859 0.33925449556031523 
0.012704163685507247 0.19136007004489533 -0.22256012608421752 
-0.29136535993666074 -0.059087492289688716 0.43644732115190232 
0.0047175900573639441 0.26250033925138488 -0.27728963653545163 
-0.28312890147071917 -0.54412399935354705 0.56684489196549748 
-0.15514242597768807 0.044981080168276288 0.19086458322104893 
-0.50752425042594596 0.83658855239303187 -0.73877907596517201 
0.26520408832500469 -0.18149974478472805 -0.20145729290617417 
0.2066328031693386 -0.16652523438434391 -0.22307744276196578 
0.33757007126897276 -0.2743575157793805 0.032646370283076709 
-0.40589076421226544 0.096873496513055629 0.44825976051065125 
0.79283235744106917 -0.37163909339914591 -0.22644662801457316 
-0.15514242597768807 -0.1115308140634859 0.39492344669518453 
-0.15514242597768807 -0.1115308140634859 0.39492344669518453 
0.71775196083499315 0 -0.8034790798518624 
-0.30672734643921562 -0.3018274501452769 0.43771365625597325 
0.069311172747828623 0.020871439549243927 -0.044098930827967786 
0.031188567294999397 0.37369739674218422 -0.32506042074305691 
-0.039163308256109947 0.20593321200245626 -0.18359284712773058 
0.034629265044039369 0.029931812184104307 -0.15933264471490724 
0.95298827386661467 -0.48052919127815841 -0.33768417297182252 
-0.21342864308244852 -0.037058620093032894 0.045921179705467552 
0.079868991420523797 -0.2805909725566384 0.24922371757224696 
-0.13906367094942754 0 0 
-0.048782801452390834 -0.32527234536576238 0.1832841810086896 
-0.221068806779215 -0.088576496833501411 0.16075754082877411 
-0.3010602700995163 -0.15984607487109218 0.37452827024567842 
-0.17879676826587912 -0.3731433838297919 0.22455442502552803 
-0.10220130252915086 -0.66014283674580299 0.64956390236545436 
0.050344898106076841 0 -0.43219854529455554 
0.24537282006924255 -0.19582000965138596 -0.2110760485508269 
0.29913967500708677 -0.086015624025636034 -0.064967607298682714 
-0.013299649208220556 0 -0.26891820888018081 
-0.012157003165246212 0.26307988155590589 -0.23379334027432339 
-0.26165873601359535 -0.26357804265516005 0.35921803182495687 
0.14754446048069778 -0.13166683944801641 -0.19243988422260389 
0.79979647946774524 -0.23365861492509524 -0.69604778394334044 
0.26068510076757434 -0.26521427292227751 0.074982859822464457 
0.053134233034921735 0.48200843940343097 -0.56549501858307738 
0.067427343759884878 0.12322309441780468 -0.10338399343844988 
-0.34801060146985591 -0.066967785032048824 0.24411255431175555 
-0.21437640130533486 -0.25006719657390147 0.22196888782932844 
-0.17876468339340285 0.28976640259896486 -0.13077087989640621 
-0.2732408820537699 -0.10420925149534119 0.45560610171649041 
0.091741493185432538 -0.10420925149534119 0.15457233008835214 
-0.19760777297181034 -0.37147733199569399 0.25926005875223995 
-0.078987307866014128 0 0.062128099675262623 
-0.078987307866014128 0 0.062128099675262623 
-0.078987307866014128 0 0.062128099675262623 
0.13686870605381649 -0.16834182570638662 -0.12091932408649234 
-0.097044727986315207 -0.036405918849672959 0.062128099675262595 
0.008760775776010421 -0.10734146307572116 0.026157000224385166 
-0.21100424586096239 0.2522196688246795 -0.085646435691608402 
-0.015910828632717658 0.22964564561267689 -0.071142334007143398 
0.12343500428660233 0.039127785872076541 -0.084595777936484429 
-0.12235481072453068 -0.051998682879464075 0.15246349853080809 
-0.087834408394115604 0.13549387825622491 0.080686481304574856 
0.19235767627328271 -0.6038525949781598 -0.082044875078280191 
-0.078987307866014128 0 0.062128099675262623 
0.08382893613385449 -0.080029486982480816 0 
0.27254227139266191 -0.40135874822698403 0.22900191183735411 
-0.22304392389904568 0.85098838970841562 -0.59118296103896606 
-0.11044376379018556 -0.15693678228165353 0.14141252379166219 
0.12749336996773258 -0.099178877322815689 -0.35452514539100038 
0.08382893613385449 -0.080029486982480816 0 
0.08382893613385449 -0.080029486982480816 0 
-0.32039342541763494 -0.30157960651112364 0.33578475718100304 
0.08382893613385449 -0.080029486982480816 0 
-0.08962486981714532 0.11862756827052254 -0.017637581400315974 
1.2045038856906649 -0.35668526820026641 -1.3427911047639918 
0.17624180640051743 0.043866574185894201 -0.32102022134273334 
0.0041945665616081804 -0.15148902958347557 0.16637210393172769 
0.08382893613385449 -0.080029486982480816 0 
0.028272286681931009 -0.2229366152854084 -0.11992230160546002 
0 0 0.12443839754796422 
-0.056848939148142819 0.026393189232024872 -0.046481127508707538 
0.068800848429303202 -0.23827496324560912 0.12616630744103563 
-0.26324804063443452 0.17148251470398851 0.086676906889218905 
-0.027513857604689478 0 -0.013750190026800455 
-0.47587418034379547 0.42675620859675112 -0.056481265310746855 
-0.095069053897600828 0.24482532761569159 -0.10141059913455758 
0.1473897241396683 0.13605349596745786 -0.028692988688388741 
-0.16688413922455991 -0.26394961785699744 0.33180530067470088 
-0.19821542925440502 -0.25095332354884287 0.32075989927610055 
-0.27432040739130276 -0.24816202864973425 0.12701407300291156 
0.62785707518692446 0.14353830653109209 -0.71262072574263713 
0.12854032787074929 0.038749066470863132 -0.26100145758711141 
0.049310039497365211 -0.11485137363818061 -0.12143550650447429 
0.20117037845721222 0 -0.12850347013306701 
0.0068760440239794413 -0.096747788954592615 0.12328350047810467 
0.046748646365952877 0.0074205471355760222 -0.054006419866807584 
0.15860405006368034 -0.086416034143625448 -0.09349542584203413 
0.20117037845721222 0 -0.12850347013306701 
0.059355767044127886 -0.52217815597662842 0.16529707313106043 
0.081355792302516342 -0.083162195647540293 -0.0959468964102205 
0.0061195204233213188 0 -0.09107526253934406 
-0.24507791828863379 -0.22167503014752332 0.42361845213219357 
0.049448513890456139 -0.1311721030809623 -0.054224401425041382 
-0.028164420736450195 -0.046217499321856925 -0.029338729055078311 
0.22398293845103154 -0.20985840684979068 -0.17118239182600825 
-0.091979982717509526 0.12486223514332398 0.05458888846207325 
-0.19122119947115471 0 0.15426499050103235 
-0.41435914092786258 -0.18158201132596394 0.48567869806614727 
0.67807625948985506 -0.22224133587675615 -0.56450598768943228 
0.17396625454397821 -0.007534243963325693 -0.083585088371695426 
-0.036936245693313635 -0.32692837481672382 0.1081429948296051 
0.26927870305492652 0 -0.19696710353540184 
0.26927870305492652 0 -0.19696710353540184 
-0.030959241014921573 -0.15446660943112162 0.16553152454390191 
-0.075454269333433993 0.12289304655522415 -0.17397453246979652 
-0.030959241014921573 -0.15446660943112162 0.16553152454390191 
0.17531661626944459 0.21393736860460086 -0.2969391996793187 
-0.38106652982922518 -0.24242325934393175 0.50596668551451973 
-0.030959241014921573 -0.15446660943112162 0.16553152454390191 
-0.030959241014921573 -0.15446660943112162 0.16553152454390191 
-0.030959241014921573 -0.15446660943112162 0.16553152454390191 
0.073994898320332417 -0.15446660943112159 0.14052843320397426 
-0.030959241014921573 -0.15446660943112162 0.16553152454390191 
-0.086631148631595975 -0.58860823787213523 0.68711762343831007 
1.0530473729621945 -0.016152239820783003 -0.91847915623795739 
0.034575674379641236 -0.032967935065356085 -0.087727284935788227 
-0.38858558136018867 -0.17250055994202382 0.43864315123177677 
0.10655774338464616 -0.10857505873588792 0.054372596175914188 
0.063595474187228787 0 -0.070601463764916522 
-0.41365493697594596 0.69340484371606992 -0.2628509390988365 
0.063595474187228787 0 -0.070601463764916522 
0.063595474187228787 0 -0.070601463764916522 
0.063595474187228787 0 -0.070601463764916522 
-0.070057279098155512 0 0 
0.19713357985236882 -0.18043345977627895 0.14838107417378771 
-0.24103496638338029 1.1997057572422465e-17 0.14740296019122068 
-0.58198419935378021 -0.041215203337631609 0.34693278359004553 
-0.24246794844423258 -0.21900152175462642 0.42276454078751152 
-0.079363552394409079 -1.0711658546805773e-17 0.011165989097956753 
-0.31191035872932527 -0.37079617647152424 0.3276633273929076 
0.50637352757666787 -0.25740904789879049 -0.25420172831978849 
-0.076970351696136141 0.33370435822888089 -0.14318337107012574 
-0.070057279098155512 -0.12480952567967002 0.16588722874408041 
-0.28928840455744476 0.20251715786727703 0.13225015182629596 
-0.19718866213508643 0.098488659108282819 -0.039740119480226099 
0.15036831815330046 -0.24210694695207396 -0.07127377947702733 
0.10513317548015072 -0.30220719197981966 0.24406421013867374 
-0.030121057771638177 0.069721849533075142 -0.20931449416572587 
-0.1161504456033744 -0.12087784620746544 0.38255666388946935 
-0.08179074390307256 -0.0059349464442105624 0.12561124206736382 
-0.08179074390307256 -0.0059349464442105624 0.12561124206736382 
-0.032946426697253423 -0.13537485653367806 0.36206912627080107 
0.020532493327943283 -0.087848053115319721 -0.14669212912564891 
-0.08179074390307256 -0.0059349464442105624 0.12561124206736382 
0.044569264694420789 -0.0077783321340966233 -0.14424881120390184 
0.13569098617085645 -0.16819067902403262 0.18232394150972911 
-0.08179074390307256 -0.0059349464442105624 0.12561124206736382 
-0.08179074390307256 -0.0059349464442105624 0.12561124206736382 
-0.33959999303404842 0.29064020462381568 -0.076131908209538982 
-0.24575362147433422 -0.074296683444779493 0.12172723209726435 
-0.08179074390307256 -0.0059349464442105624 0.12561124206736382 
0.20939721361940494 0.057728073442198227 -0.14218445547733788 
-0.08179074390307256 -0.0059349464442105624 0.12561124206736382 
-0.236130926564487 -0.26789458982159042 0.18765453927290196 
0.24338707184915756 -0.058065172336348149 -0.42647034746106727 
0.061280819095337558 0 -0.16157427468427443 
0.22121182162875444 -0.48717899380008522 0.10319002481473741 
-0.0041202389301443505 0.1494606114784271 -0.23735591761584401 
0.061280819095337558 0 -0.16157427468427443 
0.073080915962963594 0 -0.16819522508455562 
-0.44837349441988761 -0.30750074216048523 0.63568657964009201 
0.40171725124590352 0.040876565444743641 -0.59459565856592866 
-0.1564500999731544 -0.27655683053435898 0.29340224509504409 
-0.27957793069021736 -0.36343070697505436 0.17814718563579848 
0.12033126922419007 -0.13970753338101594 -0.090585134370586032 
0.78716681660774646 -0.36359377335729998 -0.69004213027775796 
-0.096794798566325502 -0.38950021575942345 0.21157607428312847 
0 0 0 
0.36368587728396895 0.091531842748979339 -0.72430044587985443 
0.5557409269136433 -0.22460762575273627 -0.084455976020745199 
0.053240875596782346 -0.4552977123166751 0.2593645533481434 
-0.57762477639070764 0.57752486899615652 -0.055903038154705757 
0 0 0 
0.0094710300111489898 0.03689664286160773 -0.059931556477776239 
0.18478044972290525 -0.0016735143339946599 -0.25686751862327128 
0.09528033378412154 -0.10186596808256504 0.11191563226411333 
-0.031170813711673483 -0.078005818401415072 0.095944634173658699 
-0.40324226940394037 0.87631579763761813 -0.58620274881018641 
-0.051975192863149292 -0.40538309172044873 0.33791240853473087 
0.20165056521203234 0.13189764670361911 -0.35102333340718439 
0.022955864440715009 0.058343191941278363 -0.25847550439755462 
-0.33874792792872077 0.72394675372504502 -0.36647375151990647 
-0.13017691869193476 0.23286766654231286 0.081941896734714262 
-0.051171946297258825 -0.17568189006545737 0.2646367198359883 
-0.34713444069610144 -0.17939075184526537 0.39429558653835606 
-0.051171946297258825 -0.17568189006545737 0.2646367198359883 
-0.27456348053361257 0.19313318225237941 0.16503031551977862 
-0.26064024291797211 -0.013576211484577634 0.22654998970361706 
0.27730426430004618 0.13816235736803192 -0.40097803604674459 
0.079677262918923325 -0.082410717959405563 -0.082747829757897379 
0.13193151257458857 -0.15634995150427677 0.0041605388465342941 
-0.051171946297258825 -0.17568189006545737 0.2646367198359883 
-0.051171946297258825 -0.17568189006545737 0.2646367198359883 
0 -0.013511824056446445 0.14012635138253424 
-0.2035496226438227 -0.32267392429075503 0.25202936491343125 
-0.046273454026558233 -0.026066315179879562 0.17700676473024185 
-0.22562261234172876 -0.5166898810061259 0.94834531525276944 
0 -0.013511824056446445 0.14012635138253424 
0 -0.013511824056446445 0.14012635138253424 
0 0 0 
-0.11949892182927764 -0.45342435903613593 0.41972925814385281 
-0.090684923166176407 -0.3313179028155005 0.18149933068111221 
0.20496680882931376 0.11554417940731795 -0.26199504650169186 
0.22557607953373651 -0.55058107184718119 0.13549697873719926 
-0.062152081179673621 0 -0.057816840138850474 
-0.039190099224864994 -0.13337032904661392 0.15666257448521739 
0.12368607566419051 0 -0.23235030766737105 
0.53503568433727922 -0.22793444127639101 -0.41166123705030366 
-0.23370514480274615 0.15983615115815469 -0.05440469067352726 
0.12368607566419051 0 -0.23235030766737105 
0.086759099982889443 -0.048867842360304198 -0.14794870711272504 
-0.012580912943276623 -0.098929850885514342 -0.10813960250184713 
0 0 0 
-0.78857320751030147 1.0025935917669575 -0.71448422703013836 
0.49982999899902592 -0.65443777999706298 -0.14708675250296158 
-0.17797732047118775 0.67521907400813164 -0.51893030984788746 
-6.9388939039072284e-18 -0.068022465067151164 0.34850896590305541 
-0.23583096262876399 0.83637701181066004 -0.83260100692713435 
0 0 0 
-0.41199551897954484 -0.12641154686511644 0.27116334512112999 
0 -0.34343657335211253 0.27804829379280271 
-0.23972557349154172 -0.45536601415668093 0.82572841543012609 
-0.30633958581585674 -0.43722168075546025 0.7886167443326898 
0.21077207066227929 -0.17488516173234547 0.079970549086044992 
0.012703212739489555 -0.30380568975039296 0.10804305398403688 
-0.25636286359781058 -0.052832140896742916 0.26846833734071474 
-0.40238528755391989 -0.033923480578507796 0.38043481986512795 
0.04703329097196398 0.010131406878073811 -0.15538102002330501 
-0.13675342794072315 0 0.058238117240922399 
0.47564743900104078 -0.25075797621692048 -0.38518237967538504 
-0.055698750909330116 0.059061220080798234 0.0083246927888753052 
-0.13675342794072315 0 0.058238117240922399 
-0.049531660734555505 0 -0.19288852891694183 
0.20811910554037052 -0.0013762704737284694 -0.089833626556116181 
-0.12538712852543454 -0.035895582106436445 0.19686646638026076 
-0.13675342794072315 0 0.058238117240922399 
-0.13675342794072315 0 0.058238117240922399 
-0.13675342794072315 0 0.058238117240922399 
-0.13675342794072315 0 0.058238117240922399 
-0.25564383650040245 -0.62827578677811435 0.8334374299073054 
-0.38742424036751233 -0.28228424578398142 0.47343478949074824 
-0.18225849930841451 0 0.072215633788950823 
0.49544950480773808 -0.30074979095469379 -0.21786366912283875 
0.25521329681155991 -0.28771403310201255 -0.066189204061433721 
-0.18225849930841451 0 0.072215633788950823 
-0.15746607829523107 -0.1953290696317577 0.10781683812278897 
-0.18117455962593126 0.27377874251910761 -0.0011108625676076816 
-0.19946704864723258 -0.13844605342262545 0.25878014866012006 
-0.18864261079301836 -0.4962834483510542 0.20484290375515607 
0.072206217769117911 0 0 
-0.40470128272038713 -0.095440139125211015 0.48933525889500606 
0.072206217769117911 0 0 
0.16339459562912806 -0.038792256344088442 0 
-0.41612411566233015 0.22061916247210883 0.26983668811352218 
0.072206217769117911 0 0 
0.072206217769117911 0 0 
0.083416881468020398 0.16438062969055448 -0.31442340593173485 
-0.4227617053215656 -0.21893294738030925 0.42107249685721787 
0.072206217769117911 0 0 
-0.17818126597187203 -0.082653685293951729 -0.013751088975744384 
0.30653004650212345 -0.042151882372019001 -0.42194823572787615 
0.43367104651675592 -0.02954309848459704 -0.47555318482082953 
0.19547626064268869 -0.27226785761098476 -0.039965238596741698 
0.023474658196450608 0.18700470950719911 0.035770543682076349 
0.43367104651675592 -0.02954309848459704 -0.47555318482082953 
-0.3221484345356514 -0.1011635159709314 0.34493700401247285 
-0.33768424750986797 -0.19034222215042285 0.46181136654162508 
0.027229523616010144 0.12329249109557405 -0.0992284318502379 
-0.73532961557669618 0.31405819486374437 0.44502262725844605 
-0.15609850914297521 0.12393304803923835 0 
-0.034695323160236435 0.22390081110389043 -0.14298566224899642 
-0.15609850914297521 0.12393304803923835 0 
-0.15609850914297521 0.12393304803923835 0 
-0.15609850914297521 0.12393304803923838 0.027242171422963007 
-0.15609850914297521 0.12393304803923835 0 
-0.15609850914297521 0.12393304803923835 0 
-0.15609850914297521 0.12393304803923835 0 
-0.15609850914297521 0.12393304803923835 0 
-0.15609850914297527 0.10369846065352072 0.054532557424477546 
0.14509197767379772 0.075939117703473932 -0.2728223782270161 
0.12141895303697203 0.0056165206749644063 -0.12190187707516761 
-0.15609850914297521 0.12393304803923835 0 
-0.15609850914297521 0.12393304803923835 0 
-0.3648322872909851 0.060323023452157593 0.24447662503307696 
-0.16304793527052236 -0.085634965069470687 0.25870915126717486 
0.35667587652153226 -0.019000555405884259 -0.46043388380665007 
-0.011964686988619799 -0.045128466470846409 0.0106233305865198 
0.25164213140413877 -3.4277307349778472e-18 -0.057347441371538702 
0.32932134683370712 0.034906885139137735 -0.57534994149672025 
-0.17855245928154051 -0.15474292079040114 0.48038773677354984 
0.093447380102540403 -0.065516013262892386 -0.047290829583228298 
-0.044087814873589259 0 0.031012214698211991 
-0.044087814873589259 -0.045128466470846416 0.031012214698211964 
-0.64718281726625715 -6.8554614699556945e-18 0.65901364546197883 
-0.2157434560640388 0 0.24209365437581737 
-0.47541581263945065 -0.059368154935695409 0.54252802645503817 
-0.2157434560640388 0 0.24209365437581737 
0.095844659961280221 -0.2903338840976325 -0.00010151488216793986 
0.031803285721278218 -0.1822802505518237 -0.017931116764187082 
0.34920465054560984 -0.28884902219046765 -0.17620352778663656 
-0.058236042696184112 -0.4338033508539717 0.31668027216591804 
0 0 0.026920094039659566 
-0.39858962266838993 -0.19990909480771554 0.4633716109434125 
0.1640494470550749 0.045690690341580117 -0.19237704871235553 
0 0 0.026920094039659566 
-0.19249345065034842 0.041926470338134202 0.07274655159272661 
-0.43323170386829757 -0.060409210715047817 0.6465172825409633 
1.0408340855860843e-17 -0.037657003572516279 0.034942545890443842 
-0.0092187798108287998 -0.14331309957071814 0.051416362778698481 
-0.50124311412399625 -0.0088623230813829387 0.29464400098867144 
-0.29712112086775178 0.24007243326088651 0.14241260380661985 
0 0 0 
-0.34788084533721936 -0.10500154005890434 0.426346023064402 
-0.0093294541474790247 -0.26035369796120345 0.14647389585109841 
0.12091663774281888 -0.24709152018734626 0.18536206250623355 
0.49923879241718161 0 -0.372518969291535 
-0.26749891823200139 0.55230497197217265 -0.36078551186439078 
0.12523684312459077 -0.24238467692542504 -0.029355434591809476 
-0.12257979273401587 -0.36590289329032843 0.24222160267218384 
0.3505307547734694 0.13738921492329179 -0.47287390910918325 
0.49923879241718161 0 -0.372518969291535 
-0.071225025967242478 0 0.11372782184801535 
-0.094986134336140907 0.073772990372351063 -0.045592664819854106 
0.15617794295371734 -0.12251607082253266 0.083730777500225229 
0.15189042173202819 -0.10788551692167246 -0.057903393202191393 
-0.33559012023881385 -2.8122514505038833e-05 0.22322494290334624 
0.022070848383294053 -0.076694081442478051 -0.0023583182477935516 
-0.071225025967242478 0 0.11372782184801535 
-0.30230336081785902 -0.046321112193319469 0.36150175260702494 
0.8272637636048461 -0.57907240714135744 -0.53742116094195125 
-0.45348198940557305 0.17533724863667641 0.093669790340703982 
-0.071225025967242478 -0.37046575800884846 0.38472646720814851 
-0.30666285251292702 1.3710922939911389e-17 0.28803782933671107 
-0.16121234205196106 -0.31398350090512078 0.16829702751238843 
-0.94550579892216247 1.1227598856447178 -0.53884219507810871 
0 0.21948749327009001 -0.2564734078212208 
-0.11070537592951848 0.44773421620384773 -0.30802281707933404 
0.38395642325261986 0 -0.247113450946369 
-0.079631659747939593 -0.24082203011418982 0.17864986378405795 
0.13458270856462154 -0.23817188273072779 -0.02268924097599186 
0.86684249775916933 -0.39082867937979671 -0.73490771840988667 
-0.12587169777484161 -0.015797100157217397 0.051595142316025563 
-0.10261156641750721 -2.9992643931056163e-18 0.030617310456184745 
0.56874167400721276 0.11113538260583447 -0.6076148613872544 
0.2910843997391887 -0.17203601412466313 -0.19998147738215477 
0.046534282723481576 0.4175550694927001 -0.36836703118717129 
0.080143012556728926 0.1884948359187964 -0.26357169883374704 
-0.47317427037379556 0.51183812566165698 -0.064849700239218946 
-0.12901037311093649 -0.13533927154877465 0.12083214735129333 
-0.47317427037379556 0.51183812566165698 -0.064849700239218946 
-0.19839060217050178 -0.05787930919081051 0.22643870751840589 
0.079424178058327535 -0.058869028335964274 -0.10669116367502965 
-0.13279323849353555 -0.059135318220832053 0.18894505639610112 
0.12925641599146986 -0.43057667202475181 0.19955163027008693 
-0.13279323849353555 -0.0051369913131331041 0.10672507926923748 
-0.10614804187913708 0.1808161618955198 0.054755783842920347 
0.027268032732312292 -0.015468100072176074 0.041114987917517977 
0.34172046415943091 -0.22764687258813107 -0.15800620065054569 
-0.31199404796142904 -0.39817531831791458 0.71733327718703432 
-0.11850012330237655 0.12141304416790387 0.0037502683907001577 
-0.0065726050847487979 -0.0610030972430027 0.074387948469585102 
0.1287062367035296 0.41884743241825789 -0.4712337751834611 
-0.0065726050847488117 -0.11062413298932067 0.18240999975437464 
-0.0065726050847487979 -0.0610030972430027 0.074387948469585102 
-0.0065726050847487979 -0.0610030972430027 0.074387948469585102 
-0.0065726050847487979 -0.0610030972430027 0.074387948469585102 
-0.0065726050847487979 -0.0610030972430027 0.074387948469585102 
0.075849527549261025 -0.0610030972430027 0.024864868525807299 
-0.0065726050847487979 -0.0610030972430027 0.074387948469585102 
-0.0065726050847487979 -0.0610030972430027 0.074387948469585102 
-0.39140091688449397 -0.055976904499800577 0.51388334343265074 
-0.39140091688449397 -0.055976904499800577 0.51388334343265074 
-0.39140091688449397 -0.055976904499800577 0.51388334343265074 
-0.36644296688566874 -0.0899399333689124 0.35942512415435895 
-0.19289032823349431 0.43055389602428534 -0.25011043794625964 
-0.39140091688449397 -0.13023924305899795 0.51388334343265074 
-0.39140091688449397 -0.055976904499800577 0.51388334343265074 
-0.19435756747601024 0.16240886759646947 0.028008117916374975 
-0.14357427647302054 -0.032667697055577219 0.15390021752257754 
-0.31807265243733596 -0.4187900363853404 0.54003492824472832 
0.0051351296099236624 -0.15922568169947465 -0.16735879550516064 
-0.025076419604882046 0 0.029384567588304336 
0.15744249788811029 -0.19747603693815741 -0.045145793069362672 
-0.33663849826619308 0.23792110236590991 -0.036852882693222157 
-0.1966417646306069 0.12391500778217035 0.029384567588304336 
-0.025076419604882046 0 0.029384567588304336 
-0.26548658441755063 -0.093056137104672892 0.17657489515732822 
0 0 -0.084002969326888888 
0.48225905308173828 0 -0.45072837452549197 
0 0 -0.084002969326888888 
-0.08348472989254889 -0.30222150264426084 0.36068128239753655 
-0.19751112260330758 0 0.10583218380008344 
0 0 -0.084002969326888888 
1.3390504553681348 -0.40250184831775204 -1.3032329390005821 
0.09807069130690331 -0.46354929613587448 0.16644322451547949 
-0.16783381500333455 -0.045809446347988482 0.13632785595187119 
0.67240397711129263 -0.34234486279930976 -0.25087585509321347 
-0.24626990310478211 0 0.24568771929342104 
-0.24626990310478211 0 0.24568771929342104 
-0.24626990310478211 0 0.24568771929342104 
-0.24626990310478211 0 0.24568771929342104 
-0.24626990310478211 0 0.24568771929342104 
-0.26479923423446028 0.18965731942590613 -0.13959728390080664 
0.3912235931505173 -0.21949729781255364 -0.178384069047513 
0.16801724361179116 -0.35996316858230348 0.072338442246923956 
-0.04573251558820849 1.7138653674889236e-18 0.038701472521262707 
0.22617104710661765 -0.23614570557872924 -0.10120796777246102 
-0.23032077039264517 0.048401402316872746 0.1730562609511197 
-0.047527093923987511 -0.21048988146701783 -0.023333300980386416 
-0.046220724689486653 -0.20860812410101506 0.067688929435582718 
-0.018707708308363102 0 0.052777064422854153 
-0.23584324435540968 -0.073690783912579549 0.26866950846948584 
-0.018707708308363102 0 0.052777064422854153 
-0.15658938511637202 -0.059634258977425983 0.22643402863236919 
-0.078956436749393705 0.40760077504311631 -0.22714305234868118 
-0.018707708308363102 0 0.052777064422854153 
-0.065597363676966183 -0.052768927076514462 0.11970673144139274 
-0.065597363676966183 -0.052768927076514462 0.11970673144139274 
-0.065597363676966183 -0.052768927076514462 0.11970673144139274 
-0.065597363676966183 -0.46499486324783812 0.47527265601797036 
-0.065597363676966183 -0.052768927076514462 0.11970673144139274 
-0.13559488895824107 0.13314002637539007 -0.048143429872384562 
0.078119524751389127 -0.12137637333940524 0.0044852066541854066 
-0.065597363676966169 0.20226272856593341 -0.15787300987380468 
-0.29796943062068892 -0.20635857758117082 0.36673058764651001 
-0.11612590741424185 -0.085572058572884344 0.20759163371622652 
-0.36914792940884622 -0.12040203832273841 0.404195037381818 
-0.23802630893540588 0 0.27568751896820914 
-0.37000206816886588 0.06325990607288598 0.18925567587986197 
0.46448620075116986 -0.43297079847788045 -0.23935534914342776 
0.21475618108515931 0.34221500576985792 -0.49373190342607237 
0.24164564675896738 -0.028724902667982551 -0.14907105679424085 
-0.065617392162143851 -0.0031545257512107698 0.025405370540333483 
0.24164564675896738 -0.028724902667982551 -0.14907105679424085 
-0.070285414605374699 -0.042780820603172842 0.025311506250027444 
0.24164564675896738 -0.028724902667982551 -0.14907105679424085 
0.068730938473961056 -0.063610399162108061 0.013453318647017055 
-0.037631997044150135 -0.069924442947024282 0.19844774252411185 
-0.036891178988046142 -0.71202951833474026 0.13511082509371855 
0.016964923288210851 0.08092612617776096 -0.14204172491823691 
0.15430002571787327 0.30315998995596066 -0.33523889847360211 
0.15342072215083721 -0.087263315914007711 -0.47010135087683375 
0.86317128279531696 -0.45286913542797114 -0.55991704542639276 
0.314026882107934 -0.26654323994428875 -0.26009375121784989 
0.35066821023266731 0 -0.28785616918757306 
0.6852652186588174 -0.029164791098114463 -0.73160469013049678 
0.16911851239568565 0.13842677025983605 -0.14421743561367564 
0.35066821023266731 0 -0.28785616918757306 
0.27773471179526171 0.23168180044699591 -0.3221133783836671 
0.44356626679074207 -0.16236573755819833 -0.34596332489683823 
-0.24545540488790141 0.088233787161115698 -0.043611066423163709 
-0.03464245988655304 -0.14647090903893178 0.05887355211750616 
0.054810308983638069 -0.13008153567379641 0.062169855602575486 
-0.13892920315418131 0.047545342192989941 0.30010845354001925 
-0.026803762595701323 -0.0019116880311301743 -0.039617266330794376 
0.55787255189537288 -0.43114154201659965 -0.48536751050753446 
0.38043162616259585 -0.43156620642270277 -0.1968214203151348 
0.099407610053946688 -0.14087075963138851 -0.17253497989962618 
0.23507686614863629 -0.11287154954891046 -0.21814529414850986 
0.21544652305573192 -0.34024163815340935 -0.10489924293661554 
0 0 0 
0.23507686614863635 -0.11287154954891046 -0.20110604306510974 
-0.34712915151990487 0.0017731528324232491 0.51753637229243954 
0.18138377524959196 0.063667141504332378 -0.36543075354028876 
0.330861187388374 -0.33736598058164979 -0.17508710646153744 
0.13619800045109379 0.075057104026830621 -0.033278637327863327 
0.20068563598550138 -0.17590463521102037 -0.0022113018553732268 
-0.37700560147469697 -0.15407932499205654 0.48595915789891614 
-0.29152653572150145 0.52005309168992586 -0.23771272651377956 
-0.10205253410681846 0 0.043689841087277609 
-0.23101271977832721 -0.56586998281999168 0.49911853575090404 
-0.16094036862212463 -0.061533137951917199 0.10613319677659777 
0.3056336800847998 -0.15719758910670098 -0.11551045248828458 
-0.10205253410681846 0 0.043689841087277609 
-0.10205253410681846 0 0.043689841087277609 
-0.10205253410681846 0 0.043689841087277609 
-0.040698959667356739 -0.14195313520374223 0.043689841087277609 
-0.10205253410681846 0 0.043689841087277609 
-0.10205253410681846 0 0.043689841087277609 
-0.10205253410681846 0 0.043689841087277609 
0 0.063832910608215776 -0.14163936454354936 
-0.1578023909019082 0.75991603284584208 -0.64245963332150102 
-0.33153264605488425 0.17356880769498245 -0.14163936454354936 
-0.048433316719781724 0.30759852331002208 -0.3603589398502135 
-0.34364358632908554 -0.13416855573825101 0.40808379064860506 
-0.061543251399152371 0.029399166554145231 -0.026416831477062107 
-0.15282845647509682 0.34999854333309766 -0.28315069061846565 
-0.23526531210530632 -0.0090259949448111814 0.10670482013510373 
-0.40012334118289683 -0.36313914439608613 0.42689663923470422 
-0.74313259377950391 0.12589414048782915 0.47312044545434417 
-1.3877787807814457e-17 0 6.838205635836389e-18 
0.2346501846949588 -0.11187918510998461 -0.048330812604719227 
0.22028532304942 0.057262370976516631 -0.12089138918490465 
0.056040129008907785 -0.36932462389844017 0.065251433146895382 
-1.3877787807814457e-17 0 6.838205635836389e-18 
-1.3877787807814457e-17 0 6.838205635836389e-18 
0.43837786874313067 0 -0.34522670476523626 
-0.12173811696340164 -0.51799118170156622 0.48267803355716588 
-0.29388674609566412 -0.15499935543287194 0.48594219157788782 
0.43837786874313067 0 -0.34522670476523626 
0.025935854836070762 -0.024915784999256084 -0.15234215894722436 
-0.043657591713369227 -0.11768617572132223 -0.048051066292665034 
0.6163333534202402 0.22807254870895613 -1.0848462454058403 
0.00058847446430127653 -0.0246852923537868 -0.061531739845518872 
0.41855362281532799 0.21438814476184201 -0.58153037619802195 
0 -0.024685292353786806 0.054379501263394747 
-0.47319461915034799 0.19911081731546024 0.62784517298814613 
-0.21395640127477483 -0.095706938451874293 0.24676571328176117 
-3.4694469519536142e-18 -0.049370584707573613 0.10890083940476164 
0 -0.024685292353786806 0.054379501263394747 
0.14922503410212465 0.045407378259520743 -0.40717950740746006 
0.032383495589623973 -0.16161310389237968 0.054379501263394747 
0 -0.024685292353786806 0.054379501263394747 
0.0267951772372878 -0.14500595768061855 -0.00045206578319255571 
-0.15510492720109093 -0.098840527500526076 0.25143918601356663 
-0.053043704747262721 0.046122778372138934 0.093857733058396633 
-0.020525320994767442 0 0 
-0.33927656700995468 0.25676345294478198 0.053160425665702817 
0 0 0 
-0.53599936080939159 -0.034967576662739662 0.38357965459951482 
-0.095658234167220593 0.057788562221446217 -0.057646358936978899 
0.12496820182556238 0.031587446045324506 -0.13565154414862199 
-0.047169915939474755 -0.25437577970465719 0.18976981940768217 
-0.12793960123113268 0.19131703214441126 -0.27002748521908482 
-0.077136057525404395 -0.32536929664775094 0.19639709420093288 
0.98511842830753404 -0.28718399405996109 -0.85165965540324673 
0.36740240904835908 0 -0.27002748521908482 
-0.090842752266408963 0.1449439388375352 -0.087477098519933863 
-0.090842752266408963 0.1449439388375352 -0.087477098519933863 
0.24006527068401842 -0.020153923140588156 -0.10053353617640787 
0.064994258481770803 0.12079374973126522 -0.27351849507820275 
0.12061474537893777 0.47223840745775536 -0.65421914219107702 
0.0016702336005947199 -0.28046374260774942 0.14873016162920516 
-0.090842752266408963 0.1449439388375352 -0.087477098519933863 
-0.07276395394122262 -0.07740093409163154 0.11457448670362044 
-0.092165405742848622 0.13594644995679148 -0.067697202943361567 
0.14016414656067661 -0.055531671570521322 -0.15449966251514127 
0.20708122381197103 -0.11305896529371785 -0.027628540883197099 
0.20708122381197103 -0.11305896529371785 -0.027628540883197099 
0.03869991801610477 -0.14463669315495362 0.12344145433383419 
0.20708122381197103 -0.11305896529371785 -0.027628540883197099 
0.3925160888643654 -0.40714397961381588 -0.027628540883197099 
0.20708122381197103 -0.11305896529371785 -0.027628540883197099 
0.095924159389296423 -0.2087257440700177 0.060225571111010658 
0.20708122381197103 -0.11305896529371785 -0.027628540883197099 
0.17579172652268368 0.0091039424360475577 -0.095968686272497453 
0.20708122381197103 -0.11305896529371785 -0.027628540883197099 
0.18314903453903814 -0.001426182676591577 -0.1891589135510392 
0.18314903453903814 -0.001426182676591577 -0.1891589135510392 
0.70481711168030126 -0.21819286768566817 -0.3437651110939321 
0.18314903453903814 -0.001426182676591577 -0.1891589135510392 
0.18314903453903814 -0.001426182676591577 -0.1891589135510392 
0.11472434483797005 0.27543908054814964 -0.38602045226887732 
-0.4234672146960789 -0.19215892863774772 0.34285183340454778 
0.036431282897235545 0.23076982383656583 -0.25342233886982485 
0.24325768269534048 0.37041204799135108 -0.65388330960251884 
0.024792136135862272 -0.10726589931633064 0.25817020472255509 
-0.19161156123105891 0 0.092769543508583741 
-0.19161156123105891 0 0.092769543508583741 
0.19689698487041149 -0.012991413817611106 -0.098670007689472816 
-0.52776793522521182 0 0.46506851982160125 
0.44845550935300399 -0.27472969789222473 0 
0.49681840192116505 -0.27472969789222473 -0.1920007387074395 
0.11510029847808373 -0.5918770546673392 0.21246286020142335 
0.44845550935300399 -0.27472969789222473 0 
-0.12011299434866712 0.48767130932976488 -0.2498694194630677 
0.043535698228179799 -0.2972713156203306 0.10962014700320452 
0.15834757765016619 -0.1356863074785514 -0.051704416901331554 
0 0 0.070360129804139596 
-0.29965908719858964 0.59175617343299125 -0.29830070789906932 
0 0 0.070360129804139582 
0 0 0.070360129804139582 
0.18547906669221648 -0.056068814019564608 -0.13635267426696904 
0 0 0.070360129804139582 
0 0 0.070360129804139582 
-0.11114998306353828 0.12831859806142193 0.014650667679185677 
-0.28317754747062801 0.077494453061030255 -0.057746376861301463 
-0.095479994841529831 0.18755536187531593 0.070360129804139582 
0.14181383299856801 -0.016114605331606167 -0.10654180573374328 
0.082744975978295207 0 -0.13402858635579376 
-0.091943195613380074 0 3.4191028179181945e-18 
-0.0016357811808759126 0.018226905458911143 -0.17710508343298495 
-0.24278884396625713 -0.35345790338146321 0.38560191585283043 
-0.31860958511370169 -0.18377265117469543 0.37926556296516845 
-0.31279712239852425 -0.062745590055973965 0.21256708801715596 
0.65811023880924369 -0.15479246590282314 -0.2891238747259644 
-0.59608507977627634 0.12412225482094717 0.31262269663015663 
0.037839842099264484 0.50754594945196374 -0.3381112062236214 
0.047089942299904874 0.094171035599609057 -0.028495644536957864 
-0.28359033100594089 -0.20552495933543646 0.32793758741736256 
0 -0.074242935937033044 0 
0.34373659702957682 0.0030171381525167526 -0.11823490716485276 
0.12795559846447832 0.10067636205982509 -0.21198256928364981 
0.21049629348837601 -0.05886633862288345 -0.068975200460312802 
0.19218430149319576 -0.13297973413087039 -0.25258926324382158 
-0.095631147631524124 0.028412243805468154 0.076718773276442415 
0 0.00026916665818337682 0 
0.1356204333868373 -0.06261115403008552 -0.032023422687200674 
0.19298872805140407 0 -0.18396346175088935 
0.19298872805140407 0 -0.18396346175088935 
0.19298872805140407 0 -0.18396346175088935 
0.073051380582090236 -0.44157075032590321 0.17899186741823025 
0.19298872805140407 0 -0.18396346175088935 
0.062844517405588496 -0.037709003655264708 -0.13002387309478161 
0.19298872805140407 0 -0.18396346175088935 
0.19298872805140407 0 -0.18396346175088935 
-0.16804600823813834 -0.3260786035416916 0.31644945314500167 
0.19298872805140407 0 -0.18396346175088935 
0.19298872805140407 0 -0.18396346175088935 
-0.039817372201126709 0 0 
-0.039817372201126709 0 0 
-0.24585149451823371 -0.42510457818510733 0.36031120721086102 
-0.039817372201126709 0 0 
-0.18364291895578511 -0.035406637206050827 0.14475557050734658 
0.30605071129015904 -0.29489366127612021 0.052677528917617372 
0.085117061740888816 -0.45116160442874637 0.079490155118665085 
-0.19144215480957555 -0.050000156788086642 0.033735948867113487 
0.3745230207705858 -0.065634812164476794 -0.26057959523599994 
0.23123985214380616 0 -0.141969526891362 
-0.039817372201126709 0 0 
-0.062967971959944385 -0.1181699175858075 -0.015207650819654115 
-0.54926174774825287 -0.40120600203234269 0.60079017673435231 
0.35813624462293947 -0.072757643939244721 -0.13082814526789138 
-0.27331875850396636 -0.10341200087866992 0.33298821315749477 
0.41707196757969656 -0.14030168150476696 -0.40997857893664447 
-0.015344306620202516 0.05182351457556239 -0.19880280547741169 
0.082744975978295207 -0.042826349706517483 -0.13402858635579376 
0.082744975978295207 0 -0.13402858635579376 
0.42721871371204617 -0.12295554914577086 -0.24636054028159746 
0.042234356275357765 0.40445199507241431 -0.47291681135628677 
-0.40258178085945551 0.21051902218182425 0.13502392094678251 
0.35781612425249321 -0.18667859180834087 -0.10148553564409016 
-0.45438694689624154 0.46375179475792994 -0.081896628765889393 
-0.16528197157002111 0.32794406827789846 -0.080483242648776154 
-0.44964497697723149 -0.0071370366019575032 0.50654982215632871 
0.075886118681158424 -0.17253481007850854 0.28347972671748706 
-0.025159620331857733 -0.043989232587162183 0.2307872560229981 
-0.45686079658049961 0.26342105685469003 0.11356402989561561 
0 0 0 
-0.013216804442887149 -0.17174702949765244 -0.037046080074368784 
1.7347234759768071e-18 0 0 
0 0 0 
-0.0074395274131192936 -0.02456973851121419 0.075706596699479739 
-0.70451212070056823 0.1144947708309426 0.520159627027175 
0.40395163666842715 -0.11949797627359621 -0.17828750995888604 
-0.30470482833731649 0.03339864437648532 -0.01701324896781203 
-0.0074395274131192936 -0.02456973851121419 0.075706596699479739 
-0.055467182510063939 0.085094613878466674 -0.084837766803377582 
-0.31017334812254899 0.096479491734041356 0.14691181132825787 
-0.38148718004472676 -0.18693088862721033 0.56366904894670167 
-0.14767136464913891 0.16950360883844731 0.042298164857277609 
-0.049223788216379703 -0.18074275167702131 0.16933253465526379 
0.079257458774387779 -0.51290959837361083 -0.078672245138670702 
-0.032057911360893934 -0.09236600902614428 0.1375351078200138 
-0.049223788216379703 -0.015737191187606903 0.16933253465526377 
-0.40092168755624402 0.15944232177493417 0.20667542855052232 
-0.20050110468433291 -0.11866324169642259 0.391503799878823 
-0.19983804649032397 -0.31969627792960181 0.34486250222949566 
-0.049223788216379703 -0.015737191187606903 0.16933253465526377 
0.035484234297310617 0.065292358655925267 -0.033265458035567852 
0.11575322325769578 0 -0.21378548887282844 
0.15469621169055936 -0.12465136187197333 -0.11980336889442111 
0.013199748682234697 -0.20802423421786062 -0.084849003740330234 
0.66574353559874888 -0.29972820519504201 -0.51248309679910864 
0.11575322325769578 0 -0.21378548887282844 
-0.19120040070374147 0.026630949849950587 0.22706283593131657 
0.042428598234365719 0.24194762798151845 -0.43426130411268382 
0.20458707891749672 -0.38341666603770003 0.1049975484845419 
-0.068621663093249879 -0.027825376398162852 0.028618399869702243 
-0.46627161803009665 0.032252484115628074 0.36146405334513032 
-0.068621663093249879 -0.027825376398162852 0.028618399869702243 
-0.068621663093249879 -0.027825376398162852 0.028618399869702243 
-0.068621663093249879 -0.027825376398162852 0.028618399869702243 
-0.068621663093249879 -0.027825376398162852 0.028618399869702243 
0 -0.37046575800884846 0.27095086976505789 
-0.58068556300263674 -0.052957260929693599 0.51065763714347656 
-0.59932632075675107 0.6771123569094174 -0.14751988984002815 
-0.5458852081934501 -0.13150022056354005 0.50363384711047421 
0 -0.37046575800884846 0.27095086976505789 
-0.15119335523678104 -0.066041198682304667 0.18371595077426395 
-0.15119335523678104 -0.066041198682304667 0.18371595077426395 
-0.15119335523678104 -0.066041198682304667 0.18371595077426395 
-0.15119335523678104 -0.066041198682304667 0.18371595077426395 
-0.15119335523678104 -0.066041198682304667 0.18371595077426395 
-0.15119335523678104 -0.066041198682304667 0.18371595077426395 
-0.15119335523678104 -0.066041198682304667 0.18371595077426395 
-0.099595271413761177 -0.42206282390241201 0.38379228289113493 
0.83012091129895882 -0.40312739016448795 -0.74633153153127363 
0.47640985867860086 -0.098609548839590319 -0.34621836077533358 
-0.05787795063160301 -0.0033286451611896544 0.12557075137785303 
0.23565040495787476 -0.18998358013476541 0.0350301973194065 
0.34512017317508914 -0.098609548839590319 -0.091488481125319349 
0.34512017317508881 0.33352336030532065 -0.59157662847168302 
0.34512017317508914 -0.098609548839590319 -0.091488481125319349 
0.34512017317508914 -0.098609548839590319 -0.091488481125319349 
-0.18832220232442343 0.12024467260569456 0.17047840213033102 
-0.15413027903532783 1.0671513156141228 -0.95204976018608301 
0.27904613204435319 -0.78118436961480986 0.14479609557106371 
-0.19161570822199503 -0.14068167647635357 0.23506479674336331 
0 0.096500243038053712 -0.12220945217603621 
0 0.096500243038053712 -0.12220945217603621 
-0.19752386636056171 0.24357438226279379 -0.26279917389865298 
-0.074917690891806624 0.052554421706187592 0.054254581977236274 
-0.23080742829091172 0.38006155892545351 -0.18241924551233699 
-0.23775781539210999 0.1236108440246131 0.035093182316479413 
0.45806810232294221 -0.05821159750916597 -0.41998369417108988 
-0.11008879797732787 0.10647221340942549 -0.097575243300036515 
0.06157584272566953 0.18033107209014168 -0.12030830734290719 
-0.12942891824440356 -0.24638922494121912 0.26168078114254739 
-0.18165330882983083 -0.24638922494121882 0.34766678314632532 
-0.31688419290883885 -0.24638922494121906 0.37055747925816085 
-0.58789563683985158 -0.01259337817156741 0.16945596260465054 
0.039858746305279032 -0.01319232184434866 -0.065347929812462471 
0.098319553535169982 0.079370776682573155 -0.050777307265713119 
-0.35916017739653522 -0.24538269023605896 0.69417611086048159 
0.029349917850862745 -0.31555599738438356 0.19454354590070144 
-0.38105868189178937 -0.22302802800753194 0.6941179368341871 
-0.10568339205609856 0 0.11468015075328659 
0.07919663207287958 0.095986422257690357 -0.20825660533189735 
-0.10568339205609856 0 0.11468015075328659 
-0.10568339205609856 0 0.11468015075328659 
-0.32284941365393072 -0.14227684354564787 0.51984986066307692 
-0.56616926050628646 -0.091256255663889355 0.27755304899297889 
2.6020852139652106e-18 0.067988186999505498 -0.085992006473804755 
3.4694469519536142e-18 0.24010940781846057 -0.26925937721988524 
-0.18838519470870885 0.13908396717962043 0.11783785264030337 
0 -0.024654802654425878 0.089292418048471531 
0.066668366143673552 0.31959709558951721 -0.19422341576246033 
-0.14765489524209879 -0.049316142775041462 0.14972932455533253 
0.075310111843619743 0.074099598599445912 -0.13382922832014657 
0.23943769076474353 -0.1668656936510772 -0.11760096988954849 
-0.41301253353702794 -0.18099280028297698 0.20195333471363042 
-0.4641749707080351 -0.024654802654425885 0.60903005843450719 
-0.14110091922632212 -0.17990119316068837 0.078265203469155817 
0.06375133331738192 -0.36751023806527477 -0.11069770535861466 
-0.31755572505163976 -0.25472275564109093 0.54829370357894758 
0.08838268556059338 -0.02464961177686564 -0.11107591878566191 
0.04070341522670104 0.046502008340176891 -0.11107591878566195 
0.08838268556059338 -0.02464961177686564 -0.11107591878566191 
0.08838268556059338 -0.02464961177686564 -0.11107591878566191 
0.70833493570699979 -0.39213377360853696 -0.21122147829685439 
0.08838268556059338 -0.027780347264070637 -0.11107591878566191 
0.08838268556059338 -0.02464961177686564 -0.11107591878566191 
0.15384296905064837 0 -0.30078762345224302 
0.86231698050770167 -0.18143739637462153 -0.74738024714306728 
0.15384296905064837 0 -0.30078762345224302 
-0.27357804668210167 -0.4594455972081859 0.44599304006974716 
0.13111495988337091 -0.59009535103134036 0.030215914078853136 
0.30084330097205803 -0.27963333266452539 -0.10387339963011323 
-0.16876970472392189 -0.096302737284759035 0.19533989560587381 
-0.029401485793806994 -0.13207761991734687 0.15477571857135339 
0.10110620513887998 0 0.035149615448229275 
-0.2021738708475676 -0.0011595460075216374 0.11659477643585971 
0.15384296905064837 0 -0.30078762345224302 
0.15384296905064837 0 -0.30078762345224302 
0 0.31986300628158154 -0.24353655407802161 
-0.413570932311916 -0.13999722176024565 0.086303027359455331 
0.40411714932673692 -0.12935227585756334 -0.42343749284211046 
0 0.31986300628158154 -0.24353655407802161 
0 0.31986300628158154 -0.24353655407802161 
-0.48666541212414988 -0.10452596594965394 0.27842804362181628 
0.28224117005038651 0.01791234227374024 -0.1372984054198079 
-0.2099857382169571 0.11621423981522161 0.20006289902512739 
0 0.31986300628158154 -0.24353655407802161 
0 0.31986300628158154 -0.24353655407802161 
-0.089462845074964589 0.15434951593964441 -0.1020110844968582 
-0.089462845074964589 0.10977743508485147 -0.1020110844968582 
-0.20069289874900753 0.069957069586622719 0.054656783854840379 
-0.089462845074964589 0.15434951593964441 -0.1020110844968582 
-0.052669091705768001 0.52421319332586314 -0.32266765177440487 
-0.50457168638405414 0.19514037795091221 0.22709759657060791 
-0.07617326314501302 -0.10527047598968817 0.1992323368278654 
0.020561367201544514 0.11575300038595254 -0.24312974903652237 
-0.089462845074964603 0.15434951593964441 -0.10201108449685822 
-0.22775748630329695 0.13978991699555415 0 
0.12831557291845064 -0.34559966895954158 -0.020906097183338794 
-0.086899328020729819 0.30987287878266884 -0.22402094903775152 
-0.11306950371756677 0.44371975122557283 -0.48978390158964163 
-0.22775748630329695 0.13978991699555415 0 
0.060564625229327644 0.032979221240239324 -0.15377526664461302 
0.18989709459481807 -0.18023162544653959 -0.18989564175488577 
0.26117357087022808 0 -0.31336702318254606 
-0.15035908763850486 0.014537000682166512 -0.081689359924857888 
0.019059182408811208 -0.11181490109062711 -0.016229828636067221 
0.31258115208242726 -0.061936920999788758 -0.19092109226997073 
0.20864431096079888 -0.088263550548607156 -0.087836105246110519 
0.076265618112446532 -0.27155658135637872 0.0031585468939932782 
0.087104493649656112 -0.018342833511399072 0.12610011900233856 
-0.076817136544085562 -0.33694641173670636 0.20578450740208562 
0.17742409757402966 -0.28384058625455444 -0.023292991251346869 
-0.071685526648206363 0.11196700863428655 -0.054023172605487731 
0.50574529656951872 -0.2377318411984024 -0.043611201946542735 
0.74519124665979031 0.3154716429110298 -1.0808087820668977 
0.18827361114460139 -0.12151839810471295 -0.11689259504950034 
0.26998596119924134 -0.083877658767534544 -0.096026661880731182 
-0.20021496906344702 -0.3061137670312068 0.40367853660031555 
-0.10054366553407733 0.094640277928373831 -0.082115558925882015 
0.016666229627921282 0.14251364848967366 -0.10523598681689886 
0.008027680484566653 -0.038138206628106436 -0.071978922404562315 
-0.0059381265493382365 -0.029118878015441069 0.073403475809284441 
0.15325834861811116 -0.081716105932234537 -0.09395366915537981 
-0.55597986699348878 -0.27575292696918369 0.57522879482939249 
0 -0.017348195292146498 0 
-0.056464041094559506 0.17857430325920842 -0.088735309882324476 
-0.082277039570888222 0.075424883765391193 0.10195745704879064 
-0.16396567595460682 -0.047206646053846044 0.23184933383549666 
0.12926847552272561 0 -0.32963268728120204 
0.054536882381288822 0.12398720382952394 -0.16374977708781233 
-0.72912636801293496 -0.161855234033353 0.78641360602185106 
0.30681295770044931 -0.067029126588660184 -0.2252763643643349 
-0.067125127525550971 -0.17317552655227411 0.044210521128713737 
0.29093686780748484 -0.081030639815210484 -0.32973237933749544 
-0.28694986051555627 0.21267961692332621 0.16505812397477101 
-0.15475777514109101 -0.96196577786734916 0.68927852088159303 
0.020208056039119578 -0.29718713050991935 0.016422749095530542 
-0.24140207766436894 0.0013600242994733262 0.10012354060954141 
-0.20101221788667806 0 0.073926236775633272 
-0.30314967135449289 -0.40250850478048911 0.53511567264707205 
0.19585821482529991 2.0566384409867083e-17 -0.20868723106421924 
-0.49661128775984209 -0.045913554903821395 0.19501874348381643 
0.028107340805249952 -0.12599536916367204 0 
-0.081398877237892714 -0.12599536916367204 -0.0058274721848386836 
0.26074004069899637 -0.24667178920657293 -0.11791252731053206 
-0.21396677167518696 -0.13868718412366202 0.27627485146292052 
-0.22466149441383221 0.11288068241096562 0.2487324419486476 
0.56374415213607199 -0.15775259970059852 -0.37519554208124034 
0.028107340805249952 -0.12599536916367204 0 
0.34495517143715992 0.27594828659652354 -0.44860030521644834 
0.028107340805249952 -0.12599536916367204 0 
0 0 -0.31594843692575936 
-0.39074156620178452 0.9441032418530021 -0.78578273050503378 
-0.54418103821783681 0.070289965481410269 0.44334795698591545 
-0.013804847032334174 0.43832311665109608 -0.24252578608804376 
-0.011433167725704022 -0.033726933178460317 0.076912322538190719 
0.29905501937617457 -0.31190562206848177 -0.20482540193230259 
-0.011433167725704024 -0.21064504956960803 0.136935879997687 
0.16334556118830076 -0.068137211928151045 -0.077102257215797484 
-0.029168532693882327 -0.078314507415057175 0.1469413441586041 
0.11530975529109941 -0.066853979928975502 0.02567863167763023 
-0.35735093193694256 0.45354617790837726 -0.11145354792985736 
-0.011433167725704024 -0.066853979928975502 0.13693587999768694 
-0.011433167725704024 -0.066853979928975502 0.13693587999768694 
-0.37709690365687837 0.31531806156305747 0.1219150851489631 
-0.011433167725704022 -0.033726933178460317 0.076912322538190719 
0.197660757375026 -0.037030956783488243 -0.087457235756847301 
0.036936020306946468 0.14454322339893402 -0.11607673899869717 
0 -0.033958126018468017 0.038362841681712487 
-0.073455894564727869 -0.22060549123845813 0.32764434702018469 
0.14397658012981557 -0.13100912747918367 -0.099169018998821037 
0 -0.033958126018468017 0.038362841681712466 
0 -0.033958126018468017 0.038362841681712466 
-0.50877340850154551 0.24267388178596866 0.24551423421179355 
-0.0098365182677911389 -0.17900879424381291 0.13940558695553432 
0.064066720510973771 0.12590111735690343 -0.19492424222489815 
0 -0.033958126018468017 0.038362841681712466 
-0.19219117384816187 -0.033958126018468017 0.21744215050800422 
0 -0.033958126018468017 0.038362841681712466 
0.30503898667052298 0 -0.33129711444723436 
0.11145658054046401 -0.12649348013652537 -0.34215610033261296 
0.24311574879707859 -0.60084369711102503 0.50819768304132507 
0.30503898667052298 9.5869343993911657e-18 -0.33129711444723436 
0.30503898667052298 0 -0.33129711444723436 
-0.10905654995157012 -0.13213984436876813 0.015666458129158935 
-0.067445167151140697 -0.0051599898630021752 0.029555635950941458 
0.30503898667052298 0 -0.33129711444723436 
0 0 -0.030898318006522915 
0.54665594321386246 -0.49722901640994627 -0.19746743286907648 
-0.36376345518231573 -0.045723411519568206 0.2897125593204159 
0 0 -0.030898318006522915 
0.26899896279654001 -0.30143809937477228 -0.071909261095335686 
-0.037555420556268641 -3.4277307349778472e-18 -1.7095514089590972e-18 
-0.76268157826393712 -0.31059214022962267 0.9511939241942019 
0 0 0 
0 -0.021410244696281978 0 
0 0 0 
-0.17213414251768527 -0.27008740693141109 0.42516271874293382 
0.049940627050670337 -0.19039664324715272 -0.01991487318365107 
0.11551269280478242 -0.098483500005483893 0.033834458372554548 
-0.2108820335688335 0.14279554798288821 0.12644968712976479 
-0.11737217687540062 0.10758481817381428 -0.23646526674248852 
-0.16423254119575781 0.18703482125779664 -0.058429023470380911 
