solver_type L2R_L2LOSS_SVC_DUAL
nr_class 3
label 1 2 0
nr_feature 43595
bias -1
w
0.16804634788461906 -0.036670885509917775 -0.10943873404710086 
-0.07398277770585851 -0.034275215194311044 0.01331862410188637 
0.13103440067926178 -0.042270491419691116 -0.15612610481891953 
0.12580305839203368 -0.13555229367729929 0.065697883971841953 
0.048294220437419169 0.12042317223511233 -0.11929620586624544 
0.17288989903561511 -0.012960845387776327 -0.12562421046616704 
-0.059506218557577026 0.083152605498352211 -0.074109430949869368 
-0.10911876979098657 -0.094377751391463649 0.029589951809044009 
0.0017814961361174459 -0.094086491445266124 0.015201914180320871 
-0.091064066731040866 -0.081754369499738799 0.090443299543682271 
-0.17361068010517902 -0.11553150236775915 0.29320642968738625 
-0.046223574450823167 -0.11804898992743131 0.055121413466908957 
0.065315976693227445 -0.021097501261447431 -0.20666625039747633 
0.81385653693229221 -0.41521616014797857 -0.75276906532640508 
0.51165943978068662 -0.19943217114184347 -0.3799755679526729 
-0.11804208778589974 0.12038133553228608 0.020988523125279521 
-0.031315038314849802 0.069935781681451786 -0.092548930213891392 
-0.13154664722730816 0.017823832370746837 0.045697396458871463 
0.022641748237850659 0.12424215038158129 -0.11666461984626723 
0.014733660006822254 -0.084587599898384033 -0.034646021536954924 
0.065632636634803496 0.26516603554080576 -0.37603388266173693 
-0.039559979730585108 -0.043071772759763385 0.029433432490541315 
-0.29244293197110827 0.49147204825536894 -0.29672876011537119 
-0.38252341112063315 0.27192721917329377 0.10695413406257173 
-0.1029079496411166 -0.15978997627816666 0.055040549924781274 
0.094715711772114686 0.23991385706846285 -0.32038621963991271 
-0.57182544902084531 -0.010221566139830229 0.31166169331787136 
0.2862632834887851 -0.26924648999714645 -0.15991993542386915 
-0.30412210516421012 0.54876547909596485 -0.23118762672846471 
0.047112357147094379 0.10430984831403463 -0.15150706897020497 
-0.026264809715978516 0.069509311008216737 -0.048076264179076345 
-0.20523404896916825 0.21263149905286685 -0.11291888346343854 
-0.13456591268002321 0 0 
0.029695789729439169 0.16112667568144096 -0.25397533499355446 
-0.085664373845806233 -0.074823386957635407 -0.0169733744755272 
-0.89204528190618326 1.112824318172656 -0.49578658442003765 
-0.15756522656560115 -0.20217967930181535 0.18610005144367456 
-0.13456591268002321 0 0 
0.098244525166844315 0.39085664740294318 -0.68748641087982221 
0.71608684790640753 -0.4582755403275573 -0.4596477947962409 
-0.023429236113456948 -0.082700180807390278 0.015278378578691222 
-0.13456591268002321 0 0 
-0.021898228973917799 -0.19939702367488471 0.17835451327412588 
-0.2159480604273567 0.21533892576156943 -0.068370632393337918 
0.0086997718090018709 -0.1382459799795149 0.048371460890824988 
-0.13882835713415051 0.24001748542609286 -0.071063443699357007 
-0.10478692591044955 -0.17566204030349411 0.23263935123140334 
0.0072210742887562213 0.15121275461779668 -0.17054287101934335 
-0.11095240437810544 0.054342557279644252 0.028172844283622517 
-0.021898228973917799 0.15121275461779668 -0.11755744144297404 
-0.021898228973917799 0.15121275461779668 -0.11755744144297404 
0.077100467193210509 0.2084991105017357 -0.20915010896476507 
0.091153668506395946 -0.034080202360651478 -0.06920307565457437 
0.082419247907558474 -0.078059009251671752 -0.032378356210949151 
-0.20435600530679798 -0.29498356902453121 0.2084131628764716 
0.068007518398576744 -0.04736868949385159 -0.0088339670026296099 
-0.00031483651035258526 -0.037226660315831307 0.00074997669966229519 
-0.0853622123742626 0.09847992071676484 -0.052141737681099982 
-0.021898228973917799 0.15121275461779668 -0.11755744144297404 
-0.138741592956831 0 0.12343065919261348 
-0.057029670458881292 -0.14678609374499513 0.11191567651405768 
-0.056698688341911198 0 0.061443932104530849 
-0.26536752533600078 -0.050039754269006552 0.17246343567519143 
-0.056698688341911198 0 0.061443932104530849 
-0.056698688341911198 0 0.061443932104530849 
-0.056698688341911198 0 0.061443932104530849 
-0.051632494103956844 -0.099918538463488554 0.0015596430675548633 
-0.056698688341911198 0 0.061443932104530849 
-0.056698688341911198 0 0.061443932104530849 
-0.067462679797111291 -0.34714533779459122 0.11675915405622947 
-0.056698688341911198 0 0.061443932104530849 
-0.025272982581136645 0.21846900718916726 -0.18702794427383337 
-0.24384312946543027 0.096704648986782535 0.23772377122579955 
-0.041869508422476005 -0.26400906279009051 0.090470168407981111 
-0.0057282322007025377 -0.06491090140634595 0.056656107188506707 
0.49321356142946604 -0.17504531196827003 -0.35689628444969235 
0.17484330384470995 -0.1116421083270417 -0.045898328185420854 
-0.00020063016379624115 0.018277008895960539 -0.029505369979164628 
-0.24811370844308345 -0.031313059163278215 0.13883290098595821 
-0.17705844267385798 -0.19698961241535715 0.19841277419881279 
-0.073625437938570071 -0.099738830653479202 0.056802028100243991 
0.10648509855173612 0.076483548988179509 -0.11755767378645736 
-0.10606457829414816 -0.17206951145633576 0.17039452170974992 
-0.35433079427926178 -0.2967951141267669 0.49768929718402277 
0.25565095732881959 -0.24201368473717136 -0.13476175524471642 
-0.074644280137005248 -0.21337604804245938 0.12563230214605406 
-0.082741609894180307 0 0.030799751946544631 
-0.082741609894180307 0 0.030799751946544631 
0.34330895110612419 -0.12550240867569068 -0.16482432032693309 
0 0 0 
-0.011258358614867164 -0.13692029400497097 6.8535790007311921e-18 
-0.032476486593541166 0.23657249275821257 -0.16691382940012456 
0 0 0 
-0.10178274237175212 -0.07904905818680745 0.075375762514081596 
0.047303237399567259 -0.08903214918720119 -0.10457877378174084 
0 0 0 
1.0617507319422166 -0.49575526225061656 -0.77597989803184608 
0.13342666522272167 -0.043154051091141399 -0.12216763179143808 
0.060803770165198438 -0.098765591918773626 -0.062544675464279692 
0.075881817287810793 -0.071074779748307185 -0.11268093836374252 
0.38134484487560966 -0.20232513810340705 -0.25071810579922582 
-0.15523506645629795 0.095716552778142949 -0.01829432312594784 
0.036066639162655165 -0.034836976424693258 -0.032546826382799383 
-0.060063678606005221 -0.062302327618988171 0.037859085827481022 
-0.31692767382292442 -0.12547323408989983 0.32406747416176507 
-0.43008732256590393 -0.39527283819172021 0.38653981772629542 
-0.13439520972679309 0.069796582586562836 -0.022931471860145394 
-0.13675004069900656 -0.056279863373749857 0.034259715448410048 
-0.27002553719177647 0.4143628003181572 -0.1925305355192215 
0.18103712212239548 0.13926604109039906 -0.20984133473611297 
-0.061831835106021339 0.14558542267417501 -0.089595424231409732 
-0.094771897697770585 0.14558542267417501 0.068196506185397382 
-0.12349932774346811 0.194112944078564 -0.042382751179660248 
-0.14855979368297662 -0.063046981706872632 0.10074491245526747 
-0.10655781871146344 0.090964055874218852 -0.014239145759128179 
-0.061831835106021339 0.14558542267417501 -0.089595424231409732 
-0.13359271422216029 -0.10508104158438158 0.15693152349844258 
-0.061831835106021339 0.14558542267417501 -0.089595424231409732 
0.034501104096849103 -0.14409675337346764 0.02523788924470299 
0.25444665204109773 -0.21057978860361026 -0.18186496915647035 
-0.061831835106021339 0.14558542267417501 -0.089595424231409732 
0.090172976453498005 0.05409497509788988 -0.15755145461026118 
0.0082977858594122031 0.23755891536265131 -0.2743087795816207 
-0.28827771219471876 -0.040710240430466456 0.32800401803470786 
0.32031900059528995 -0.25421586424818038 -0.06068390106454119 
0.2614761574248553 -0.11523561763764689 -0.24459687428588187 
-0.033510237094737085 -0.57535865614894122 0.4494567026435381 
-0.29746326305833221 0.17270770506874475 -0.071842820464166235 
0.18270395065071729 0.093344788158628247 -0.26376052457470267 
-0.16657779708755766 0.052319887380607007 0.2137924160349845 
0.026333218766462926 -0.37199244492470868 0.035903627720799122 
-0.036101739084286807 -0.053015882770941679 0.021030849630556573 
-0.22860096242069922 -0.3845379715521357 0.40176252383806299 
-0.16521960729059829 0 0.33713733182121441 
0.084298852894726842 0.047842625021656801 -0.14616733267029755 
-0.11805280165959996 0.081979486790474274 0.025216416147439281 
-0.10472573623839515 0.025990559601644578 0.12090078808079159 
-0.057257151932327693 -0.13815847364475115 0.069503657608067565 
-0.07383392349719399 0.088140165917620306 -0.016499754026411014 
0.041126829132411349 -0.049608925212291446 0.013648622701000127 
-0.076703749824507991 0.26205699953751033 -0.16788088503590451 
-0.28313704869401068 0.6010869857469211 -0.45214586385243305 
0.5744516283147113 -0.15543165601279241 -0.4965931032591635 
-0.07383392349719399 0.088140165917620306 -0.016499754026411014 
0.013482042412007213 0.036089178093333923 -0.15629310826734755 
-0.33899634869808093 0.088140165917620306 0.22879683631584316 
-0.07383392349719399 0.088140165917620306 -0.016499754026411014 
-0.07383392349719399 0.088140165917620306 -0.016499754026411014 
-0.07383392349719399 0.088140165917620306 -0.016499754026411014 
-0.11562381355695095 -0.065700234406210922 0.16628385608111171 
-0.043714958086740058 -0.26881784439501932 0.26462066185498923 
-0.41730824334351302 -0.057337072824128421 0.54199685044980828 
-0.3600067392719199 -0.25526064500430368 0.7372644716116824 
0.18592093634567827 -0.11376399261052633 -0.18947131062794315 
-0.20723658157793629 -0.15668123571914686 0.22281993815390308 
0.46424092135193284 -0.042449383915584608 -0.43394194100525757 
-0.047164074070511902 0.30005345836178526 -0.53949376113813996 
-0.13080306862707436 -0.033431199191159035 0.14466332707316976 
0.065529788726802263 0.048093292947228694 -0.11263459295386689 
-0.24311001020827294 -0.05476641119135451 0.28187721942001959 
-0.087258890572196518 0.14373170225223941 -0.074144124634600489 
-0.034422272743368856 -0.076685698602143929 0.088145175615567367 
-0.034422272743368856 -0.076685698602143929 0.088145175615567367 
-0.034422272743368856 -0.076685698602143929 0.088145175615567367 
-0.11125448324638899 -0.0030499358322077057 0.075953308638699729 
-0.034422272743368856 -0.076685698602143929 0.088145175615567437 
-0.15533570775534811 -0.091532425591303326 0.19015646484786081 
-0.15533570775534822 -0.076685698602143929 0.17073164654218753 
-0.034422272743368856 -0.076685698602143901 0.08814517561556745 
0.0060768194986620108 -0.022377931099564919 -0.046253536573318661 
-0.10121912125433616 0.28734267116076617 -0.17557652281472319 
0.15142771188186274 -0.22987066007336737 0.032915933301312761 
-0.09874852610472093 -0.1730738221181172 0.060024679176323946 
-0.034422272743368856 -0.076685698602143915 0.088145175615567367 
-0.0039777064800301113 -0.076685698602143915 0.088145175615567437 
-0.0039777064800301113 -0.076685698602143915 0.088145175615567437 
0.079195669035955554 0 -0.10244033917843035 
0.079195669035955554 0 -0.10244033917843035 
0.079195669035955554 0 -0.10244033917843035 
-0.35288873778192026 -0.1260037220212239 0.27619392194950637 
0.66544729984926021 -0.13028714921643075 -0.71453008087163439 
0.079195669035955554 0 -0.10244033917843035 
0.079195669035955554 0 -0.10244033917843035 
-0.029377504947718 -0.022424958710398044 0.023725616962600362 
0.17703764278882655 -0.47410177170774798 0.068725055407311705 
0.060453029536166859 0.029716233682779262 -0.12412966270576606 
-0.10338403913666125 -0.17135807825814076 0.14219433576513762 
0.079195669035955554 0 -0.10244033917843035 
-0.0005853909071835018 -0.061646385104239941 -0.057509640322843197 
0.079195669035955554 0 -0.10244033917843035 
-0.076963170147723511 -0.25458005296494751 0.2777004146026415 
0.28535466850401264 -0.41859842554330046 -0.17190720706352411 
0.2999804267551639 -0.33790113021386314 -0.19382948909396652 
1.1332117941728195 -0.38673902036613428 -1.0517605423052783 
-0.48946449068268072 -0.16763961897312951 0.42283374068817614 
0 0 0 
0 0 0 
-0.13093242694577581 0.061029774763218018 0.047432355801261879 
1.2081566389645046 -0.78015807580843821 -0.90106502368426966 
0.0042018934742048108 0.015751673108694644 -0.10425427053313714 
0.054753922535433534 0.13396980981194767 -0.14862869203589246 
-0.033002811937086707 0 0.020984002132791463 
-0.016607414590249434 -0.10726176069876955 0.076412643394274671 
0.071927804691982192 0.0977766723844051 -0.078521528029851767 
-0.17260659280937149 -0.043087637745101839 0.13570011166699678 
-0.080880862441345694 0.053595802309466881 -0.21790203161688965 
0 0 0 
0 0 0 
0 0 0 
-0.076274780004281742 -0.28321838923803216 0.17252070714134737 
-0.33925681765415217 -0.19496247261209623 0.40006062766347561 
-0.038994832094294753 -0.15445663291405645 0.19737663509750566 
-0.24728404878392898 -0.15687339876591685 0.31032800187919035 
-0.007435947546047348 0 0 
0.10924260629267041 0 -0.12221068652751137 
-0.49239221490960028 -0.059391109239318361 0.42139997995305539 
-0.069466419355966522 -0.2224096392597959 0.13298656883768648 
-0.14302502838312833 -0.072687567845966541 0.17730690854986325 
0 0 0 
0 0 0 
0.16004321227339105 0 -0.1710898212342368 
0.062235646152275212 -0.10804639091125161 -0.088094188773474441 
-0.099666952629608216 0.014417504656878143 0.22405984256629735 
0.015902346952526167 0.15152163187460591 -0.2764026078490785 
0.044048845227446197 0 -0.060511751346604789 
0.0095445038456924564 -0.19597721320850772 0.2121899208525157 
0.31840291628651751 0.20072863852578351 -0.44970032088410872 
-0.088526238353842018 -0.1362932597662744 0.092688839264539441 
-0.020801320202286075 0.0090651854342947528 0.037303959519811268 
-0.02732524841526781 -0.1455670411388513 0.02047363649685327 
-0.3006325589209311 -0.016073584386466687 0.18005043384334199 
0.16004321227339105 0 -0.1710898212342368 
0.026303709497932481 0.049848022706360212 -0.085894339359066874 
1.1118305185102031 -0.48029388090727271 -0.99091210398082741 
-0.25188866090251971 -0.21759127012285603 0.58764404664984748 
-0.062422078089683933 -0.15610365489922037 0.1313285203240854 
0.16004321227339105 0 -0.1710898212342368 
-0.1742800987130394 0 0.097875917275416877 
-0.1742800987130394 0 0.097875917275416877 
-0.1742800987130394 0 0.097875917275416877 
0.021100057025604461 -0.048708060457198145 -0.020220476034331695 
-0.16286492751603723 -0.41732209569032885 0.3478615571111846 
-0.19889066688484597 0.12939807329243444 0.11301663851810827 
-0.30663762646747383 -0.13057012462417633 0.37829390203544422 
0.022579543175025758 -0.23913697437050743 0.025436239766451454 
-0.20892581089030773 -0.0075803236915647039 0.20568994898087578 
0.18141449668686199 -0.2568973357348891 0.097981713956380459 
0.052363370770083101 0.1047714406049904 -0.10674580859791674 
0.41014855134313777 -0.21069014246348458 -0.25170462091849982 
0.22766719359596493 0.13105293355695941 -0.40418951019623994 
0.076515824440766392 0.022758729595497795 -0.17305393204387559 
-0.2279403364605766 0.12807093527958488 0.084461444923477028 
0.0035878606790857789 -0.37188996523943074 0.1377636436137821 
-0.1741813151767074 -0.13986783207709896 0.25978027841368184 
-0.1742800987130394 0 0.097875917275416877 
-0.082042904614919823 0.085505108141304478 -0.05941312858782926 
0.0014389649053862287 -0.094176602405052975 0.19426841885978585 
-0.082042904614919809 0 0.061991809385140498 
-0.082042904614919809 0 0.061991809385140498 
0.028618934993479738 0.057373117192381695 -0.067027959246862973 
-0.082042904614919809 0 0.061991809385140498 
0.22590478023676491 -0.23582050629612383 -0.13345660989840863 
0.024158313171065829 -0.091875087439661315 -0.13839064072269888 
-0.12820806716715313 -0.067679747826432934 0.062306289939010988 
-0.082042904614919795 -0.13133281185863904 0.097686174097099801 
-0.019889422141017868 -0.29903286021774478 0.091993986419995885 
-0.16778213566590586 0 0.10799734423295983 
-0.082042904614919809 0 0.061991809385140498 
0.11181120100827069 -0.33608554265947249 0.074983055519281749 
-0.082042904614919809 0 0.061991809385140498 
-0.082042904614919809 0 0.061991809385140498 
0.076604553673945544 -0.01091909729199511 -0.071724797912927102 
0.076604553673945544 -0.01091909729199511 -0.071724797912927102 
0.076604553673945544 -0.01091909729199511 -0.071724797912927102 
0.23482903896646909 -0.0091073979653095091 -0.3202724163958266 
0.17956126077122195 -0.01448086040146726 -0.18036230908842954 
0.17336002250558794 -0.13136664173805457 0.022271855362618619 
0.076604553673945544 -0.01091909729199511 -0.071724797912927102 
0.023708513033936243 0.16513188284444869 -0.15856676618116616 
0.076604553673945544 -0.01091909729199511 -0.071724797912927102 
-0.18584414639135893 -0.17735959160051162 0.2321259432670198 
-0.013595359723459752 -0.041334944967231245 0.10716863056610404 
0.076604553673945558 -0.20675006651580385 -0.071724797912927102 
-0.22580530429441109 -0.025936212049703609 0.22445484124097165 
0.099466799717449386 -0.25509888277434223 0.10341759660428304 
0.38588764081328397 -0.22496932688541335 -0.16296869065328851 
0 -0.14767284122617885 0.071045584093311978 
0 -0.14767284122617885 0.071045584093311978 
0 -0.14767284122617885 0.071045584093311978 
0.068616903189148731 -0.24540427137400475 0.11786414873344293 
-0.099401558429218079 -0.14936298190185257 0.24475541087946201 
-0.26156707301436594 -0.10127257903625451 0.29337955149944883 
-0.18529947870449498 -0.169254413518237 0.1193517249938392 
-0.051126909777571616 -0.14767284122617885 0.15229654528076425 
-0.017898556769938768 -0.051802506977314797 -0.020731828221974079 
-0.037985248875701025 -0.14767284122617885 0.11385665614474129 
-0.23733003887187651 -0.13327135271148913 0.31151316243741345 
-0.085885585897813546 0.21195434570872057 -0.28314399294576342 
0 -0.14767284122617885 0.071045584093311978 
0.75596822536688135 -0.7079851755469827 -0.58253891391261681 
-0.29107207343418268 0.12825136510380633 0.18179781116277008 
-0.33612148867651959 -0.24923023258535576 0.45565602854795673 
0.38806593516636112 -0.0039053372525007183 -0.39851103925586429 
-0.20628956224150199 -0.34734453203536997 0.24413653956213274 
0.060189025467241912 0.076718802981473877 -0.12949423274202318 
0.45889683312500884 -0.07937918381200873 -0.29789596723801692 
0 0 -0.0034353822727941109 
0 0 -0.0034353822727941109 
0 0 -0.0034353822727941109 
0 0 -0.0034353822727941109 
0 0 -0.0034353822727941109 
0 0 -0.0034353822727941109 
0 0 -0.0034353822727941109 
0 0 -0.0034353822727941109 
-0.25361387670731644 -0.080325558177804277 0.32064148456446456 
-0.035611569421256484 -0.040162779088902138 0.061988134537821357 
-0.12668691180023209 0.010575607840834965 0.088562053996804807 
-0.093344018682202212 -0.075550044396379912 0.063823996962604962 
-0.029076778264945192 -0.040162779088902145 -0.010844441443940662 
-0.035611569421256484 -0.040162779088902138 0.061988134537821357 
-0.061962578165623658 -0.040162779088902138 0.061988134537821357 
-0.035611569421256484 -0.040162779088902138 0.061988134537821357 
-0.035611569421256484 -0.040162779088902138 0.061988134537821357 
-0.015366671215154518 0.011933648057455152 -0.017959850926803484 
-0.035611569421256484 -0.040162779088902138 0.061988134537821357 
-0.035611569421256484 -0.040162779088902138 0.061988134537821357 
0.15778671501550712 0.062436217462016413 -0.17179823020956933 
0.19035141179463444 -0.322081491082717 -0.26138803260136251 
0.043224188658804348 -0.20489876286487926 0.14910654191542494 
0.0039715257825650059 0.015393996722530109 -0.13702985466290507 
-0.035611569421256484 -0.040162779088902138 0.061988134537821357 
0.16143628989900782 -0.17839866709463439 -0.12275389706149518 
0.087570924367907671 -0.088002271975556601 -0.037729864048769733 
0.17010528601069849 0 -0.20014989625463306 
0.066498342857441523 -0.29947789329201591 0.036056327266759391 
0.29350430685665002 -0.42884388837291626 -0.22244357448178134 
0.21308129461871647 0.25389384480742222 -0.43546999943198672 
0.19868388470087447 0.23512642179144094 -0.51410215982326701 
-0.058036358951327027 0.0061623379546768414 0.07846453249968173 
-0.072789638683507255 -0.03019714570701295 0.18355122483728495 
-0.23243849133665678 0.099257429540960646 0.029590991586664464 
-0.23419120697227711 0.069242331504561924 0.12548924631838687 
0.033423703123387147 -0.083485618028147801 0.10773322326903939 
0.17010528601069849 0 -0.20014989625463306 
-0.072821284336910472 -0.22458918370785516 0.26339270069680532 
0.049728473234536635 -0.22390846566130071 0.23004185720913262 
-0.16355261821309958 -0.16115258114115699 0.41937650784717045 
-0.1980257597326639 0.60378998204683598 -0.28586433451928839 
0.29884743136385694 -0.054770133053295249 -0.27217703360167683 
-0.038141192049294476 -0.18278829327744311 0.14911819063994164 
0.076408397027168076 -0.039166706251722097 -0.1568771717205559 
-0.039429323889656927 -0.14565859351222046 0.09819245914895279 
-0.066919018534593921 0.21914355950288397 -0.11938899740928641 
-0.30037190306513362 0.07671764898591002 0.24888091946510657 
-0.066919018534593921 0.21914355950288397 -0.11938899740928641 
-0.066919018534593921 0.21914355950288397 -0.11938899740928641 
-0.066919018534593921 0.21914355950288397 -0.11938899740928641 
-0.095629698344312022 0.19385611979949233 -0.025149090721877734 
0.059091606894242248 -0.044357654928245553 -0.12972707509593312 
-0.18805722785538029 -0.018628122408228236 0.1872537955220166 
-0.066919018534593921 0.21914355950288397 -0.11938899740928641 
0.087187685090011249 0.27839113543235389 -0.28125708670875349 
0.082769159473741832 -0.06561373027969053 -0.064152623789682353 
0.12297110540498024 -0.13325323730755245 -0.053164905585324412 
-0.042476702785959587 0.14200246833708161 -0.14651726478855912 
0.13796143868652239 -0.11665904209118358 -0.032445926922381671 
-0.37365144745823647 -0.25120615656562906 0.31684882455893193 
0.014776173081411742 -0.063045584230697033 -0.049840765687631329 
-0.046197008543836265 0.25776532850727851 -0.19262464277032623 
-0.064213565226969346 -0.10561965715178147 0.10643562061527281 
-0.1275352458119631 -0.042373024974598696 0.088137398052719682 
0.29521819886372991 0.17698023579613259 -0.4510620432850056 
-0.065631735898157739 0.3889841748858377 -0.3257559765033099 
-0.12843409757922342 -0.062657891483509059 0.1392125592034619 
0.025006259014887781 0.019330301252644649 0.05009186923763629 
-0.49593059952972296 0.19380919205874553 0.19054400442643324 
-0.046197008543836265 0.25776532850727851 -0.19262464277032623 
-0.046197008543836265 0.25776532850727851 -0.19262464277032623 
-0.046197008543836265 0.25776532850727851 -0.19262464277032623 
-0.52283931235502412 0.43968789936948094 -0.13890012840946017 
0.22373565130324166 -0.072733689674087929 -0.19288860531118518 
0.34678917954701222 0.21297995236699813 -0.35629930031665658 
-0.033713503106304894 0.12636284768924483 -0.090138778506616057 
0 0.041245606062022953 -0.059659730265960408 
-0.0071746601827438333 0.36180746481173487 -0.25807156222403033 
0 0.041245606062022953 -0.059659730265960408 
-0.13632867862393727 0.069453018987421886 0.12229081244272931 
-0.18778595625371497 -0.035392691326814309 0.2230061917680633 
0.068225806834006572 -0.1559791281339705 0.046198519398954967 
-0.036658402599501427 0.14471826200987498 -0.10916607478933274 
-0.20550833751250069 -0.33145819432858797 0.36204244272240083 
-0.096220499146468144 0.03306771296400119 0.014702559638443864 
0 0.041245606062022953 -0.059659730265960408 
0.12786250637233987 -0.054655300025841444 -0.14694802041076394 
-0.24666422887347722 0.3799408917295804 -0.015246921824902136 
0.021715316108475883 0.17038553550375951 -0.13529503369957122 
-0.32312181710269078 0.055270534265826336 0.01959556482804839 
0.035439892045512948 -0.14946991558348402 0.039660389177471153 
-0.07230297681912369 0.0043145754137209388 0.020808572430942314 
-0.11626762975452651 -0.038169984411495279 0.19391684673496076 
-0.093041125616548898 -0.13383323703175781 -0.0046748415454432131 
-0.11626762975452651 -0.16274809107365223 0.31863731990378846 
0.016441324088819508 -0.028147507778846205 -0.044285529259300967 
-0.11626762975452651 -0.038169984411495279 0.19391684673496076 
-0.4183743679542069 -0.057770902745230598 0.35991987008265031 
-0.22347140481563035 -0.20454573754344546 0.39603660941596236 
0.23197430702846239 -0.24257969188151335 -0.1328421403804029 
0.05168755239622326 -0.11013420460984959 0.037547993502717134 
-0.068908327184384735 -0.025053479949406609 0.056860130984357798 
-0.068908327184384735 -0.025053479949406609 0.056860130984357798 
0.058437717963578092 -0.1494839884302491 0.063896828320777421 
-0.068908327184384735 -0.025053479949406609 0.056860130984357798 
-0.068908327184384735 -0.025053479949406609 0.056860130984357798 
-0.068908327184384735 -0.025053479949406609 0.056860130984357798 
-0.068908327184384735 -0.025053479949406609 0.056860130984357798 
-0.061765953161315515 0.15756211881335358 -0.18176941013654069 
-0.068908327184384735 -0.025053479949406609 0.056860130984357798 
-0.16438222938618363 -0.23333050702121158 0.34762540631413996 
-0.16250170873799463 0.52610572772016173 -0.39740871575026981 
-0.33079615167401238 -0.018838222801527985 0.29946103159353726 
0.19911416540146337 -0.27017718949203134 -0.041994475819932667 
-0.16438222938618363 -0.23333050702121158 0.34762540631413996 
0.14017671314674232 -0.23609657856438265 0.044850842957109081 
0.15432736489366491 -0.12434535458215956 -0.097408554704736014 
-0.067443386953294951 0.47816635553708042 -0.083040592988138415 
0.065356092842361879 -0.02008031007155648 -0.15134830273299704 
-0.12909886690423966 -0.087350947761388326 0.088615224608696738 
-0.161474243058358 0.15415087643063166 0.037149820476238882 
-0.16438222938618363 -0.23333050702121158 0.34762540631413996 
0.31502362654751559 -0.13397993404782033 -0.1658927908410405 
0.041692622524801853 -0.03132589914248736 -0.067323207416208813 
0.14748864141711396 -0.12130912522358234 -0.077728010701461611 
0.19188238906373845 -0.090002679140213399 -0.075775814256700338 
0.014124063774124763 -0.22189053227469874 0.15048117335698988 
0.083182231293080555 -0.090002679140213399 0 
-0.20128834986207178 0.47577045140409957 -0.29895706375915398 
0.083182231293080555 -0.090002679140213399 0 
-0.034501624344695649 0.21354008847690265 -0.16856929445031654 
0.16151087548656817 -0.10685223903412226 0.017225127809798482 
0.083182231293080555 -0.090002679140213399 0 
-0.25539346569241284 -0.026495343674124025 -0.097917392133375594 
0.20214161039446363 -0.19285854294294957 -0.17240063562483432 
0.083182231293080555 -0.090002679140213399 0 
0.054906069304387711 -0.0076152490959488332 -0.050680636776117657 
-0.069721743436018613 -0.091297299264070556 0.11984439396434247 
0.20672279865157045 -0.015230498191897666 -0.20458890655294251 
0.054906069304387711 -0.0076152490959488332 -0.050680636776117657 
0.25360515630826108 0.0032862416609605524 -0.15997330950117603 
0.054906069304387711 -0.0076152490959488332 -0.050680636776117657 
0.054906069304387711 -0.0076152490959488332 -0.050680636776117657 
0.023568692798716949 -0.096491212537257981 0.012708877875405861 
0.10407003714964957 -0.05363741693234346 -0.15044439783757518 
-0.23780537790265888 -0.089747219998761091 0.23005461732939642 
0.47808287257453536 -0.089243658085119679 -0.41250670184720356 
0.019931021778217043 -0.14102656110155073 0.13114951739830308 
0.062778913830444094 -0.056282415089630583 -0.017787347520955087 
0.062778913830444094 -0.056282415089630583 -0.017787347520955087 
0.062778913830444094 -0.056282415089630583 -0.017787347520955087 
0.062778913830444094 -0.056282415089630583 -0.017787347520955087 
0.70270335019855601 -0.14305862698475844 -0.57426037508504402 
-0.17275595409559885 -0.2645435047588976 0.21843192645140408 
0.20285968231030144 0.12342053410264309 -0.22148541417837467 
-0.08741391701995499 -0.056282415089630583 0.074954379309591965 
0.062778913830444094 -0.056282415089630583 -0.017787347520955087 
-0.38664646481310927 -0.15217360064093477 0.38104444277748517 
-0.11544375201020429 -0.056282415089630583 0.24329576267758657 
0.62026663780566926 -0.61663283265727986 -0.43570672244945524 
0.19427104814638138 0.00094275678471904614 -0.26699177941302799 
0.062778913830444094 -0.056282415089630583 -0.017787347520955087 
0.062778913830444094 -0.056282415089630583 -0.017787347520955087 
-0.15844794445927807 -0.36105127305826784 0.39290065716308176 
-0.2069481585467699 -0.072398365611980903 0.25901076595637584 
0.062622865531575547 -0.041396242884146048 0.0083079898676513501 
0.15862193805785471 -0.2283592412099652 -0.024104550751486157 
0.18299892052582933 0.17999888973424302 -0.36671299353382819 
0.43302517214002834 0.074080193170499145 -0.54228745635511888 
1.0873451202973006 -0.44445238392484376 -0.91508333521450225 
-0.33991346852167886 0.30339900836570338 -0.12199439352351751 
0.140022524155579 -0.038366737269529598 0 
0.04406204790342786 0 -0.089831584611748005 
0.04406204790342786 0 -0.089831584611748005 
1.0007900708833619 -0.53461332485342616 -0.62931373774316757 
0.052176859805672389 0.12151150928449539 -0.032201484828565809 
0.04406204790342786 0 -0.089831584611748005 
0.04406204790342786 0 -0.089831584611748005 
-0.093242226976162745 -1.3010426069826053e-18 0.023338308814792912 
0.24853571420938264 -0.35792551054445915 -0.039549350189182729 
-0.087202786371827226 -0.032734108187746316 0.03685340554261321 
0.04406204790342786 0 -0.089831584611748005 
-0.13235491941861102 0.079381811002363759 0.057113613904393623 
0.055260998472731887 -0.19135393075364876 0.13445301345946761 
-0.35894124830811241 -0.11233338817024764 0.36807734148268179 
0.3542825167608008 -0.14838453127209472 -0.30897590908192529 
0.0095673304600934969 -0.075152153453916987 -0.012433725270587066 
0.075296809679328086 -0.023389532987196381 -0.12569405676496942 
-0.1134309268035523 -0.023389532987196381 0.1069014167588514 
-0.26584698515855865 -0.14149641728752158 0.28071747882224224 
-0.089649735393443925 -0.023389532987196381 0.079123575250660605 
0.10019288288745717 -0.20388791532578626 0.11386814724264969 
-0.032481963772070785 0.028187312236407969 -0.001685028613941114 
-0.1134309268035523 -0.023389532987196381 0.1069014167588514 
-0.015968060691443804 -0.14324398021543511 0.074293064181603849 
-0.1134309268035523 -0.023389532987196381 0.1069014167588514 
-0.1134309268035523 -0.023389532987196381 0.1069014167588514 
-0.1134309268035523 -0.023389532987196381 0.1069014167588514 
0.3865617191520464 -0.086484168366350408 -0.33211394791150417 
-0.17853714315399316 -0.21584542134402573 0.31673021192564899 
0.214576330665077 -0.086484168366350422 -0.16035014504995482 
-0.1351524051271131 -0.11889885280083362 0.14424676027293692 
0.214576330665077 -0.086484168366350422 -0.16035014504995482 
-0.18724383897837429 -0.30364767363406764 0.18146262015128992 
0.214576330665077 -0.086484168366350422 -0.16035014504995482 
0.214576330665077 -0.086484168366350422 -0.16035014504995482 
-0.049659656829899382 0.22847549705427822 -0.25114086559502791 
0.214576330665077 -0.086484168366350422 -0.16035014504995482 
0 0.018673136362116323 -0.16668538715263562 
0 0.018673136362116323 -0.16668538715263562 
0 0.018673136362116323 -0.16668538715263562 
-0.033687387148994996 0.17825675301091062 -0.14195157891180751 
0 0.018673136362116323 -0.16668538715263562 
-0.055262372176376015 0.44622620463665458 -0.4845861421988415 
0 0.018673136362116323 -0.16668538715263562 
0 0.018673136362116323 -0.16668538715263562 
0.21152753204450819 -0.1937516386817339 -0.063250075766117908 
0.18217784480223945 0.065232851988313564 -0.15141837769927907 
-0.025799901780621404 0.1442378258158733 -0.021085635717731966 
-0.5413605770357135 -0.076191277684163755 0.63384880717796188 
0 0.018673136362116323 -0.16668538715263562 
-0.16771328943354269 0.62990454535682505 -0.39552151460143609 
-0.25816315993295075 0.2197662705590035 0.056666695444331269 
-0.027612992790884059 0.37290769362320086 -0.51327711148261845 
-0.16771328943354269 0.62990454535682505 -0.39552151460143609 
-0.15848120670757668 -0.0071619400274263167 0.20226082466002832 
-0.47621037089140666 -0.31856979374967165 0.38717075334002388 
0.47150168003448822 -0.040993205682961394 -0.36343503239234415 
-0.15568030835832758 -0.19517610026825377 0.32910209245481914 
-0.12384979043197046 -0.11346418899604548 0.14851438534838704 
-0.041040556833587385 -0.17184978716053106 0.13964332397711557 
0.033866349502519245 0.11564720621626284 -0.12297078588305338 
0.47150168003448822 -0.040993205682961394 -0.36343503239234415 
-0.2477424825077752 -0.4080132110724487 0.3104344803333331 
0.33017308443078552 -0.020688608869053951 -0.24530469403257235 
0.042311300985932387 0.1746375725403532 -0.17078336518154025 
0.47150168003448822 -0.040993205682961394 -0.36343503239234415 
1.1722198401318409 -0.34379312453775235 -1.1899435179965445 
-0.072906102553707483 -0.17117402990003233 0.12722999679961977 
0.44688915588698497 -0.25027315064468003 -0.3323717914006617 
0 0 0 
0.36165877022761111 -0.012056508412522574 -0.35507099035043976 
0.089362220980988588 -0.088948782160242962 -0.048671077698449708 
-0.051437336194800974 -0.079602114954523018 0.081496455613425264 
0.19386273750192756 0.094360487304739046 -0.35977301330518574 
0.1214693483986925 0.046307456214527191 -0.24517147442608189 
-0.031933327721138126 -0.10322639307631504 0.10989471599402731 
-0.38711549411684582 0.55098132765744867 -0.22167113994402968 
-0.46725798130970259 0.47392026958163369 -0.17751237105791642 
-0.18754693260324967 -0.12222734399421775 0.11378231169137798 
-0.14460810470417357 0.19168931483837001 -0.20899709363562072 
-0.1151108338606881 -0.18900638688034141 0.19703903505002793 
-0.096258575789844925 -0.089912219110845348 0.13214539558806132 
-0.0059520093525219035 -0.1019814332143206 0.043439717505955648 
-0.080866809823882543 -0.019537092695946726 0.060641945477586959 
-0.080866809823882543 -0.019537092695946726 0.060641945477586959 
-0.096258575789844925 -0.089912219110845348 0.13214539558806132 
-0.080866809823882543 -0.019537092695946726 0.060641945477586959 
-0.080866809823882543 -0.047428643347839042 0.12278802986139076 
-0.10475084779846673 -0.035495998526171801 0.081730946209214284 
-0.080866809823882543 -0.019537092695946726 0.060641945477586959 
-0.080866809823882543 -0.019537092695946726 0.060641945477586959 
0.15738732077402157 -0.067885265578977644 -0.12117648487430548 
-0.080866809823882543 -0.019537092695946726 0.060641945477586959 
-0.19466517045530962 0.12993598476642174 -0.054767848593839437 
-0.01552888148730115 -0.080265275547685228 0.16321240334003109 
0.24949473283729506 -0.22433489088413669 -0.088838054837824296 
0.12894836976529539 -0.13608556186941168 -0.076322496912877125 
-0.01552888148730115 -0.080265275547685228 0.16321240334003109 
-0.30016311625919928 0.017075774987819155 0.20161376562478309 
-0.36436723069419963 0.065581925351737097 0.20681291318729147 
0.20327352969924598 0.27992342490919914 -0.51737641656658895 
0.12166273443390599 -0.071427281838243817 0.024788679286753761 
-0.19001297816508195 -0.17580432028278745 0.28479394964808746 
0.011155113736418566 0.048345485549417332 -0.021100523117134378 
-0.01552888148730115 -0.080265275547685228 0.16321240334003109 
-0.012520595281955904 -0.22809983505260772 0.040874262069004637 
-0.01552888148730115 -0.080265275547685228 0.16321240334003109 
-0.01552888148730115 -0.080265275547685228 0.16321240334003109 
-0.23377683653728268 0.12981604163532309 0 
-0.10319338673499158 -0.078969175940806199 0.13999597931899932 
0.14809566349783171 0.30427877594547814 -0.57302887692117865 
-0.073579235015753947 -0.15063547159458973 0.11808724508210959 
0.4528748601239595 -0.0036224308020296574 -0.41314713123996039 
-0.23377683653728268 0.12981604163532309 0 
-0.23377683653728268 0.12981604163532309 0 
-0.23377683653728268 0.12981604163532309 0 
-0.057739541647089776 -0.042414636802296582 0.13733028496111788 
-0.23377683653728268 0.12981604163532309 0 
-0.16409099466802268 -0.17811166069660708 0.25724919434614185 
-0.038336312601792384 -0.049858762632393555 0.040469911953767972 
0.12413727691213604 -0.24317854828986207 -0.18354712258735037 
-0.24441977276088411 0.047979075478636897 0.10574483972693992 
0.18763062543729908 0.10620807660137122 -0.2722340133565983 
0.1713332371589523 -0.12557417770437657 -0.15877524675998711 
0.0018301557324778431 -0.33574086649734358 0.074905656025896092 
-0.13106625380975986 0 0.16273861168700424 
-0.13106625380975986 0 0.16273861168700424 
-0.13106625380975986 0 0.16273861168700424 
-0.035327245803857966 -0.076578312304404483 0.057261320697196971 
-0.13106625380975986 0 0.16273861168700424 
-0.13106625380975986 0 0.16273861168700424 
0.023178410257587462 0.022390165068571725 -0.10284198400348921 
-0.11916512941570032 -0.060822051899439955 0.2167625425864857 
-0.13106625380975986 0 0.16273861168700424 
-0.13106625380975986 0 0.16273861168700424 
0.19690690505159505 -0.36499575515432592 -0.15530516510517345 
-0.056957587774022739 -0.00043907210860245346 0.0098060454872467909 
0.15585096382314731 -0.32397086413916409 0.046838091796557318 
-0.21019923442732338 -0.054238926484896893 0.061230902854707933 
0 0 0 
0.028199750912297959 -0.020266352295097913 0 
0.028199750912297959 -0.020266352295097913 0 
0.057484338667380473 -0.21549684158128851 -0.0060067220402854173 
0.028199750912297959 -0.020266352295097913 0 
1.0478407670255987 -0.38459386576966587 -0.98882205341045559 
-0.47967703989435528 0.50988784113345087 -0.12506661391293222 
0.34897982220794971 -0.13980714473828942 -0.21431531582218757 
0.028199750912297959 -0.020266352295097913 0 
-0.061942708683863847 -0.022722176604046185 0.085669848069602872 
0.58963360599122616 -0.3421938077022697 -0.47244960768924982 
0.22534008279454432 -0.10794070049875602 -0.084930263924209742 
0.054495365741375541 0.074570981592287505 -0.17294619113269571 
0.042160462309096848 -0.19336338420022647 0.0041068411064034346 
0.0863684152734112 -0.086344697104407592 0 
0.0863684152734112 -0.086344697104407592 0 
0.20833482050430446 -0.0094027504930052838 -0.19550937440155208 
-0.044032199337327119 0.18610365697750494 -0.1055690410847419 
-0.11563317928945957 -0.11302761975654725 0.18341059412699806 
0.34173831036904373 -0.14188906059734308 -0.28280512600198254 
0.0863684152734112 -0.086344697104407592 0 
0.0863684152734112 -0.086344697104407592 0 
0.0863684152734112 -0.086344697104407592 0 
0.15048351645564986 -0.05980458017885544 -0.15940399150054832 
0.15048351645564986 -0.05980458017885544 -0.15940399150054832 
0.09782331016508862 -0.1254907784893948 0.0072774249549713375 
-0.095521041264179013 0.036239171500019707 0.051441328918495136 
0.15048351645564986 -0.05980458017885544 -0.15940399150054832 
0.064803500858545054 0.111815292706453 -0.25631236256466677 
0.15048351645564986 -0.05980458017885544 -0.15940399150054832 
0.15048351645564986 -0.05980458017885544 -0.15940399150054832 
0 -0.016585665985344365 0 
-0.029078288705033845 0.081838864721584206 -0.079033770278502891 
0 -0.016585665985344365 0 
0 0.30890426471835242 -0.47556704666730998 
-0.0778581128186807 -0.016585665985344365 0.094961262627245926 
0 -0.016585665985344365 0 
0 -0.016585665985344365 0 
0 -0.016585665985344365 0 
0.03570459612617017 -0.055253262261454279 -0.085369520247691635 
-0.21063326295859541 -0.12622339912259656 0.23969746223915975 
0 -0.016585665985344365 0 
0.15832237808473851 -0.25738167940264906 -0.084538190022010726 
0.92750163180291045 -0.18581639278688625 -0.83087186675868918 
-0.023767151601396266 -0.012608898981600608 0.023826736446347519 
-0.19610494664837588 0.17918935780575193 -0.012566497816839921 
-0.25503514487421192 0.1400170128141838 0.090672860944412112 
-0.071119739876725346 0.17918935780575193 -0.048396153183986615 
-0.19610494664837588 0.17918935780575193 -0.012566497816839921 
0.21842711012848687 -0.21534035300637361 -0.093293344630474506 
-0.19610494664837588 0.17918935780575193 -0.012566497816839921 
0.061309487015781199 0.26695013279234092 -0.36172230807214417 
0.46176877121786153 -0.065735398292833577 -0.50573271223291461 
-0.34968985398093666 0.13807600253006772 0.16675005165590434 
-0.22685244434425123 -0.012719253672163897 0.19134791419429947 
0.14195854733364657 0.17918935780575193 -0.39136310792240836 
0.077869032458957502 -0.019905586722229248 -0.25141602205261498 
-0.19610494664837588 0.17918935780575193 -0.012566497816839921 
-0.098005692023459837 -0.030802844694651537 0.091197201708682285 
0.0033524512812615269 -0.12136546784282935 0.10678650543518063 
-0.068236625332479456 -0.089670421237460968 0.22285512097504243 
-0.14158314719221024 0.14058682759343427 -0.0064671154685862989 
-0.098005692023459837 -0.030802844694651537 0.091197201708682285 
-0.28359405412811445 -0.14585203394232449 0.33108367056144766 
-0.098005692023459837 -0.17206609438019899 0.22294399454454422 
-0.10659645909248459 -0.046732297251370278 -0.047647252917595029 
0.18842839667810471 0.09431354165283555 -0.34582094059932245 
-0.098005692023459837 -0.030802844694651537 0.091197201708682285 
0.10555999791651643 -0.074638735569617531 -0.031780749452544631 
0.12756213996526994 -0.15830614695142725 -0.084943116234775767 
-0.098005692023459837 -0.030802844694651537 0.091197201708682285 
-0.14022567001299138 -0.030802844694651537 0.13913118405348232 
-0.034961572898875332 -0.093557815662766108 0.029829025092202074 
-0.015935105867424842 0.046705183821822274 -0.066909775002681082 
-0.098005692023459837 -0.030802844694651537 0.091197201708682285 
-0.030500020708056366 -0.00043255561648930735 0.081566661476432586 
-0.03313400010684471 0.10355633423978661 -0.17607667579256636 
-0.12383951219702846 -0.29921332680328266 0.25905359475095235 
-0.16235826518886431 -0.23934885787876065 0.11986530260012446 
-0.030500020708056366 -0.00043255561648930735 0.081566661476432586 
0.48093614287787384 -0.124510519579908 -0.42895341418197508 
-0.089832386961760047 0.098582499144850691 0.0092097783027092067 
-0.7949763681285904 -0.10782380153596502 0.8201793158041869 
0.26777863101232341 -0.11655856048799754 -0.18219534876603236 
-0.04392790128688135 0.30777368290842599 -0.15716769089663005 
0.15111916500832262 -0.2217454772876874 0.055701778945557077 
-0.094902425236059434 -0.022338898682106968 0.10263663903725097 
-0.18980485047211892 -0.044677797364213935 0.23282208104718508 
-0.038843584456999855 0 0 
-0.038843584456999855 0 0 
-0.10407479802241029 1.7347234759768071e-18 -0.0028960737840479896 
-0.038843584456999855 0 0 
0.028935867958397518 -0.0011779801582182568 -0.12093367428814551 
-0.094902425236059434 -0.022338898682106968 0.10263663903725097 
0.19917564106098104 -0.47754337110118628 0.10507213703493913 
-0.098562780270184308 -0.1114371468816716 0.098328921408041225 
0.12245176047388839 -0.052084393329085391 -0.0083470514738734382 
-0.038843584456999855 0 0 
-0.038843584456999855 0 0 
0.081803144127365238 -0.041349250869237242 -0.064412116675917244 
0.081803144127365238 -0.041349250869237242 -0.064412116675917244 
0.56262957548559722 -0.30601370315798521 -0.53235030994934995 
0.081803144127365238 -0.041349250869237242 -0.064412116675917244 
0.00076397388879473989 -0.091344644528283295 -0.0068562978029166315 
0.081803144127365238 -0.041349250869237242 -0.064412116675917244 
-0.20696990322496389 -0.21595042359819638 0.26206991794364382 
-0.058506572846724246 0.081575387050810813 0.028139935754850149 
0.095499791235902423 -0.028662654639889068 0 
0.12298854603065308 -0.13087467984276241 -0.061877627109415252 
-0.076482760406523645 0.45991427854289757 -0.42832557600457744 
0.095499791235902423 -0.028662654639889068 0 
-0.083274830746705927 -0.0369408346151745 -0.095613498405839423 
0.095499791235902409 -0.028662654639889068 -0.032798003085791311 
-0.0092078695265154862 -0.19925466397993363 0.17671422913227422 
0.2079434599116104 -0.36193839216268814 -0.015731920265510579 
0.095499791235902423 -0.028662654639889068 0 
-0.050300661238587931 0.10316823968080216 -0.066724811690913099 
0.095499791235902423 -0.028662654639889068 0 
-0.043688541097840719 0.18604945355895361 -0.19559205728981252 
1.0602858544222866 -0.74272803888716421 -0.76474547067997933 
0.17704128128026794 -0.029041588947855145 -0.17299497135869882 
0.095499791235902423 -0.028662654639889068 0 
0.15415822638450627 0 -0.2127508719824513 
0.15415822638450627 0 -0.2127508719824513 
-0.16573737657409571 -0.14915748290625597 0.18552126681404149 
0.068715766346497884 -0.065100859875165062 -0.11306617906287994 
0.28068747204490979 -0.04793440937316637 -0.17117682619820135 
-0.14937448622620536 -0.014132732015759965 0.16508950867732811 
0.15415822638450627 0 -0.2127508719824513 
0.097256039221277069 -0.075922418099566361 -0.057724838970653856 
-0.090337728368457521 -0.15016368146323825 0.13499220425388073 
0.024511419798089823 -0.27238234280390405 0.12960990874687536 
0.44690757998603936 -0.25113638323153314 -0.35384842809004996 
0.15415822638450627 0 -0.2127508719824513 
-0.2708770221083997 0 0.25803571410758275 
0.098205532664128847 3.4694469519536142e-18 -0.16587207782986546 
-0.2708770221083997 0 0.25803571410758275 
-0.09561972080213596 -0.038005250677594943 0.071822497365403651 
-0.0034259986329150949 -0.28282744134378179 0.32420079825092185 
0.0086881125593522568 -0.046377506629273195 0.0023886361550497105 
0.15222003953500757 -0.11496636660234155 -0.090281438879670772 
-0.2708770221083997 0 0.25803571410758275 
-0.45433126088363684 -0.064318820847172775 0.52923269411606366 
-0.10916027320808408 -0.10231325717315234 0.25382207031420356 
0.1790639474922423 -0.11614076556612497 -0.13896997239329251 
-0.35991688253672338 0 0.37019898140355295 
0.16052214939661996 0.1712564855309302 -0.42228101415930758 
-0.2310020639105238 -0.21464161254922148 0.39690851395588694 
-0.167440688458452 -0.0030822641878827913 0.25937095234224794 
0.059045813269534744 0.15248656501421939 -0.12416506851494762 
-0.32050366475710607 0 0.35041868113650615 
-0.11236527881659496 0.069053153553686172 -0.11984678104827212 
-0.069917180738342855 -0.14723855663911553 0.10542251345987531 
-0.24794280251991202 -0.029831565162244039 0.23543768560845457 
-0.12013097966927155 -0.02681610191969486 0.09028919376302208 
-0.20060225693507017 -0.11465193636567383 0.19215759031941498 
-0.20060225693507017 0 0.19215759031941496 
0.15680561310870933 -0.45953017199135848 0.24333532055218945 
0.61594876900618245 -0.45893514166293242 -0.3498641608322165 
-0.10833963024486404 -0.02701593426811669 0.11661874945232702 
0.050145891649729504 0.13591295531804021 -0.25766694001113821 
-0.20060225693507017 0 0.19215759031941496 
0 0.20568827131087161 -0.24507117977661824 
-0.14363921544453581 0.1234819673529116 -0.035946622832046346 
-0.51593224065798216 0.41616818786084109 0.047148671271877281 
-0.050605327221667773 -0.16790294327562577 0.33403355461120282 
-0.19290395450642789 0.10237611623420712 -0.02756735067404838 
0 0.20568827131087161 -0.24507117977661824 
0.12967861640092404 0.072981106546513352 -0.15140669694132661 
-0.11089517346401545 -0.031467762738368446 0.050199029535658489 
-0.03530774491325174 0.1779468849642126 -0.14254149678535594 
0 0.20568827131087161 -0.24507117977661824 
0 0.20568827131087161 -0.24507117977661824 
0 0.20568827131087161 -0.24507117977661824 
0.12050820745321027 0.15674268447147235 -0.25154583645365347 
0.12028914083559313 0.016177461484981934 -0.28081508699579155 
0.12003449575850797 -0.34433384797805866 -0.0053659816634100722 
0.24604442827952039 -0.11759773855012945 -0.19068972014991484 
0 -0.11759773855012945 0 
0 -0.11759773855012945 0 
0 -0.11759773855012945 0 
0 -0.11759773855012945 0 
-0.1727481123773304 -0.077444954103270527 0.12707206315594088 
0.28196217986596478 -0.24858205385138929 -0.035603725281355324 
0.07695122136813512 -0.17936369876832262 0.10872702491106115 
0.15302121515084266 0.24890248488360109 -0.49746478921679588 
0.10949426032112231 -0.20379907029468877 -0.015995231343535699 
-0.18575396979770697 -0.13400074825464367 0.23764991233617244 
0.0094300881046225169 0 0 
0.018860176209245034 0 0 
0.043827119267178187 -0.10192288382571578 -0.088337249565939788 
-0.18126668300600776 0.15340405097693416 -0.012831353991744026 
-0.023612275986722976 0.071095850349799664 0.021618501984942005 
0.27796076384463014 -0.081684871072165807 -0.13220045030456085 
0.0094300881046225169 0 -1.713394750182798e-18 
0.4030066175804134 -0.23303018761644687 -0.15979874998301988 
-0.15255046657062993 0.40576212117782767 -0.29327384713573662 
-0.023374658068801058 -0.12299957421185265 0.035114214359577033 
0.099919764980824541 0.093696523604326967 -0.14702647116536147 
0.30601879234952284 0.062517844692643737 -0.32828775865009097 
0.19727292104634239 0 -0.11979479110363574 
-0.17647644933761661 -0.20340458973401462 0.23205003293756443 
-0.043809039280241907 -0.16505902014136994 0.13445775393658699 
0.19727292104634239 0 -0.11979479110363574 
-0.34252862053621691 0.11921322019917355 0.25218660307290214 
0.47813363371016004 0 -0.47566368582677182 
-0.09280326087684912 0 0.12224250967916495 
-0.013328810800623991 -0.18879919260690373 0.05913306983690432 
0.44060725822047719 -0.056322589741184578 -0.26868349236108585 
-0.09280326087684912 0 0.12224250967916495 
-0.30039986067175406 -0.063363924233390989 0.41521016960802642 
-0.09280326087684912 0 0.12224250967916495 
-0.38951531814629653 0.017882297996637937 0.28191545858213601 
-0.28857686260343346 0.12475966190100797 0.21665657317640588 
-0.09280326087684912 0 0.12224250967916495 
0.17152356693235871 -0.096166564308194494 -0.10471968541868054 
-0.09280326087684912 0 0.12224250967916495 
-0.027048010225922531 0 0 
-0.0270480102259225 0.24238733086266098 -0.090950379597161277 
0.11794501713795121 -0.061164416535002514 -0.094845989861393643 
0.021468233669910113 0.068723037184827862 -0.136137138278069 
0.0037602643796125464 0.57844149006455936 -0.57392560648895574 
0.28283231498133854 -0.030849819922030817 -0.22296300388951423 
-0.12385340108712031 -0.22663274654969923 0.12890274720526881 
0.11069326695566011 -0.10415925936443036 -0.086260392801061458 
-0.10519417962751894 -0.28124198135575273 0.11866095569088839 
-0.14506806499391656 -0.0069791670266045819 0.060540622705127993 
-0.097283777032414004 0.14035978773577107 -0.073910915351326267 
-0.16847691847259466 -0.098507273834454803 0.13561623099617698 
-0.18993429265459114 -0.056476141322792328 0.13382391841861754 
0.60647812503446474 -0.15507610886514822 -0.46893972475214218 
-0.18071646313266632 -0.045227852186767427 0.13507572503287388 
0.014900603291326218 -0.049610054069030934 0.054823127784057478 
0.012207171546202017 -0.258709950831013 0.20963213601920364 
0.54559927083351023 -0.29902869959229089 -0.27068239401250715 
-0.044937254620177274 0.12319963170282464 0.025107390573054614 
-0.14128759727355797 -0.10756406938797088 0.16431042830680836 
0 0 0 
-0.05404729419493904 0.073738660268432565 -0.084362478809082875 
-0.13923043436663926 0.070736003358566127 0.049324907317752853 
-0.034369254616137629 -0.081326180884428084 0.075094944657271179 
-0.21630368133559053 -0.08267000888912765 0.31953569783000363 
-0.086961833659587637 -0.081326180884428084 0.17665851099351351 
-0.10410013333176316 -0.27980604413517618 0.24878902412397833 
-0.086961833659587637 -0.081326180884428084 0.17665851099351351 
-0.086961833659587637 -0.081326180884428084 0.17665851099351351 
-0.36220636465466749 0.82645527958115639 -0.539130159572483 
0.64559436484569932 -0.47972490727163714 -0.29397006259870234 
-0.086961833659587637 -0.081326180884428084 0.17665851099351351 
-0.086961833659587637 -0.081326180884428084 0.17665851099351351 
-0.086961833659587637 -0.081326180884428084 0.17665851099351351 
0.0029178347377403734 -0.076316807474748311 0.078603857602425983 
0.028226420601405615 0 -0.016037042383459581 
0.028226420601405615 0 -0.016037042383459581 
0.14398855378514291 -0.11259640760277764 -0.29758428532150083 
0.071948097470146286 0.16638548826878155 -0.20264233895045444 
0.028226420601405615 0 -0.016037042383459581 
-0.048992835693356919 -0.13255289710477086 0.054768288067356063 
-0.015328624664980875 -0.095849880834109169 0.067547283872406591 
0.028226420601405615 0 -0.016037042383459581 
0.028226420601405615 0 -0.016037042383459581 
0.028226420601405615 0 -0.016037042383459581 
0.028226420601405615 0 -0.016037042383459581 
-0.16452475644306996 0 0.21001253083481591 
0.028226420601405615 0 -0.016037042383459581 
-0.11808863548863816 0 0 
-0.26459490769440508 0 0.091513230540901991 
-0.11808863548863816 0 0 
-0.11808863548863816 0 0 
-0.11808863548863816 0 0 
-0.11808863548863816 0 0 
-0.093942080937717318 0.59871791343562775 -0.41648219913453566 
0.067419355514686946 -3.4694469519536142e-18 -0.14086737036733904 
-0.13999432393048611 -0.039513975871254881 0.21100084637907934 
0.074654896600904921 0.05753742152802814 -0.22660077053788891 
-0.25679907735923857 0.020411974529491242 0.33870866455129001 
-0.030874469425699956 0.15167210312610127 -0.17083455914031501 
-0.21658502566391177 -0.50184980521079126 0.42320140668041484 
-0.15694050897547285 -0.039513975871254887 0.29333316307410212 
-0.13925732962713688 0.45215408950125535 -0.47049090185164055 
0.41252070467239432 -0.16430585662955036 -0.24930018262476569 
-0.02758460868614078 -0.010291646217464936 0.14501872126452106 
-0.0020784244555634105 -0.27756440431241702 0.13632046965806768 
-0.30323840542510994 0.097996763602792927 0.15823372755230827 
0.50404087797748176 -0.41863146074248903 -0.10619239210142392 
-0.15694050897547285 -0.039513975871254887 0.29333316307410212 
-0.15694050897547285 -0.039513975871254887 0.29333316307410212 
0.064160567906952237 -0.0053842086642116732 -0.055454679074435201 
-0.24056792078977302 -0.10616555802299447 0.22118256438473799 
-0.036887743921080574 0.073928346476033885 -0.0026313866491618678 
-0.091619130869346532 0.34531322550977056 -0.13722595603820159 
0.10056335961554014 -0.1078839485869601 -0.055454679074435201 
0.091800449244625132 -0.083756797444550612 -0.12564045692029938 
-0.036041765075518775 -0.039874722952512313 0.090694875392139024 
-0.31531062752909922 -0.13031377239128838 0.37908876862043855 
0.40350932860538058 0.050921968402732207 -0.37472507255796661 
1.2435955711912399 -0.24945300557979347 -1.2354455366968022 
0.074202249299382531 -0.12273145748415801 0.2497815299178332 
-0.17740149817181952 0 0.10557082254256478 
0.072037396411059357 -0.25956151312821962 0.02311171134016959 
-0.31843541860366964 -0.0040279853492763036 0.25850747320276912 
-0.20045472428366845 -0.1134292897303348 0.27293479230171619 
0.19515018141788681 0.040790760801261233 -0.31827095852515019 
-0.13783643989879638 -0.25205254834044011 0.10784179724610277 
0.053400833077606923 -0.48550290746568958 0.43770242993049963 
0.11290888122803981 0.066901888902818729 -0.33265966657336676 
0.41289239007800471 -0.1257143014066972 -0.34518831206831052 
0.22370513023945351 -0.11249425300759752 -0.15601374146970592 
0.08647375204100187 3.4694469519536142e-18 -0.17685012730180993 
-0.032992096143684514 0.20588579417409114 -0.19295777699366262 
-0.21162303916760283 -0.20166363940485676 0.33592509472711074 
0.22226983557556348 -0.071655997698605783 -0.22910801756634253 
0.24908682376131366 0 -0.33265966657336676 
-0.13031151867825511 -0.19254548865991353 0.35860781039397033 
0.18343404552750625 0.17045542460149099 -0.3694092114383849 
-0.08957664995292329 0.090604260669658265 0.039777629436822649 
-0.3501973812476184 0.099852991776205546 0.062211372729994344 
-0.16718640120694067 -0.28100490105862191 0.20004647411406976 
-0.18761827439219769 0.23979792982820175 0.075990277481320645 
-0.142445079757724 -0.19254548865991353 0.35860781039397033 
0.028222280015812888 -0.19254548865991353 0.24253996112955448 
-0.19350802245530474 -0.32102977847971714 0.24475314509790749 
-0.0778581128186807 0 0.094961262627245926 
-0.0778581128186807 0 0.094961262627245926 
-0.0778581128186807 0 0.094961262627245926 
0.081706249323267838 -0.22597102613765147 -0.12548144183521812 
-0.041669190136284118 -0.075733542528301875 0.0084732658097022174 
-0.07461245276361099 -0.085019963232147555 0.12266919754827305 
0.088229299102646555 0.07732362187754202 -0.13279817962270463 
-0.081545349298767764 0.12087989349832866 -0.011219041461011469 
-0.083964679014857435 0.20431768514794552 -0.018990819472767786 
-0.17624767461528831 -0.048239364072152589 0.14748047864873889 
-0.0778581128186807 0 0.094961262627245926 
-0.044175161522010092 0.11644531570666847 -0.11808621638619732 
-0.0778581128186807 0 0.094961262627245926 
-0.0778581128186807 0 0.094961262627245926 
0.081633714891909182 -0.096758880016813542 0 
0.14269264704102241 -0.27685757730390115 0.15904621103140001 
-0.1282898239267371 0.45694089762696616 -0.36452801617102265 
-0.2973732653793224 0.074294980105841193 0.32198591237283802 
0.20320280074910776 -0.051856383266045067 -0.2264979437232891 
0.081633714891909182 -0.096758880016813542 0 
0.081633714891909182 -0.096758880016813542 0 
0.081633714891909182 -0.096758880016813542 0 
0.081633714891909182 -0.096758880016813542 0 
-0.11608276250896316 0.13789236112219042 -0.064738166684585263 
0.97622077235816307 -0.2823631693433965 -0.99933861889981945 
0.19276917542369915 0.026504336726853473 -0.24938961158932052 
0.081633714891909182 -0.096758880016813542 0 
0.081633714891909182 -0.096758880016813542 0 
-0.088549923971459304 -0.12380604611249904 0.063138215964649247 
0 0 0.11919342405625301 
-0.19207172220370722 0.1317634774291061 0.074772569526730184 
-0.25441909458638579 0.12226379878478734 0.10444256956416104 
-0.22307648350879439 -0.037653965561190529 0.17289202500176817 
-0.098326878766022072 -1.7347234759768071e-18 -0.0017746725131067452 
-0.18213406619682687 -0.25688816653447083 0.25086567642178786 
-0.082402506365281986 0.46608934058906204 -0.35679268877119102 
0.20058925987518705 0.079083661731050525 -0.17031597202729731 
-0.052159035597695816 -0.23086913505694215 0.14790177010691066 
-0.1580351316547931 -0.18766434588488229 0.28697558721024174 
-0.17127296542369802 0 0.13480484332464865 
0.24692125538394147 0.11520551211966658 -0.34843527630857807 
0.37074763199619071 -0.13987206856318929 -0.20241073081749414 
0.059414876266897745 -0.077297939997092641 -0.12442741624730053 
0.16045461965039684 0 -0.1359470961444372 
0.16045461965039684 0 -0.1359470961444372 
0.079553725902086897 -0.11277649292638037 -0.084001033118351803 
0.16045461965039684 0 -0.1359470961444372 
0.16045461965039684 0 -0.1359470961444372 
0.10919390678974568 -0.44942955769098802 0.031756241779928189 
0.16045461965039684 0 -0.1359470961444372 
0.06946240966970367 -0.11071628597548618 -0.026091608156337341 
0.093943575472100527 -0.039434046744331312 -0.087671255143369098 
-0.12094542966202711 -0.10903999386251592 0.31181823673858433 
-0.07912612209528487 -0.084315782084851576 0.011795015591710381 
-0.009786346152566695 -0.19301308612765661 0.10090719182631017 
0.03852880548411923 -0.053911610251004209 -0.17273403311352808 
-0.095433529751500906 -0.055330603778425323 0.17570528436714369 
-0.1072203779589848 0.18201725793791695 -0.054130485841821167 
-0.10277854969905249 0 0.092124983563439455 
-0.10277854969905249 0 0.092124983563439455 
-0.10277854969905249 0 0.092124983563439455 
0.57708425536937158 -0.060177949691370081 -0.51357878855962713 
-0.13677648627358485 -0.12153294761560875 0.053488220211089552 
0.14902921655916088 -0.035873243763706361 -0.13330602925332535 
-0.055621314975529065 -0.24290280980204049 0.20625087260979524 
0.24609253663857489 0 -0.16032192456814737 
0.24609253663857489 0 -0.16032192456814737 
-0.095536394659856055 0.058026879779476591 0.012111741814537126 
0.24609253663857489 0 -0.16032192456814737 
-0.07380456091881156 -0.10735882798070627 0.14393722865375169 
-0.091599264291433724 0.0046629417412096981 -0.020029848489820316 
-0.07380456091881156 -0.10735882798070627 0.14393722865375169 
-0.16582706007867121 -0.14006682706996776 0.23049343412432427 
-0.13199680402230074 0.1957973125757817 -0.0066311555949477505 
-0.07380456091881156 -0.10735882798070627 0.14393722865375169 
-0.07380456091881156 -0.10735882798070627 0.14393722865375169 
0.30421805558423265 0.019810196236009575 -0.19583661310017639 
-0.07380456091881156 -0.10735882798070627 0.14393722865375169 
-0.07380456091881156 -0.10735882798070627 0.14393722865375169 
-0.083447013710189213 -0.091364178081826938 0.035983931988843795 
0.0086553521219046442 -0.10735882798070626 0.096349774674738514 
0.11003210455859966 -0.11074746447115964 -0.030619757847594794 
-0.07380456091881156 -0.10735882798070627 0.14393722865375169 
0.060444526766513226 -0.53255690128316868 0.38685063657497049 
0.49922077711223894 0.015852645380960224 -0.40911169774931611 
0.1356636156678421 -0.11386412328632951 -0.17079460332687968 
0.06031943752110535 -0.0056474257654126388 -0.015287974670673575 
0.031919370726777842 -0.099112655786754239 0.092925175717746528 
0.06031943752110535 -0.0056474257654126388 -0.015287974670673575 
-0.25976396361819221 0.65352017076197466 -0.19920611436284089 
0.06031943752110535 -0.0056474257654126388 -0.015287974670673575 
0.06031943752110535 -0.0056474257654126388 -0.015287974670673575 
0.06031943752110535 -0.0056474257654126388 -0.015287974670673575 
-0.093827235624474481 0 0 
-0.082627176127165719 -0.16934185989028394 0.2824847493519031 
-0.18949726336184147 -0.11506491903290267 0.18720549519352814 
-0.54493453226667277 -0.28820897371198856 0.68690169169017656 
-0.22824965103483133 -0.21732805306749747 0.36292007391009462 
-0.042486055306150093 0 -0.09035262814624577 
-0.093827235624474481 0 0 
0.33791189653966475 -0.2672229678159706 -0.14340200904232109 
-0.12984282301441369 0.20871385755727501 -0.1269940031181051 
-0.093827235624474481 0 0 
-0.15090047118652983 0.16110066458717745 0.026121706912630108 
-0.23363925426002582 0.14934272605186338 0.045286876176419133 
0.13958067151195763 -0.054296163520495953 -0.021361950043092024 
0.1526957631001023 -0.25875743884421865 0.094893478930675734 
-0.28840833705295721 0.099085520237551503 -0.042875726414304406 
-0.069353463995238257 -0.13519071680572559 0.32318152298540809 
0.30453082714816898 -0.38815225138903908 -0.034879919810788626 
0.13958067151195763 -0.054296163520495953 -0.021361950043092024 
-0.089638269855471589 -0.017944965446360713 0.10999866353489353 
-0.089638269855471589 -0.017944965446360713 0.10999866353489353 
-0.061164223680048549 -0.21563351330050637 0.2015294434994461 
-0.19228364984216151 0.2533108446923289 -0.13098124012736617 
-0.089638269855471589 -0.017944965446360713 0.10999866353489353 
-0.038297089537147201 -0.017944965446360713 0.019631330179882219 
0.08257416939243363 -0.19578917637752666 0.12834232726577027 
-0.089638269855471589 -0.017944965446360713 0.10999866353489353 
-0.089638269855471589 -0.017944965446360713 0.10999866353489353 
0.11682940168822868 -0.036319934225182371 -0.074416095124653636 
-0.16720602407894697 -0.070247216314704652 0.1977656842701998 
-0.089638269855471589 -0.017944965446360713 0.10999866353489353 
0.18885947987002299 0.083122863026051819 -0.20137566565327697 
-0.089638269855471589 -0.017944965446360713 0.10999866353489353 
-0.13672395291122566 -0.25885325403352161 0.12651308192235047 
0.097028275102892123 -0.017944965446360713 -0.15510614608238876 
0 0 -0.066644992147344179 
0.06993631012206121 -0.45148891170962513 0.25960773471058829 
0 0 -0.066644992147344179 
0 0 -0.066644992147344179 
-0.051617176368893972 -0.0041628220145455853 0.041334993278939226 
-0.44198461170451081 -0.25341144890522327 0.54223271100588244 
0.29194717784861735 -0.014186179780102313 -0.37917679902305335 
0.055563430673378239 -0.19370653517400488 0.04287001279302035 
-0.17521517287587307 -0.30823577556864529 0.18191103486783672 
0 0 -0.066644992147344179 
0.58922787285975509 -0.24116455486477323 -0.62169367831964295 
-0.098754395873378795 -0.28079123298794123 0.17040704083696157 
0 0 0 
0.46950185799122346 0.12701793755063834 -0.49355143453532302 
0.37992192210162035 -0.077777499828856497 -0.34971651231144502 
0.43325727815837672 -0.2710844332338857 -0.19968041987247118 
0.16193871654368083 -0.064373165296396834 -0.048699279693452002 
-0.26012688695451824 0.35932214899665083 -0.09623442082254649 
0 0 0 
-0.066142433670022233 0.030575918777021635 -0.0031664361692471683 
0.12994027173169895 -0.046540546256967893 -0.042298451364896059 
-0.15358864115772497 0.41283640757345452 -0.15049578757068885 
0.068886967982395644 -0.01560197447618715 0.093098374242490137 
0 0 0 
-0.54946784357709411 0.5825745270941205 -0.29095789231385882 
-0.023065978871875826 -0.21467055934528739 0.066088301688377468 
-0.20547446441917441 0.21483068045120918 -0.018822406822727268 
-0.20547446441917441 0.28466242901532957 -0.10917287635682837 
0.039710219861879774 0.025447142850181573 -0.10296989207252581 
0.030747445128472124 -0.075628018444955328 -0.043764334114369315 
-0.11470189111339495 0.21185374174989946 -0.10917287635682837 
-0.11195218063509879 0.31751934304133467 -0.1601008892650243 
-0.050277580167183596 -0.1063491141463753 0.16645998418248309 
-0.13410403581666946 -0.016485659665851214 0.1337326133977795 
-0.050277580167183596 -0.1063491141463753 0.16645998418248309 
-0.18416238107433122 0.046045063843283419 0.16645998418248309 
-0.18583436449598187 -0.21885534663794526 0.20213443919162843 
0.015217864623680277 0.11294375701748273 -0.14050281070119255 
-0.15595481167252392 0.11627990819501041 0.15409164012305818 
0.079225210134569457 -0.075282338213281383 -0.030858580269108437 
0.1154735426611514 -0.3295060329516773 0.0010730195845783073 
-0.050277580167183596 -0.1063491141463753 0.16645998418248309 
-0.050277580167183596 -0.1063491141463753 0.16645998418248309 
-0.0085455347964275667 -0.017346286724105795 -0.091458448244251159 
-0.045996882044515991 0 0.077242625748082452 
-0.034736702178738768 -0.12159788021740642 0.026806084711521794 
-0.045996882044515991 0 0.077242625748082452 
-0.14125123768009365 -0.38278290326486292 0.49596825636086778 
-0.045996882044515991 0 0.077242625748082452 
-0.045996882044515991 0 0.077242625748082452 
-0.038222911645186597 0.016661592407007559 0.018321086072404028 
-0.045996882044515991 0 0.077242625748082452 
0 0 0 
-0.018847956046545641 -0.085878182087764196 0.051413946893071751 
-0.14139777483404853 -0.14241802734826067 0.32954089295994593 
-0.20526439300525048 -0.070421456930529494 0.19965541563416211 
-0.033780272965149738 -0.36154890133594209 0.23563713692778887 
0.095657969803222026 0.14537095255723759 -0.29278934425438463 
0.19508935356120879 -0.14190536121778588 -0.012239432982285426 
-0.096637701281875793 0 0.037582362575477056 
-0.055477680188517314 -0.00020671084553230783 0.092933814517347266 
0.11699713634168298 0 -0.2121575973454011 
0.23864308292830372 0.0008266332586415355 -0.24195155919639677 
0.19609420734646257 -0.007057504614893427 -0.20789353712190586 
0.11699713634168298 0 -0.2121575973454011 
0.1035390257555911 -0.055123355371825986 -0.19689449732409706 
0.11699713634168298 0 -0.2121575973454011 
0 0 -0.12467337048968222 
-0.66702768210150287 0.74832875227061102 -0.41630086640491082 
0 0 -0.12467337048968222 
-0.45126814937959575 0.74372771284152206 -0.49151084566887748 
-0.040881628414667838 3.4694469519536142e-18 -0.0059946467311963424 
-0.34729545546565188 0.69253852640177738 -0.41676715197638758 
0 0 -0.12467337048968222 
-0.20094812870642711 -0.12604741906990308 0.21669874754747986 
-0.20094812870642711 -0.12604741906990308 0.21669874754747986 
-0.2857003658912145 -0.24984294655274855 0.62388277511896295 
-0.29273449647657029 -0.2498429465527485 0.53981617017133132 
-0.22499097479488597 -0.24984294655274855 0.38179963511192783 
-0.05940169442337468 -0.43987717085828626 0.34225844554079943 
-0.22499097479488597 -0.24984294655274855 0.50267800741470425 
-0.091848463886556167 -0.052843271957572109 0.099755770487258075 
-0.091848463886556167 -0.052843271957572081 0.099755770487258075 
-0.06249363526271394 -0.052843271957572102 0.065642949050949972 
-0.06249363526271394 -0.052843271957572102 0.065642949050949972 
0.063248773119635227 0.1405250252583192 -0.091683986488197131 
-0.16269596824518517 -0.087333786245872819 0.21178204635162093 
-0.06249363526271394 -0.052843271957572102 0.065642949050949972 
0.077792265283018316 -0.052843271957572102 -0.079599578892005904 
-0.06249363526271394 -0.072117503639483882 0.065642949050949972 
-0.083943024040117428 0.10482508235500032 0.064444827133051275 
-0.06249363526271394 -0.052843271957572102 0.065642949050949972 
-0.06249363526271394 -0.052843271957572102 0.065642949050949972 
-0.06249363526271394 -0.052843271957572102 0.065642949050949972 
-0.06249363526271394 -0.052843271957572102 0.065642949050949972 
-0.06249363526271394 -0.052843271957572102 0.065642949050949972 
-0.06249363526271394 -0.052843271957572102 0.065642949050949972 
-0.28935996459145746 -0.2072287029259145 0.44847891644003474 
-0.13048757692979213 0 0.097901268100647532 
0.4178475118079279 -0.32747258949865754 -0.19706980666689733 
0.15843754768879778 -0.13060016583647377 -0.0044214978252278478 
-0.13048757692979213 0 0.097901268100647532 
-0.12279312897748249 -0.20719363577298722 0.10767776267080326 
-0.18343015755514366 0.38961153295229728 -0.19521222813817707 
-0.028938260907807656 -0.24989006466338654 0.22797777747515119 
-0.24483015269766056 -0.3208888377183427 0.29582719573408278 
-0.13048757692979213 0 0.097901268100647532 
-0.13048757692979213 0 0.097901268100647532 
0 0 0 
-0.34977907736422548 -0.1095062713758887 0.41160921583190319 
0 0 0 
0 0 0 
-0.12521191193440848 -0.05686900056001977 0.1575825567416356 
0 0 0 
-0.20954032750684742 0.15900614703096344 0.075032981984300764 
0.18645524160737764 -0.17490317050476895 0.0039742362281116753 
0 0 0 
0.024561337406529025 0.26840469620194601 -0.31689845344062434 
0.53102749599950283 -0.18739634329874585 -0.44739583485741513 
-0.022399687848490561 -0.068450210310611992 0.016504854663915953 
0 0 0 
0 0 0 
0.20741295842925958 -0.061026073168946204 -0.24548959244554366 
-0.037206986372172075 0.048490459367544904 -0.021947888008747352 
0.44741350908710664 -0.043268394168299071 -0.47606994305097439 
0.1803815816662577 -0.12273984297008811 -0.083008502482849855 
-0.010040859708245496 0.036113863484569311 0.0072228893679391042 
0.44741350908710664 -0.043268394168299071 -0.47606994305097439 
-0.20169269899940767 -0.25937876937327309 0.4141258981642027 
-0.21196061604270636 -0.29219588473356667 0.46744314165772399 
-0.050674651395779341 0.15343891057752973 -0.14485139402935857 
-0.44058306281702647 0.0078740636633728503 0.46499626481581446 
0.20796946834380661 -0.15837561314397214 -0.2524294523035096 
-0.04876129241879127 0.11902993859665009 -0.070791144023038613 
0.0023639277898445249 0.19907925597027404 -0.21984193095104804 
-0.04876129241879127 0.11902993859665009 -0.070791144023038613 
-0.04876129241879127 0.11902993859665009 -0.070791144023038613 
-0.048761292418791256 0.069653101830929778 -0.070791144023038613 
-0.04876129241879127 0.11902993859665009 -0.070791144023038613 
-0.04876129241879127 0.11902993859665009 -0.070791144023038613 
-0.04876129241879127 0.11902993859665009 -0.070791144023038613 
-0.04876129241879127 0.11902993859665009 -0.070791144023038613 
-0.04876129241879127 0.11902993859665009 -0.070791144023038613 
-0.18432479455135586 0.020439661775502334 0.1110956081309145 
-0.16468517814134304 -0.15387536508618296 0.1455792609565161 
-0.04876129241879127 0.11902993859665009 -0.070791144023038613 
-0.04876129241879127 0.11902993859665009 -0.070791144023038613 
-0.25561315924326267 0.012727460441110103 0.15087860119008123 
-0.04876129241879127 0.11902993859665009 -0.070791144023038613 
-0.15799304875079687 -0.30757978983391654 0.27558106345117145 
-0.029045974774615076 -0.036248801853628179 0.0663684816090757 
0.34855477544728308 0.043354819438633674 -0.42720804214460517 
-0.0021642400592708222 -0.048516955196031795 -0.061703109837703739 
0.23329793467365834 6.9388939039072284e-18 -0.25222293732568296 
0.017226957666976794 0 -0.048422068284361748 
0.21681291035067987 -0.077951367937150504 -0.35632226229121505 
-0.22632519359059 -0.26229244136707752 0.48591042347264918 
0.045447858259926414 -0.17886777660650449 -0.014953136423695626 
0.017226957666976794 0 -0.048422068284361748 
0.017226957666976794 0 -0.048422068284361748 
-0.26011585097812856 -8.6736173798840355e-19 0.31229401046341509 
-0.13359666740870932 0 0.20733507164802026 
-0.51876017369617466 0.00084287037059063014 0.40559942710669933 
-0.13359666740870932 0 0.20733507164802026 
0.11600417644481065 -0.23922735844006598 0.040898978960293909 
-0.1629437690942559 -0.030456291075187415 0.17964899868945253 
0.23429493349005473 0 -0.19440407785159611 
0.22496432363561952 -0.10145457565567832 -0.19454430208299608 
-0.12007929994645863 -0.22654253987621611 0.2742306643673092 
0.079374089533096714 -0.039801138741626524 0.034753580348254702 
-0.031360580507382378 0 0.054787040943142705 
-0.33883916775128786 -0.12343846469625633 0.4080787513588498 
0.33149076374617031 -0.063851837323744873 -0.2999532897056964 
-0.031360580507382378 0 0.054787040943142705 
-0.020360145375444789 0.1333873030931185 -0.11280747207961327 
-0.031360580507382378 0 0.054787040943142705 
-0.031360580507382378 0 0.054787040943142705 
-0.36891506395556406 -0.039941283372524145 0.42124466327103016 
-0.016704759642282144 -0.026777918350955394 0.012259589816603625 
-0.054971643530491512 0.061190806619328367 -0.026229488546657496 
-0.38134104375386907 -0.22469945515546161 0.40273984399105417 
-0.13753764906875271 0.2332079467879849 -0.049302380038488289 
0 0 0 
-0.18141589121553942 -0.076441774866768245 0.22328229819587675 
0.10971605659032375 0.066197004649712163 -0.2332623700013452 
-0.18996223203764945 -0.6853343665402537 0.74952108201898682 
-0.00067931965328742096 -0.22922823557799393 0.16674941053661044 
0.047160726331058715 -0.10596648539679535 0.069587744095104181 
0.44308535335425991 -0.044499285083291762 -0.30787525399173155 
-0.1824952678367282 0.45113215944143986 -0.30113311787717928 
0.1524462284193063 -0.052792920183057146 -0.078458097048536471 
0.068558467101553777 -0.50905640901327165 0.18172051685171545 
0.088038367885229965 0.045934313237931734 -0.21561159134243105 
0.44308535335425991 -0.044499285083291762 -0.30787525399173155 
0.44308535335425991 -0.044499285083291762 -0.30787525399173155 
-0.055532928831626402 -0.0017175931254861227 0.14446245982289288 
-0.11964861625626705 0.023058437126988549 0.077716774386740947 
0.030982108952886469 0.04235546857292953 -0.14682592208232825 
0.054991762800174135 -0.070259434325702683 0.0038870696610313841 
-0.26628145717498586 -0.019321618844629195 0.22830198213634431 
0.023265017612910943 -0.0017175931254861227 0.1230273972212441 
-0.055532928831626402 -0.0017175931254861227 0.14446245982289288 
-0.12256165557236154 -0.054869122097879169 0.24134151443150376 
0.49360362397066132 -0.46958428245028477 -0.29947354551507177 
-0.15043981785466004 0.025451589695786959 0.062520524864480467 
-0.055532928831626402 -0.25988356604713292 0.4268794451674795 
-0.055532928831626402 -0.0017175931254861227 0.14446245982289288 
-0.087600701324900138 -0.19603559999171238 0.15754112597369468 
-0.66504343912537256 0.82637878073357152 -0.46065284789936189 
-0.048467037771436135 0.30158144223031874 -0.14447443351767264 
-0.16343103137910611 0.087896940260778322 0.030615976260586139 
-0.15943602984207433 0.46826906232056564 -0.38235186605861093 
0.21659836328776863 -0.14966592254715827 -0.12649929978842592 
0.24100102328044889 0 -0.21038743089185261 
-0.077739509801019513 -0.23293428805878302 0.18144809534796191 
0.036279332961110675 -0.20858616924239021 0.052862068161135013 
0.24100102328044889 0 -0.21038743089185261 
-0.022006181942309584 -0.049600957288124276 0.030475855920413301 
0.10785234109496425 -0.039682793793219137 -0.13321933946980033 
0.24100102328044889 0 -0.21038743089185261 
-0.082948837355336563 -0.14541386993349883 0.032727932779753284 
0.37229166154402099 0.05460610482222264 -0.41709278423468604 
0.24100102328044889 0 -0.21038743089185261 
0.3230361629282969 -0.12758812306623066 -0.23538287247580181 
-0.18728946670298691 0.30943271163847158 -0.16448330824688784 
0.16343083903045486 0.17702157735278712 -0.30931630306589253 
-0.28991266794301851 0.36276208546330374 -0.10746899824705847 
-0.28991266794301851 0.11292257225301072 0.064838875540987315 
-0.28991266794301851 0.36276208546330374 -0.10746899824705847 
-0.11020384203683702 -0.072393965962239432 0.16707376955255926 
0.026426625395176647 0.05734346798366214 -0.053305757349787944 
-0.11020384203683702 -0.1068389924238155 0.16779592635095444 
-0.11020384203683699 -0.3878404562792272 0.38897943800665158 
-0.110203842036837 -0.057547238973080048 0.14766432933643497 
0.17248858517428409 -0.20948173743681256 -0.057319765353762916 
-0.12116421731398264 -0.092535291526914323 0.15909166692501958 
-0.23604400064028616 0.15315713119600843 0.12298100546401776 
0.0063769994682511752 -0.092622505797532145 0.11014690811884691 
0.33498728062741323 -0.23889873378787571 -0.072742008419961618 
-0.110203842036837 -0.057547238973080048 0.14766432933643497 
-0.048986355230495528 0 0.027424174176526126 
-0.016675617779120515 -1.7347234759768071e-18 0.026104885401870215 
-0.048986355230495528 0 0.027424174176526126 
-0.10656559387145852 -0.0214928605659018 0.14627843336341986 
-0.048986355230495528 0 0.027424174176526126 
-0.048986355230495528 0 0.027424174176526126 
-0.048986355230495528 0 0.027424174176526126 
-0.048986355230495528 0 0.027424174176526126 
-0.048986355230495528 0 0.027424174176526126 
-0.048986355230495528 0 0.027424174176526126 
-0.048986355230495528 0 0.027424174176526126 
-0.23716145906702765 0 0.22577367407791604 
-0.23716145906702765 0 0.22577367407791604 
-0.23716145906702765 0 0.22577367407791604 
-0.3232209570147872 -0.19993372260945144 0.63864162444112882 
-0.36695512321131563 -0.14728549708633459 0.4075394670223994 
-0.29543212976063882 0.16416627405376949 0.066488706910606682 
-0.28728252961514628 -0.011011056544621546 0.32307356594464282 
-0.23716145906702765 0 0.22577367407791604 
-0.02699121737844731 -0.023861350696206617 0.029104609795418353 
-0.15170575173458153 -0.047725124952202137 0.12876155387134675 
-0.2902874600750609 -0.037820044379886959 0.28520127004512319 
0.13234544633544751 -0.015137202823572445 -0.22758216531673206 
-0.013495608689223655 -0.011930675348103308 0.014552304897709176 
-0.047712516249055509 -0.1896960817128843 0.083230625092976296 
-0.29135269566808897 0.29818191193026533 -0.1006664307743602 
-0.013495608689223655 -0.011930675348103308 0.014552304897709176 
-0.013495608689223655 -0.011930675348103308 0.014552304897709176 
-0.19620300978804156 -0.40814557057184436 0.49948796635140502 
-0.013495608689223655 -0.011930675348103308 0.014552304897709176 
-0.013495608689223655 -0.011930675348103308 0.014552304897709176 
0.014773330340345881 0 -0.050245755248400401 
0.014773330340345881 0 -0.050245755248400401 
0.014773330340345881 0 -0.050245755248400401 
-0.096469421007687295 -0.091118930847432972 0.22638410307554552 
0.014773330340345881 0 -0.050245755248400401 
0.014773330340345881 0 -0.050245755248400401 
1.1243561239646791 -0.37321434184239621 -0.92367334139085822 
-0.0043760345257100059 -0.36329985973140982 0.13528231949324188 
0.45448931694606198 -0.2454187862875131 -0.41965115910393541 
-0.055155137784925923 -0.073892214296293224 0.11600597538935076 
0.014773330340345881 0 -0.050245755248400401 
0.014773330340345881 0 -0.050245755248400401 
-0.22659499968550009 -0.015224771230630214 0.23131925947295953 
-0.22659499968550009 -0.015224771230630214 0.23131925947295953 
-0.22659499968550009 -0.015224771230630214 0.23131925947295953 
-0.22659499968550009 -0.015224771230630214 0.23131925947295953 
-0.22659499968550009 -0.015224771230630214 0.23131925947295953 
-0.24931264277060644 0.23899736417484752 -0.15142317840245739 
0.28926939530503237 -0.36741610309545841 0.060224275817988754 
0.096522771383821648 -0.27151740614015968 0.024344002811925506 
-0.22659499968550009 -0.015224771230630214 0.23131925947295953 
0.095324770288693197 -0.051607087630775365 -0.11512024408639522 
-0.082294013237229485 -0.049309657875490708 0.17977883012106829 
-0.015275558324772037 -0.17153958623607754 0.096618212388830546 
-0.0071940599418442754 -0.2565938483966641 0.13233043121717847 
-0.029086951119222351 -0.26705592553624496 0.1030852500418829 
-0.03780741708676668 0 0.048023306671396197 
-0.18882436107082121 -0.14492269560024562 0.2232932117768219 
-0.05441483167701619 -0.10726176069876957 0.12445964372677623 
-0.03780741708676668 0 0.048023306671396197 
-0.03780741708676668 0 0.048023306671396197 
-0.03780741708676668 0 0.048023306671396197 
-0.09178338163853883 0.30175369716113132 -0.19223611209317878 
-0.03780741708676668 0 0.048023306671396197 
0 -0.014846726989159413 0.019391609021407828 
0 -0.014846726989159413 0.019391609021407828 
0 -0.014846726989159413 0.019391609021407828 
3.4694469519536142e-18 -0.19484402227839057 0.1282074784953218 
0 -0.014846726989159413 0.019391609021407828 
0 -0.014846726989159413 0.019391609021407828 
-0.27674630469743194 0.2573176103046696 0.1362423017949968 
0.11085092718974568 -0.067273285016703821 -0.073528370622945927 
0 -0.014846726989159413 0.019391609021407828 
0 -0.014846726989159413 0.019391609021407828 
-0.17554369714811358 -0.079602114954523046 0.25911277514812669 
-0.12410636095331253 0 0.1776262511750773 
0.0045412596806128497 -0.096616157574618125 0.10988864842619746 
-0.30225139902714593 -0.047730599798754741 0.32336070187395227 
-0.12410636095331253 0 0.1776262511750773 
-0.2422694312148532 0.15964064532997424 0.059801534576809402 
0.38722952554700751 -0.33527337716865896 -0.27136649250249867 
0.2637024250479445 0.18930518299954219 -0.34391317522460968 
-0.51842140004361736 -0.20990101787719082 0.4673412409730856 
0.15046024051838328 -0.0050719029849363873 -0.11969873780697643 
-0.020935812489606988 -0.15553523155034715 0.079186002882920173 
0.15046024051838328 -0.0050719029849363873 -0.11969873780697643 
-0.18474638057827064 0.013641894799368358 0.11470141144846781 
0.15046024051838328 -0.0050719029849363873 -0.11969873780697643 
0.11889360997947865 0.020818719784207157 -0.044964510307409729 
-0.19061256270918947 -0.068049144630819153 0.23546759470025075 
-0.055341587793695482 -0.5162294801810442 0.15290636587337675 
0.28346847784206491 0.077792070605775795 -0.33117735893703293 
0.1424788021519901 0.2074354906519558 -0.35796235007299021 
0.15046024051838328 -0.0050719029849363873 -0.11969873780697643 
0.0015647431492605834 -0.13008966584159998 -0.02200672994209631 
0.26523860527446363 -0.39274535041176989 -0.011169859438656157 
0.60120127256252742 -0.13010517386074355 -0.34852889451626495 
0.13146387764505393 -0.13008966584159998 -0.02200672994209631 
0.015428100262649659 0 -0.039449770191818397 
0.2458334643475647 -0.039921449016973296 -0.32331010948414418 
0.24092193979458171 0.022961839855766455 -0.14590256482867528 
0.015428100262649659 0 -0.039449770191818397 
0.19810622199989106 0.1326163885008097 -0.31883381255152937 
0.26213928907436285 -0.16444414983847777 -0.29020460783339452 
0.015428100262649659 0 -0.039449770191818397 
0.16703529395720088 -0.32091768520464953 0.058441815781118907 
-0.12840615138133121 -0.11938547564568269 0.17787669693128963 
0.015428100262649659 0 -0.039449770191818397 
-0.12226913101723448 -0.058712499117758332 0.087434421194132653 
0.5311826449186271 -0.45009327857311665 -0.4161257739344712 
0.2989853487545906 -0.19966849683131654 -0.20550157456426554 
-0.03229852859265351 -0.058700279879805278 -0.071797929307131386 
0.14095816563363767 -0.066215427102075508 -0.13603685501632257 
0.38907597763713286 -0.15453252504201334 -0.40090094305233515 
0 0 0 
0.14095816563363775 -0.05753039951602134 -0.1203936723890896 
0.093643824576286352 -0.025030023158322423 0.066273012698521566 
0.028581935098057495 0.0067647706449755728 -0.15111408044256597 
0.14095816563363775 -0.05753039951602134 -0.1203936723890896 
0.35410958809828214 -0.24301617491436411 -0.23940696123941321 
0.11139686203038121 -0.11558908457889178 -0.015849619186911214 
0.10330319770859261 -0.1015796926297219 0.0037314713159240023 
0.16572604331377722 -0.19366805051870475 -0.062888197764273082 
-0.25012153048085739 -0.18117416949033627 0.3652495518455387 
-0.24000761874221541 0.45396241479421251 -0.17085470105126938 
-0.016859795835934145 -0.009699609508037426 0.016611574096382399 
-0.31621062750774215 -0.17602995499209029 0.38273453546170266 
-0.17096490402621026 0.02056695090283453 0.10053533081013147 
-0.082202992504589373 -0.055187893278693653 0.16238916347814444 
-0.016859795835934145 -0.009699609508037426 0.016611574096382399 
-0.016859795835934145 -0.009699609508037426 0.016611574096382399 
-0.016859795835934145 -0.009699609508037426 0.016611574096382399 
-0.016859795835934145 -0.009699609508037426 0.016611574096382399 
-0.016859795835934145 -0.009699609508037426 0.016611574096382399 
-0.016859795835934145 -0.009699609508037426 0.016611574096382399 
-0.016859795835934145 -0.009699609508037426 0.016611574096382399 
-0.016859795835934145 -0.009699609508037426 0.016611574096382399 
-0.01627910952559905 0.13512368373408493 -0.077091629608184914 
-0.01627910952559905 0.13512368373408493 -0.077091629608184914 
-0.01627910952559905 0.13512368373408493 -0.077091629608184914 
-0.16457658511605192 0.70756590228476379 -0.49804936291991198 
-0.01627910952559905 0.13512368373408493 -0.077091629608184914 
-0.24840159006599316 0.2670688008606974 -0.079442016135322202 
-0.21542889814794403 -0.028352512323720224 0.24573509803762386 
0.035070875254937094 -0.046789166685031316 -0.11698717273178567 
-0.01627910952559905 0.13512368373408493 -0.077091629608184914 
-0.12394782417313563 0.24672361780825261 -0.0770916296081849 
-0.074711854796116028 0.082125732921949121 0.077144820626322844 
-0.01627910952559905 0.13512368373408493 -0.077091629608184914 
0.23909608212518885 -0.30870850704045127 -0.14417207079989602 
-0.49883152053362922 -0.075474697654432377 0.41584502934172712 
-0.076144744076043949 0 0.070583234562938482 
0.13546075285734863 -0.11364086742569118 -0.040546588090181031 
-0.076144744076043977 0.16610258234129444 -0.088463302333254348 
0.095587557458967187 -0.29617298286423366 0.08459170376776956 
-0.076144744076043949 0 0.070583234562938482 
-0.076144744076043949 0 0.070583234562938482 
-0.076144744076043949 0 0.070583234562938468 
0.02127281817178794 -0.038245883318400585 0 
0.021272818171787892 -0.038245883318400585 -0.079855392262504793 
-0.19521668866729536 -0.095123906414130058 0.33051146454022406 
0.02127281817178794 -0.038245883318400585 0 
0.041038742770986729 0.10900491829660339 -0.15576666240921944 
-0.16788474365582973 0.035355326831568508 0.038416658671506246 
0.17698626075409013 -0.22446534447969221 -0.26486997991206829 
0.29000035850999084 -0.10717823384905831 -0.25980991028128636 
0.18159949628274741 0.15213817321083514 -0.2600700370907395 
-0.062910648866134442 -0.017674224327444973 0.098878076502304818 
-0.25937479379597017 0.086559162632728615 0.16027871639130778 
-0.18236199118746491 -0.0078120209507839457 0.14383176892026051 
-0.12582129773226888 -0.035348448654889945 0.19759980886916684 
-0.062910648866134442 -0.017674224327444973 0.098878076502304818 
0.24094015099332161 -0.13332904494640396 -0.059055210741392958 
-0.062910648866134442 -0.017674224327444973 0.098878076502304818 
-0.062910648866134442 -0.017674224327444973 0.098878076502304818 
0 0 0.02312297551807908 
-0.079720139544512819 -0.13898033123846615 0.25665432234587887 
-0.22793736943054788 0.1212409896120423 0.070422877241987938 
-0.018874195238243199 0 0.02312297551807908 
0.062563649698109333 -0.088794621215035494 -0.06263812387406667 
0 0 0.02312297551807908 
0.13775059175436685 1.7347234759768071e-18 -0.23152606368662113 
-0.31858601189149227 0.087746936566643383 0.098446896187019614 
-0.19788258017406526 -0.15718201509224872 0.17838558577868985 
0.048668537176662655 -0.094186282323438314 -0.0034275010005787518 
-0.06345084812184687 -0.057003285802673595 0.016980119609794498 
0.21036445023466543 0.029851331052913457 -0.23125871492643499 
0.046078363151098076 0 -0.11654206497202561 
0.046078363151098076 0 -0.11654206497202561 
-0.1579750392159808 -0.36377473551431033 0.32972834330747564 
0.56900101570671457 -0.27200307282549502 -0.19929987589967835 
0.046078363151098076 0 -0.11654206497202561 
0.046078363151098076 0 -0.11654206497202561 
0.046078363151098076 0 -0.11654206497202561 
-0.055057556942685874 0.16185334965558787 -0.01645847039004155 
-0.055057556942685874 0.16185334965558787 -0.01645847039004155 
0.28139954462293182 -0.034243742010857357 -0.11920974198341196 
0.14348613775212737 0.011087596453917933 -0.27428217279268619 
0.095975803724888537 0.4636624628634593 -0.65401040966010637 
-0.096078386514856257 -0.2897856371228123 0.32035130499766418 
-0.055057556942685874 0.16185334965558787 -0.01645847039004155 
-0.030561162871840273 -0.16005760603054123 0.068805400336103162 
-0.055057556942685874 0.13001338313427871 -0.00094394320123897897 
-0.055057556942685874 0.16185334965558787 -0.01645847039004155 
0.22983185901531672 -0.10781244826359961 -0.12561787626128434 
0.22983185901531672 -0.10781244826359961 -0.12561787626128434 
-0.036560445872297606 -0.10542946411393199 0.08834435937061387 
0.22983185901531672 -0.10781244826359961 -0.12561787626128434 
0.31305562966213829 -0.34189638388672894 -0.12561787626128434 
0.22983185901531672 -0.10781244826359961 -0.12561787626128434 
0.096116991696776594 -0.1895757237138741 0.042995558359556756 
-0.2384043762694458 0.13255108700518436 0.096585741866937511 
0.22983185901531672 -0.10781244826359961 -0.12561787626128434 
0.18193150976181011 -0.045649507022741245 -0.1161754096769296 
0.22983185901531672 -0.10781244826359961 -0.12561787626128434 
-0.17050876430614623 0.11802311394518653 0.17284934808139379 
0.14849566486463295 -0.04571573549874406 -0.12447746183839893 
0.14849566486463295 -0.04571573549874406 -0.12447746183839893 
0.48366805396369106 -0.18878876013779217 -0.22396063883849601 
0.14849566486463295 -0.04571573549874406 -0.12447746183839893 
0.14849566486463295 -0.04571573549874406 -0.12447746183839893 
0.14849566486463295 -0.04571573549874406 -0.12447746183839893 
-0.067714776907313173 0.29124348441889791 -0.26816706824113373 
-0.17578192587203526 0.025596603772940485 -0.030280968009849335 
0.14849566486463295 -0.04571573549874406 -0.12447746183839893 
0.093703640932304003 0.36443981621354482 -0.37988640022357339 
0.14849566486463295 -0.04571573549874406 -0.12447746183839893 
-0.24360215458367301 -0.021575481921738797 0.24874500405068789 
-0.24360215458367301 -0.021575481921738797 0.24874500405068789 
0.12871780667271115 -0.028086042716122993 -0.064969227984205236 
-0.56233253387523818 -0.021575481921738797 0.53836925636518695 
0.31658287314504069 -0.33008579082050316 -0.0053460100551366227 
0.32257882867536852 -0.15727315761042363 -0.047164596958306312 
0.41206227342819035 -0.15727315761042363 -0.22143731146883097 
0.24068784057513376 -0.19597826870695639 0.084795138174917767 
-0.038125172343294711 -0.39677966651015573 0.26462519167118848 
0.044460763468000604 -0.19089713204574543 0.17667312107039562 
0.32257882867536852 -0.15727315761042363 -0.047164596958306312 
-0.23771936463757914 0.58769969129368005 -0.47614354808150278 
-0.10128566065920497 -0.1383293020334242 0.23184948999101448 
0.26249873724746392 -0.053990281808994886 -0.1759324041955794 
0.01032727332258862 0.16899736209339367 -0.064726295758794114 
-0.041236308767215103 0 0.0082862328814526636 
-0.20994512628892714 -0.080008061021674709 0.293108359116452 
-0.088758879729072815 0 0.096695979292143283 
-0.088758879729072815 0 0.096695979292143283 
0.0076892108075650896 0.04925241540634949 -0.055496747406607004 
-0.088758879729072815 0 0.096695979292143283 
-0.088758879729072815 0 0.096695979292143283 
0.077920420099111987 0.10749476329197584 -0.15184700639884482 
-0.26761589736792363 0.050658064672506192 0.14342541524606459 
-0.088758879729072857 0.17886933350445436 0.02291218809637572 
-0.088758879729072815 0 0.096695979292143283 
0.01456220468240625 0 -0.13010595921107027 
0.01456220468240625 0 -0.13010595921107027 
0.014562204682406247 -0.27130301490018283 0.1668418293426403 
0.01456220468240625 0 -0.13010595921107027 
0.01456220468240625 0 -0.13010595921107027 
-0.056304550833170548 0.22750779356257908 -0.25117480672027531 
-0.19769570130484057 -0.17293108449315775 0.089527825118259047 
-0.15196591852875913 0.089199259108662277 0.0070400462448419413 
-0.32104335217574897 -0.12283763147698677 0.37216511616844955 
0.017708365726489511 -0.12283763147698674 -0.061742139159375778 
0.10219974718363045 -0.12283763147698677 0.11624909792937034 
-0.32104335217574897 -0.12283763147698677 0.37216511616844955 
0.030406096871062223 0.056784650799298356 -0.20584963705594869 
0.041768674857127076 0.00061386342937095055 -0.014165392655661503 
-0.16670346066813849 -0.14344374908700652 0.12941161216928243 
0 -0.083878031264041419 0 
0.38512754861748544 0.10729517580125669 -0.2898178392908124 
-0.12336933981022483 0.073595655294577192 -0.074695580937491568 
0.31487965995184125 -0.086760834963408084 -0.20378060104389878 
0.18136840549967409 -0.19054856343138943 -0.17961616175717668 
-0.13336588673611108 0.32221249255918838 -0.18340457231951085 
0 -0.083878031264041419 0 
0 -0.083878031264041419 0 
0.14420167477571891 1.3010426069826053e-18 -0.098232382884485117 
0.17064162851232223 0 -0.147828379440575 
0.17064162851232223 0 -0.147828379440575 
0.17064162851232223 0 -0.147828379440575 
0.049811358629923155 -0.087075315672642331 0.14089299719477405 
0.17064162851232223 0 -0.147828379440575 
0.17064162851232223 0 -0.147828379440575 
0.17064162851232223 0 -0.147828379440575 
0.17064162851232223 0 -0.147828379440575 
-0.1024849114688101 -0.35862929945108607 0.20020299078983786 
0.17064162851232223 0 -0.147828379440575 
0.17064162851232223 0 -0.147828379440575 
-0.02850073321129306 0 0 
-0.02850073321129306 0 0 
-0.061926893052516002 -0.25867226324735615 0.30742863797858555 
-0.02850073321129306 0 0 
-0.1242062596960344 -0.0037050682280861938 0.090969868876521282 
0.23958788241999646 -0.32212944686111317 0.14687263165824854 
-0.11977939016385343 -0.017641626606860115 0.1103158417006872 
0.0048716498130699608 -0.13077017441528449 0.040769097195073073 
-0.02850073321129306 0 0 
0.028515341957432758 -0.017730951078767165 -0.087753214666272297 
0.21847994630096607 -0.00019017450488508202 -0.21929679986990955 
-0.02850073321129306 0 0 
-0.02850073321129306 0 0 
-0.17132513718941972 1.7347234759768071e-18 0.16701722308427547 
-0.19819663548423594 -0.15848670249146474 0.26576570875109856 
0.28929022967527906 -0.01094485354232122 -0.21274756558133359 
-0.28285506632722918 -0.085900292472317938 0.2385377570212685 
0.10655167804094978 0 -0.093091071256240096 
0.19046648013361483 -0.060968566522810387 -0.27846631982727255 
0.36263361222614132 -0.22655448485027957 -0.28348697694554792 
0.10655167804094978 -0.092725740132134887 -0.10520871298867687 
0.10655167804094978 -0.092725740132134915 -0.093091071256240082 
0.10655167804094978 0 -0.093091071256240082 
0.10655167804094978 0 -0.093091071256240082 
0.22990595919464632 0.017597837697876026 -0.23891135999864954 
0.045802750877837278 0.34231444560882524 -0.38900821137358582 
0.12575782090482548 -0.061298689049529051 -0.085584090230568011 
-0.43677390224898183 -0.037865144326693793 0.43358013599183814 
0.17406819520254926 -0.061298689049529051 -0.10393559723614368 
-0.23994097230890621 0.24582008116354415 -0.015205470080209621 
-0.091292870754146382 0.19034995058120519 -0.11616710103427254 
-0.18410320831680915 0.32471660791094914 -0.15011252570550213 
-0.1995635005734997 0.012857751640650943 0.16433107549546644 
-0.14312849189720708 -0.15268374791865341 0.25586409951086159 
0.22377790500878264 -0.025972767472421537 -0.20670321783710383 
0 -0.043656308376295937 0.021946411281244079 
-0.29239015039638783 0.12936035190814102 0.017731554738706887 
0 -0.043656308376295937 0.021946411281244079 
0.087830284372495973 -0.17013317813850359 0.0086456928551489221 
0 -0.043656308376295937 0.021946411281244079 
0 -0.043656308376295937 0.021946411281244079 
0 -0.043656308376295937 0.021946411281244079 
-0.083551222369965664 0 0.095332005040541248 
-0.40284352510643279 0.06293042786504438 0.31136168042072793 
0.17027153591513008 0 -0.098582192088760415 
-0.28715161931117034 0.10183015972645194 0.12921758001752653 
-0.083551222369965664 0 0.095332005040541248 
-0.042813892442830966 0.066240893969702244 -0.058923710214133292 
-0.22051002434026937 -0.047363684536582802 0.19006617582643737 
0.47906846222083593 -0.11118701373929138 -0.39175054211254406 
-0.083551222369965664 0 0.095332005040541248 
-0.023526282542828066 0.12277304083233308 -0.067038900370319954 
-0.010131604037050778 -0.081631296048048252 0.056579531656465523 
0.23407122560899074 -0.39274113265235211 -0.093482106491338784 
-0.0086879369097268653 -0.10434263900680828 0.071802942911587758 
-0.007842094180942694 -0.027436538471758906 0.056579531656465537 
-0.18327087289181854 0.16005263350329441 9.4094471531334619e-05 
-0.18478668894123818 -0.1060592109777552 0.2484606064313237 
-0.14505413196662342 0.083892192401966298 0.032106640105118794 
-0.20088323853739626 -0.0884158997852664 0.22834232617886191 
-0.007842094180942694 -0.027436538471758906 0.056579531656465537 
-0.0803439412128059 -0.096470601744781004 0.18540265877527562 
-0.007842094180942694 -0.027436538471758906 0.056579531656465537 
0.13147140233412602 -0.0029625346673334599 -0.050443930323280921 
0.11286034885454639 -0.14185123452387388 -0.067644246318976767 
0.016908234826017714 -0.17646286864820351 -0.034469559591528282 
0.13147140233412602 -0.0029625346673334599 -0.050443930323280921 
0.13147140233412602 -0.0029625346673334599 -0.050443930323280921 
0.20885538339497278 -0.065276663898630474 -0.13305137670067857 
0.19336790791336395 0.16953127869617135 -0.36183128513534257 
0.13147140233412602 -0.0029625346673334599 -0.050443930323280921 
-0.1255041157588648 -0.077704545419456109 0.12739153882444812 
-0.25172948611540291 -0.10648442041797296 0.21385453842143559 
-0.1255041157588648 -0.077704545419456109 0.12739153882444812 
-0.1255041157588648 -0.077704545419456109 0.12739153882444812 
-0.1255041157588648 -0.077704545419456109 0.12739153882444812 
0.11003529508245663 0.03675669897725202 -0.28194761245807098 
-0.1255041157588648 -0.077704545419456109 0.12739153882444812 
0 -0.25816597292164689 0.28244607739879751 
-0.35961632913096031 -0.15944260457910114 0.43478949546314954 
-0.5977954286716689 0.50038923600973129 -0.0059705433122412581 
0 -0.25816597292164689 0.28244607739879751 
0 -0.25816597292164689 0.28244607739879751 
-0.082168391401549898 -0.10784949257420909 0.15528421926246191 
-0.082168391401549898 -0.10784949257420909 0.15528421926246191 
-0.082168391401549898 -0.10784949257420909 0.15528421926246191 
-0.082168391401549898 -0.10784949257420909 0.15528421926246191 
-0.082168391401549898 -0.10784949257420909 0.15528421926246191 
-0.082168391401549898 -0.10784949257420909 0.15528421926246191 
-0.082168391401549898 -0.10784949257420909 0.15528421926246191 
-0.082168391401549898 -0.10784949257420909 0.15528421926246189 
0.89350043220443232 -0.38333526756277547 -0.74575389008319926 
0.38729094716833656 -0.036225359883412724 -0.26940807141588641 
-0.11179796973804168 0.053250050828794103 0.027395997756417573 
0.12109984872239356 -0.17411790856201589 0.13445474901822277 
0.24298545081810102 -0.036225359883412724 -0.092907342477717744 
0.20212026888302445 0.32414645628514166 -0.42178687343927024 
0.24298545081810102 -0.036225359883412724 -0.092907342477717744 
0.24298545081810102 -0.036225359883412724 -0.092907342477717744 
-0.32027292770395688 0.21263420274428188 0.19820188870108651 
-0.048273324491443934 0.82553775844775734 -0.74471803174283635 
0.36625347443434375 -0.70245343665148441 0.0061151336963040587 
-0.048737622188049126 -0.19997464397812259 0.086810550425085703 
-0.026681673501722101 0.13215718588572095 -0.095233435092560145 
