solver_type L2R_L2LOSS_SVC_DUAL
nr_class 3
label 1 2 0
nr_feature 30936
bias -1
w
-0.9520607297137591 0.81426381980384199 0.37262161811315986 
-0.079523910814470633 -0.34656510331130053 0.19163844482910156 
0.068701422026081579 -0.019136205407849594 -0.081790882241551802 
0.4331386953678612 -0.11818913901187729 -0.21219961584283045 
-0.34505230544592808 0.063636406936806986 0.26556046940727523 
0.49961990992652255 0 -0.7104758167879881 
-0.50652790565135608 0.39701722487073132 -0.09013232817525646 
-0.5160958963404364 -0.22101482977433523 0.40095711155517955 
0.0015442746583692402 -0.14358144012298296 0.025007779797909257 
0.21342455617332021 -0.35984657401443038 0.35534355560987718 
0.33476300562147771 0.40156316947025295 -0.74217563361358307 
-0.035875855064147734 -0.13110746873684673 0.015902058111484756 
-0.02410849604151917 0.19055105056138871 -0.18575057307111528 
0.91187197870085723 -0.57281520135061703 -0.80623028155875143 
0 0 0 
0 0 0 
-0.0080901359531863875 0.065188125735505864 -0.13780565975285206 
-0.15302973263044967 -0.0041555961093379286 0.030508530340758122 
-0.31351603483989732 0.90204891504042384 -0.87146201934600354 
-0.0046234417844702351 -0.075692798117635851 0.030162964537500381 
-0.13192810416224746 0 0.11669114226268619 
-0.15449161518863222 -0.040869130371626573 0.13115247855006962 
0 0 0 
-0.35350018771599823 0.253525592437018 0.25628107200561084 
-0.33561538703058935 -0.40545487325973645 0.27049807053997049 
0.51537582288481043 0.32409681855066108 -0.6898005780153954 
0 0 0 
0.14739178142126799 -0.25320938741988125 -0.039918509535125456 
-0.39416230239399547 0.80574393670687128 -0.29717540249129015 
0.036732874014395657 0.063855231190441286 -0.10102475518761656 
-0.026650463029301526 0.0095414514780224093 -0.017540846618723998 
0 0 0 
-0.34717720487097009 0 0 
0.076360051284217981 0.28679174526680834 -0.34566921879596646 
-0.10446057922586428 -0.19833592393004132 0.0042109295422243084 
-1.0886900584533519 1.5289605473067411 -0.58762592488189991 
0.54785855094042801 0 -0.67442097070356732 
0 0 0 
0.05505612907362277 0.52355871818591204 -0.86393692472267858 
1.0627335948197272 -0.49900984989431152 -1.0252859036356545 
-0.027737388883646335 -0.14636491951507502 0.0322812292503575 
-0.34717720487097009 0 0 
0 0 0 
-0.3399417060737 0.16686863006237102 -0.20900303966205086 
-0.13448347675844438 -0.029485518737502714 0.14046501264253874 
0 0 0 
0 0 0 
0 0 0 
-0.15853732403061471 0.16543247575966497 0.0046429916224266544 
0 0.29936136167035715 -0.25295442983459843 
0 0.29936136167035715 -0.25295442983459843 
-0.27513813744901672 -0.074016807712530677 0.25000358363330777 
0.15153196364343738 0.035308018258503791 -0.17498514003498236 
0.2466326792040093 -0.38281814290210897 -0.13549750955855241 
-0.34908827512440171 -0.26458465394506309 0.28512802259922165 
0.35808195232005613 -4.4845605055314833e-05 -0.19288347033644235 
0.14176266890573525 -0.13090925339595641 -0.047048822354652992 
-0.43517471115489903 0.18814460643990211 0.1756041176837643 
0 0.29936136167035715 -0.25295442983459843 
0 0 0 
-0.17795640927832682 -0.14261053027218437 0.037684196372191732 
0 0 0 
-0.19789848681714339 0.42648428837168884 -0.070851749634252184 
0.11283132309356057 -0.10533820791333692 -0.35152003494152551 
0 0 0 
-0.19700997857861191 0 0.15778596032666448 
-0.11684846813366896 -0.28183952025703113 0.098298653002750105 
0 0 0 
-0.08744708093298463 -0.32281585507694077 0.067525284741748112 
-0.29618105633714686 0.91112239256011873 -0.49926984460961316 
0 0 0 
-0.099228002574736685 -0.42869109552540874 0.12780588276232246 
-0.13086000384151086 -0.54484152884772219 0.24644525330229408 
0 0 0 
0 0 0 
-0.20640151794991532 0.19486010904403306 0.016370901932803987 
-0.062445663989331796 -0.2490791779494162 0.021549933646896672 
-0.11161564504632687 -0.23304523415730827 0.10625161633585488 
0.21209080296690877 0.1581443261698981 -0.23743403962099632 
0.059741525588707295 -0.3681387769675411 0.052078235728723686 
0 0 0 
0 0 0 
-0.15084240226727266 -0.45897045643230072 0.23919940788187918 
-0.21365648534591922 0 0.29767955933951501 
-0.21365648534591922 0 0.29767955933951501 
0 0 0 
0 0 0 
0.62751321794549253 -0.26235251670259752 -0.33709387203892494 
-0.89506881586772746 -0.44077105104053577 0.90704994572335107 
0.55123136252992944 0 -0.15939156339007748 
-0.21393536635317326 -0.11169479953365422 0.16971127022842045 
0.30048777315474251 -0.25105854330752758 -0.26904921703019541 
0 0 0 
1.2178573077514534 -1.078357068601282 -1.2199014440989793 
0.0057502027623539545 -0.22347775734345718 -0.028635835459429063 
0.057735510133823061 -0.54646334609568203 0.049339629960845358 
0.073593544915116438 -0.16976499846434617 -0.13106107009085594 
0.71554039899998145 -0.34720862769898497 -0.30960492545185597 
-0.37007953693724177 1.1035945358729251 -0.43959515275718597 
0.039758881175302588 -0.087407932453058015 -0.0072140584194273901 
-0.092799215817126371 -0.065744279857882573 0.071995352756861419 
-0.51205503857779133 0.088427923352491708 0.079972681977260263 
-0.4685967447463853 -0.35887247735360367 0.39902708064222919 
0.017312944889877224 -0.32033562172465241 -0.038185912196303629 
0 0 0 
0.5933264233551574 0.39345311146492334 -0.78028809586639247 
0 0 0 
-0.60020502496200556 0.41613520321907077 0.45318830488542411 
-0.039749934209152737 0.2711359467607255 -0.1716294904058919 
-0.49596989675994491 -0.11194245039212586 0.41860896131853564 
0.03200166092247516 0.15455874083374474 -0.14681877744754826 
-0.02907052311249593 0.41613520321907077 -0.34833012442008676 
-0.41813940107532049 0.21178233501923285 0.18918773092931152 
-0.02907052311249593 0.41613520321907077 -0.34833012442008676 
-0.48085676923047077 -0.38447020950130339 0.82592888109725726 
0.27560080031892681 -0.17842848225423363 -0.35664488600481775 
-0.02907052311249593 0.41613520321907077 -0.34833012442008676 
0.060740829585314578 0.1898189044373095 -0.17515395024640928 
0.28232296102295079 -0.14858220605433908 -0.29996356520519857 
0 0 0 
0 0.28804273269142155 -0.24415936220763271 
0.053310377126804226 0 0 
0.47589896121507247 -0.15686466042673289 -0.32581705039221759 
-0.15310436310120348 -0.017779094113615723 0.062047720924382099 
0.25261469943382342 -0.44896578629492934 -0.063288763471498768 
-0.45281127832087986 -0.50195401709933718 0.36453725621367011 
0.13983122056204061 1.3462325217329147 -1.7782225137601879 
0.41785274881365914 -0.35151224561475547 -0.41678660978902093 
0 -0.16792867711303161 0 
-0.062166414425892151 -0.40301909515241152 1.0367997123805472 
-0.21739381147443104 0.19413331727978819 0.00667539103706178 
-0.10351740697087886 -0.034569732256470601 0.08973750909398201 
0 0 0 
-0.11067557608100573 -0.19699442381729509 0.094737629922790112 
0 0 0 
-0.017668271758649986 -0.084306624927766582 0.10857041733395775 
-0.70939363505992037 -0.04620823971402524 0.48388405584015454 
-0.4590360521326674 0.85934770319570442 -0.83340459880143591 
0.917446362891705 -0.056444842301604556 -0.88359745419908697 
0 0 0 
-0.35992210936934788 0.53755831267344778 0.12317936455581377 
-0.009957215943992178 0.53755831267344778 -0.22320223364421904 
-0.026959030781448744 0.026861147701943821 0.13130183456063893 
-0.63836297235904904 -0.26459132859717877 0.6407537490212728 
-0.37610405158917265 -0.019911686110434913 0.54438344277976347 
-0.12439099770590499 -0.39540908170173283 0.79728354077806773 
0.067055613551208162 -0.017312374188713064 -0.13855067976351626 
-0.348205814933707 -0.1062595401057294 0.25762424403644718 
0.65908598874402302 0.016852356029224538 -0.74005801744401511 
-0.3691784336655749 0.39396214235396887 -0.57039577848747303 
-0.1327720397882815 0.034653466537916629 0.10803706849594906 
-0.021358479666518083 0.0003306473666879607 -0.048701941142285828 
0 0 0.092451799323363226 
-0.80182725408445488 1.0921406492315453 -0.34595124193980481 
-0.14497368566827432 -0.079581284930726887 0.14765533746001328 
-0.14497368566827432 -0.079581284930726887 0.14765533746001328 
-0.14497368566827432 -0.079581284930726887 0.14765533746001328 
-0.1275099628195934 -0.0057850968425618172 0.094832268433401812 
-0.14497368566827432 -0.079581284930726887 0.14765533746001328 
0.0818963860643072 0 -0.1064094775115636 
0 0 0 
0 0 0 
0 0 0 
0 0 0 
-0.16481132746193403 0 0.0040371860850321253 
-0.34322705577010071 0.16095469110823821 -0.071386510167181436 
-0.14497368566827432 -0.030939790802703364 0.1476553374600135 
0 -0.030939790802703364 0 
-0.37177352609683323 -0.38229967560671063 0.34213993879403881 
0.78635509167126239 -0.78276407752820798 -0.54526833974572986 
0 0 0 
0 0 -0.085213526709011209 
0.13970013028982692 -0.1304876273942881 -0.10162551529488613 
0.46407141849798755 -0.77721034423033575 -0.37009604277813196 
0.0656918472400983 0.015060725246721567 -0.0019351053331722345 
-0.12060527574252962 -0.055825927376756741 0.069585963854795263 
0 0 -0.085213526709011209 
0.22630802932036129 -0.33418364250547339 -0.063450026507992377 
0 0 -0.085213526709011209 
0 0 0 
0.49763947289952037 -0.44705401207313711 -0.34756021412407678 
0.23820760645065087 0.052809390069788215 -0.24020217390435816 
1.4341770845614048 -0.40400563778270721 -1.2787561522406652 
-0.77913285107262564 -0.12528372045621985 0.47353469320416836 
0 0 0 
0 0 0 
-0.26321530762764561 0.09463035954545361 0.13077906867967606 
1.5382779649470661 -0.76931895537026074 -1.4323909583983605 
-0.053230460750978051 0.061549334040015578 -0.032369481171629584 
-0.03625348267830894 0.21684598600527941 -0.10579297266383474 
0 -0.10188636582294434 0.13445759726281353 
0 -0.1387134276372802 0.036638251899691235 
0.070336333923923494 -0.022613634867153447 -0.17661595597071403 
-0.45066964377790519 -0.27201265098250038 0.46281459785091245 
-0.082149540872072574 0.081131732593144587 -0.23043111885923248 
0 0 0 
0 0 0 
-0.59687350186812249 -0.25934047326213633 0.48810087041271782 
0 0 0 
0.002294263851470068 -0.38680766305426906 0.13823972917765726 
0 0 0 
0 0 0 
-0.47735297193397253 -0.15771797420960409 0.48019918762963137 
-0.23755136039586797 -0.077873285247472696 0.17418068161345432 
0 0 0 
-0.16008442434563622 0.066491771911254868 -0.33725981279120426 
-0.52877378997989111 -0.26290741502162734 0.87972926662067918 
0.1535455302841294 0.34640269670661511 -0.48950961925377279 
0.059184329092341871 0 0.0019602484399269954 
-0.053322842913339108 -0.18696982698741788 0.054539639367282115 
0.58604415560369916 -0.13553884949349396 -0.22421129091120989 
0.085427605448217647 -0.34552226083910786 -0.087908994873259677 
-0.59622045481122365 -0.21644388306391649 0.64267498403760726 
0.33476300562147776 0 -0.2251961048171153 
0.13591959771780734 0.29967604289126804 -0.47516512094790397 
1.4783218773903473 -0.31816496961224139 -1.4742827624852082 
-0.37045326092980502 0.054019400630200685 0.39749149307554948 
-0.24297865327013224 -0.01049032216498472 0.19991520047646413 
-0.13442339842357426 0 0.1869664727995515 
0.2625524242180996 -0.11507404591239892 -0.11051084731501232 
-0.15484140241163588 0.22613645824943698 0.041095978760335591 
-0.58932252312278477 -0.38951894593955277 0.59751061012004691 
-0.35219024754249856 -0.2610228989841103 0.43546767738082631 
-0.44319232486962568 -0.07777378801126178 0.54511216338310597 
0.41961228388037353 0.0767275120839504 -0.43296176597393055 
0.28506918548311239 0.097335890013764331 -0.1615347690409854 
0.29406475850083597 -0.229151785985167 -0.20277477757848406 
0.33110864641491944 0.15036154615837086 -0.61135780611033097 
0.37578454665213334 0.02039009216225459 -0.48778522050807077 
-0.23812531154662689 0.18493264414217839 0.018859875937573413 
0.072191553354743962 -0.425085458978196 0.13928512115101438 
-0.38279844071838715 -0.29205145258045073 0.44706837272524091 
0 0 0 
0.061623200430414367 -0.19187335468587494 0.05494919069210559 
-0.17165223340257837 0 0.22474289440605469 
0 0 0 
-0.026290612609088406 0.10827108552266329 -0.20812057065603906 
-0.17165223340257837 0 0.22474289440605469 
1.0586484378052394 -0.6452091888079754 -0.89347943415165121 
-0.44654181329054043 0.048648260569061345 0.18571888523927302 
0 0 0 
-0.17165223340257835 -0.21440966605629466 0.39205373656500514 
-0.20133754488447819 0 0.061413325785592554 
-0.42854917875169768 3.4694469519536142e-18 0.32630417115299298 
0 0 0 
-0.05067309378978644 -0.34774347888333201 0.28541906562531827 
0 0 0 
0.07305313333095087 -0.085991671224571381 -0.022633617545986705 
0.07305313333095087 -0.085991671224571381 -0.022633617545986705 
0.47846130560355687 -0.074255573383788243 -0.51044186656577639 
-0.1171830000372915 0.090636276623625611 0.10136488552576656 
0.30601168195690193 0.26130012723700663 -0.061964178453213954 
0.07305313333095087 -0.085991671224571381 -0.022633617545986705 
-0.48790331076016585 0.73786497975123277 -0.42534765307707462 
0.07305313333095087 -0.085991671224571381 -0.022633617545986705 
-0.15242745423102766 -0.2823452541048147 0.22688982665187654 
-0.051580569575110397 -0.085991671224571367 0.18012006252425819 
0.07305313333095087 -0.35776589565560901 -0.022633617545986705 
-0.14944681712424848 0.40169303548966695 0.06973177939966084 
0.31280194516363613 -0.47273753855164968 0.12263336551719742 
0.86381137785673834 -0.66938554803175021 -0.23492120331955527 
-0.32116680388859181 -0.041887938440182883 0.35417899153021304 
-0.17379541392812745 0 0.20912976558334223 
-0.64384033154787768 -0.15204374818100233 0.54574412911560155 
-0.16971664395378533 -0.11310965076818215 0.047099558829916767 
-0.24527514016875482 -0.35881163178968817 0.33915868809301142 
0.077843069445263272 -0.20648110840400311 -0.0039114177639029057 
0 0 0 
-0.1695786155710092 -0.43681174667523959 0.34301610157063028 
0 0 0 
0 -0.35881163178968811 0.14068709391253059 
1.3761361849119917 -0.39171556686840198 -1.356591719001168 
-0.094675493702159816 -0.16780377968264279 0.020958987862429671 
0 0 0 
0.65458733790972679 -0.29910169939367992 -0.64926923209754794 
0.26576695136389328 -0.38082951206268711 -0.22400204554411199 
0.15153783042038013 -0.033255831329461243 -0.17543774601707404 
1.0450247182073307 -0.24288671797943467 -0.6474566320437225 
0.29543141702256803 -0.10608809108940807 0.11949622402929379 
-0.32694671312874291 -0.036980865591388627 0.40015654087920394 
-0.6537806419305825 0.26933562525205978 0.2463079446937238 
0.022285596285546098 -0.14864795388691004 -0.0459530685227659 
0 0 0 
0 0 0 
0 0 0 
0 0 0 
0 0 0 
0.032987511169878206 -0.051357879890880781 -0.013832511773464269 
0 0 0 
-0.32694671312874291 -0.036980865591388627 0.40015654087920394 
0.2081034771462778 0.23061633172792179 -0.16180873604979315 
0.46488183449524811 -0.96907257793373425 -0.37981677378929712 
0.34265492483352378 -0.29090397551649383 -0.12992421872601045 
0.45808055862835451 -0.09135985798841334 -0.17401755696799054 
-0.32694671312874291 -0.036980865591388627 0.40015654087920394 
0.16528241811637054 -0.39991688075337933 -0.21899230078025891 
0.022032679831509829 0.13432802378923148 -0.021733902744438871 
0.10044606648184974 -0.38281181713707157 -0.033590289593276673 
0.052121493711115914 0.075933461215253226 -0.33320130385452601 
-0.57349279187485447 1.0365672998393656 -0.47395140857776136 
0.44420640664850414 0.34151411952309046 -0.65185968287582741 
0.059649585974097113 0.10073724608295226 0.023887927711975624 
0 0 0 
-0.095213764085488539 -0.25624186621481221 0.077552346472987449 
-0.21624804170272949 0.03273636735544104 0.18083599286321203 
0 0 0 
0 0 0 
0.65936383161973311 -0.2176596182851262 -0.080434925773926441 
0 0 0 
-0.64774940421609184 0.88448310680600728 -0.40969843232489928 
0.34884142257913797 -0.020681647305569345 -0.11328478393365188 
0.29484129639412615 0.33905895030236527 -0.50962755661334191 
-0.026260009637260537 -0.10600990508273492 0.29681495175146916 
-0.061597408971365626 0.29567098144620962 -0.078089858041034854 
-0.27539895750258098 0.052925325555236595 0.16495713382143004 
-0.061597408971365626 0.29567098144620962 -0.078089858041034854 
-0.061597408971365626 0.29567098144620962 -0.078089858041034854 
-0.061597408971365626 0.29567098144620962 -0.078089858041034854 
-0.077163916443241165 -0.144262314192802 0.18250138445268918 
-0.22293247854790871 0.019981705855522863 0.20901161806519586 
-0.061597408971365626 0.29567098144620962 -0.078089858041034854 
0.1446412355997809 0.3561447731381725 -0.13962078516291801 
0.21795354145211854 -0.29149795908577453 -0.065988953531162881 
0.12449787322190702 -0.046772182494450087 -0.13353913196259515 
0.084850134837015839 0.23968336196682316 -0.53161722514052279 
0.28604003661862876 -0.48363379165060971 -0.24526245218125367 
0.089757174610213958 -0.12872858705437518 -0.12099589862584637 
-0.17193178758300104 0.57083399292604875 -0.37435142769907609 
-0.027111072762929695 -0.33532613528595334 0.14712309210371621 
0 0 0 
0.084910210418160464 0.60404908647909727 -0.85455819912687725 
0.19571380609944902 -0.25094087722873737 0.046932633033219234 
0.24569192233092474 0.032663128884028919 -0.056514795883484667 
-0.74334438600050046 0.15979956942130955 0.4380446445152788 
-0.17193178758300104 0.57083399292604875 -0.37435142769907609 
-1.0347203400729521 0.87224170292235614 0.10322093308439462 
0.31151536197238133 -0.22721028074162428 -0.1461233860444219 
0.47311695988891944 0.30914302235275343 -0.67311370140078708 
0.12683030098334663 0.31923511635241691 -0.32625753128557899 
0.25326661196588657 0.17060714068020921 -0.19849748581055199 
0 0.54756240905878018 -1.2224564404851639 
-0.31097666028523357 -0.42794150812120751 0.51649312688458493 
-0.29322025327348611 -0.057463028035524298 0.33885573884851683 
-0.12397243338873035 0.091614313577433243 0.11800962049950488 
0.32233567653251283 0.15860687632357368 -0.32490805295075054 
-0.18561001562773333 -0.43736670593986871 0.41600433466334696 
-0.76015054633528512 0.46874738276267031 0.29735519775591868 
0 0 0 
-0.22310684251993126 -0.2381414124881574 0.29146467858811104 
-1.4945793869598056 0.63381590636204044 0.93713322294037416 
0.26983922110981085 0.14437286706759045 -0.42342523834324292 
-0.48518782938343208 0.068206347971181858 0.029599410608277428 
-0.088251541844266743 0.074669610033678294 0.13328588893985491 
0 0 0 
-0.10024081118140805 -0.24354645687234294 0.055666367172472475 
0 0 0 
0.25873892400688941 -0.028415188650564485 -0.29026825206083962 
-0.69379488434895376 0 0.73961264298633667 
0 0 0 
-0.070963783661746216 -0.31312441330632751 0.4418313942717873 
-0.051203385225871055 -0.32675111817638175 0.040313884036710428 
0 0 0 
0 0 0 
0 0 0 
-0.82062146439907835 0.32070116365010354 0.50051989228395288 
0 0 0 
0 0 0 
-0.33592393899530948 -0.13734611442343198 0.21661127811133141 
-0.33592393899530948 -0.13734611442343198 0.21661127811133141 
0 0 0 
0.88156327907754883 0.36086113090970179 -0.89075252084298362 
-1.0053783137276027 -0.012178078319184483 0.46387723091707428 
-0.024351510260012626 -0.63463463630409223 0.61035822555839692 
-0.34656390332767173 -0.47392662538824354 0.82198278142376235 
0.094951938356037324 -0.12946767984377422 -0.3065683287706194 
0.14851992427597407 -0.05676757489233103 -0.12944758362591752 
-0.073179117139510808 1.4457624092220522 -0.72865033428519843 
0.079389097854210458 -0.037859332939170764 -0.11544377768594222 
0.00029829562305228464 0 -0.075097917101457509 
0 0 0 
-0.34656390332767173 -0.47392662538824354 0.82198278142376235 
-0.68759034673018715 0.7363373975416907 -0.066342012247146337 
0.22804346705893583 -0.016057803970190469 -0.2465290847059452 
0.32584284455417645 -0.36362562492670558 -0.052224610188633683 
0.64800833220810017 -0.111728424615563 -0.62679148580383615 
0.53472597331854033 -0.20692101216528985 0.13512886016486941 
0 -0.111728424615563 0 
0 -0.111728424615563 0 
0.58101850756497619 0.073847687540768106 -0.65987374712039759 
0.65128886819118736 -0.096023845462315877 -0.52550545041122332 
0 0 0 
-0.41937414536314238 -0.1716291200792649 0.48179070683268499 
0.15193590130443824 -0.23128554530229328 0.035894665734984205 
-0.12127504884804574 -0.029740797749727533 0.15197005731856761 
0 0 0 
0 0 0 
0.59972859456019301 0.049781881361471783 -0.38622482860177942 
0.24303496396749569 0 -0.12923107468315248 
0.24303496396749569 0 -0.12923107468315248 
0 0 0 
0.17891071590951271 -0.070450932935624988 -0.52931244153229506 
-0.26544839750351024 0.23324254094990882 0.10817775120185846 
0.53483617729401334 -0.17420845756914854 -0.4846081160370736 
-0.080715862446158942 -0.4188957679695674 0.5243195219130149 
0 0 0 
0 0 0 
0 0 0 
0.67621105784065205 -0.14904748609042015 -0.59245966909761294 
-0.24724533425545811 -0.41774887511838399 0.43594942793064395 
0.47288061477944737 0.18362192528989466 -0.37933874781032279 
0 0 0 
0.47288061477944748 -0.15976994560995031 0 
-0.56383105856426652 0.00093254737815133375 0.33397018956186897 
0.21136128783386013 -0.15976994560995031 0.25639986254168184 
0.98519333031126943 -0.92290919774377445 -0.69931623966496281 
0.44154915257862748 0.13050832518441136 -0.66787654588178835 
0 0 0 
-0.46981834801262634 0.71048108792861209 -0.5649722152544171 
0 0 0 
0 0 0 
0.24617552811249735 -0.27472787608956195 -0.0078264884954933334 
-0.29830927756223163 -0.00078632397777618924 0.035293778996056506 
0.46858159879962047 0.12096452298862295 -0.70870987023527798 
1.8566075256421695 -0.95669343496560622 -1.9252697289579708 
-0.46842499128314152 0.72771694358230976 -0.35728545721084554 
0.17629791554982313 0 -0.19411609384680392 
1.3526896790779959 -0.74120300757122437 -0.88832718831944857 
0.09823184467559383 0.4038910133782953 -0.2151481422884351 
0 0 0 
0.17629791554982313 0 -0.19411609384680392 
-0.068908991030831229 0 -0.0013309003634438073 
-0.020267278825644868 0 0.25954048674737468 
-0.46442016251369017 -0.071928805507417537 0.21587589034694107 
-0.016584970146840433 0.18126918241399947 -0.023060965885845441 
0.24599908059118328 -0.67445983086240768 0.024539862344030699 
-0.55967551674516269 -0.04258820728050576 0.56730428573505631 
0.072847021059187875 -1.1348151342042356 0.25158481596798693 
0.22628989502480945 0.25218512669665621 -0.62939059631328631 
0 0 0 
0 0 0 
-3.4017670226535959e-18 0.14463348714925955 -0.2648488998322448 
0 0 0 
0 0 0 
-0.4117635387237748 0 0.28201411755362404 
0 0 0 
0.87080527608967151 0 -0.84898183329803434 
0 0 0 
0 0 0 
0.79864197871829556 0.16398115718188033 -0.59821222829832943 
-0.36262310244297613 -0.37589972420130702 0.53890070513167043 
0 0 0 
-0.39470666695962875 -0.11037934991788474 0.44049966272936897 
0 0 0 
0.053298940265949168 -0.19394830299296345 -0.065055602494931475 
-0.93970543868305356 0.11573311249437875 0.83916695017491361 
0.83261868670879979 0.41505114718046915 -1.0153158483099443 
1.4228869253530974 0 -1.5022943115996739 
-0.49289104297445629 1.3596830649692873 -0.47046944968912496 
0 0.14611771731606463 -0.66332832991860913 
-0.36040537164964875 0.6615339238982304 -0.41056900447634154 
0 0.14611771731606463 -0.66332832991860913 
0 0.14611771731606463 -0.66332832991860913 
0.20815495932512135 -0.29427862040065267 -0.0038727704035927484 
0.038098241358816592 -0.12736357840367679 0.073351963962871553 
-0.084264662339421745 0.14212071539253524 -0.029193714311967101 
-1.0781533372366552 -0.14090650253594897 1.076999917046237 
0 0 0 
0.53203759355734515 -0.17823053662311661 -0.73994730806259712 
-0.13724673527390369 0.69732370079518735 -0.78492247517017733 
-0.18985647090207741 1.4774977102134819 -1.016951322250758 
0.0987258709415713 -0.050136294405147622 0.36277961380764462 
-0.48038374612488355 -0.46554778892814497 0.49521934721914646 
0 0 0 
0 0 0 
-0.17060518506587052 -0.2611080264959284 0.28009358723070349 
0.17842573439191772 0.1393235802616633 -0.2211868173663607 
0.045452418549253838 0.50844129330876142 -0.92073261484818147 
-0.62249745330280937 0 0.9530579914974151 
0.25440168068620972 -0.13845986913154906 -0.264845250153732 
0.045852186424437232 0.11785958402216824 -0.058796740027381111 
1.5843377873100624 -0.13845986913154906 -1.2435738490430746 
1.3216527003759098 -0.6443731098875044 -1.1746334379720973 
0.28695667514590789 -0.21700112892378229 -0.11721966778523005 
0 0 0 
0 0 0 
1.1788156497680435 -0.20195219179221913 -1.2726935213649142 
0.083049582004971575 -0.24361303322219929 -0.042070440567598254 
-0.18989848414229335 -0.18747851783544928 0 
-0.17171004002685183 0.68161477605461451 0.13644154387089269 
-0.21678701203118761 0.29794993362516126 -0.2454167140068422 
-0.25372922047826224 0.023014231535119636 0.14980042656842971 
-0.28659242870243323 0.84041725367027709 -0.65654013433186653 
-0.53746348814619049 0.73432338675615982 -0.3552180406654471 
-0.12530433481152212 -0.055609253281917397 0.035443774531766933 
0.35258288392600323 -0.17559665684191486 -0.23427556852606365 
0 0 0 
0 0 0 
0 0 0 
-0.392659393359507 0 0.31574354287082207 
0 0 0 
-0.31747218766467866 -0.19628420321162315 0.34401169145929983 
-0.31747218766467872 -0.15560851380824928 0.34401169145929972 
0 0 0 
0 0.39174043532001518 -0.52234448969192415 
0 0 0 
0 -0.35135050300543902 0.44358609255422399 
0 0 0 
-0.91731186961544664 -0.08154886402767994 0.77808929507550872 
0 0 0 
0.25865297414004329 -0.14864278986040191 -0.23313719296053526 
0 -0.1207983449845659 0.42206495526596755 
0.077509187728231912 0.13944683644334863 -0.18358063889439169 
-0.41191598062794432 -0.046271841832205771 0.24589389860663718 
0.10344333245939115 -0.50510852393358474 0.41408454117196153 
0.097736008629588089 -0.13496529934264126 0.27195507020553811 
-0.21736825106305685 -0.22957944914055792 0.3986598359740493 
0 -0.1207983449845659 0.42206495526596755 
-0.26632791958022289 -0.17416760353446864 0.26805223606800699 
0 0 0 
-0.19816209410381266 -0.11197474770182032 0.30136043722018274 
0 0 0 
0.55615107587748858 -0.12409857049583871 -0.53739052621514072 
0 0 0 
-0.55699076989933682 0.93563637062026239 -0.25019539607052771 
0 0 0 
-0.55699076989933682 0.93563637062026239 -0.25019539607052771 
-0.40329714038163239 0.1717063388974352 0.32091492237777081 
0 0 0 
0 0 0 
0.13133213150604722 -0.087716082446831448 -0.062565020706429691 
0.083036949099318219 -0.16916750215032325 -0.082694507685322827 
-0.51173671376136065 0 0.63868939205195296 
0 0 0 
0 0 0 
4.2522087783169945e-18 0.30372220945284206 -0.38699157552154673 
0 0 0 
0 0 0 
0 0 0 
0.26329236728767286 -0.44355091339979746 -0.11011764580265306 
0 0 0 
0 0 0 
0.56897873316604719 -0.35547253117331623 -0.53962277497596101 
0 0 0 
0.29828133714127247 -0.55985465691153224 -0.076779318339186386 
-0.23390063709215064 0.077129015849916938 0.10226654059277458 
0.32634604896373609 -0.1450881060606124 -0.43154249993211641 
0.32502049619422591 0 -0.31507663805125796 
0.096964914071326583 -0.65282542094490148 0.011880140692219139 
0.32502049619422591 0 -0.31507663805125796 
0 0 0 
0.47402540101929314 0.086606697481061756 -0.81394111463151797 
0 0 0 
0.32502049619422591 0 -0.31507663805125796 
0.22649389489193372 -0.21402344392421915 -0.095734601476783851 
0.46823162392129647 -0.39127685116787403 -0.49150017848645522 
0 -0.025889386731374014 -0.05915255375802949 
0 0 0 
0 0 0 
0.35628872635490483 -0.29640944804099134 0 
-0.083650312605028684 -0.04089270370503971 0.023423776660381382 
0.13585568472676021 0.93903760640060585 -0.73177726710694735 
-0.15844752616818561 0.13529579374490422 -0.053160475457914073 
0.87667507143790779 -0.43002498014676888 -0.54502724055120444 
0.35628872635490483 -0.29640944804099134 0 
0 0 0 
0 0 0 
-0.25330803064818452 0 0.20949696547839294 
0.17023843332210506 -0.10399255060794155 -0.11493486283039354 
0 -0.13066798199281746 0.047730860110662993 
0.26130634540517039 0 -0.1884889491511226 
0.17106437944357886 0.31604475077717842 -0.5874941999146257 
0.26130634540517039 0 -0.1884889491511226 
0.15801060469336511 0.11393969385784092 -0.14231286016150405 
0.15801060469336517 0 0 
-0.059597961648578716 0.75008289047236576 -0.70321061138935537 
-0.27427012199235906 -0.041330107922980024 0.32916413731828564 
0.15801060469336517 0 0 
0.15801060469336517 0 0 
0.15801060469336517 0 0 
0.18100359855784701 -0.15882972967226527 -0.21819279087627264 
-0.4378329912437266 0 0.43998308773727457 
0 0 0 
-0.097402295091825575 -0.64606290471287942 0.19170545208529216 
0.8275448693445675 -0.67403409225079403 -0.10881969745313108 
-0.028883422077388959 0.21855494441441151 -0.27074048154757702 
-0.16041322532757163 0.16002408289779335 0.22241407043069958 
0.28908555774807032 0.21855494441441151 -0.51294145172588546 
-0.028883422077388959 0.21855494441441151 -0.27074048154757702 
-0.028883422077388959 0.21855494441441151 -0.27074048154757702 
0.073156199970017363 0.46836679712733897 -0.57958053070641991 
-0.45905130917786291 0.00076894577702495137 0.2814480806675681 
-0.43313584532477889 0.14793890857783265 0.33143302379615025 
0 0 0 
-0.058355118833507122 0 0.086819510539265815 
-0.028883422077388959 0.21855494441441151 -0.27074048154757702 
0 0.58409294511079335 -0.51696586825720248 
0.87918880640898422 -0.076569717067039578 -0.87860232110340686 
0.12329015218662871 -0.089277369072817581 -0.17074703193996907 
0.48690206555517906 -0.9356945810980124 0.25626736448854787 
1.028114579228953 -0.1937065094240098 -1.0872239708079459 
-0.23454418307634248 -0.39522578622832771 0.66808471961048821 
-0.26933490603106119 0.11468622004635355 0.18892915559651458 
0.23931793629902032 0.3293558764481419 -0.41921126987492552 
-0.23454418307634251 -0.21532187624316446 0.56084257074274424 
0.40194210402018404 0.13405732587453512 -0.76355958077166186 
0 0 0 
0 0 0 
-0.88228975936438792 -0.21532187624316446 0.98761667755170102 
0.27827271007103438 -0.2153218762431644 -0.30411823011721123 
-0.14659461225501419 -0.15427270594898526 0.091559138547595259 
0 0 0 
0 0 0 
0 0 0 
-0.055286524429638266 -0.21057820483963124 -0.00031852423077936072 
0 0 0 
-0.033038335422432681 0.03384488937171163 0.03469417818122484 
-0.97132594931516691 -0.23532185827467253 1.3436705186442743 
0.095674037384101435 0.20484461417208938 -0.33819857851502971 
0.40783766230959206 -0.3217178764246228 -0.18265136172819124 
0 0 0 
0 0 0 
0.36393592727639046 0.21451865835449757 -0.3197455947538474 
-0.17380203560588564 -0.2966722462971586 0.17470121139237357 
-0.14669249949592902 0.35595262044435316 -0.38733616480343158 
0.043591293358511071 -0.4325583636315164 0.031883518125911461 
-0.25254930346942106 1.3877787807814457e-17 0.03549798947637816 
-0.084621926031662381 -1.0235888976333773 0.5479307140211469 
0.082638195923722832 -0.10116965704959464 0.010354703219423332 
-0.41051290209370417 -0.0224324607695017 0.45325709473480785 
0 0 0 
0 0 0 
0 0 0 
0.021088983308163996 0.064557644072086709 -0.089595485612107353 
0 0 0 
0.24198086886784506 0.044661224738329106 -0.16339749669963155 
0.083988689118143639 0 0 
-0.11228808540723026 0.94646876263793234 -1.0204245428641918 
0.083988689118143639 0 0 
0.24424289099639315 0 -0.33726218313005313 
0.16921206805629005 -0.59345190848782003 -0.017681454268433355 
0.083988689118143639 0 0 
0.083988689118143639 0 0 
1.0316422782538159 -1.0807519025242596 -0.67568495667751527 
-0.023005938693725789 -0.08165323844540219 -0.14188070703522859 
0 0 0 
0.22701059533959758 -0.14525977449254779 -0.28090277999679497 
0.15413293430718447 -0.059306016117860752 -0.012783118198839864 
0.12653623290795257 1.7347234759768071e-17 -0.46666329044383392 
0.2270105953395975 0 -0.25169575273243716 
0.068316023853193353 3.4694469519536142e-18 -0.17236708119439317 
-0.067297206028715584 -0.26723415703736625 0.22351286575615673 
-0.12668889094021013 -0.11014909835722596 0.22176932292197493 
0.33273378418658678 -0.064405407910141002 -0.080690152885823846 
0.2270105953395975 0 -0.25169575273243716 
0.088943884330671047 -0.028496930210043209 -0.080096485039206161 
-0.87676644857659425 -0.028496930210043209 0.95552613909420214 
0 0 0 
0.37043200009509719 0.11675855427820611 -0.37113777358121675 
0.020363077101101551 -0.26313633948978504 0.036188864170853055 
0 0 -0.017975208593712894 
0.31190550867441807 -0.32021881190699192 0.11247003742808734 
0.84981823029433323 -0.062126454425353625 -0.6470828715451673 
-0.49748103401361954 0 0.58325754887435532 
0.2018160621999783 0.18937792642122891 -0.41275494661965884 
-0.91432019472092085 -0.23019358287652489 0.74539399708879917 
-0.26050442772917914 1.3877787807814457e-17 0.35638515645250601 
0.23066871311464676 0.44003139529413948 -0.45822814370896131 
-0.49748103401361954 0 0.58325754887435532 
-0.11300228132477103 -0.15464008483100333 0.1178690236147316 
-0.22319515745525895 0 0.15741291477237093 
-0.22319515745525895 0 0.15741291477237093 
0.92181678096616904 -0.78715772275425544 -0.36287393383270128 
0.83229466218486947 -0.7300474431165116 -0.51266633945887685 
0.055788974558322248 -0.021802186136704742 -0.11473009811002437 
-1.105144475933187 0 1.173137029368595 
-0.22319515745525895 0 0.15741291477237093 
0 0 0 
-0.78990367952918217 -0.02653272017987942 0.59991248183549573 
-0.76617767484421706 0.9406675653152865 -0.12381175821640673 
-0.73338348649696039 -0.60671938799852898 0.67382776692069057 
0.23323445428469042 -0.10989603203564416 -0.18203557361521686 
-0.11968034767977637 0.33281534346618796 0.15346182550373905 
0.15021123603884814 0.25469908814419018 -0.2240994016360332 
-0.39958923268685997 6.0715321659188248e-18 0.52891444967667733 
0.077206337645622 0.10887683807380212 -0.17557566487910375 
0 1.1892887535247436 -1.425887186833189 
-0.13609549589156239 0.41626638764878371 -0.23088547789202107 
0.51506981091946968 0.13439874633565124 -0.41939747330349958 
0.21395090685709331 -0.34967764795186584 -0.11160678361109409 
0.28851629244576649 -0.16792867711303161 0 
0 -0.16792867711303161 0 
0 -0.16792867711303161 0 
0 -0.16792867711303161 0 
-0.25582514557360569 0.098750389602716732 0.21568658075754085 
1.1559133822352432 -0.18544947615035354 -0.83279238616509943 
0.10469133956422495 -0.24103714429847414 0.24991083011402804 
0.8816087892729586 0.072260412604901292 -1.1054509831441361 
0.23348687684085562 -0.30090911121686986 -0.23549005238418921 
0 -0.40667228353031931 0.2133354339150173 
0 0 0 
0.86722342714390244 0.065395885220815686 -0.38067210111647903 
0.20873462032652432 0.16154672221933344 -0.48845114170176734 
-0.27790412182968816 0.1093757564008874 0.26961585342143574 
0.56896916478563064 -0.32391578470283322 -0.041874221514343946 
-1.3607068090614384e-17 0 -2.7185277002284421e-17 
0.43534285013621987 -0.11669327821862038 -0.22280366924678943 
1.0781111674811237 -0.056659688211210903 -0.9631837290761941 
-0.22596656549066496 0.023819396965364177 0.039786150729124982 
-0.088230509852878031 -0.064211850395346159 0.31915805759215538 
0.92603372950793228 0 -0.92992211655178281 
-0.44980993386388402 0 0.35479077218050042 
-0.7359784955296822 0.5730944675860099 0.17081173812002517 
0 0 0 
-0.20967716011249155 0.058705395819253367 0.16020524825010876 
0.052221275141266094 -0.20729121582486296 0.025291479003431826 
-0.40939188212998756 0 0.70106658706470404 
-0.40939188212998767 -0.27461969721468299 0.84086482084848668 
0 0 0 
-0.50343314955434515 0.6060463090571212 -0.60940101219192155 
-0.49127818181688993 0.23844897715517588 0.47057873801873956 
0 0 0 
1.0320059190388364 -8.6736173798840355e-19 -1.0265936237178139 
-0.40939188212998756 0 0.70106658706470404 
-0.062136128594105937 0.33688923485759481 -3.737975587814108e-17 
0.34593634266073803 -0.13339683030549085 -0.1590001178284062 
-0.0029702111565200248 0.15449191240656276 -0.074089102286131081 
-0.1920802396831062 0.9045329657163671 -0.80314277723776983 
0.41627988394587329 -0.16517608680734686 -0.29788850372537523 
0.095622586305371765 -0.2234789440626519 0.059831864523821519 
0.24106368133194936 -0.17178272024491076 -0.25743261722695587 
-0.21305018140386259 0.076527736477986857 0.18562210378906072 
0 0 0 
-0.45230127540263992 0.26533979421124121 0.26923544553349993 
-0.29727214021285231 0.053650492416826658 0.10406840568146651 
1.2408456052492505 -0.30237096579992884 -1.1732144517534739 
-1.0387293792217389 -0.20205519514135584 0.99182167804676546 
0.14740641438176172 0.15966825802715193 -0.18036542220370158 
0.35568393037170409 -0.21282845317598653 -0.12942161432553084 
0.9438001137504729 -0.21906632337991527 -0.40046814702532335 
-0.14438526814117666 0.1172355455753922 0.11217438131926373 
-0.18705382052310654 -0.17819656996198668 0.24746034877838433 
0.65185012632024242 -0.054919782666357636 -0.70644005832470158 
0.28567124682729128 0.093395397978328715 -0.27898745868910019 
-0.061504913273045823 0.023422387421832655 -0.00093405839601651828 
0 0 0 
0 0 0 
0 0 0 
-0.225456833905335 -0.18702958068815681 0.20471431740009707 
0 0 0 
-0.36397905990029833 1.1778548141782319 -0.68321941993275959 
-0.24133075715093918 0 0.25017959752090274 
-0.1759462584591811 -1.0376474240479341 1.201643710022589 
0 0 0 
0.47051301118278349 -0.12372747570228536 -0.3480899331507773 
0.44569679515334037 0.1106679224129591 -0.65992186755994287 
0 0 0 
0.0055056712439509941 0.21212791707137263 -0.018082333390716809 
-0.26267257713781172 -0.36237177920206431 -0.19988504783999889 
-0.22901771632492129 -0.37391453483383452 0.84553175231464728 
0 -0.014084007299899306 0 
0 -0.014084007299899306 0 
0 -0.014084007299899306 0 
-0.12698193905245006 -0.099719433722105857 0.23206097711072238 
0 0 0 
-0.20160227935533226 0 0 
0.28194631262623071 -0.36504750767329425 0.46511633639731725 
-0.20160227935533226 0 0 
-0.20160227935533226 0 0 
-0.32350735246970846 1.7841378519517002 -0.63021239315046951 
-0.06225084009616659 0 -0.15000712721566259 
-0.3000272872764666 -0.025062698354461253 0.57429079324965449 
-0.25378019902174193 0.46140004440017701 -0.25408001824456333 
-0.45813324076069206 0.046273060960155779 0.80392113090836548 
-0.13539132745249047 0.22359962921917054 -0.1016550738454232 
0 0.083993143196483308 -0.29384140984970303 
-0.4581332407606919 -0.0019860641594375878 0.92449815277333813 
-0.19541477296969159 0.62204791535703607 -0.64777361476395778 
0.50564045902918631 -0.61554580445226548 -0.17477669852850247 
-0.16779946734118797 0.35056192271771691 0.17227254824132832 
-0.57705237487290117 -0.3664936341805019 0.64052644939023207 
-0.41779449687228654 -0.29292065585003674 0.29659258774133279 
0.99558608001539195 -0.93895970185194377 -0.52557745722512539 
-0.15546012732909512 -0.45621396849158713 0.3327021670401355 
-0.13578180480303875 -0.27409026318188656 0.2271203828321362 
0.2097354391844522 0.58358140587315799 -0.46190336273749205 
0.057095701255347138 0 -0.018714645841473379 
0.31964208730509153 0.37697168395149 -0.63830766514702109 
0 0 0 
-0.24494911569362585 0.2520463187818423 -0.12071880394986952 
-0.023004333776484285 -0.032265210394419146 -0.14646806869870074 
1.0367210586857187 -0.55294541700834432 -0.92041280757123012 
0.078953457281168399 -0.07925002505853869 -0.044527185027616829 
0.13714827209806615 -0.34630035215759325 0.048681150514720023 
0 0 0 
-0.40959539591771449 -0.19206824647673201 0.5187504286180179 
0.052331170829368862 0.41424964968975275 -0.53660635818671343 
-0.67757867060262489 -0.92354564846312615 1.416229272058201 
-0.18598999785381032 0.32546161652888289 -0.5449989016329756 
0 0 0 
0.43568176047796292 -0.15509288571224281 -0.21506361153211739 
0.6574106693411248 -0.0068033074896387625 -0.59362259124761274 
-0.10738761993058919 0.68748798915216747 -0.46935258651302081 
0 -0.0226502076327522 0 
0.67786148260118029 -0.051534764722266785 -0.51906235054896466 
0.66008209404742502 -0.0068033074896387625 -0.5449989016329756 
0 0 0 
0.40775577784890354 0.58834115513631657 -0.88286227239082549 
0.0039941788962833047 -0.24197580772117563 0.42131538163359505 
-0.83425255609239002 0.48276951980974714 0.57664462345328416 
-0.46843606571491125 -0.46927396248330766 0.41814542058301002 
0 0 0 
0 0 0 
-0.34758255068477611 -0.32386892921279864 0.67178160061645698 
0 0 0 
0.017645460620453114 -0.32426014571827694 -0.02416411341546763 
-0.19822184318575958 -0.041330107922980051 0.29971629697456764 
-0.39540432646513002 -0.27878130525533446 0.32991346246318637 
0.50197048809150802 0.0079347687349464041 -0.43495547718047511 
-0.2546954734187532 -0.11604714703097585 -0.036434613991826646 
0.41547869795544812 0.025782324674003078 -0.32223689179151138 
-0.60270251943307518 0.55890494955896353 -0.052743463315886238 
0 0.083993143196483308 -0.29384140984970303 
-0.60041702559894483 0.12028020592740889 0.42596213485666368 
-0.43221067805049679 -0.041330107922980024 0.32916413731828559 
-0.060371512347965464 -0.061192123427047662 0.25485205533773203 
-0.42467850628943221 0.88381568399256061 -0.49135261337391217 
-1.0293273839504409 0.18768997871288062 0.8533725782995164 
0.23301341019572777 -0.13861968897001772 -0.47325295439372744 
0 0 0 
0.29803344584341529 0.1121986990062848 -0.30121193197155527 
0 0 0 
0.048448179632194055 0.13492507816783184 -0.13033551211420685 
1.6317306214339562 -0.50397831164650575 -1.5012665011101947 
0 0 0 
0 0 0 
0 0 0 
-0.59404365418434413 1.5253928431861632 -0.36178599980481174 
-0.85267287819361881 -0.21744479501785968 0.79444736493646473 
-0.63303498940838943 0.033015188080670492 0.39912539483850351 
0.57146820670594389 0 -0.82408319321607992 
-0.55746204401019961 -0.30578506682445367 0.53529555279958263 
0 0 0 
0.61099061310200597 0.27071156824056392 -0.47289253518577634 
-0.3032815931287885 -0.38504552755371646 0.33656086320634815 
-0.37209386055531618 -0.51502986652773597 0.39411059851707558 
0 0 0 
0.54477476882533693 0.13103405945088173 -0.68420785014747054 
0.68067203778998364 -0.074486023111323171 -0.56094398989638283 
-0.16692348102382995 -0.35334856682874372 0.31946298327992251 
0 0 0 
0.73014153064786314 0 -0.66988883259749377 
0 0 0 
0 0 0 
0.012727424215522913 0.19845046708481023 -0.21051807735547093 
-0.063318330703592482 0 0.06126372259171059 
-0.37650355805317826 -0.17645605820761751 0.54414758626018433 
-0.19074980038697636 0.076846612084954052 0.13626297002599305 
0.70505579034822841 0.042425724788257145 -0.83877799207489345 
-0.24684494791522446 0.026322390875238938 0.18729453175001662 
0 0 0 
-0.37650355805317814 0 0.31308180939771357 
0 0 0 
1.7717946653899788 -0.58499854899155102 -1.5363409692695142 
0.019684520643438039 -0.34148502345804593 0.00016669573501034546 
0 0 0 
-0.2917968931154829 -0.26476369373828768 0.44586053894149291 
0 0 0 
0 0 0 
0.50330042864023183 -0.1545474994238597 -0.21869065496953072 
0 0 0 
-0.038822813802488677 -0.1554654996787275 -0.21412525051660633 
0 0 0 
-0.34815189548708103 -0.28130418354767661 0.59444852473972021 
-0.35171386396772825 0.15702684067356859 0.39148624998287995 
-0.12063548757745537 -0.18585610872202479 0.35375663879591557 
0.23422891305465351 -0.2097946067859234 -0.024023198550461512 
0 0 0 
-0.12063548757745537 -0.18585610872202479 0.35375663879591557 
-0.12063548757745535 -0.18585610872202479 0.35375663879591557 
-0.12063548757745537 -0.18585610872202479 0.35375663879591557 
0.46909555615680087 -0.36029747160952885 -0.022449342242591958 
1.0186873674140038 2.7755575615628914e-17 -1.0548009552331845 
0 0 0 
0 0 0 
0 0 0 
-0.82354830688331804 1.1602047655578689 -0.058347943272207173 
0 0 0 
-0.1155938365726156 -0.3247185752294125 -0.064774619565999253 
0 0 0 
0 0 0 
-0.072464397153740798 -0.18420840590333176 0.41728585178536859 
-0.38762981695031762 -0.19297977202063279 0.38784233700040593 
0 0 0 
0 0 -0.17227339834301708 
-0.23684254602820751 -0.0023309498164834352 0.12900544258854546 
0 0 0 
0.45441674398562032 -0.23707659336130937 -0.43600308696464851 
-0.44967125324578311 0.56281961349046128 0.19574976476101638 
-0.38762981695031756 -0.0023309498164834214 0.36735420093212912 
0 0 0 
0 0 0 
-0.043926006473946032 3.4694469519536142e-18 -0.10864613878247531 
0.58875605502614481 -0.39659890378703888 -0.29241539268551298 
0 0 0 
-1.5072051760248977 -0.077734810320428227 1.4014933773544427 
0.32228725703585653 -1.2982633778348203 -0.18806267810928162 
-0.2922228228064403 -0.029616036432322513 0.19680028497050669 
0 0 0 
0 0 0 
-0.24731367875045704 0 0.47867265379458829 
-0.24632820419257892 0 0.34397002684942557 
-0.095583304342216388 -5.2041704279304213e-18 0.10570874948720035 
0.050899008709643818 -0.23573088941197573 0.18917079500749545 
0 0 0 
0 0 0 
0.63088621959598679 -0.11248369204785012 -0.519569940472978 
-0.30895101245822887 1.7347234759768071e-18 0.34971771385199291 
0 0 0 
0 0 0 
-0.24632820419257892 0 0.34397002684942557 
-0.18938840103382978 -0.10813524293839889 0.18316876969733764 
0.045668646204852115 0 -0.30866338091884665 
0.50960934853216533 -0.28707097605709048 -0.13955760597947536 
-0.11258758747685706 -0.26747806630542048 0.3569662363938873 
0.31931048298834419 0 -0.47597231905032394 
0 0 0 
0.16358909871996838 -0.42260960956715898 0.32482681062457669 
-0.21621850348188831 -0.46796984733703084 0.25338505660700089 
0.24795493576792546 0.22164814475172578 -0.14549298756741152 
0.48445634789890307 -0.52846488976752137 -0.43395331453031705 
0.38084488916907899 -0.26236741382001522 -0.1721571488787271 
0.31931048298834419 0 -0.47597231905032394 
0.9036250615469783 -0.7450043578012141 -0.67166837677526636 
1.3671809900748675 -0.40473539129837227 -1.0391296032094943 
-0.073146607709625722 -0.046223551361372281 0.11946777725048507 
0 0 0 
0 0 0 
-0.6389348546168222 -0.26642186505663285 0.58651420535646492 
1.1959317973063273 -0.19300285957215152 -1.1461668717626849 
-0.47629400337305533 0.62908662996215625 -0.09146481995728345 
0.30161358377752207 0.16666456821203954 -0.39645130476638718 
0 0 0 
0 0 0 
0 0 0 
-0.5694889290184787 0.64220169460124965 -0.10624121590018296 
-0.014822242945023326 0.10602044544144637 -0.045661366675485517 
0.2016365280399032 -0.17736299908984821 -0.21016919678564994 
-0.21885430684126206 0.5023616738751715 -0.23911737643493436 
-0.32508556694523583 0.71794326623051608 -0.317741864962858 
-0.30713700005296835 0.046173682674544671 0.080775759749468906 
-0.23049199433342116 -0.34278665151723942 0.45220221333765304 
0 0 0 
-0.066582659914692852 -0.029421953484024842 -0.008958067452563041 
0 0 0 
0.16520395911764785 -0.069568865881385361 -0.13788716403716911 
-0.23049199433342116 -0.34278665151723942 0.45220221333765304 
0 0 0 
-0.15201017642889941 -0.54722257387819728 0.09987561764491186 
-0.21437387149876383 -0.34941206377377748 0.50089565609287867 
0 0 0.010538168025431897 
-0.21437387149876383 -0.34941206377377748 0.50089565609287867 
0 -0.030852674776514606 0 
-0.21437387149876383 -0.34941206377377748 0.50089565609287867 
-0.21437387149876383 -0.34941206377377748 0.50089565609287867 
-0.083251453549338508 0.21663429845442858 -0.21242642998053821 
0 0 0 
0.3175972867727348 -0.17371572539481772 -0.36748149664388768 
-0.31301954511207192 -0.32077302804526409 0.31158739108657246 
-0.091214084431397183 -0.40178984210071944 0.35180440298937782 
0.27365455370313924 -0.0074319817452357904 -0.34134210790811143 
0.7685600370925445 -0.28471478148460072 -0.10914432310353132 
-0.11338102569356059 0 0.067397606926865583 
0.091408661133648331 -0.024687777175026009 -0.24462494298677046 
0.34679456544587678 0 -0.64344497673589185 
-0.11017683583558222 -0.019068229982859532 -0.28016516348964082 
0.35563480508228767 2.7755575615628914e-17 -0.14358412604837301 
0 0 0 
0 0 0 
0 0 0 
0 0 0 
-0.34455673609482013 0.87472101724344786 -0.68540183506281882 
0 0.12661584066351056 -0.69286261590024489 
0.016565387239325373 0.54136169097145492 -0.19873478132527564 
-0.33974365700188458 0.12661584066351048 0.016297262578240924 
-0.43539534355160053 1.3419173911858149 -0.75517005061561238 
0 0 0 
-0.67635690616160238 -0.47632289410613371 0.94993958922454069 
-0.35994906441972335 -0.21759688903034383 0.7775061021967008 
-0.61326994119655853 -0.21759688903034383 0.89714670950751108 
-0.35994906441972335 -0.21759688903034383 0.54789381235622348 
0.1118125718256624 -0.56089150857853376 0.02828701344686519 
-0.35994906441972335 -0.21759688903034383 0.68761837593907449 
0 0 0 
-1.2604625846123789 -0.076869441686835391 1.1309860179780671 
0 0 0 
0 0 0 
0.19560961928809512 0.38457429104686142 -0.84738024389571898 
-0.40205146611005754 -0.050142006542186285 0.53186099633236972 
0.15251552609647218 -0.12492900129172145 -0.24835072173441103 
0.1126809450702544 0 -0.15126891055258984 
-0.20711559409857871 -0.19469022117717608 0.47364192281710354 
0.22709376201562079 -0.19382257122408336 -0.26858609042425907 
0 0 0 
0 0 0 
0 0 0 
0 0 0 
0 0 0 
-0.069305928266762407 -0.22067679775437102 0.17485385160067884 
0 0 0 
0.5305869783422863 -0.42330923181398855 -0.33908153542800135 
0.36482255177646583 -0.19216283417362795 -0.18506933391835781 
0.46843978612474069 -0.7342207962563928 -0.42719720603566758 
0.025151087651385438 -0.007220944234471522 -0.32199093840488219 
0 0 0 
-0.92854055546975001 -0.085316797997267005 0.96181640356775711 
-1.1538224296132562 0 1.1564527836489149 
0.27013163092508791 4.3368086899420177e-19 -0.12529881195352266 
0 0 0 
0 0 0 
0 0 0 
0.13614489618826531 -0.15021233510861731 0 
-0.42640909324547521 0.36178506637381447 0.14679109142378813 
0.3628863786166841 -0.60979336042453536 0.19342894916334522 
0 0 0 
0 0 0 
0.69293782349931277 -1.1730896530520161 -0.027649988694997574 
-0.049338784924111395 -0.46811575383106019 0.16632638219720919 
0 0 0 
0.66453551382301046 -0.78297611508138387 0.11191143127361654 
-0.0032326564515170273 0.15865498122383637 -0.081388949498082189 
0.20767165280011546 0.47172953442495169 -0.48541933862199954 
0 0 0 
0 0 0 
-0.62472922398362307 -0.77810069802510096 1.3072097171610606 
-0.58297764170264332 0.27079556545822464 0.13613291177497031 
-0.5925513966858913 -0.10965359128463055 0.79608233442485465 
0.73302878932530624 -0.20895896379627629 -0.88365706454083881 
0 0 0 
0.16138070233249691 0.4687215182029334 -0.41051291909904486 
-0.18904276725100611 0.25993458449739432 -0.0063910812693291326 
-0.18904276725100611 0.25993458449739432 -0.0063910812693291326 
-0.091599735913514571 0.19291673747769827 -0.020278449785521773 
-0.18904276725100611 0.25993458449739432 -0.0063910812693291326 
-0.18904276725100611 0.25993458449739432 -0.0063910812693291326 
0 0 0 
0 0 0 
-0.18904276725100611 0.25993458449739432 -0.0063910812693291326 
-0.52976370477145596 0.056543754605840879 0.1339362779659804 
-0.72306055003828928 -0.31053810341819227 0.70390322088540613 
0 0 0 
-0.18904276725100611 0.25993458449739432 -0.0063910812693291326 
0 0 0 
-0.18904276725100611 0.25993458449739432 -0.0063910812693291326 
0 0 0 
0.23731289109583281 -0.36691149620189856 -0.041196349082173192 
-0.11106630240126955 0.10345179003734137 -0.1015886812921819 
-0.25582041003969536 -0.19178667624019965 0.046052335237597941 
0 0 0 
0 0 0 
-0.52364186153109937 0.28256551513364891 0.38982367518634853 
0.24022488178827564 -0.29081175915051222 0.09899946347474152 
-0.14946394698387228 0.48557591261473493 -0.044547646021837764 
0.23731289109583276 -0.078987485752070152 -0.030172376234758266 
0 0 0 
-0.70071485717606108 -0.61476246178886607 0.6614926018916254 
-0.46682506692246145 0 0.43188987844252047 
0 0 0 
0.26772838352123124 -0.80323244298687446 0.0088671053835714872 
0.075512105298707777 -0.59539720822529507 0.056137132462320972 
0.1850108990502462 0 -0.5371729245863669 
0.73544508894003113 -0.085996751068521032 -0.59104726068156255 
-0.61031041239066319 -0.59343424586618954 0.80890497737086897 
-0.050185641225377449 0 0.15651580549092051 
-0.19531252539410826 0 0.12337175231069462 
-0.5448651135294037 -0.35392455620761903 0.90169640406411877 
0.78423085687535243 0 -0.74621568387025794 
0 0 0 
0.3758811631061813 0.021816878884737122 -0.33866065048309119 
0 0 0 
0.041569066099298786 0.047596522724771849 -0.22091311484235165 
-0.090719608572649074 -0.11359272709230123 0.15123092230926194 
-0.36630956298028411 -0.14495629085237885 0.36065423001351848 
-0.25475631412449717 0.44942153585864669 -0.23857978013539424 
0 0.27109920995529529 -0.18655988257636275 
-0.43196888274202566 -0.13651180104648919 0.49751522177905877 
0 0 0 
0.30456019765831932 -0.013271033550969553 -0.12333771115880389 
0 0 0 
-0.16708462750199526 -0.39187274972418318 0.30153431340374692 
-0.48601464584732068 -0.31276026074118424 0.62094679147653076 
0.6557451243835053 -0.19437241273407047 -0.61171312376301779 
1.0565714148363021 -0.39187274972418318 -0.41724517747161938 
-0.054257950808895207 -0.44084438075778482 -0.0060853973944828502 
0.10041735661320604 -0.28496833738766469 -0.05522681014927789 
-0.88698094393130678 -0.28949494768936856 0.84806372707928734 
0.35080147297752928 0 -0.025036498262930675 
-0.35013492497220755 0 0.28263226959256649 
-0.36828295141016609 -3.4694469519536142e-18 0.51072297856498083 
0.21132548303470866 0.11974597582174459 -0.26920390384905291 
-0.35013492497220755 -0.54254357471408343 0.87158180883204783 
-0.35013492497220755 0 0.28263226959256649 
0.025252494690432222 0.15945869805880167 0.0020442803889020667 
-0.55566451043434129 1.1017990573383405 -0.79687973444491778 
-0.2789056920844058 0.17416507977706114 0 
0.036581861060105109 0.067174106345034137 -0.12470783787943107 
-0.52821479486195899 0.46220781246848264 -0.24415936220763271 
0.3269076518617734 -0.44335319252704242 -0.28300421931748326 
1.2702729541919064 -0.46001205988329535 -1.2696990339805068 
0 0 0 
-0.079133120476426372 0 0.024906970992454362 
0 0 0 
-0.23426830962510276 -0.076262172872377298 0.16283744769435884 
-0.290444134361245 0.05950251326191399 0.11335215338774696 
0.36258562283249168 0.31529069511153845 -0.56122738855834653 
0.56104227690600628 0.1437091922372889 -0.60027931824667102 
-0.54926841343563393 0.79968877508179448 -0.30628096178381731 
-0.54926841343563393 0.22170616802209483 0.17725190806935881 
-0.33240189031480893 0 0.17299437815104493 
0.14798294176531621 0.19021022696863532 -0.14045099588940427 
-0.33240189031480899 -0.12800645151239373 0.30685571025392827 
-0.35271707950921177 -0.4250428546073437 0.52575936777538701 
-0.33240189031480893 0 0.17299437815104493 
0.51992865379349695 -0.6070306905631877 -0.12036699993768517 
0 0 0 
-0.44252283408493132 0.81786413045793582 -0.04187530540096699 
0.41210720160670755 -0.39568006192230842 0.068990287117979679 
0.51562956283397021 -0.3168899463135052 -0.19621128193671605 
-0.33240189031480893 0 0.17299437815104493 
0 0 0 
-0.030684042037223365 0 0.043464523162733658 
-0.030684042037223361 0 0.043464523162733658 
-0.11976075514232597 0 0.11100577256003887 
-0.030684042037223361 0 0.043464523162733658 
-0.030684042037223361 0 0.043464523162733658 
0 0 0 
0 0 0 
-0.030684042037223361 0 0.043464523162733658 
-0.030684042037223361 0 0.043464523162733658 
0 0 0.085066431136584894 
0 0 0.085066431136584894 
-0.51329764032342873 -0.039175144316747949 0.60570428218491945 
-0.48721007053455812 -0.15510955765530954 0.62008410706444594 
-0.061175715646397504 0.18973634966504946 -0.19233959859451311 
-0.067218435930064199 -0.28305006679226374 0.36471031780659879 
0 0 0.085066431136584894 
0 -0.0326246860813297 0.051210627084643981 
-0.77627494173738798 0.47024469316122919 0.15292934473502637 
-0.77576253803125073 0.11458286634658876 0.54144704568543478 
-0.42367160983096624 0.15912087438750447 0.50314890727437267 
0 0 0 
-0.089612586369881134 -0.50813484379345486 0.19023156063924856 
0 0 0 
0 0 0 
-0.31394743534340896 -0.34446886917233227 0.70465932112758667 
-0.25330803064818452 0.057311131361600619 0.031373809147987063 
0 -0.01631234304066485 0.025602087935464868 
0 0 0 
0 0 0 
0 0 0 
-0.14459905582945118 0 0.14613383326283766 
0 0 0 
0.20509003549407437 -0.43672279937342368 -0.010905625750276066 
0.5389097956548341 -0.12001709247606318 -0.41272809929069459 
0.84967853165174745 0 -1.0843174703116807 
0 0 0 
0 0 0 
-0.31113709975772891 0.4242277864504308 -0.081653592914969861 
0 0 0 
0.20994972518582267 -0.47322805144107716 0.059793263980931606 
-0.55211414820611304 0 0.73814150799052158 
-0.063746180951167131 -0.19620579407827116 -0.00053462979733630007 
0 0 0 
0.47446955475806113 -0.89722218813506271 -0.28326569433883991 
-0.14756291437671568 -0.094829231677899112 0.25902718818190429 
0 0 0 
-1.0527282199110735 -0.13871342763728017 0.87441023741884316 
0.62536380410954628 -0.16647215268133031 -0.83022013731808286 
0 0 0 
0 0 0 
0 0 0 
-0.19901157266829694 -0.27400298101729076 0.31381866171787159 
0 0 0 
0 0 0 
0 0 0 
-0.029229931102576299 0.12022568188933601 -0.230065292809007 
0 0 0 
0.1718670138644732 0.45065947537420115 -0.44436552438325577 
-0.40380412796124843 -0.16725114588883797 0.87914662936457233 
0.25602629304503149 -0.092821250730884014 -0.18395132628598759 
0 0 0 
-0.40380412796124843 -0.16725114588883797 0.87914662936457233 
-0.38881289247188688 0.39518380292366379 -0.016867084885820914 
0.034100378938537713 0.41573198610491069 -0.79944489952075959 
0.85477590878874665 -0.0005275014199031397 -0.78269543607396663 
0 0 0 
-0.39069439932243294 -0.32328738687676056 0.37486145665615811 
0.18607897097785878 -0.0026093322680631969 0 
-0.36212452877002022 -0.0026093322680631917 0.24136784616228388 
0.18607897097785878 -0.0026093322680631969 0 
0.23679806984558222 0.16171422931076954 -0.26901473649739832 
-0.16332431469806044 -0.15780640140035471 0.013632860472628804 
-0.48728467201829545 -0.51226319525645136 0.54425050413662357 
0.63604548790860227 0.40179209894997958 -0.94099979910259623 
0.18607897097785878 -0.0026093322680631969 0 
-0.20268299840112877 -0.45623639447471837 0.84741992950215561 
0.10112892196411936 -0.52187024149670758 -0.057870662652984108 
1.1452383765327092 -0.13964245281146276 -0.96389481754060324 
0 -0.19920233102595455 0 
0 0 0 
0 0 0 
0.072499373926046676 0.097354004762050403 -0.15383594846788989 
0.83533065732064271 -0.35339519087457838 -0.89291843117935976 
0 0 0 
-0.31518000131458729 -0.15220429235839483 0.30156163693294447 
-0.5789123120174996 -0.061873495540584286 0.55978846481610278 
-0.34359236433464552 0.48688489143623948 -0.23088547789202113 
0.74423645231140645 -0.62558058318862664 -0.75068646939606398 
0.14209935353373995 -0.14429150416845249 -0.064967994126459996 
0.20480770539802073 0.066640864391343466 -0.24109632700544001 
0.1887635417430332 -0.22244451264115622 0.08237007976136583 
0 0 6.7963192505711053e-18 
-0.11976134962060454 -0.13411999732614194 0.32603159792420183 
-0.31690895388923285 0.075401982571607074 0.030638463748184158 
-0.25306590977490329 0.30157758185301831 0.15743121476663141 
0.41443745034521723 0.73001162552476906 -1.1803459313148992 
0.27941858462911956 -0.39789538314726047 0.13448493504297823 
0.26849456024157775 -0.6873046286041451 0.286860966471853 
0.28453252482905533 -0.28681673291049753 -0.38044173982131774 
-0.16554987952656253 0.76196941904599891 -0.67071356516139613 
-0.14954327778160828 0 0.23995967328311951 
-1.1983570479922228 0.3600031396392861 -0.51764653320506404 
0 0 0 
0 0 0 
-0.14954327778160828 0 0.23995967328311951 
-0.14954327778160828 0 0.23995967328311951 
-0.14954327778160828 0 0.23995967328311951 
-0.14954327778160828 0 0.23995967328311951 
0 0 0 
0 0 0 
0 0 0 
-0.41133343183515392 0.99529941933571986 -0.65441722606148112 
-0.018052320608908573 0.40096942529018148 -0.056554990607442776 
0.80529489515246799 -0.51086322410973473 -0.82655389797342749 
-0.23779546946772942 0 0.13272564416071025 
-0.11344079822023166 -0.1508702197142481 0.039891145885504249 
-0.018052320608908573 0.40096942529018148 -0.056554990607442776 
-0.11328187966011288 0.86460191051385271 -0.31495385349039151 
0.16108445891017922 0.09835441194115338 -0.20234842745172421 
-0.018052320608908573 0.40096942529018148 -0.056554990607442776 
-0.74650070999568852 0.039453630983118292 0.8920765395067709 
0 0 -2.7185277002284421e-17 
0.13877447818877356 0.22332137235659541 -0.51333210568193732 
0 0 0 
-0.43823208990423407 -1.0263114371010835 0.68606951860122334 
0 0 0 
0 0 0 
-0.3565976497208535 0.8204168111436777 -0.64132820167099569 
-0.24338389846279113 -0.039675651365178463 0.35124652698836739 
0 0 0 
0.32079050890610861 0.099474220983746503 -0.36550275334828386 
0 -0.31085881427457163 1.0393230034488015 
0.35774983052824272 -0.06555008386656043 -0.47150483208439609 
1.0790425690262349 0.28373976739630513 -1.0097146634811955 
-0.025582816215005241 0 0 
-0.52900519265947166 0.045768050215043592 0.37469578984465934 
-0.27396360522670138 -0.37043240302222963 0.32941393125192703 
-0.05123018039465816 -0.019832082336295312 0.36299447034283977 
0 0 0 
-0.025582816215005241 0 0 
0 0 0.11900765425437167 
0.13323590678972894 0 -0.032602961201394373 
-0.25796208800105386 0.13945667089811542 -0.27438658340049749 
0.46473998966624042 -0.69952354090506186 -0.21538935737638215 
0 0 0 
-0.83484334240863201 -0.02988383864368338 0.80775819652287029 
0.02703787044287646 -0.096904752957342605 -0.035105638596648406 
0.32832503813198771 -0.054523332720710992 -0.36047504287495713 
0 0 0 
0 0 0 
0.43467445161227947 0 -0.68674138711623389 
1.2285711894853042 -0.92422950140678373 -0.4803734637205766 
0 0 0 
0 0 0 
0 0 0 
0.80204506393180919 -0.31272660039103728 -0.77700886864418373 
0.51890047707516096 0.13813321708497944 -0.67588510619858611 
-0.085781478820110654 -0.23277510436644519 0.24583506606422495 
-0.14431535115310096 0.5119325463606772 -0.05468516708115103 
-0.40909778537832359 0.049299302340438472 0.61305144456421845 
-0.14431535115310096 0.5119325463606772 -0.054685167081151016 
-0.14431535115310096 0.5119325463606772 -0.05468516708115103 
-0.45311674954390563 0.13748213482319754 0.17489287135241119 
0.63363546252548353 -0.61729335317819789 -0.016211302846277944 
0.66639117394323955 -0.88514140898106719 -0.016211302846277944 
0.63363546252548353 -0.61729335317819789 -0.016211302846277944 
0.43433848238249051 -0.617293353178198 -0.056082098880760739 
-0.58818281019066398 0.30527362542961489 -0.14332362514572261 
0 0 0 
0 0 0 
0 0 0 
-0.68400687839331709 1.3871261056578272 -0.30838371443110968 
0.3029002260544702 -0.24288671797943467 -0.035920770399507848 
0.3029002260544702 -0.24288671797943467 -0.035920770399507848 
0.3029002260544702 -0.24288671797943467 -0.035920770399507848 
0 0 0 
-0.21976657480112052 -0.31700339369558023 0.10781481647562631 
0.3029002260544702 -0.24288671797943467 -0.035920770399507848 
0.3029002260544702 -0.24288671797943467 -0.035920770399507848 
0 0 0 
-0.070907609880651645 0 0 
0.07930071961654396 -0.80254014121524064 0.3309657817859899 
0 0 0 
1.3258369627446751 -0.70216080341883258 0 
1.6619346084422499 -0.70216080341883258 -0.76820174573065281 
0 0 0 
0 0 0 
0 0 0 
-0.57600850833479555 -0.29089384298864523 0.47053853299165854 
-0.10847617422477156 0.18110345572473641 -0.058239095825642156 
0.69364883779094388 0.071567689694936418 -0.3561218070538511 
0.5308866517276204 0 -0.52130376620242469 
0 0 0 
0.14848720375367538 -0.45083704901391297 0.024553578433535551 
-0.077735994545816534 -0.016359094166582971 0.16510979734111472 
0.27968863542051825 0.40589843003312381 -0.43469621345967385 
-0.077735994545816534 -0.016359094166582971 0.16510979734111472 
-0.077735994545816534 -0.016359094166582971 0.16510979734111472 
0.060128473297425426 -0.10496086848765615 -0.0069580466060037193 
-0.46179098359669862 0.52481774262650305 0.087423699935139695 
0 0 0 
-0.077735994545816534 -0.016359094166582971 0.16510979734111472 
0 0 0 
0 0 0 
-0.24579380971768514 0 0.33441396359221293 
0.065571948098110705 0 -0.16368049665193532 
0 0 0 
0 0 0 
-1.706036876295951 -0.24133991832453663 1.7616884970192082 
0.49392963292873066 -0.096596284260408241 -0.4015018817280771 
-0.64971352708257935 0 0.57308106721773666 
0.034144435615224844 -0.70575062840589842 0.054044178142686632 
-0.64971352708257935 0 0.57308106721773666 
0.041612189616155384 -0.2229085259817889 -0.27588035819101558 
-0.28747723564016853 -0.083180946031054678 0.27644648765039542 
0 0 0 
0 0 0 
-0.14273468233602052 0.37468218623534139 -0.22712272515171528 
0.50060496323751336 -0.25001314743152114 -0.54451830220498076 
0 -0.20755512319680913 0 
-0.21400514430784437 0.12444686703834769 0.20700005745379049 
0 0 0 
0.20707089199043049 -0.62306709403500105 -0.10718675330106142 
0 0 0 
0 0 0 
0 0 0 
-1.4006844525024056 0 1.5482141634450699 
0 0 0 
0 0 0 
0 0 0 
0 0 0 
-0.56559499762050536 -0.24016869877848923 0.65975621072145396 
0 -1.1148479781652474 0.1821120807873218 
-0.46560032358410569 -0.4575536637990823 0.86348202983793387 
0.23901338824608034 -0.49534522704045264 0.0021647827056588032 
-0.4656003235841058 0 0 
-0.0097394186010737703 0.12026153636439327 0.075716829565349184 
0.8008234505092513 -0.073579236393164965 -0.69994343930010638 
0 -0.56644127842394587 0.14396815950216937 
-0.18297940996476705 -1.3877787807814457e-17 0.40228733558285312 
-0.42636231579299294 -0.015448411605611291 0.23241780592057587 
0.5384995347650261 -8.6736173798840355e-18 -0.75902849147616736 
-0.58931724791995899 -0.06897258386178004 0.8077341021317882 
0.41511499938081975 -0.42192431342316195 -0.61818833909199333 
0 0 0 
0.33853494702343806 0 -0.32214243030272388 
0.30524957632434041 0.1056266709440658 -0.37659775360354775 
0.070650885824853391 0.4900226843559613 -0.59707388886552615 
0.15972725163225654 0.059879818483527969 -0.183425792313264 
-0.86206964693521115 -0.28503883482794512 0.95577170329356342 
0.15972725163225646 0.059879818483527941 -0.18342579231326397 
-0.37963084317247786 0.338649160951357 -0.027100137351650393 
-0.23414991799432275 0.38439601341189517 -0.22037882925261787 
0 0 0 
0 0 0 
0.52889461310792563 -0.11934238096290305 -0.6522979896940565 
0 -0.27104552848052604 0.070197826250767398 
-0.68408024788007882 0.60283373835430099 0.13646604528373593 
0 -0.27104552848052604 0.070197826250767398 
-0.52877480945335764 -0.35691026862589814 0.55138854114691371 
-0.05306828139221316 0 0.16710727091933569 
-1.441478978944938 -0.111374939987961 0.93131356497891593 
0.46725075276040007 -0.051409437188542774 -0.20914842292513117 
-0.19187066728987659 0.082133157784527927 0.12499858712531248 
-0.05306828139221316 0 0.16710727091933569 
0.25768754204004191 0.22189055980537381 -0.44410874614065809 
-0.30889471778061439 -0.40192589157698433 0.28003434016015022 
0.81934302828146066 0.21310490016198372 -0.72638802548100845 
-0.05306828139221316 0 0.16710727091933569 
0 0 0 
-0.27734391330314334 -0.15650065275553676 0.32049542321394259 
0.3726388191244821 -0.60535603443539121 -0.12170561144642666 
-0.081944370792342888 -0.19961912354592498 0.26669265674223364 
-0.056988468949441332 0 0.05835041903123734 
0 0 0 
-0.03892406266199986 -0.23302500126860037 0.19370429197605701 
-0.057543398579013021 0.44090978996359775 -0.28603549692036989 
-0.5087534681583652 -0.052555773781240447 0.27790675301592244 
0.31358076680736696 0 -0.15713947457498703 
-0.056988468949441387 -0.16774292503532495 0.13451895285709714 
-0.036815778764743831 -0.22297867099985172 0.067088048300787684 
-0.41897475466872297 0.35428378642752889 0.16292014443950664 
0.55565391682492515 0 -0.51403080564045811 
0.55565391682492515 0 -0.51403080564045811 
0 0 0 
-0.011207091842785302 -0.18231572370212556 0.47219658245528601 
0 0 0 
-0.12690987174931764 -0.43621020425217044 0.25746262085778449 
0 0 0 
-0.40068999469069527 -0.48875183478760698 0.59732296617786851 
0 0 0 
-0.92561166367393577 0.87400898050180953 -0.14689033721358505 
0 -0.54254357471408343 0.58894160853947297 
0 -0.54254357471408343 0.58894160853947297 
-0.24991352539756728 -0.23856596022295951 0.42956489407846798 
-0.24991352539756728 -0.23856596022295951 0.42956489407846798 
-0.24991352539756728 -0.23856596022295951 0.42956489407846798 
1.8402156036591268 -0.2848365114712641 -1.5062940879805127 
-0.10190876477794557 0.073461412707315904 -0.030019057088604625 
-0.23918697207521497 -8.5868812060851951e-17 0.66492672046493717 
0 0 0 
1.3633208066033937 0.44378080338402054 -1.823472207172159 
1.722232674841925 0 -1.5062940879805127 
-0.60260719365452986 1.2188945928147479 -0.63844714342777464 
-0.61390275583186071 0.34093681995102937 0.48554660097068025 
0.01353520056226086 0.71699885727309942 -0.49624219473995201 
0.16623053835019397 -0.59133838381737736 0.036542991453587498 
-0.157907020521528 0.1666737597321083 0.0037431372978685485 
0.078532753938535732 0.69415091661325523 -0.6386394786651568 
-0.17948409043433819 0.48584805629916872 -0.036626033198254901 
0 0 -0.22668656444494037 
-0.079800577427941458 -0.25981715952867285 0.12395170971420709 
6.8035340453071919e-18 0.098143890153887928 -0.40309099197411247 
0 0 0 
0 0 0 
0 0 0 
0.091139683876089853 0.0089928906623820346 -0.19363432913068016 
0.14237342362912417 -0.21569435136385107 -0.13880942368480259 
0 0 0 
0.3138603676125814 0.076082337781301287 -0.35237823689962333 
-0.79148893751427274 0 0.90197893143020968 
0 0 0 
0 0 0 
-0.33529635310686118 0 0.548082504705106 
-0.33529635310686118 0.25580928057039798 -0.049708827616353458 
-0.86781252466110048 -0.22631920535294511 0.75017082842874305 
0 0 0 
0 0 0 
0 0 0 
-0.35199390117901264 0.27444318486829478 -0.20639164139509464 
-0.31696178120770063 0.17348491082667522 0.46390885650213642 
0.34380594468420289 -0.96777575585030395 -0.071519692561341622 
-0.35199390117901264 0 0.67684066852695035 
-0.81574898867014956 0.36132906292381267 0.25137747788572512 
0 0 0 
0.42511758163742969 0.027115193180331267 -0.37441566828358297 
0.29783575889909719 -0.099539696260844732 -0.2290784816584453 
0 0 0 
-0.25665551696744049 -0.14449741271872668 0.25178968899907289 
0 -0.1911043677726311 0.23485454310036255 
-0.4208997523590905 -0.58381377428317771 1.0412717768786883 
0.61812787253940593 -0.54478174651207378 -0.17961643301936089 
0.78556332368874071 -0.33961810625661154 -0.29986501092041273 
-0.31097217590822313 -0.088746250353717027 -0.2461845904120562 
0 0 0 
0.14796385509421922 0 -0.12568547614600115 
0 0 0 
0.14796385509421922 0 -0.12568547614600115 
0.51876681607031527 0 -0.30070354933502946 
-0.26742497779642571 -0.41367475888383792 0.26517592014567931 
0.61091064414073692 -0.04464807495709628 -0.6567177839772258 
0 0 0 
0 0 0 
0.14796385509421925 0 -0.1256854761460012 
0 0 0 
0 0 0 
0 0 0 
-0.7707417222222942 0.37053467843598425 0.11581419408321744 
0.35240178147317919 0.11699370576293738 -0.2203548333200043 
0 0 0 
0 0 0 
-0.2954447007479975 0.7034371640179542 -0.28616637710681492 
0.33999317396350642 -0.10483333113700607 -0.12738043894955708 
0 0 0 
0 0 0 
0 0 0 
0 0 0 
0.021711902549036034 -0.14297214026841643 -0.017069833431668797 
0 0 0 
-0.4472528864735989 0.86000182315353368 -0.72807901655818774 
0 0 0 
-0.35876059952927652 -0.0082921303231772436 0.53970378366165372 
0 0 0 
0 0 0 
0.24110597276578746 -0.29213005620713883 -0.16012339746360682 
0.14020507977508387 -0.44097395062187411 0.12946965995663928 
-0.43499435993579955 0.6967618585455071 -0.030159250826156548 
-0.34272915605857746 0.32763468592489298 -0.28993958050235979 
0 0.073603641210676043 0 
0 0.073603641210676043 0 
-4.3137197472042574e-05 0.017574924293263079 0.15984753813293237 
1.2363550507419518 0 -0.71870077908168106 
0 0 0 
0.37935410860236884 0.24310066283502427 -0.36588256112038314 
0.30213141922591208 -0.36693113401529065 -0.016038031947233949 
0.13722697363179992 0 -0.41142893356477533 
0.56886690915802718 -0.012522026986282794 -0.2195792322998146 
0.27964085481811546 0 -0.4114289335647755 
-0.20971919757148791 0 0.086306288343531601 
0 0 0 
1.000125038547458 -0.56373080491786642 0.10809847395020832 
1.2109338650843346 0.13432515522320437 -1.201311410589176 
0.49880524933021742 -0.2657950584398544 -0.30014310358238711 
-0.32780640373209996 -0.94010688569419565 0.82615977518928463 
-0.57982631171576482 -0.28934951406238885 0.049461942817163214 
0 0 0 
0 0 0 
-0.13459420872105729 -0.13646899732081219 0.08273995077667344 
0 -0.16407334980246033 0.13951782564306175 
-0.66108900009653992 0.086630330213626386 0.45143130217299365 
-0.21037035017121164 0.08094626945365245 0.031031854113778873 
0 0 0 
0.61871377355042267 0.21666692434374302 -0.55364350756982172 
-0.12547941994388981 0.082227673792126102 0.28740538224619122 
0 0 0 
0.15185443736482182 -0.24479591832291481 -0.048378252516049484 
-0.38317993537225925 0 0 
-0.36270610066311737 -0.40349718146372371 0.49003209937841724 
0.2405772678511662 -0.21647063409004086 -0.21162016295884786 
0 0 0 
0 0 0 
-0.50749990097233777 0.1166827431372723 -0.058362697391918794 
0.054781814988360725 -0.70445965977965275 0.13259529815460117 
-0.22045632736647161 -0.66310655878346947 0.32559233215074873 
-0.50749990097233777 0 0.18022693362738679 
0 0 0 
0.598012497686635 -0.75298915376694586 0.091101387475382531 
0 0 0 
0.019723688356223852 0.14598107441513516 -0.14541314041301268 
0 0 0 
0.087182388094345434 -0.16473490938277477 0 
-0.056132014562382024 0.44461172516825664 -0.12964064694258381 
0 0 0 
-0.11453028113722204 -0.059896470875359598 0.11605039270965449 
0.72205679494656538 -0.38588188441437687 -0.44351176772550976 
0.19928295542724003 0 -0.38679702679340788 
0.44292591744574439 -0.33786209636638781 -0.26838115790758971 
0 0 0 
-1.1341362895842211 0.27216731235058983 0.72909599910840417 
-0.18081652583849525 0.17132253498884248 0.28640842148157841 
0.55358728556457282 -0.14157942132328397 -1.7235540582043738 
0 0 0 
0.82271427505112282 0.014005402794379949 -0.71737357540341862 
-0.30166361172848133 -0.16035126564440352 0.40960913573632468 
-0.17876346766907189 -0.25918705118345919 0.1635341096513788 
0 0 0 
-0.30166361172848144 -0.14715872058357621 0.35773190622543427 
-0.37708403011110386 0.24169530576795442 0.1910453764086987 
-0.30166361172848133 -0.13540906554957602 0.35773190622543449 
0 0 0 
-0.10011471970324107 0.1971469241623828 -0.26020988208100931 
0 0 0 
0 0 0 
0 0 0 
-0.29167857565243827 -0.36184649090124921 0.56476314302621755 
0.077059020847153034 -0.20468368954749561 0.14841194951699563 
0 -0.14225165818299615 0 
0 -0.14225165818299615 0 
-0.54737894235152673 0.45085135868584642 0.12868091221799932 
0 -0.14225165818299615 0 
0 0 0 
-0.25640257038194497 -0.14225165818299615 0.32766674436382925 
0 -0.14225165818299615 0 
-0.45943364104024736 -0.11324129300822766 0.15615756654246818 
0 0 0 
1.4820342633348518 -0.39684907618669285 -1.1865463835384369 
0 0 0 
0 0 0 
0 0 0 
-0.18943612498964255 -0.017196900751944078 0.11350361265008745 
0 -0.61613135840465583 0.37352644187008244 
0 0 0 
0.62358524653129732 -0.57966970490459424 -0.60405798862167093 
0 0 0 
0.20919695456042275 -0.19609474382590991 -0.17589870522134488 
0 0 0 
0 0 0 
0 0 0 
0 0 0 
0 0 0 
0 0 0 
-0.030229330371182084 -0.69212047573980873 0.75368200732308133 
0 0 0 
0 0 0 
-0.39024443989637292 0.1423761092119189 0.07314865373302866 
0 0 0 
0.13121059525992732 0.19526763233426858 -0.35748608200453025 
-0.0073749953681947512 1.8670291242938259 -1.4151631649303287 
-0.050583390133446406 -0.53026248831069578 0.68880351131683304 
0.16734841627483096 0.13805273723877323 -0.52642161713362801 
0.18440991996761105 -0.2986298914961899 -0.2764377701674165 
-0.55292074531585778 0 0.58352349520101621 
0 0 0 
0.0072099690483630532 -0.14153616930446425 -0.030985848820005404 
-0.35341856758871154 -0.26375240318778381 0.49674216852128483 
-0.2179231477441399 0.077400163047980336 -0.031835091189185823 
-0.55292074531585778 0 0.58352349520101632 
-0.247243669762094 0.0058476545115857675 0.095983884164967309 
0.031630689191882416 0 0.11935517172146959 
-1.0608938758955708 0.25978288221631163 0.57071707082749357 
-0.025715279121685655 0 0.42431896702029265 
-0.0056820373932753108 0 0.4243189670202927 
0.075418921280046403 0.026184724390601516 -0.055885102406664139 
0.19353097995392596 0.051684325843103868 -0.14685724335971814 
0.49509608813066169 -0.59643810090304605 -0.36086668759719975 
-0.89125765567451298 -0.10721247676728732 0.61295882313172112 
0 0 0 
6.8035340453071919e-18 0 -2.3787117376998868e-17 
0 0 0 
-0.50005370710088148 0.30753748460816144 0.18718974088232374 
0.078290410068414681 -0.31363378982045265 0.049691540265076529 
-0.76081092788114479 -0.25479430923955027 0.57263253156201566 
0 0 0 
0 0 0 
-0.37524845575838256 0 0.36750973892107974 
-1.6197974654242271 0.28011324492017842 1.1516165259831925 
-3.146634495954576e-17 0.17108533249018817 0.042034267201606086 
0.53293292812932602 -0.27762307336442249 -0.055213492746131208 
0 0 0 
0.18053470557031143 -0.27956023384055234 0.12538249084822442 
0 0 0 
0.45691054635504125 -0.38458385279555563 -0.33015652531113099 
0 -0.032093168795635778 0 
0.53545065680802362 0 -0.55545923194448055 
0.53545065680802362 0 -0.55545923194448055 
-0.073081196322628342 -0.73433820530802019 0.026162165121028414 
-0.16815223416077016 -0.17838020660743156 0.17827881531245215 
-1.489262310178636 0.13762512886952075 1.0783277933471396 
0 0.42829728287764018 -0.98814101582549085 
-0.49498792228728378 0.34183615887554275 0.24795305639548912 
0 0 0 
0.11487405168890752 0.38229136791591145 -0.40172338475054981 
0 0.42829728287764018 -0.98814101582549085 
0 0 0 
-0.42953531037465259 0.43006005393143254 0.080707864533683088 
0 -0.15632558745996336 0 
-0.33593418302586886 -0.70196500561120123 0.63789533344346727 
0 0 0 
0 0 0 
0 0 0 
-0.44617326118989292 2.9490299091605721e-17 0.73853146678094239 
1.097676958719181 -0.60355556144615874 -1.3566438486410035 
0 0 0 
0 0 0 
0.34593634266073797 -0.13339683030549085 -0.15900011782840623 
0.34593634266073797 -0.13339683030549085 -0.15900011782840623 
0 0 0 
0 0 0 
0.0061144457715559012 -0.14493614815915634 0.11301446564249276 
0.34593634266073797 -0.13339683030549085 -0.15900011782840623 
-0.47720758326313101 0.10061770193005763 0.41412239432331377 
0.34593634266073797 -0.13339683030549085 -0.15900011782840623 
-0.48962294646397564 0.10598293428920139 0.14523796022474603 
0 0 0 
0.0061144457715559698 -0.14493614815915634 0.1130144656424925 
0.1371409958903016 0.49230534866222508 -0.3257630985533565 
0.34593634266073797 -0.13339683030549085 -0.15900011782840623 
-0.094914292224097821 -0.050886124342991265 0.26908956127560923 
0 0.05950251326191399 -0.059578125855397512 
0.18052529472651688 0 -0.032369367396307282 
0 0.05950251326191399 -0.059578125855397512 
0 0 0 
0 0.05950251326191399 -0.059578125855397512 
0 0.73603307924649031 -0.62574450728098929 
0 0 0 
0.56934269859849096 -0.13635448267154837 -0.57490365902616813 
0.20207835389958648 -0.048417904845437412 -0.072222130225588044 
0.35192824105851961 0.30427074742027738 -0.40443003831869667 
-0.27575284342300149 0.6374911453725266 -0.42000612804644943 
-1.0229419044830257 1.3327647650663936 -0.02529124746125282 
0.36483811356221479 0.25353930926187829 -0.4031355499868442 
-0.67718380076058404 0.67414377126373504 0.32874589133491594 
0.90495167183860803 -0.14964920361879241 -1.4760726014415744 
0.17528108916808269 0 -0.17593579980207727 
3.4017670226535959e-18 -0.2717742244310376 0 
-0.57145460768257517 -0.47393049981928009 1.0264319741321231 
0 0 0 
-0.32010597343896996 -0.37491597312524183 0.28645230016757406 
0 0 0 
0 0 0 
0 0 0 
0.16761086379669271 0.11822204390916115 -0.075271791043702518 
0.026745150336002721 -0.0067800168305689329 0.028354811158396047 
0 0 0 
-0.14563522640584131 0.77199868762106805 -1.2172366340205774 
-0.5176461394087456 0.12876019698576385 0.14693447152381456 
0 0 0 
0 0 0 
0.68531125731209719 1.0408340855860843e-17 -0.36850786229582466 
0 0 0 
0 0 0 
-0.64887725902430549 0.62236580145771503 -0.11734451807839534 
0 0 0 
0 0 0 
0 0 0 
1.1621210964543998 -0.61857267818556072 -1.012242179845056 
0.68297343728777893 -0.15680307817486633 -0.36832941842617012 
0.1670200777314523 0.52639120090881109 -0.52896205929592288 
0.16776173791153906 0 -0.092988593821611037 
-0.61495481171321398 1.0821086050280053 -0.21306983981826849 
0 0 0 
-0.41478304296196195 -1.1718490221966582 0.75186635585967077 
0 0 0 
0 0 0 
0 0 0 
-0.25670717309291441 0 0.20864076898558379 
0 0 0 
0 0 0 
1.2723556770230313 -0.52529875690009487 -1.4183895526227941 
-0.7088682369556486 3.4694469519536142e-18 0.95254733446063655 
-0.15638604058530087 0 0.11618673751497345 
0 0 -0.013298265483519634 
0 0 0 
0 0 0 
0.60256268041862815 -0.62114940365265703 -0.21974436386334445 
0 0 0 
0 0 -0.013298265483519634 
-0.082149540872072629 0.081131732593144587 -0.23043111885923248 
-0.22094754859924862 -0.35635534360386856 0.37779047079199751 
0.055916062317649937 -0.12476616443908009 0.010352822066993048 
0 0 0 
0.27260050001696817 -0.12668380628026876 -0.21994357485897265 
0 0.14657165662611424 -0.21611838779239445 
0 0 0 
-0.22986108358347035 -0.05553199686478346 0.27475357299587128 
0 0 0.24898666402933017 
-0.2887151128364675 -0.62913488742647905 0.83382196736971081 
0 0 0.24898666402933017 
0 0 0 
-0.21938944687478551 0.68651518857939553 -0.26958673412734641 
-0.15509256233620783 0.44616599629077763 -0.20901756711424341 
0 0 0 
0.022364144042222846 0 0.076903849204457878 
-0.12877460010450154 -1.7347234759768071e-17 0.44716018880522773 
-0.92926802266928721 1.5395008557360643 -1.1341188605158095 
-0.11920453835893104 0.018643578363689985 0.019093246641906602 
0.043136202612313199 -0.12414378630699141 -0.024280703220010243 
-0.14510373541681112 0.70027315699820902 -0.52124796971137921 
0 0 0 
0 0 -0.13974844196058095 
-1.6720545093898678 1.9418511578657509 -0.91819084906238257 
-0.31221134494322222 0.99749508920036245 -0.52252921473585723 
-0.014675979798983213 0.56718091276174343 -0.7518656698496422 
0 0 -0.13974844196058095 
0 0 0 
0.46664492764139931 0 -0.46014604159296207 
0 0 0 
-0.36141883547729015 -0.22484096624921654 0.50457426731074173 
0.46664492764139931 0 -0.46014604159296207 
0 0 0 
0 0 0 
-0.29767314590193134 -0.1646460450718587 0.1400887618578722 
0 0 0 
-0.40370269056691538 -0.2916136651005744 0.33735809379700149 
0 0 0 
-0.035182174113238644 0.036614272880157797 0.071691099082896281 
-0.58827051993374446 -0.098397238145241997 0.61213758693147402 
0 0 0 
-0.36232269216303664 -0.41878110107204003 0.70825425582727819 
-0.11521405148170479 0 0.0060776809029519001 
-0.30696559963770192 -0.54995764373706635 0.5296475780411648 
-0.11521405148170479 0 0.0060776809029519001 
-0.11521405148170479 0 0.0060776809029519001 
0 0 0 
-0.436477671200589 -0.017189192894979832 0.53151826243512956 
0.99970810962385193 -0.69525325249948766 -0.8530611729062525 
-0.044471615069489955 -0.61926862079445166 0.2353144916521771 
0 0 0 
-0.084409139791207149 -0.39327118339770728 0.18235643162638931 
-0.33822422771670602 -0.37849431440255721 0.25566246140400167 
0 0 0 
0.16966320753649655 0.49497777079754224 -0.38164600614590549 
0.33433490300130286 -0.21558248431376578 -0.44483376034155003 
0 0 0 
0 0 0 
0 0 0 
-0.49765232199202891 -0.3720503007874631 0.67233779094983226 
0.22576600663780744 -0.19294934397566788 -0.11637307131730815 
-0.33803659210176823 0.21777778444451262 0.097348303363240407 
0.36502851055435093 -0.27454897257349792 -0.33242477083050603 
-0.83390295610036858 1.3877787807814457e-17 0.63864976402353713 
0 0 0 
-0.2666882161277061 -0.4460416922375855 0.49485452757179527 
0.194258266010055 -0.63671550218480599 0.66950171856048046 
0.37047486715287731 -0.25313405312628356 0.070798034151301467 
-0.20306691138199945 -0.0099637950835369769 0.194444314258991 
-0.58409259984795447 0.091080017301223809 0.44135726762407734 
-0.32116680388859181 -0.041887938440182883 0.35417899153021304 
-0.18518251364414948 0.84138303920812807 -0.91477039064597543 
-0.40970180092344721 0.29366748308025525 0.27870706969321579 
0 0 -0.060691147296988247 
-0.63764854131999427 -0.18433196533801652 0.63920288271228165 
-0.70444055006254314 0.095138786358754515 0.22082606684856329 
0 0 0 
0.53306882681977841 0.058149541427164407 -0.64511436618168061 
-0.12196352472016193 0.29366748308025536 0 
0.68553996360432257 0.29366748308025542 -0.7789024581870776 
0.034650125112049186 1.1956237973589605 -1.1457406969877475 
0 0 0 
-0.18309148462275543 0 0.18419445718553651 
-0.13181033619201604 0.18082738914494309 0.018478413007196375 
0.60322665184566404 -0.057426363489161934 -0.44884244333453521 
-0.18309148462275543 0 0.18419445718553651 
-0.0017541047876393867 0 0.0067040428522716373 
-0.27839305652960483 -0.40561031657157914 0.46728932825899255 
-0.39167366251888613 0.36214038724885678 -0.16093727227873081 
-0.19404336446527318 0 0.49773555274863757 
-0.20614765084208633 0.026322872169310729 0.41576519297157222 
0 0 0 
0.71945986424338537 -0.062734842753944156 -0.67882525975294639 
-0.51971056786649383 -0.11191508746778256 0.43428103050511468 
0.088480135659277245 -0.11406102641698811 -0.0756106946783731 
-0.19392902574980039 0 0.23395629982319416 
0 0 0 
-0.66339508465857433 -0.083764711384118756 0.74373927999985345 
0 0 0 
0 0 0 
0 0 0 
0 0 0 
-0.10339680862503267 -0.39825261020092168 0.55201905707083765 
0.17675802722004219 -0.54034855950169103 0.13911574461656109 
-0.14257062881278132 -0.33165306193451777 -0.023044314129596552 
-0.91638014173109705 -0.018815089583252922 0.71692191336200561 
0 0 0 
0 0 0 
0 0 0 
0 0 0 
0 0 0 
0.29823370734423993 -0.30081123091055917 0.30218633629977953 
0 0 0 
0.3191359098826661 -0.19325404256095127 -0.41635712597729069 
0 0 0 
0 0 0 
0.50693407120356782 0.27768231655262859 -0.39694726509506745 
0 0.99254375418867835 -0.97270668695102636 
0 0 0 
0.90723249244017767 -0.00011656797555521464 -1.3122969906941002 
0 0 0 
-0.1097429006674796 -0.22217213121094742 0.24834914794626309 
0 0 0 
-0.15409798571026415 0 0.11135870153756446 
0 0 0 
-0.1097429006674796 -0.22217213121094742 0.24834914794626309 
0 0 0 
0 0 0 
0 0 0 
0 0 0 
0 0 -0.078052904808353682 
0 0 -0.078052904808353682 
-0.17779539274688422 -1.0317087059426107 0.25546186961266359 
0 0 -0.078052904808353682 
0.36298166364426715 0.037408920079072011 -0.55255000762598627 
-0.10075482565176606 -0.13700954935648624 0.23610166852035136 
0 0 -0.078052904808353682 
0 0 0 
0 0 0 
0.54768663711998467 -0.0047325919919260773 -0.20560042639268719 
-0.11776530617434749 -0.43977419071104412 0.75170294053360132 
-0.03701314410006952 -0.43977419071104407 0.75170294053360132 
0 0 0 
0 0 0 
-1.1414361649206741 0 0.92659578646471208 
0.13609186036077311 -0.091973680862603366 0 
0 0 0 
0 0 0 
0.13609186036077311 -0.091973680862603366 0 
0.24198817456249544 0.38399466631848433 -0.4486644357060825 
0.081385553532027047 0.0041776309269864129 -0.060365939245303799 
-0.42069438005019155 0.25281423689769145 0.10507378944471658 
0 0 0 
0 0 0.25902548396689762 
0 0 0 
0 0 0 
-0.34075394141634113 -0.48330349190990446 0.47319226930965913 
-0.64295669031974911 0.0010502652405629531 0.49355524851270066 
0 0 0 
-0.29327470432378183 0.30922477446355057 0.10819583294246711 
0 -0.18064760221250728 0 
-0.18749149313892402 -0.42744296380402136 0.33920131771533329 
0.06358408003540103 0.025397733250405362 -0.2216151663141549 
0 -0.38993287312830582 0 
0 -0.38993287312830582 0 
0 0 0 
-0.36630605490629575 -0.045746852460537828 0.37272234674818461 
-0.14536543717537795 -0.045746852460537814 0.19332157722197912 
0.89690980681902188 -0.17288382776522901 -0.63510357155776631 
-0.14536543717537795 -0.045746852460537814 0.19332157722197912 
0.38607249921729248 0.22086942453348635 -0.3982990080678811 
0 0 0 
-0.75429400610975206 -0.11345768139896209 0.55403528877984032 
0 0 0 
0 0 0 
0 0 0 
0 0 0 
0 0 0 
0 0 0 
0 -0.57839274430459053 0.69981759738791627 
-0.18831998483738355 0.53195484542098659 -0.34105405359741003 
-0.11140574524710778 -0.2041828191703825 0.26440754460099192 
-0.11140574524710778 -0.2041828191703825 0.26440754460099192 
-0.11140574524710778 -0.2041828191703825 0.26440754460099192 
-0.11140574524710778 -0.2041828191703825 0.26440754460099192 
-0.11140574524710778 -0.2041828191703825 0.26440754460099192 
-0.22304898392832098 -0.11722905741491041 0.11355740121033624 
0.35280849668540015 0.37246677001458345 -0.43562344934498964 
-0.11140574524710778 -0.2041828191703825 0.26440754460099192 
0 0 0 
-0.34929068706797134 0.34571159155109321 -0.017750761272119376 
0 0 0 
-0.47701567014333385 0.37857769352017689 0.16395998380471319 
-0.16171055906585274 0.29762932824461413 0.11151620171926264 
-0.34929068706797134 0.34571159155109321 -0.017750761272119376 
-0.34929068706797134 0.34571159155109321 -0.017750761272119376 
-0.34929068706797134 0.34571159155109321 -0.017750761272119376 
0.29750075242004054 0.087313468023324514 -0.23328523266795048 
-0.0014479108135049489 -0.20210235106924807 0.11346034158305748 
-0.39957069521518374 0.59785744905493488 -0.12721717238542213 
-0.41750195493225262 0.18886827636367004 0.37971801381207404 
0 0 0 
0 0.59785744905493532 -0.63956797145504574 
0.026760281040145748 0.4655914980271782 -0.63956797145504574 
0 0.59785744905493532 -0.63956797145504574 
0.10529386799185872 0 0 
0 0 0 
0 0 0 
0.77946060559436658 -0.2861531274844723 -0.87981758150496259 
0 0.42624571463339866 -0.36692462583669516 
0.24052872900961822 0.33363652875582872 -0.35562899073631082 
0.31408825142595659 -0.10547520063602125 -0.36692462583669516 
0 0.42624571463339866 -0.36692462583669516 
0 0 0 
0 0 -1.3592638501142211e-17 
0 0 0 
0.45161216300259827 0.17973578172854904 -0.27453378403891909 
0 -0.17645605820761751 0.23109123115693267 
-0.16040356074213938 -0.43284320617871641 0.5394292338008857 
0 -0.17645605820761751 0.23109123115693261 
0.37809127071032506 -0.17645605820761751 -0.25068638124436443 
1.1002828737552286 -1.0657227778463225 0 
0.48480192059269872 -1.0657227778463225 0.14348943890640137 
0 0 0 
0 0 0 
0 0 0 
0.54775134294092398 -0.70318816799703687 0 
0 0 0 
0.13613208823540776 -0.16404919065867321 -0.21442690665082426 
-0.57973396639163322 0.023168670226644067 0.3081061004085866 
0.15756978119454818 -0.13350792170872433 -0.25865263885529016 
0.32465786367942973 -0.70318816799703687 0.04894688265811159 
-0.097498577753460852 1.3108123186076057 -1.1308726796007547 
-0.55448468893450809 0.25077085531231302 0.36586744960699635 
0 0 0 
0 0 0 
0.29694995842037497 0.45084950969772802 -0.66042414160269547 
-0.090236199531865444 0.078705787611413308 -0.0053114198860602308 
-0.090236199531865444 0.078705787611413308 -0.0053114198860602308 
-0.33501426786654837 0.057076015290885157 0.23503266059567038 
0 0 0 
0 0 0 
-0.33580026294387638 0.41652264409817569 0 
0 -0.048641494128023328 0 
0 0 0 
0.54606232261401788 0.016832135920615693 -0.6013241164558808 
0.11513746088879147 -0.54355677449718365 0.11353626698908462 
-0.65318143650332472 -0.56442736561695583 0.76431519900903466 
-0.021352640882999509 0.2071387915307038 -0.093836365403923025 
0 0 0.0043416674997488183 
0 0 0 
-0.11721940415823878 -0.1586778083847859 0.13018910497527564 
0.11634302011780423 -0.43909438961602731 -0.15101002362919952 
0 0 0 
-0.62618579327481272 -0.22582456905094961 0.99040022303116293 
0 0 0 
0 0 0 
0.4921759475997261 0 -0.0644172896871964 
0.16050245461987606 -0.040650358210793873 -0.024461788002399776 
0.79918523993025981 -0.061900708581160854 -0.48503003943362977 
0.22979106785515319 0 0.10107213086893192 
0 0 0 
0 0 0 
0 0 0 
-0.94742910468296571 0 1.1421145993544961 
0.88065183474355091 -0.044960267211463581 -1.2340755910457097 
0.44776302331660861 -0.31752489860042993 -0.38286584904340815 
-0.78928041192870801 -0.053666700671841504 0.83436819678695739 
1.174692805533563 0 -1.4958325042473515 
0 0 0 
0 0 0 
0 0 0 
-0.082773400547688086 -0.074750703703634985 0.19276191098684675 
0.065508200490254034 -1.7347234759768071e-18 -0.10536540390495579 
0.06550820049025409 -6.9388939039072284e-18 -0.10536540390495568 
-0.13460430425697234 -0.25278888945732625 -0.035686012824656853 
0 0 0 
0.032822115657967263 0 -0.052546788208064812 
-0.41692707714740002 -0.18164885817215817 0.82967256745915663 
0.30829895436951321 -0.15967284668889734 -0.03695664936751282 
0.16622573987237449 0.39146171788662226 -0.61212537180133908 
0.65035652172365521 0.26098226944535219 -1.0659901528140159 
0 0 0 
-0.76406550714120391 0.086429599625873585 0.80934835365339775 
-0.41692707714740002 -0.18164885817215817 0.82967256745915663 
0 0 0 
0.20804035477972085 0 -0.17330468531498919 
-0.1727797558652665 0.29344451356283324 -0.19410866072626315 
0 0 0 
-0.060973581507916659 0.68293498549128395 -0.63384539098236858 
0 0 0 
-0.067251856292152162 -0.14090805288606575 0.055692380365163871 
-0.060973581507916659 0.68293498549128395 -0.63384539098236858 
1.5106761163503528 -0.046741982545696843 -1.612960450598832 
0 0 0 
0 0 0 
-0.24253735874200871 0.099058068506603064 0.28787664418286868 
0.29085915735054879 -0.50750534201161879 -0.028765982625782623 
0 0 0 
0.19339642268024418 -0.25188567602808248 0.042509122342137551 
0.38191574603249001 0.61042002409192242 -0.71226783972285024 
0 -0.36651263287652974 0.2760218460560831 
0.70126018508317323 -0.24869914071013163 -0.45750358664603707 
-0.40459296897072444 0.066347161259845647 0.4661942365884626 
0.96751895324213488 0 -0.66135506902110874 
0.5596857840651851 -0.16069787812780148 -0.42997826742920714 
0.17439474332144519 -0.13650591731673234 0.0086755680331111595 
-0.52548355496387666 -0.42191476989344967 0.49265094657528624 
-0.24177967616971505 -0.27846357680533568 0.26009441993190613 
2.2674907457418332 0 -2.3177429774802651 
-1.4404794555733036 0.25318711889785228 1.3376419948261631 
0.010524688108282273 -0.56379992522261535 0.14552557481150286 
-0.089329941241136759 0.68970156562593565 -0.78628416378357158 
0.30197937964396349 -0.11253577144062708 -0.05318147443715663 
-0.49189233335281218 0.33924984893850485 0.7981379887319584 
0 0 0 
-0.0051692275969712261 -0.18264014579114815 0.16022753192133399 
-0.089329941241136759 0.68970156562593565 -0.78628416378357158 
0.3023743486423533 0.32723477554030744 -0.54354792906646865 
0 0 0 
0.11378491250973888 -0.24631398952559466 0.029560880621453577 
1.5626254754191966 -0.70430111515038762 -1.5454558710914756 
0 0 0 
0.13936034894304336 0.22416958065642831 -0.46438310928245752 
-0.38875887058480241 -0.26523013853433036 0.44256907026735903 
0 0 0 
-0.68255427772572497 -0.055193166601884502 0.60301282282597046 
-0.13797124562741772 -0.22870741323739799 -0.11464391059894098 
-0.25407888309456239 -0.095062522276734354 0.27070948528809446 
-0.1787184964843852 0 0.27815220288559478 
-0.672173922349382 -0.88598231489502066 0.79198112882886296 
0 -0.097448684851926481 0.065030591330485332 
0 -0.097448684851926481 0.065030591330485332 
0.00027912942361532959 0.50099422854929843 -0.61760544634904246 
-0.63666381465131583 -0.27625696897000274 0.81606195120070668 
0 -0.097448684851926481 0.065030591330485332 
0.25549542106238221 -0.47168841038823822 0.2652938363945781 
0 0 0 
-0.064100556311368601 -0.145418192369207 0.30917027588109303 
0 0.49859204563652043 -0.55758141107850112 
0 0 -0.3119080498963816 
1.3966342902537945 -0.44882066219042965 -1.2398461086450345 
0.12125866300178795 -1.5940289931583704 0.55448035488636904 
0 0 0 
0 0 0 
0 -0.16931102517270902 0 
-0.92181831538596204 -0.03429236470971235 1.0032011008524908 
1.0221044000937844 0.76439850235856677 -1.6356090312604286 
0 -0.034292364709712336 0.16055676417653875 
0.28279820440060899 -0.83673774629193376 0.2600149552509301 
0 0 0 
-0.0051692275969712192 -0.18264014579114815 0.16022753192133402 
-0.0051692275969712261 -0.18264014579114815 0.16022753192133399 
-0.0051692275969712261 -0.18264014579114815 0.16022753192133399 
-0.39919728695533707 1.0786231308239587 -0.37264415224590264 
0.31231529063370334 0.28266198041980523 -0.27926553798782844 
0 0 0 
0.71707409330019378 -0.24827992890972375 -0.48359143488658091 
-0.10641359841097056 0.94152437957336965 -0.57942603863450115 
-0.5690314684264981 -0.51134282732324876 0.65232703493278499 
0.09618277338604779 -0.21486477880386751 0.25916719492680318 
-0.053206799205485281 0.47076218978668483 -0.28986254607143935 
-0.212722665993512 0.63977725943960595 -0.30048208172790947 
1.6647608877422251 -0.77582938396398426 -1.4825506193396254 
0.94753021178885033 -0.34061918527866297 -0.58209266762036371 
0 0 0 
-0.28141989968141645 -0.3988347981469676 0.087827930482865718 
0 0 0 
0.07813196424535522 -0.42711076168889434 0.32772445862819682 
0 0 0 
-0.35136251452474176 -0.26091635416584102 2.360607454335685 
0 0 0 
0 0 0 
0.96772374900309821 0 -1.4850480982795964 
0 0 0 
0 1.3682864508737578 -1.2036399456166273 
-0.11487478922478084 0.17160368408064949 0.27443277905120639 
0 0 0 
0.3462299608186592 -0.15089492674029167 -0.28031706371861986 
0 0 0 
-0.54253734734027315 -0.13587444376440486 0.55417167643681742 
-0.68189949158301499 -0.024941380791389564 0.70541620663628024 
-0.9863470562943758 0 0.80611253161201724 
-0.27203950318173176 -0.026502833628518425 0.38966486775156334 
-0.47598387472143533 -0.026502833628518425 0.45223563997364069 
0.52784007633749819 -0.082101960821990588 -0.20962887075550005 
0.8243464073778729 -0.026502833628518453 -0.4926771695489145 
-0.47598387472143533 -0.026502833628518425 0.45223563997364069 
-0.076823173312608461 0.054311666229720633 -0.0046818480288603383 
0.068288481831626072 -0.026502833628518411 -0.021591224030523316 
-0.13417534788981908 -0.68137453319495034 0.32732248203120862 
0.05409234668932044 0.84035648505690896 -0.40982416644198338 
0 0.052566909833139268 -0.060765464191121478 
0 0 0 
0 0 0 
0 0.052566909833139268 -0.060765464191121478 
-0.094002196504710811 0.052566909833139268 0.24662782894835794 
0.14728117627701406 -0.29134688023907618 -0.063790590459820024 
-0.046865633477788313 -0.38339164635823042 0.17571930221968909 
0.21880193220774258 -0.38372982499911101 -0.11441721740238604 
0 0 0 
-0.45228436093020835 -0.45049644320642701 0.40479558056389037 
1.9591055977097529 -0.074383853620096294 -1.6956795833281382 
0.88637973828876082 0 -0.64896937697572921 
0.88637973828876082 0 -0.64896937697572921 
0.49377215646142569 0.2422227270822728 -0.45729198515272995 
-0.15178862007849406 0.25567298556762963 -0.024211749848084198 
0 0 0 
-0.19043472677864604 -0.68164509853730382 0.31571075526614284 
0.071698423265611821 0 -0.29727759810321497 
0.071698423265611821 0 -0.29727759810321497 
-0.33421109690226469 -0.53691409049891803 0.56652955673310756 
-0.03268720802967575 0.07281948079792383 -0.051277559122885646 
0.071698423265611821 0 -0.29727759810321497 
0.30668302159446997 -0.034107952006462515 0.01432765091130756 
0.036063705801384391 0 0 
-0.026032809878395347 0.37239268447722529 -0.69676451697188424 
0.49349537411995559 -0.36185838438523327 -0.44269547531275832 
0.025028232334094899 -0.1234625198694884 0.35285485619997137 
0.036063705801384391 0 0 
-0.93042178792088837 0.31885699612421653 -0.059539140477811239 
1.0775054184514756 -1.3877787807814457e-17 -1.2893554137931882 
-0.23551258905181999 -0.1595610166488696 0.46647668327593611 
0 0 0 
-0.095501213417371403 0.46363248522367079 -0.2583795791559641 
0.43072393506954426 -0.15956101664886962 0.14192583962681446 
0.0019322293477965751 -0.15956101664886962 0.52933347037941347 
-0.12862113909122946 0.70172973660855398 -0.22384566246802232 
-0.49025616649156084 0.019978721096622631 0.4343313260926302 
0.18699226894906906 0.35723846454685348 -0.77790615524697404 
0.37746182774847353 -0.020063503178226604 -0.42995007108632732 
-0.39215748633484548 -0.55299761245777235 0.71995974015288877 
0 0 -0.016039916537979235 
0 0 0 
0.33620162337217602 0.88278814005709993 -0.71788285440455302 
6.8035340453071919e-18 0 0.14090109139763921 
0.31676330559756655 -0.64314038893405601 -0.0079796088072117931 
0 0 0 
0.043679907408278158 -0.2081103849431275 0.47400721655624195 
1.3607068090614384e-17 0 0 
0 0 0 
-0.64547768735428157 -0.38326319281354621 0.74655489553253873 
-0.72707397852476052 -0.17827776360215905 0.38042645602559216 
-0.65528149143500736 0 0.354585460214069 
-0.49878178274805851 -0.50333686957945067 0.63897848141509073 
0.1693475190375768 0.069649403306734553 -0.38838401153273505 
-0.2274071087544115 -0.14439966171740981 0.12404339996835437 
0.60336848969664236 0.36144203276091635 -0.62565417768548615 
0 0 0 
0.046562554683067983 0 -0.18928080086201768 
-0.22069472304883092 0 0.29381857474068368 
0.25814397084223362 0 -0.2713167347510177 
0 0 0 
0.054709777677429169 -0.6316279216625198 0.4164309568993031 
-0.28518397198898388 -0.35437468568256447 0.30619636184002585 
-0.73438467050244438 -0.74372240694421088 0.78926130960786967 
0 0 0 
-0.13394945419175486 -0.48944889095257832 0.52707314792973425 
-0.13394945419175491 0 0 
0 0 0 
-0.13394945419175491 0 0 
0 0 0 
0 0 0 
-0.65904846472305678 0.99148352694447206 -0.67878047905570671 
-0.73252358742163093 0.48094741431315846 0.11534870618571098 
-0.34010991008652863 0.25848498101674205 -0.047075301489658335 
0 0 0 
0 0 -0.11530606124226145 
0 0 0 
0 0 0 
0 0 0 
